digraph Tree {
node [shape=box, fontname="helvetica"] ;
edge [fontname="helvetica"] ;
0 [label="fs1wc13 <= 1.5\nentropy = 1.529\nsamples = 561\nvalue = [176, 256, 129]"] ;
1 [label="fs1wc3 <= 1.5\nentropy = 1.127\nsamples = 373\nvalue = [176, 189, 8]"] ;
0 -> 1 [labeldistance=2.5, labelangle=45, headlabel="True"] ;
2 [label="fs1wc1 <= 2.5\nentropy = 0.879\nsamples = 218\nvalue = [153, 65, 0]"] ;
1 -> 2 ;
3 [label="fs1wb1 <= 1.5\nentropy = 0.756\nsamples = 193\nvalue = [151, 42, 0]"] ;
2 -> 3 ;
4 [label="fs1wc6 <= 1.5\nentropy = 0.454\nsamples = 147\nvalue = [133, 14, 0]"] ;
3 -> 4 ;
5 [label="fs1wc16 <= 2.5\nentropy = 0.293\nsamples = 136\nvalue = [129, 7, 0]"] ;
4 -> 5 ;
6 [label="fs1wa4 <= 2.5\nentropy = 0.196\nsamples = 132\nvalue = [128, 4, 0]"] ;
5 -> 6 ;
7 [label="fs1ct2 <= 51.75\nentropy = 0.115\nsamples = 130\nvalue = [128, 2, 0]"] ;
6 -> 7 ;
8 [label="fs1ct2 <= 51.1\nentropy = 0.684\nsamples = 11\nvalue = [9, 2, 0]"] ;
7 -> 8 ;
9 [label="entropy = 0.0\nsamples = 8\nvalue = [8, 0, 0]"] ;
8 -> 9 ;
10 [label="age <= 52.5\nentropy = 0.918\nsamples = 3\nvalue = [1, 2, 0]"] ;
8 -> 10 ;
11 [label="entropy = 0.0\nsamples = 1\nvalue = [1, 0, 0]"] ;
10 -> 11 ;
12 [label="entropy = 0.0\nsamples = 2\nvalue = [0, 2, 0]"] ;
10 -> 12 ;
13 [label="entropy = 0.0\nsamples = 119\nvalue = [119, 0, 0]"] ;
7 -> 13 ;
14 [label="entropy = 0.0\nsamples = 2\nvalue = [0, 2, 0]"] ;
6 -> 14 ;
15 [label="q1b <= 176.0\nentropy = 0.811\nsamples = 4\nvalue = [1, 3, 0]"] ;
5 -> 15 ;
16 [label="entropy = 0.0\nsamples = 1\nvalue = [1, 0, 0]"] ;
15 -> 16 ;
17 [label="entropy = 0.0\nsamples = 3\nvalue = [0, 3, 0]"] ;
15 -> 17 ;
18 [label="fs1ct7y1 <= 122.5\nentropy = 0.946\nsamples = 11\nvalue = [4, 7, 0]"] ;
4 -> 18 ;
19 [label="entropy = 0.0\nsamples = 7\nvalue = [0, 7, 0]"] ;
18 -> 19 ;
20 [label="entropy = 0.0\nsamples = 4\nvalue = [4, 0, 0]"] ;
18 -> 20 ;
21 [label="fs1wc16 <= 1.5\nentropy = 0.966\nsamples = 46\nvalue = [18, 28, 0]"] ;
3 -> 21 ;
22 [label="fs1c5a <= 2.5\nentropy = 0.696\nsamples = 16\nvalue = [13, 3, 0]"] ;
21 -> 22 ;
23 [label="entropy = 0.0\nsamples = 12\nvalue = [12, 0, 0]"] ;
22 -> 23 ;
24 [label="q1b <= 334.5\nentropy = 0.811\nsamples = 4\nvalue = [1, 3, 0]"] ;
22 -> 24 ;
25 [label="entropy = 0.0\nsamples = 3\nvalue = [0, 3, 0]"] ;
24 -> 25 ;
26 [label="entropy = 0.0\nsamples = 1\nvalue = [1, 0, 0]"] ;
24 -> 26 ;
27 [label="fs1wc2 <= 1.5\nentropy = 0.65\nsamples = 30\nvalue = [5, 25, 0]"] ;
21 -> 27 ;
28 [label="fs1q4 <= 44.0\nentropy = 0.722\nsamples = 5\nvalue = [4, 1, 0]"] ;
27 -> 28 ;
29 [label="entropy = 0.0\nsamples = 1\nvalue = [0, 1, 0]"] ;
28 -> 29 ;
30 [label="entropy = 0.0\nsamples = 4\nvalue = [4, 0, 0]"] ;
28 -> 30 ;
31 [label="fs1c5a <= 1.5\nentropy = 0.242\nsamples = 25\nvalue = [1, 24, 0]"] ;
27 -> 31 ;
32 [label="entropy = 0.0\nsamples = 24\nvalue = [0, 24, 0]"] ;
31 -> 32 ;
33 [label="entropy = 0.0\nsamples = 1\nvalue = [1, 0, 0]"] ;
31 -> 33 ;
34 [label="fs1b1 <= 1.5\nentropy = 0.402\nsamples = 25\nvalue = [2, 23, 0]"] ;
2 -> 34 ;
35 [label="fs1c309 <= 1.5\nentropy = 0.25\nsamples = 24\nvalue = [1, 23, 0]"] ;
34 -> 35 ;
36 [label="entropy = 0.0\nsamples = 22\nvalue = [0, 22, 0]"] ;
35 -> 36 ;
37 [label="fs1c307 <= 1.5\nentropy = 1.0\nsamples = 2\nvalue = [1, 1, 0]"] ;
35 -> 37 ;
38 [label="entropy = 0.0\nsamples = 1\nvalue = [1, 0, 0]"] ;
37 -> 38 ;
39 [label="entropy = 0.0\nsamples = 1\nvalue = [0, 1, 0]"] ;
37 -> 39 ;
40 [label="entropy = 0.0\nsamples = 1\nvalue = [1, 0, 0]"] ;
34 -> 40 ;
41 [label="fs1wc5 <= 1.5\nentropy = 0.887\nsamples = 155\nvalue = [23, 124, 8]"] ;
1 -> 41 ;
42 [label="fs1wc16 <= 1.5\nentropy = 0.661\nsamples = 134\nvalue = [23, 111, 0]"] ;
41 -> 42 ;
43 [label="fs1a1 <= 2.5\nentropy = 0.983\nsamples = 26\nvalue = [15, 11, 0]"] ;
42 -> 43 ;
44 [label="fs1a3a <= 1.5\nentropy = 0.439\nsamples = 11\nvalue = [10, 1, 0]"] ;
43 -> 44 ;
45 [label="entropy = 0.0\nsamples = 10\nvalue = [10, 0, 0]"] ;
44 -> 45 ;
46 [label="entropy = 0.0\nsamples = 1\nvalue = [0, 1, 0]"] ;
44 -> 46 ;
47 [label="fs1d2z <= 1.5\nentropy = 0.918\nsamples = 15\nvalue = [5, 10, 0]"] ;
43 -> 47 ;
48 [label="fs1d1y <= 1.5\nentropy = 0.991\nsamples = 9\nvalue = [5, 4, 0]"] ;
47 -> 48 ;
49 [label="entropy = 0.0\nsamples = 4\nvalue = [4, 0, 0]"] ;
48 -> 49 ;
50 [label="q1b <= 98.5\nentropy = 0.722\nsamples = 5\nvalue = [1, 4, 0]"] ;
48 -> 50 ;
51 [label="entropy = 0.0\nsamples = 1\nvalue = [1, 0, 0]"] ;
50 -> 51 ;
52 [label="entropy = 0.0\nsamples = 4\nvalue = [0, 4, 0]"] ;
50 -> 52 ;
53 [label="entropy = 0.0\nsamples = 6\nvalue = [0, 6, 0]"] ;
47 -> 53 ;
54 [label="fs1wc6 <= 1.5\nentropy = 0.381\nsamples = 108\nvalue = [8, 100, 0]"] ;
42 -> 54 ;
55 [label="fs1wb1 <= 1.5\nentropy = 0.544\nsamples = 64\nvalue = [8, 56, 0]"] ;
54 -> 55 ;
56 [label="fs1ct1 <= 163.0\nentropy = 0.732\nsamples = 39\nvalue = [8, 31, 0]"] ;
55 -> 56 ;
57 [label="fs1a2b <= 2.5\nentropy = 0.267\nsamples = 22\nvalue = [1, 21, 0]"] ;
56 -> 57 ;
58 [label="entropy = 0.0\nsamples = 21\nvalue = [0, 21, 0]"] ;
57 -> 58 ;
59 [label="entropy = 0.0\nsamples = 1\nvalue = [1, 0, 0]"] ;
57 -> 59 ;
60 [label="fs1wc15 <= 1.5\nentropy = 0.977\nsamples = 17\nvalue = [7, 10, 0]"] ;
56 -> 60 ;
61 [label="entropy = 0.0\nsamples = 5\nvalue = [5, 0, 0]"] ;
60 -> 61 ;
62 [label="fs1c2y <= 34.5\nentropy = 0.65\nsamples = 12\nvalue = [2, 10, 0]"] ;
60 -> 62 ;
63 [label="entropy = 0.0\nsamples = 10\nvalue = [0, 10, 0]"] ;
62 -> 63 ;
64 [label="entropy = 0.0\nsamples = 2\nvalue = [2, 0, 0]"] ;
62 -> 64 ;
65 [label="entropy = 0.0\nsamples = 25\nvalue = [0, 25, 0]"] ;
55 -> 65 ;
66 [label="entropy = 0.0\nsamples = 44\nvalue = [0, 44, 0]"] ;
54 -> 66 ;
67 [label="fs1wc2 <= 2.5\nentropy = 0.959\nsamples = 21\nvalue = [0, 13, 8]"] ;
41 -> 67 ;
68 [label="entropy = 0.0\nsamples = 10\nvalue = [0, 10, 0]"] ;
67 -> 68 ;
69 [label="fs1wc7 <= 2.5\nentropy = 0.845\nsamples = 11\nvalue = [0, 3, 8]"] ;
67 -> 69 ;
70 [label="fs1wa3 <= 3.5\nentropy = 0.811\nsamples = 4\nvalue = [0, 3, 1]"] ;
69 -> 70 ;
71 [label="entropy = 0.0\nsamples = 3\nvalue = [0, 3, 0]"] ;
70 -> 71 ;
72 [label="entropy = 0.0\nsamples = 1\nvalue = [0, 0, 1]"] ;
70 -> 72 ;
73 [label="entropy = 0.0\nsamples = 7\nvalue = [0, 0, 7]"] ;
69 -> 73 ;
74 [label="fs1wc14 <= 1.5\nentropy = 0.94\nsamples = 188\nvalue = [0, 67, 121]"] ;
0 -> 74 [labeldistance=2.5, labelangle=-45, headlabel="False"] ;
75 [label="fs1wc2 <= 3.5\nentropy = 0.801\nsamples = 78\nvalue = [0, 59, 19]"] ;
74 -> 75 ;
76 [label="fs1wc10 <= 1.5\nentropy = 0.569\nsamples = 67\nvalue = [0, 58, 9]"] ;
75 -> 76 ;
77 [label="fs1c1f2 <= 3.5\nentropy = 0.139\nsamples = 51\nvalue = [0, 50, 1]"] ;
76 -> 77 ;
78 [label="entropy = 0.0\nsamples = 50\nvalue = [0, 50, 0]"] ;
77 -> 78 ;
79 [label="entropy = 0.0\nsamples = 1\nvalue = [0, 0, 1]"] ;
77 -> 79 ;
80 [label="fs1wa2 <= 2.5\nentropy = 1.0\nsamples = 16\nvalue = [0, 8, 8]"] ;
76 -> 80 ;
81 [label="entropy = 0.0\nsamples = 5\nvalue = [0, 5, 0]"] ;
80 -> 81 ;
82 [label="fs1wc8 <= 1.5\nentropy = 0.845\nsamples = 11\nvalue = [0, 3, 8]"] ;
80 -> 82 ;
83 [label="entropy = 0.0\nsamples = 3\nvalue = [0, 3, 0]"] ;
82 -> 83 ;
84 [label="entropy = 0.0\nsamples = 8\nvalue = [0, 0, 8]"] ;
82 -> 84 ;
85 [label="fs1a6b <= 1.5\nentropy = 0.439\nsamples = 11\nvalue = [0, 1, 10]"] ;
75 -> 85 ;
86 [label="entropy = 0.0\nsamples = 1\nvalue = [0, 1, 0]"] ;
85 -> 86 ;
87 [label="entropy = 0.0\nsamples = 10\nvalue = [0, 0, 10]"] ;
85 -> 87 ;
88 [label="fs1wc2 <= 2.5\nentropy = 0.376\nsamples = 110\nvalue = [0, 8, 102]"] ;
74 -> 88 ;
89 [label="fs1wc15 <= 2.5\nentropy = 0.964\nsamples = 18\nvalue = [0, 7, 11]"] ;
88 -> 89 ;
90 [label="fs1wb1 <= 2.5\nentropy = 0.946\nsamples = 11\nvalue = [0, 7, 4]"] ;
89 -> 90 ;
91 [label="fs1b10 <= 2.5\nentropy = 0.544\nsamples = 8\nvalue = [0, 7, 1]"] ;
90 -> 91 ;
92 [label="entropy = 0.0\nsamples = 7\nvalue = [0, 7, 0]"] ;
91 -> 92 ;
93 [label="entropy = 0.0\nsamples = 1\nvalue = [0, 0, 1]"] ;
91 -> 93 ;
94 [label="entropy = 0.0\nsamples = 3\nvalue = [0, 0, 3]"] ;
90 -> 94 ;
95 [label="entropy = 0.0\nsamples = 7\nvalue = [0, 0, 7]"] ;
89 -> 95 ;
96 [label="fs1wc12 <= 1.5\nentropy = 0.087\nsamples = 92\nvalue = [0, 1, 91]"] ;
88 -> 96 ;
97 [label="fs1q5 <= 3.5\nentropy = 0.918\nsamples = 3\nvalue = [0, 1, 2]"] ;
96 -> 97 ;
98 [label="entropy = 0.0\nsamples = 2\nvalue = [0, 0, 2]"] ;
97 -> 98 ;
99 [label="entropy = 0.0\nsamples = 1\nvalue = [0, 1, 0]"] ;
97 -> 99 ;
100 [label="entropy = 0.0\nsamples = 89\nvalue = [0, 0, 89]"] ;
96 -> 100 ;
}