digraph Tree {
node [shape=box, fontname="helvetica"] ;
edge [fontname="helvetica"] ;
0 [label="fs1wc13 <= 1.5\nentropy = 1.549\nsamples = 561\nvalue = [163, 247, 151]"] ;
1 [label="fs1wc3 <= 1.5\nentropy = 1.153\nsamples = 358\nvalue = [162, 186, 10]"] ;
0 -> 1 [labeldistance=2.5, labelangle=45, headlabel="True"] ;
2 [label="fs1wc1 <= 2.5\nentropy = 0.895\nsamples = 199\nvalue = [137, 62, 0]"] ;
1 -> 2 ;
3 [label="fs1wb1 <= 1.5\nentropy = 0.734\nsamples = 170\nvalue = [135, 35, 0]"] ;
2 -> 3 ;
4 [label="fs1wa4 <= 1.5\nentropy = 0.449\nsamples = 128\nvalue = [116, 12, 0]"] ;
3 -> 4 ;
5 [label="fs1wc6 <= 1.5\nentropy = 0.288\nsamples = 119\nvalue = [113, 6, 0]"] ;
4 -> 5 ;
6 [label="fs1wc7 <= 2.5\nentropy = 0.13\nsamples = 111\nvalue = [109, 2, 0]"] ;
5 -> 6 ;
7 [label="entropy = 0.0\nsamples = 109\nvalue = [109, 0, 0]"] ;
6 -> 7 ;
8 [label="entropy = 0.0\nsamples = 2\nvalue = [0, 2, 0]"] ;
6 -> 8 ;
9 [label="fs1wc2 <= 1.5\nentropy = 1.0\nsamples = 8\nvalue = [4, 4, 0]"] ;
5 -> 9 ;
10 [label="entropy = 0.0\nsamples = 4\nvalue = [4, 0, 0]"] ;
9 -> 10 ;
11 [label="entropy = 0.0\nsamples = 4\nvalue = [0, 4, 0]"] ;
9 -> 11 ;
12 [label="fs1a2b <= 2.5\nentropy = 0.918\nsamples = 9\nvalue = [3, 6, 0]"] ;
4 -> 12 ;
13 [label="fs1e3 <= 2.5\nentropy = 0.592\nsamples = 7\nvalue = [1, 6, 0]"] ;
12 -> 13 ;
14 [label="entropy = 0.0\nsamples = 6\nvalue = [0, 6, 0]"] ;
13 -> 14 ;
15 [label="entropy = 0.0\nsamples = 1\nvalue = [1, 0, 0]"] ;
13 -> 15 ;
16 [label="entropy = 0.0\nsamples = 2\nvalue = [2, 0, 0]"] ;
12 -> 16 ;
17 [label="fs1wc7 <= 1.5\nentropy = 0.993\nsamples = 42\nvalue = [19, 23, 0]"] ;
3 -> 17 ;
18 [label="fs1wa3 <= 1.5\nentropy = 0.963\nsamples = 31\nvalue = [19, 12, 0]"] ;
17 -> 18 ;
19 [label="q1b <= 284.0\nentropy = 0.755\nsamples = 23\nvalue = [18, 5, 0]"] ;
18 -> 19 ;
20 [label="fs1wc17 <= 1.5\nentropy = 0.98\nsamples = 12\nvalue = [7, 5, 0]"] ;
19 -> 20 ;
21 [label="q1b <= 263.5\nentropy = 0.544\nsamples = 8\nvalue = [7, 1, 0]"] ;
20 -> 21 ;
22 [label="entropy = 0.0\nsamples = 7\nvalue = [7, 0, 0]"] ;
21 -> 22 ;
23 [label="entropy = 0.0\nsamples = 1\nvalue = [0, 1, 0]"] ;
21 -> 23 ;
24 [label="entropy = 0.0\nsamples = 4\nvalue = [0, 4, 0]"] ;
20 -> 24 ;
25 [label="entropy = 0.0\nsamples = 11\nvalue = [11, 0, 0]"] ;
19 -> 25 ;
26 [label="fs1q3b <= 4.5\nentropy = 0.544\nsamples = 8\nvalue = [1, 7, 0]"] ;
18 -> 26 ;
27 [label="entropy = 0.0\nsamples = 1\nvalue = [1, 0, 0]"] ;
26 -> 27 ;
28 [label="entropy = 0.0\nsamples = 7\nvalue = [0, 7, 0]"] ;
26 -> 28 ;
29 [label="entropy = 0.0\nsamples = 11\nvalue = [0, 11, 0]"] ;
17 -> 29 ;
30 [label="fs1b10 <= 2.5\nentropy = 0.362\nsamples = 29\nvalue = [2, 27, 0]"] ;
2 -> 30 ;
31 [label="fs1b15 <= 1.5\nentropy = 0.222\nsamples = 28\nvalue = [1, 27, 0]"] ;
30 -> 31 ;
32 [label="entropy = 0.0\nsamples = 27\nvalue = [0, 27, 0]"] ;
31 -> 32 ;
33 [label="entropy = 0.0\nsamples = 1\nvalue = [1, 0, 0]"] ;
31 -> 33 ;
34 [label="entropy = 0.0\nsamples = 1\nvalue = [1, 0, 0]"] ;
30 -> 34 ;
35 [label="fs1wc8 <= 1.5\nentropy = 0.95\nsamples = 159\nvalue = [25, 124, 10]"] ;
1 -> 35 ;
36 [label="fs1wc16 <= 1.5\nentropy = 0.738\nsamples = 120\nvalue = [25, 95, 0]"] ;
35 -> 36 ;
37 [label="fs1q3b <= 9.5\nentropy = 0.996\nsamples = 28\nvalue = [15, 13, 0]"] ;
36 -> 37 ;
38 [label="fs1q3a <= 1960.5\nentropy = 0.902\nsamples = 22\nvalue = [15, 7, 0]"] ;
37 -> 38 ;
39 [label="fs1ct2 <= 66.9\nentropy = 0.918\nsamples = 9\nvalue = [3, 6, 0]"] ;
38 -> 39 ;
40 [label="fs1wc15 <= 1.5\nentropy = 0.811\nsamples = 4\nvalue = [3, 1, 0]"] ;
39 -> 40 ;
41 [label="entropy = 0.0\nsamples = 3\nvalue = [3, 0, 0]"] ;
40 -> 41 ;
42 [label="entropy = 0.0\nsamples = 1\nvalue = [0, 1, 0]"] ;
40 -> 42 ;
43 [label="entropy = 0.0\nsamples = 5\nvalue = [0, 5, 0]"] ;
39 -> 43 ;
44 [label="fs1wa1 <= 2.5\nentropy = 0.391\nsamples = 13\nvalue = [12, 1, 0]"] ;
38 -> 44 ;
45 [label="entropy = 0.0\nsamples = 12\nvalue = [12, 0, 0]"] ;
44 -> 45 ;
46 [label="entropy = 0.0\nsamples = 1\nvalue = [0, 1, 0]"] ;
44 -> 46 ;
47 [label="entropy = 0.0\nsamples = 6\nvalue = [0, 6, 0]"] ;
37 -> 47 ;
48 [label="fs1ct2 <= 64.5\nentropy = 0.496\nsamples = 92\nvalue = [10, 82, 0]"] ;
36 -> 48 ;
49 [label="entropy = 0.0\nsamples = 31\nvalue = [0, 31, 0]"] ;
48 -> 49 ;
50 [label="fs1wc15 <= 1.5\nentropy = 0.644\nsamples = 61\nvalue = [10, 51, 0]"] ;
48 -> 50 ;
51 [label="fs1wb1 <= 1.5\nentropy = 0.996\nsamples = 13\nvalue = [6, 7, 0]"] ;
50 -> 51 ;
52 [label="fs1wc4 <= 1.5\nentropy = 0.592\nsamples = 7\nvalue = [6, 1, 0]"] ;
51 -> 52 ;
53 [label="entropy = 0.0\nsamples = 6\nvalue = [6, 0, 0]"] ;
52 -> 53 ;
54 [label="entropy = 0.0\nsamples = 1\nvalue = [0, 1, 0]"] ;
52 -> 54 ;
55 [label="entropy = 0.0\nsamples = 6\nvalue = [0, 6, 0]"] ;
51 -> 55 ;
56 [label="fs1wa1 <= 1.5\nentropy = 0.414\nsamples = 48\nvalue = [4, 44, 0]"] ;
50 -> 56 ;
57 [label="fs1a6b <= 1.5\nentropy = 0.811\nsamples = 16\nvalue = [4, 12, 0]"] ;
56 -> 57 ;
58 [label="fs1b8 <= 2.0\nentropy = 0.722\nsamples = 5\nvalue = [4, 1, 0]"] ;
57 -> 58 ;
59 [label="entropy = 0.0\nsamples = 4\nvalue = [4, 0, 0]"] ;
58 -> 59 ;
60 [label="entropy = 0.0\nsamples = 1\nvalue = [0, 1, 0]"] ;
58 -> 60 ;
61 [label="entropy = 0.0\nsamples = 11\nvalue = [0, 11, 0]"] ;
57 -> 61 ;
62 [label="entropy = 0.0\nsamples = 32\nvalue = [0, 32, 0]"] ;
56 -> 62 ;
63 [label="fs1wc4 <= 2.5\nentropy = 0.821\nsamples = 39\nvalue = [0, 29, 10]"] ;
35 -> 63 ;
64 [label="fs1wa4 <= 1.5\nentropy = 0.602\nsamples = 34\nvalue = [0, 29, 5]"] ;
63 -> 64 ;
65 [label="entropy = 0.0\nsamples = 21\nvalue = [0, 21, 0]"] ;
64 -> 65 ;
66 [label="fs1wc2 <= 2.5\nentropy = 0.961\nsamples = 13\nvalue = [0, 8, 5]"] ;
64 -> 66 ;
67 [label="entropy = 0.0\nsamples = 7\nvalue = [0, 7, 0]"] ;
66 -> 67 ;
68 [label="age <= 60.5\nentropy = 0.65\nsamples = 6\nvalue = [0, 1, 5]"] ;
66 -> 68 ;
69 [label="entropy = 0.0\nsamples = 1\nvalue = [0, 1, 0]"] ;
68 -> 69 ;
70 [label="entropy = 0.0\nsamples = 5\nvalue = [0, 0, 5]"] ;
68 -> 70 ;
71 [label="entropy = 0.0\nsamples = 5\nvalue = [0, 0, 5]"] ;
63 -> 71 ;
72 [label="fs1wc14 <= 1.5\nentropy = 0.924\nsamples = 203\nvalue = [1, 61, 141]"] ;
0 -> 72 [labeldistance=2.5, labelangle=-45, headlabel="False"] ;
73 [label="fs1wc5 <= 1.5\nentropy = 0.972\nsamples = 80\nvalue = [1, 55, 24]"] ;
72 -> 73 ;
74 [label="fs1e1 <= 2.5\nentropy = 0.505\nsamples = 45\nvalue = [1, 41, 3]"] ;
73 -> 74 ;
75 [label="fs1wc17 <= 2.5\nentropy = 0.271\nsamples = 43\nvalue = [0, 41, 2]"] ;
74 -> 75 ;
76 [label="entropy = 0.0\nsamples = 40\nvalue = [0, 40, 0]"] ;
75 -> 76 ;
77 [label="fs1c2b <= 1.5\nentropy = 0.918\nsamples = 3\nvalue = [0, 1, 2]"] ;
75 -> 77 ;
78 [label="entropy = 0.0\nsamples = 1\nvalue = [0, 1, 0]"] ;
77 -> 78 ;
79 [label="entropy = 0.0\nsamples = 2\nvalue = [0, 0, 2]"] ;
77 -> 79 ;
80 [label="fs1a6c <= 3.5\nentropy = 1.0\nsamples = 2\nvalue = [1, 0, 1]"] ;
74 -> 80 ;
81 [label="entropy = 0.0\nsamples = 1\nvalue = [1, 0, 0]"] ;
80 -> 81 ;
82 [label="entropy = 0.0\nsamples = 1\nvalue = [0, 0, 1]"] ;
80 -> 82 ;
83 [label="fs1wc17 <= 1.5\nentropy = 0.971\nsamples = 35\nvalue = [0, 14, 21]"] ;
73 -> 83 ;
84 [label="fs1wa3 <= 2.5\nentropy = 0.469\nsamples = 10\nvalue = [0, 9, 1]"] ;
83 -> 84 ;
85 [label="entropy = 0.0\nsamples = 9\nvalue = [0, 9, 0]"] ;
84 -> 85 ;
86 [label="entropy = 0.0\nsamples = 1\nvalue = [0, 0, 1]"] ;
84 -> 86 ;
87 [label="fs1wa1 <= 1.5\nentropy = 0.722\nsamples = 25\nvalue = [0, 5, 20]"] ;
83 -> 87 ;
88 [label="entropy = 0.0\nsamples = 3\nvalue = [0, 3, 0]"] ;
87 -> 88 ;
89 [label="fs1q3a <= 1970.5\nentropy = 0.439\nsamples = 22\nvalue = [0, 2, 20]"] ;
87 -> 89 ;
90 [label="entropy = 0.0\nsamples = 19\nvalue = [0, 0, 19]"] ;
89 -> 90 ;
91 [label="fs1c2a <= 1.5\nentropy = 0.918\nsamples = 3\nvalue = [0, 2, 1]"] ;
89 -> 91 ;
92 [label="entropy = 0.0\nsamples = 1\nvalue = [0, 0, 1]"] ;
91 -> 92 ;
93 [label="entropy = 0.0\nsamples = 2\nvalue = [0, 2, 0]"] ;
91 -> 93 ;
94 [label="fs1wc2 <= 2.5\nentropy = 0.281\nsamples = 123\nvalue = [0, 6, 117]"] ;
72 -> 94 ;
95 [label="q1b <= 261.5\nentropy = 0.94\nsamples = 14\nvalue = [0, 5, 9]"] ;
94 -> 95 ;
96 [label="fs1wc8 <= 1.5\nentropy = 0.684\nsamples = 11\nvalue = [0, 2, 9]"] ;
95 -> 96 ;
97 [label="entropy = 0.0\nsamples = 2\nvalue = [0, 2, 0]"] ;
96 -> 97 ;
98 [label="entropy = 0.0\nsamples = 9\nvalue = [0, 0, 9]"] ;
96 -> 98 ;
99 [label="entropy = 0.0\nsamples = 3\nvalue = [0, 3, 0]"] ;
95 -> 99 ;
100 [label="fs1c2y <= 47.5\nentropy = 0.075\nsamples = 109\nvalue = [0, 1, 108]"] ;
94 -> 100 ;
101 [label="entropy = 0.0\nsamples = 108\nvalue = [0, 0, 108]"] ;
100 -> 101 ;
102 [label="entropy = 0.0\nsamples = 1\nvalue = [0, 1, 0]"] ;
100 -> 102 ;
}