digraph Tree {
node [shape=box, fontname="helvetica"] ;
edge [fontname="helvetica"] ;
0 [label="fs1wc13 <= 1.5\nentropy = 1.528\nsamples = 754\nvalue = [212, 353, 189]"] ;
1 [label="fs1wc3 <= 1.5\nentropy = 1.138\nsamples = 495\nvalue = [211, 271, 13]"] ;
0 -> 1 [labeldistance=2.5, labelangle=45, headlabel="True"] ;
2 [label="fs1wb1 <= 1.5\nentropy = 0.897\nsamples = 268\nvalue = [184, 84, 0]"] ;
1 -> 2 ;
3 [label="fs1wc1 <= 2.5\nentropy = 0.66\nsamples = 193\nvalue = [160, 33, 0]"] ;
2 -> 3 ;
4 [label="fs1wa4 <= 1.5\nentropy = 0.446\nsamples = 172\nvalue = [156, 16, 0]"] ;
3 -> 4 ;
5 [label="fs1wc6 <= 1.5\nentropy = 0.312\nsamples = 160\nvalue = [151, 9, 0]"] ;
4 -> 5 ;
6 [label="fs1wc16 <= 2.5\nentropy = 0.178\nsamples = 149\nvalue = [145, 4, 0]"] ;
5 -> 6 ;
7 [label="fs1wc5 <= 1.5\nentropy = 0.059\nsamples = 145\nvalue = [144, 1, 0]"] ;
6 -> 7 ;
8 [label="entropy = 0.0\nsamples = 138\nvalue = [138, 0, 0]"] ;
7 -> 8 ;
9 [label="fs1wc15 <= 1.5\nentropy = 0.592\nsamples = 7\nvalue = [6, 1, 0]"] ;
7 -> 9 ;
10 [label="entropy = 0.0\nsamples = 6\nvalue = [6, 0, 0]"] ;
9 -> 10 ;
11 [label="entropy = 0.0\nsamples = 1\nvalue = [0, 1, 0]"] ;
9 -> 11 ;
12 [label="fs1a6a <= 3.0\nentropy = 0.811\nsamples = 4\nvalue = [1, 3, 0]"] ;
6 -> 12 ;
13 [label="entropy = 0.0\nsamples = 3\nvalue = [0, 3, 0]"] ;
12 -> 13 ;
14 [label="entropy = 0.0\nsamples = 1\nvalue = [1, 0, 0]"] ;
12 -> 14 ;
15 [label="q1b <= 222.5\nentropy = 0.994\nsamples = 11\nvalue = [6, 5, 0]"] ;
5 -> 15 ;
16 [label="entropy = 0.0\nsamples = 5\nvalue = [5, 0, 0]"] ;
15 -> 16 ;
17 [label="fs1ct2 <= 69.1\nentropy = 0.65\nsamples = 6\nvalue = [1, 5, 0]"] ;
15 -> 17 ;
18 [label="entropy = 0.0\nsamples = 5\nvalue = [0, 5, 0]"] ;
17 -> 18 ;
19 [label="entropy = 0.0\nsamples = 1\nvalue = [1, 0, 0]"] ;
17 -> 19 ;
20 [label="fs1b9 <= 1.5\nentropy = 0.98\nsamples = 12\nvalue = [5, 7, 0]"] ;
4 -> 20 ;
21 [label="fs1c301 <= 1.5\nentropy = 0.764\nsamples = 9\nvalue = [2, 7, 0]"] ;
20 -> 21 ;
22 [label="entropy = 0.0\nsamples = 5\nvalue = [0, 5, 0]"] ;
21 -> 22 ;
23 [label="fs1ct2 <= 58.15\nentropy = 1.0\nsamples = 4\nvalue = [2, 2, 0]"] ;
21 -> 23 ;
24 [label="entropy = 0.0\nsamples = 2\nvalue = [0, 2, 0]"] ;
23 -> 24 ;
25 [label="entropy = 0.0\nsamples = 2\nvalue = [2, 0, 0]"] ;
23 -> 25 ;
26 [label="entropy = 0.0\nsamples = 3\nvalue = [3, 0, 0]"] ;
20 -> 26 ;
27 [label="fs1wa1 <= 1.5\nentropy = 0.702\nsamples = 21\nvalue = [4, 17, 0]"] ;
3 -> 27 ;
28 [label="age <= 67.0\nentropy = 0.985\nsamples = 7\nvalue = [4, 3, 0]"] ;
27 -> 28 ;
29 [label="fs1wc15 <= 1.5\nentropy = 0.722\nsamples = 5\nvalue = [4, 1, 0]"] ;
28 -> 29 ;
30 [label="entropy = 0.0\nsamples = 4\nvalue = [4, 0, 0]"] ;
29 -> 30 ;
31 [label="entropy = 0.0\nsamples = 1\nvalue = [0, 1, 0]"] ;
29 -> 31 ;
32 [label="entropy = 0.0\nsamples = 2\nvalue = [0, 2, 0]"] ;
28 -> 32 ;
33 [label="entropy = 0.0\nsamples = 14\nvalue = [0, 14, 0]"] ;
27 -> 33 ;
34 [label="fs1wc16 <= 1.5\nentropy = 0.904\nsamples = 75\nvalue = [24, 51, 0]"] ;
2 -> 34 ;
35 [label="fs1c5a <= 2.5\nentropy = 0.887\nsamples = 23\nvalue = [16, 7, 0]"] ;
34 -> 35 ;
36 [label="age <= 63.0\nentropy = 0.629\nsamples = 19\nvalue = [16, 3, 0]"] ;
35 -> 36 ;
37 [label="entropy = 0.0\nsamples = 12\nvalue = [12, 0, 0]"] ;
36 -> 37 ;
38 [label="fs1q4 <= 62.5\nentropy = 0.985\nsamples = 7\nvalue = [4, 3, 0]"] ;
36 -> 38 ;
39 [label="entropy = 0.0\nsamples = 3\nvalue = [0, 3, 0]"] ;
38 -> 39 ;
40 [label="entropy = 0.0\nsamples = 4\nvalue = [4, 0, 0]"] ;
38 -> 40 ;
41 [label="entropy = 0.0\nsamples = 4\nvalue = [0, 4, 0]"] ;
35 -> 41 ;
42 [label="fs1wc1 <= 1.5\nentropy = 0.619\nsamples = 52\nvalue = [8, 44, 0]"] ;
34 -> 42 ;
43 [label="fs1wa3 <= 1.5\nentropy = 0.985\nsamples = 14\nvalue = [6, 8, 0]"] ;
42 -> 43 ;
44 [label="age <= 63.0\nentropy = 0.65\nsamples = 6\nvalue = [5, 1, 0]"] ;
43 -> 44 ;
45 [label="entropy = 0.0\nsamples = 5\nvalue = [5, 0, 0]"] ;
44 -> 45 ;
46 [label="entropy = 0.0\nsamples = 1\nvalue = [0, 1, 0]"] ;
44 -> 46 ;
47 [label="fs1a5 <= 4.0\nentropy = 0.544\nsamples = 8\nvalue = [1, 7, 0]"] ;
43 -> 47 ;
48 [label="entropy = 0.0\nsamples = 7\nvalue = [0, 7, 0]"] ;
47 -> 48 ;
49 [label="entropy = 0.0\nsamples = 1\nvalue = [1, 0, 0]"] ;
47 -> 49 ;
50 [label="fs1a6c <= 1.5\nentropy = 0.297\nsamples = 38\nvalue = [2, 36, 0]"] ;
42 -> 50 ;
51 [label="entropy = 0.0\nsamples = 1\nvalue = [1, 0, 0]"] ;
50 -> 51 ;
52 [label="fs1ct7z1 <= 105.0\nentropy = 0.179\nsamples = 37\nvalue = [1, 36, 0]"] ;
50 -> 52 ;
53 [label="fs1a4b <= 1.5\nentropy = 0.722\nsamples = 5\nvalue = [1, 4, 0]"] ;
52 -> 53 ;
54 [label="entropy = 0.0\nsamples = 1\nvalue = [1, 0, 0]"] ;
53 -> 54 ;
55 [label="entropy = 0.0\nsamples = 4\nvalue = [0, 4, 0]"] ;
53 -> 55 ;
56 [label="entropy = 0.0\nsamples = 32\nvalue = [0, 32, 0]"] ;
52 -> 56 ;
57 [label="fs1wc8 <= 1.5\nentropy = 0.832\nsamples = 227\nvalue = [27, 187, 13]"] ;
1 -> 57 ;
58 [label="fs1wc16 <= 1.5\nentropy = 0.626\nsamples = 166\nvalue = [26, 140, 0]"] ;
57 -> 58 ;
59 [label="fs1a6a <= 2.5\nentropy = 0.999\nsamples = 33\nvalue = [16, 17, 0]"] ;
58 -> 59 ;
60 [label="fs1ct4a <= 1.5\nentropy = 0.961\nsamples = 26\nvalue = [16, 10, 0]"] ;
59 -> 60 ;
61 [label="entropy = 0.0\nsamples = 4\nvalue = [0, 4, 0]"] ;
60 -> 61 ;
62 [label="fs1c1f1 <= 1.5\nentropy = 0.845\nsamples = 22\nvalue = [16, 6, 0]"] ;
60 -> 62 ;
63 [label="fs1b4 <= 1.5\nentropy = 0.503\nsamples = 18\nvalue = [16, 2, 0]"] ;
62 -> 63 ;
64 [label="entropy = 0.0\nsamples = 16\nvalue = [16, 0, 0]"] ;
63 -> 64 ;
65 [label="entropy = 0.0\nsamples = 2\nvalue = [0, 2, 0]"] ;
63 -> 65 ;
66 [label="entropy = 0.0\nsamples = 4\nvalue = [0, 4, 0]"] ;
62 -> 66 ;
67 [label="entropy = 0.0\nsamples = 7\nvalue = [0, 7, 0]"] ;
59 -> 67 ;
68 [label="fs1wc17 <= 1.5\nentropy = 0.385\nsamples = 133\nvalue = [10, 123, 0]"] ;
58 -> 68 ;
69 [label="fs1wc4 <= 1.5\nentropy = 0.548\nsamples = 79\nvalue = [10, 69, 0]"] ;
68 -> 69 ;
70 [label="fs1d1y <= 1.5\nentropy = 0.65\nsamples = 60\nvalue = [10, 50, 0]"] ;
69 -> 70 ;
71 [label="q1b <= 232.0\nentropy = 0.98\nsamples = 12\nvalue = [5, 7, 0]"] ;
70 -> 71 ;
72 [label="entropy = 0.0\nsamples = 4\nvalue = [4, 0, 0]"] ;
71 -> 72 ;
73 [label="fs1e3 <= 2.0\nentropy = 0.544\nsamples = 8\nvalue = [1, 7, 0]"] ;
71 -> 73 ;
74 [label="entropy = 0.0\nsamples = 7\nvalue = [0, 7, 0]"] ;
73 -> 74 ;
75 [label="entropy = 0.0\nsamples = 1\nvalue = [1, 0, 0]"] ;
73 -> 75 ;
76 [label="fs1b13 <= 2.0\nentropy = 0.482\nsamples = 48\nvalue = [5, 43, 0]"] ;
70 -> 76 ;
77 [label="q1b <= 312.5\nentropy = 0.42\nsamples = 47\nvalue = [4, 43, 0]"] ;
76 -> 77 ;
78 [label="entropy = 0.0\nsamples = 22\nvalue = [0, 22, 0]"] ;
77 -> 78 ;
79 [label="fs1wc15 <= 1.5\nentropy = 0.634\nsamples = 25\nvalue = [4, 21, 0]"] ;
77 -> 79 ;
80 [label="fs1wa5 <= 1.5\nentropy = 0.971\nsamples = 5\nvalue = [3, 2, 0]"] ;
79 -> 80 ;
81 [label="entropy = 0.0\nsamples = 3\nvalue = [3, 0, 0]"] ;
80 -> 81 ;
82 [label="entropy = 0.0\nsamples = 2\nvalue = [0, 2, 0]"] ;
80 -> 82 ;
83 [label="fs1a5 <= 2.5\nentropy = 0.286\nsamples = 20\nvalue = [1, 19, 0]"] ;
79 -> 83 ;
84 [label="entropy = 0.0\nsamples = 18\nvalue = [0, 18, 0]"] ;
83 -> 84 ;
85 [label="fs1c1f2 <= 2.0\nentropy = 1.0\nsamples = 2\nvalue = [1, 1, 0]"] ;
83 -> 85 ;
86 [label="entropy = 0.0\nsamples = 1\nvalue = [1, 0, 0]"] ;
85 -> 86 ;
87 [label="entropy = 0.0\nsamples = 1\nvalue = [0, 1, 0]"] ;
85 -> 87 ;
88 [label="entropy = 0.0\nsamples = 1\nvalue = [1, 0, 0]"] ;
76 -> 88 ;
89 [label="entropy = 0.0\nsamples = 19\nvalue = [0, 19, 0]"] ;
69 -> 89 ;
90 [label="entropy = 0.0\nsamples = 54\nvalue = [0, 54, 0]"] ;
68 -> 90 ;
91 [label="fs1wc4 <= 2.5\nentropy = 0.862\nsamples = 61\nvalue = [1, 47, 13]"] ;
57 -> 91 ;
92 [label="fs1wc1 <= 2.5\nentropy = 0.599\nsamples = 51\nvalue = [1, 45, 5]"] ;
91 -> 92 ;
93 [label="entropy = 0.0\nsamples = 29\nvalue = [0, 29, 0]"] ;
92 -> 93 ;
94 [label="fs1q3b <= 4.5\nentropy = 1.023\nsamples = 22\nvalue = [1, 16, 5]"] ;
92 -> 94 ;
95 [label="entropy = 0.0\nsamples = 12\nvalue = [0, 12, 0]"] ;
94 -> 95 ;
96 [label="fs1wa5 <= 1.5\nentropy = 1.361\nsamples = 10\nvalue = [1, 4, 5]"] ;
94 -> 96 ;
97 [label="fs1wc17 <= 1.5\nentropy = 0.811\nsamples = 4\nvalue = [1, 3, 0]"] ;
96 -> 97 ;
98 [label="entropy = 0.0\nsamples = 1\nvalue = [1, 0, 0]"] ;
97 -> 98 ;
99 [label="entropy = 0.0\nsamples = 3\nvalue = [0, 3, 0]"] ;
97 -> 99 ;
100 [label="fs1q3a <= 1961.0\nentropy = 0.65\nsamples = 6\nvalue = [0, 1, 5]"] ;
96 -> 100 ;
101 [label="entropy = 0.0\nsamples = 5\nvalue = [0, 0, 5]"] ;
100 -> 101 ;
102 [label="entropy = 0.0\nsamples = 1\nvalue = [0, 1, 0]"] ;
100 -> 102 ;
103 [label="fs1wc5 <= 1.5\nentropy = 0.722\nsamples = 10\nvalue = [0, 2, 8]"] ;
91 -> 103 ;
104 [label="entropy = 0.0\nsamples = 2\nvalue = [0, 2, 0]"] ;
103 -> 104 ;
105 [label="entropy = 0.0\nsamples = 8\nvalue = [0, 0, 8]"] ;
103 -> 105 ;
106 [label="fs1wc14 <= 1.5\nentropy = 0.935\nsamples = 259\nvalue = [1, 82, 176]"] ;
0 -> 106 [labeldistance=2.5, labelangle=-45, headlabel="False"] ;
107 [label="fs1wa2 <= 2.5\nentropy = 0.983\nsamples = 107\nvalue = [1, 71, 35]"] ;
106 -> 107 ;
108 [label="fs1e1 <= 2.5\nentropy = 0.191\nsamples = 34\nvalue = [1, 33, 0]"] ;
107 -> 108 ;
109 [label="entropy = 0.0\nsamples = 33\nvalue = [0, 33, 0]"] ;
108 -> 109 ;
110 [label="entropy = 0.0\nsamples = 1\nvalue = [1, 0, 0]"] ;
108 -> 110 ;
111 [label="fs1wc3 <= 2.5\nentropy = 0.999\nsamples = 73\nvalue = [0, 38, 35]"] ;
107 -> 111 ;
112 [label="fs1wc5 <= 1.5\nentropy = 0.811\nsamples = 44\nvalue = [0, 33, 11]"] ;
111 -> 112 ;
113 [label="entropy = 0.0\nsamples = 24\nvalue = [0, 24, 0]"] ;
112 -> 113 ;
114 [label="fs1wc4 <= 1.5\nentropy = 0.993\nsamples = 20\nvalue = [0, 9, 11]"] ;
112 -> 114 ;
115 [label="entropy = 0.0\nsamples = 7\nvalue = [0, 7, 0]"] ;
114 -> 115 ;
116 [label="fs1q4 <= 48.5\nentropy = 0.619\nsamples = 13\nvalue = [0, 2, 11]"] ;
114 -> 116 ;
117 [label="fs1a7 <= 3.5\nentropy = 0.918\nsamples = 3\nvalue = [0, 2, 1]"] ;
116 -> 117 ;
118 [label="entropy = 0.0\nsamples = 2\nvalue = [0, 2, 0]"] ;
117 -> 118 ;
119 [label="entropy = 0.0\nsamples = 1\nvalue = [0, 0, 1]"] ;
117 -> 119 ;
120 [label="entropy = 0.0\nsamples = 10\nvalue = [0, 0, 10]"] ;
116 -> 120 ;
121 [label="fs1wc9 <= 1.5\nentropy = 0.663\nsamples = 29\nvalue = [0, 5, 24]"] ;
111 -> 121 ;
122 [label="fs1a1 <= 3.5\nentropy = 0.961\nsamples = 13\nvalue = [0, 5, 8]"] ;
121 -> 122 ;
123 [label="entropy = 0.0\nsamples = 4\nvalue = [0, 4, 0]"] ;
122 -> 123 ;
124 [label="fs1wc17 <= 1.5\nentropy = 0.503\nsamples = 9\nvalue = [0, 1, 8]"] ;
122 -> 124 ;
125 [label="entropy = 0.0\nsamples = 1\nvalue = [0, 1, 0]"] ;
124 -> 125 ;
126 [label="entropy = 0.0\nsamples = 8\nvalue = [0, 0, 8]"] ;
124 -> 126 ;
127 [label="entropy = 0.0\nsamples = 16\nvalue = [0, 0, 16]"] ;
121 -> 127 ;
128 [label="fs1wc2 <= 2.5\nentropy = 0.375\nsamples = 152\nvalue = [0, 11, 141]"] ;
106 -> 128 ;
129 [label="fs1wc15 <= 2.5\nentropy = 0.993\nsamples = 20\nvalue = [0, 9, 11]"] ;
128 -> 129 ;
130 [label="fs1wa5 <= 2.5\nentropy = 0.811\nsamples = 12\nvalue = [0, 9, 3]"] ;
129 -> 130 ;
131 [label="fs1wb1 <= 2.5\nentropy = 0.469\nsamples = 10\nvalue = [0, 9, 1]"] ;
130 -> 131 ;
132 [label="entropy = 0.0\nsamples = 9\nvalue = [0, 9, 0]"] ;
131 -> 132 ;
133 [label="entropy = 0.0\nsamples = 1\nvalue = [0, 0, 1]"] ;
131 -> 133 ;
134 [label="entropy = 0.0\nsamples = 2\nvalue = [0, 0, 2]"] ;
130 -> 134 ;
135 [label="entropy = 0.0\nsamples = 8\nvalue = [0, 0, 8]"] ;
129 -> 135 ;
136 [label="fs1wc17 <= 1.5\nentropy = 0.113\nsamples = 132\nvalue = [0, 2, 130]"] ;
128 -> 136 ;
137 [label="fs1c1y <= 2.0\nentropy = 1.0\nsamples = 4\nvalue = [0, 2, 2]"] ;
136 -> 137 ;
138 [label="entropy = 0.0\nsamples = 2\nvalue = [0, 0, 2]"] ;
137 -> 138 ;
139 [label="entropy = 0.0\nsamples = 2\nvalue = [0, 2, 0]"] ;
137 -> 139 ;
140 [label="entropy = 0.0\nsamples = 128\nvalue = [0, 0, 128]"] ;
136 -> 140 ;
}