digraph Tree {
node [shape=box, fontname="helvetica"] ;
edge [fontname="helvetica"] ;
0 [label="fs1wc13 <= 1.5\nentropy = 1.53\nsamples = 561\nvalue = [157, 261, 143]"] ;
1 [label="fs1wc3 <= 1.5\nentropy = 1.108\nsamples = 363\nvalue = [157, 199, 7]"] ;
0 -> 1 [labeldistance=2.5, labelangle=45, headlabel="True"] ;
2 [label="fs1wb1 <= 1.5\nentropy = 0.917\nsamples = 196\nvalue = [131, 65, 0]"] ;
1 -> 2 ;
3 [label="fs1wc1 <= 2.5\nentropy = 0.65\nsamples = 138\nvalue = [115, 23, 0]"] ;
2 -> 3 ;
4 [label="fs1wc6 <= 1.5\nentropy = 0.409\nsamples = 122\nvalue = [112, 10, 0]"] ;
3 -> 4 ;
5 [label="fs1a6b <= 3.5\nentropy = 0.261\nsamples = 113\nvalue = [108, 5, 0]"] ;
4 -> 5 ;
6 [label="fs1wc16 <= 2.5\nentropy = 0.077\nsamples = 106\nvalue = [105, 1, 0]"] ;
5 -> 6 ;
7 [label="entropy = 0.0\nsamples = 105\nvalue = [105, 0, 0]"] ;
6 -> 7 ;
8 [label="entropy = 0.0\nsamples = 1\nvalue = [0, 1, 0]"] ;
6 -> 8 ;
9 [label="fs1q3c <= 12.0\nentropy = 0.985\nsamples = 7\nvalue = [3, 4, 0]"] ;
5 -> 9 ;
10 [label="entropy = 0.0\nsamples = 3\nvalue = [3, 0, 0]"] ;
9 -> 10 ;
11 [label="entropy = 0.0\nsamples = 4\nvalue = [0, 4, 0]"] ;
9 -> 11 ;
12 [label="fs1wc2 <= 1.5\nentropy = 0.991\nsamples = 9\nvalue = [4, 5, 0]"] ;
4 -> 12 ;
13 [label="entropy = 0.0\nsamples = 3\nvalue = [3, 0, 0]"] ;
12 -> 13 ;
14 [label="fs1ct1 <= 165.5\nentropy = 0.65\nsamples = 6\nvalue = [1, 5, 0]"] ;
12 -> 14 ;
15 [label="entropy = 0.0\nsamples = 5\nvalue = [0, 5, 0]"] ;
14 -> 15 ;
16 [label="entropy = 0.0\nsamples = 1\nvalue = [1, 0, 0]"] ;
14 -> 16 ;
17 [label="fs1wa1 <= 1.5\nentropy = 0.696\nsamples = 16\nvalue = [3, 13, 0]"] ;
3 -> 17 ;
18 [label="fs1wc7 <= 1.5\nentropy = 0.971\nsamples = 5\nvalue = [3, 2, 0]"] ;
17 -> 18 ;
19 [label="entropy = 0.0\nsamples = 3\nvalue = [3, 0, 0]"] ;
18 -> 19 ;
20 [label="entropy = 0.0\nsamples = 2\nvalue = [0, 2, 0]"] ;
18 -> 20 ;
21 [label="entropy = 0.0\nsamples = 11\nvalue = [0, 11, 0]"] ;
17 -> 21 ;
22 [label="fs1wc7 <= 1.5\nentropy = 0.85\nsamples = 58\nvalue = [16, 42, 0]"] ;
2 -> 22 ;
23 [label="center <= 4.5\nentropy = 0.971\nsamples = 40\nvalue = [16, 24, 0]"] ;
22 -> 23 ;
24 [label="fs1d1z <= 1.5\nentropy = 0.971\nsamples = 25\nvalue = [15, 10, 0]"] ;
23 -> 24 ;
25 [label="entropy = 0.0\nsamples = 7\nvalue = [7, 0, 0]"] ;
24 -> 25 ;
26 [label="fs1a4a <= 1.5\nentropy = 0.991\nsamples = 18\nvalue = [8, 10, 0]"] ;
24 -> 26 ;
27 [label="fs1wa2 <= 2.5\nentropy = 0.961\nsamples = 13\nvalue = [8, 5, 0]"] ;
26 -> 27 ;
28 [label="entropy = 0.0\nsamples = 6\nvalue = [6, 0, 0]"] ;
27 -> 28 ;
29 [label="fs1a5 <= 1.5\nentropy = 0.863\nsamples = 7\nvalue = [2, 5, 0]"] ;
27 -> 29 ;
30 [label="entropy = 0.0\nsamples = 2\nvalue = [2, 0, 0]"] ;
29 -> 30 ;
31 [label="entropy = 0.0\nsamples = 5\nvalue = [0, 5, 0]"] ;
29 -> 31 ;
32 [label="entropy = 0.0\nsamples = 5\nvalue = [0, 5, 0]"] ;
26 -> 32 ;
33 [label="fs1e9 <= 1.5\nentropy = 0.353\nsamples = 15\nvalue = [1, 14, 0]"] ;
23 -> 33 ;
34 [label="entropy = 0.0\nsamples = 14\nvalue = [0, 14, 0]"] ;
33 -> 34 ;
35 [label="entropy = 0.0\nsamples = 1\nvalue = [1, 0, 0]"] ;
33 -> 35 ;
36 [label="entropy = 0.0\nsamples = 18\nvalue = [0, 18, 0]"] ;
22 -> 36 ;
37 [label="fs1wa5 <= 2.5\nentropy = 0.864\nsamples = 167\nvalue = [26, 134, 7]"] ;
1 -> 37 ;
38 [label="fs1wc16 <= 1.5\nentropy = 0.704\nsamples = 156\nvalue = [26, 129, 1]"] ;
37 -> 38 ;
39 [label="fs1a7 <= 3.5\nentropy = 0.999\nsamples = 35\nvalue = [17, 18, 0]"] ;
38 -> 39 ;
40 [label="entropy = 0.0\nsamples = 7\nvalue = [0, 7, 0]"] ;
39 -> 40 ;
41 [label="fs1wc1 <= 1.5\nentropy = 0.967\nsamples = 28\nvalue = [17, 11, 0]"] ;
39 -> 41 ;
42 [label="entropy = 0.0\nsamples = 9\nvalue = [9, 0, 0]"] ;
41 -> 42 ;
43 [label="fs1e7 <= 1.5\nentropy = 0.982\nsamples = 19\nvalue = [8, 11, 0]"] ;
41 -> 43 ;
44 [label="fs1c303 <= 1.5\nentropy = 0.837\nsamples = 15\nvalue = [4, 11, 0]"] ;
43 -> 44 ;
45 [label="fs1ct7y1 <= 127.5\nentropy = 1.0\nsamples = 8\nvalue = [4, 4, 0]"] ;
44 -> 45 ;
46 [label="fs1c1d19 <= 0.5\nentropy = 0.722\nsamples = 5\nvalue = [1, 4, 0]"] ;
45 -> 46 ;
47 [label="entropy = 0.0\nsamples = 4\nvalue = [0, 4, 0]"] ;
46 -> 47 ;
48 [label="entropy = 0.0\nsamples = 1\nvalue = [1, 0, 0]"] ;
46 -> 48 ;
49 [label="entropy = 0.0\nsamples = 3\nvalue = [3, 0, 0]"] ;
45 -> 49 ;
50 [label="entropy = 0.0\nsamples = 7\nvalue = [0, 7, 0]"] ;
44 -> 50 ;
51 [label="entropy = 0.0\nsamples = 4\nvalue = [4, 0, 0]"] ;
43 -> 51 ;
52 [label="fs1wa1 <= 1.5\nentropy = 0.45\nsamples = 121\nvalue = [9, 111, 1]"] ;
38 -> 52 ;
53 [label="fs1a6a <= 1.5\nentropy = 0.787\nsamples = 34\nvalue = [8, 26, 0]"] ;
52 -> 53 ;
54 [label="fs1ct2 <= 64.5\nentropy = 1.0\nsamples = 14\nvalue = [7, 7, 0]"] ;
53 -> 54 ;
55 [label="entropy = 0.0\nsamples = 5\nvalue = [0, 5, 0]"] ;
54 -> 55 ;
56 [label="q1b <= 188.0\nentropy = 0.764\nsamples = 9\nvalue = [7, 2, 0]"] ;
54 -> 56 ;
57 [label="fs1q4 <= 63.5\nentropy = 1.0\nsamples = 4\nvalue = [2, 2, 0]"] ;
56 -> 57 ;
58 [label="entropy = 0.0\nsamples = 2\nvalue = [0, 2, 0]"] ;
57 -> 58 ;
59 [label="entropy = 0.0\nsamples = 2\nvalue = [2, 0, 0]"] ;
57 -> 59 ;
60 [label="entropy = 0.0\nsamples = 5\nvalue = [5, 0, 0]"] ;
56 -> 60 ;
61 [label="fs1b20 <= 2.0\nentropy = 0.286\nsamples = 20\nvalue = [1, 19, 0]"] ;
53 -> 61 ;
62 [label="entropy = 0.0\nsamples = 19\nvalue = [0, 19, 0]"] ;
61 -> 62 ;
63 [label="entropy = 0.0\nsamples = 1\nvalue = [1, 0, 0]"] ;
61 -> 63 ;
64 [label="fs1wc16 <= 4.5\nentropy = 0.181\nsamples = 87\nvalue = [1, 85, 1]"] ;
52 -> 64 ;
65 [label="fs1q3c <= 29.5\nentropy = 0.091\nsamples = 86\nvalue = [1, 85, 0]"] ;
64 -> 65 ;
66 [label="entropy = 0.0\nsamples = 82\nvalue = [0, 82, 0]"] ;
65 -> 66 ;
67 [label="fs1wc15 <= 1.5\nentropy = 0.811\nsamples = 4\nvalue = [1, 3, 0]"] ;
65 -> 67 ;
68 [label="entropy = 0.0\nsamples = 1\nvalue = [1, 0, 0]"] ;
67 -> 68 ;
69 [label="entropy = 0.0\nsamples = 3\nvalue = [0, 3, 0]"] ;
67 -> 69 ;
70 [label="entropy = 0.0\nsamples = 1\nvalue = [0, 0, 1]"] ;
64 -> 70 ;
71 [label="fs1q3a <= 1966.0\nentropy = 0.994\nsamples = 11\nvalue = [0, 5, 6]"] ;
37 -> 71 ;
72 [label="entropy = 0.0\nsamples = 5\nvalue = [0, 0, 5]"] ;
71 -> 72 ;
73 [label="fs1wa5 <= 3.5\nentropy = 0.65\nsamples = 6\nvalue = [0, 5, 1]"] ;
71 -> 73 ;
74 [label="entropy = 0.0\nsamples = 5\nvalue = [0, 5, 0]"] ;
73 -> 74 ;
75 [label="entropy = 0.0\nsamples = 1\nvalue = [0, 0, 1]"] ;
73 -> 75 ;
76 [label="fs1wc14 <= 1.5\nentropy = 0.897\nsamples = 198\nvalue = [0, 62, 136]"] ;
0 -> 76 [labeldistance=2.5, labelangle=-45, headlabel="False"] ;
77 [label="fs1wc3 <= 2.5\nentropy = 0.926\nsamples = 82\nvalue = [0, 54, 28]"] ;
76 -> 77 ;
78 [label="fs1wc4 <= 1.5\nentropy = 0.598\nsamples = 55\nvalue = [0, 47, 8]"] ;
77 -> 78 ;
79 [label="entropy = 0.0\nsamples = 30\nvalue = [0, 30, 0]"] ;
78 -> 79 ;
80 [label="fs1wc7 <= 2.5\nentropy = 0.904\nsamples = 25\nvalue = [0, 17, 8]"] ;
78 -> 80 ;
81 [label="fs1wb1 <= 2.5\nentropy = 0.61\nsamples = 20\nvalue = [0, 17, 3]"] ;
80 -> 81 ;
82 [label="fs1e1 <= 2.5\nentropy = 0.31\nsamples = 18\nvalue = [0, 17, 1]"] ;
81 -> 82 ;
83 [label="entropy = 0.0\nsamples = 17\nvalue = [0, 17, 0]"] ;
82 -> 83 ;
84 [label="entropy = 0.0\nsamples = 1\nvalue = [0, 0, 1]"] ;
82 -> 84 ;
85 [label="entropy = 0.0\nsamples = 2\nvalue = [0, 0, 2]"] ;
81 -> 85 ;
86 [label="entropy = 0.0\nsamples = 5\nvalue = [0, 0, 5]"] ;
80 -> 86 ;
87 [label="fs1wa2 <= 2.5\nentropy = 0.826\nsamples = 27\nvalue = [0, 7, 20]"] ;
77 -> 87 ;
88 [label="entropy = 0.0\nsamples = 3\nvalue = [0, 3, 0]"] ;
87 -> 88 ;
89 [label="fs1wc17 <= 1.5\nentropy = 0.65\nsamples = 24\nvalue = [0, 4, 20]"] ;
87 -> 89 ;
90 [label="entropy = 0.0\nsamples = 2\nvalue = [0, 2, 0]"] ;
89 -> 90 ;
91 [label="fs1a1 <= 2.5\nentropy = 0.439\nsamples = 22\nvalue = [0, 2, 20]"] ;
89 -> 91 ;
92 [label="fs1ct3b <= 1.5\nentropy = 0.918\nsamples = 3\nvalue = [0, 2, 1]"] ;
91 -> 92 ;
93 [label="entropy = 0.0\nsamples = 1\nvalue = [0, 0, 1]"] ;
92 -> 93 ;
94 [label="entropy = 0.0\nsamples = 2\nvalue = [0, 2, 0]"] ;
92 -> 94 ;
95 [label="entropy = 0.0\nsamples = 19\nvalue = [0, 0, 19]"] ;
91 -> 95 ;
96 [label="fs1wc2 <= 2.5\nentropy = 0.362\nsamples = 116\nvalue = [0, 8, 108]"] ;
76 -> 96 ;
97 [label="fs1wc15 <= 2.5\nentropy = 1.0\nsamples = 14\nvalue = [0, 7, 7]"] ;
96 -> 97 ;
98 [label="fs1ct5b <= 1.5\nentropy = 0.764\nsamples = 9\nvalue = [0, 7, 2]"] ;
97 -> 98 ;
99 [label="fs1a2b <= 2.5\nentropy = 1.0\nsamples = 4\nvalue = [0, 2, 2]"] ;
98 -> 99 ;
100 [label="entropy = 0.0\nsamples = 2\nvalue = [0, 0, 2]"] ;
99 -> 100 ;
101 [label="entropy = 0.0\nsamples = 2\nvalue = [0, 2, 0]"] ;
99 -> 101 ;
102 [label="entropy = 0.0\nsamples = 5\nvalue = [0, 5, 0]"] ;
98 -> 102 ;
103 [label="entropy = 0.0\nsamples = 5\nvalue = [0, 0, 5]"] ;
97 -> 103 ;
104 [label="fs1c2y <= 47.5\nentropy = 0.079\nsamples = 102\nvalue = [0, 1, 101]"] ;
96 -> 104 ;
105 [label="entropy = 0.0\nsamples = 101\nvalue = [0, 0, 101]"] ;
104 -> 105 ;
106 [label="entropy = 0.0\nsamples = 1\nvalue = [0, 1, 0]"] ;
104 -> 106 ;
}