digraph Tree {
node [shape=box, fontname="helvetica"] ;
edge [fontname="helvetica"] ;
0 [label="fs1wc13 <= 1.5\nentropy = 1.53\nsamples = 561\nvalue = [160, 261, 140]"] ;
1 [label="fs1wc3 <= 1.5\nentropy = 1.063\nsamples = 372\nvalue = [160, 208, 4]"] ;
0 -> 1 [labeldistance=2.5, labelangle=45, headlabel="True"] ;
2 [label="fs1wb1 <= 1.5\nentropy = 0.904\nsamples = 200\nvalue = [136, 64, 0]"] ;
1 -> 2 ;
3 [label="fs1wc1 <= 2.5\nentropy = 0.6\nsamples = 137\nvalue = [117, 20, 0]"] ;
2 -> 3 ;
4 [label="fs1wc16 <= 1.5\nentropy = 0.319\nsamples = 121\nvalue = [114, 7, 0]"] ;
3 -> 4 ;
5 [label="entropy = 0.0\nsamples = 71\nvalue = [71, 0, 0]"] ;
4 -> 5 ;
6 [label="fs1c5a <= 3.5\nentropy = 0.584\nsamples = 50\nvalue = [43, 7, 0]"] ;
4 -> 6 ;
7 [label="fs1wc4 <= 1.5\nentropy = 0.482\nsamples = 48\nvalue = [43, 5, 0]"] ;
6 -> 7 ;
8 [label="fs1wc14 <= 1.5\nentropy = 0.172\nsamples = 39\nvalue = [38, 1, 0]"] ;
7 -> 8 ;
9 [label="entropy = 0.0\nsamples = 38\nvalue = [38, 0, 0]"] ;
8 -> 9 ;
10 [label="entropy = 0.0\nsamples = 1\nvalue = [0, 1, 0]"] ;
8 -> 10 ;
11 [label="fs1ct1 <= 160.5\nentropy = 0.991\nsamples = 9\nvalue = [5, 4, 0]"] ;
7 -> 11 ;
12 [label="fs1c307 <= 1.5\nentropy = 0.65\nsamples = 6\nvalue = [5, 1, 0]"] ;
11 -> 12 ;
13 [label="entropy = 0.0\nsamples = 5\nvalue = [5, 0, 0]"] ;
12 -> 13 ;
14 [label="entropy = 0.0\nsamples = 1\nvalue = [0, 1, 0]"] ;
12 -> 14 ;
15 [label="entropy = 0.0\nsamples = 3\nvalue = [0, 3, 0]"] ;
11 -> 15 ;
16 [label="entropy = 0.0\nsamples = 2\nvalue = [0, 2, 0]"] ;
6 -> 16 ;
17 [label="fs1wa1 <= 1.5\nentropy = 0.696\nsamples = 16\nvalue = [3, 13, 0]"] ;
3 -> 17 ;
18 [label="fs1q4 <= 65.0\nentropy = 0.971\nsamples = 5\nvalue = [3, 2, 0]"] ;
17 -> 18 ;
19 [label="entropy = 0.0\nsamples = 3\nvalue = [3, 0, 0]"] ;
18 -> 19 ;
20 [label="entropy = 0.0\nsamples = 2\nvalue = [0, 2, 0]"] ;
18 -> 20 ;
21 [label="entropy = 0.0\nsamples = 11\nvalue = [0, 11, 0]"] ;
17 -> 21 ;
22 [label="fs1e1 <= 1.5\nentropy = 0.883\nsamples = 63\nvalue = [19, 44, 0]"] ;
2 -> 22 ;
23 [label="fs1wc16 <= 1.5\nentropy = 0.999\nsamples = 37\nvalue = [18, 19, 0]"] ;
22 -> 23 ;
24 [label="fs1e4 <= 1.5\nentropy = 0.619\nsamples = 13\nvalue = [11, 2, 0]"] ;
23 -> 24 ;
25 [label="entropy = 0.0\nsamples = 9\nvalue = [9, 0, 0]"] ;
24 -> 25 ;
26 [label="fs1e3 <= 1.5\nentropy = 1.0\nsamples = 4\nvalue = [2, 2, 0]"] ;
24 -> 26 ;
27 [label="entropy = 0.0\nsamples = 2\nvalue = [0, 2, 0]"] ;
26 -> 27 ;
28 [label="entropy = 0.0\nsamples = 2\nvalue = [2, 0, 0]"] ;
26 -> 28 ;
29 [label="fs1wc15 <= 1.5\nentropy = 0.871\nsamples = 24\nvalue = [7, 17, 0]"] ;
23 -> 29 ;
30 [label="fs1d1z <= 1.5\nentropy = 0.997\nsamples = 15\nvalue = [7, 8, 0]"] ;
29 -> 30 ;
31 [label="entropy = 0.0\nsamples = 5\nvalue = [5, 0, 0]"] ;
30 -> 31 ;
32 [label="fs1a6c <= 4.5\nentropy = 0.722\nsamples = 10\nvalue = [2, 8, 0]"] ;
30 -> 32 ;
33 [label="entropy = 0.0\nsamples = 8\nvalue = [0, 8, 0]"] ;
32 -> 33 ;
34 [label="entropy = 0.0\nsamples = 2\nvalue = [2, 0, 0]"] ;
32 -> 34 ;
35 [label="entropy = 0.0\nsamples = 9\nvalue = [0, 9, 0]"] ;
29 -> 35 ;
36 [label="fs1c2a <= 3.5\nentropy = 0.235\nsamples = 26\nvalue = [1, 25, 0]"] ;
22 -> 36 ;
37 [label="entropy = 0.0\nsamples = 24\nvalue = [0, 24, 0]"] ;
36 -> 37 ;
38 [label="fs1a1 <= 3.0\nentropy = 1.0\nsamples = 2\nvalue = [1, 1, 0]"] ;
36 -> 38 ;
39 [label="entropy = 0.0\nsamples = 1\nvalue = [1, 0, 0]"] ;
38 -> 39 ;
40 [label="entropy = 0.0\nsamples = 1\nvalue = [0, 1, 0]"] ;
38 -> 40 ;
41 [label="fs1wa5 <= 1.5\nentropy = 0.737\nsamples = 172\nvalue = [24, 144, 4]"] ;
1 -> 41 ;
42 [label="fs1wc16 <= 1.5\nentropy = 0.811\nsamples = 88\nvalue = [22, 66, 0]"] ;
41 -> 42 ;
43 [label="fs1b10 <= 1.5\nentropy = 0.988\nsamples = 23\nvalue = [13, 10, 0]"] ;
42 -> 43 ;
44 [label="fs1c7 <= 1.5\nentropy = 0.9\nsamples = 19\nvalue = [13, 6, 0]"] ;
43 -> 44 ;
45 [label="entropy = 0.0\nsamples = 8\nvalue = [8, 0, 0]"] ;
44 -> 45 ;
46 [label="fs1ct2 <= 65.75\nentropy = 0.994\nsamples = 11\nvalue = [5, 6, 0]"] ;
44 -> 46 ;
47 [label="fs1q3b <= 8.5\nentropy = 0.65\nsamples = 6\nvalue = [5, 1, 0]"] ;
46 -> 47 ;
48 [label="entropy = 0.0\nsamples = 5\nvalue = [5, 0, 0]"] ;
47 -> 48 ;
49 [label="entropy = 0.0\nsamples = 1\nvalue = [0, 1, 0]"] ;
47 -> 49 ;
50 [label="entropy = 0.0\nsamples = 5\nvalue = [0, 5, 0]"] ;
46 -> 50 ;
51 [label="entropy = 0.0\nsamples = 4\nvalue = [0, 4, 0]"] ;
43 -> 51 ;
52 [label="fs1a3b <= 1.5\nentropy = 0.58\nsamples = 65\nvalue = [9, 56, 0]"] ;
42 -> 52 ;
53 [label="fs1wa1 <= 1.5\nentropy = 0.688\nsamples = 49\nvalue = [9, 40, 0]"] ;
52 -> 53 ;
54 [label="fs1q3c <= 22.5\nentropy = 0.985\nsamples = 14\nvalue = [6, 8, 0]"] ;
53 -> 54 ;
55 [label="fs1a6a <= 1.5\nentropy = 0.845\nsamples = 11\nvalue = [3, 8, 0]"] ;
54 -> 55 ;
56 [label="fs1ct7z1 <= 115.0\nentropy = 0.971\nsamples = 5\nvalue = [3, 2, 0]"] ;
55 -> 56 ;
57 [label="entropy = 0.0\nsamples = 2\nvalue = [0, 2, 0]"] ;
56 -> 57 ;
58 [label="entropy = 0.0\nsamples = 3\nvalue = [3, 0, 0]"] ;
56 -> 58 ;
59 [label="entropy = 0.0\nsamples = 6\nvalue = [0, 6, 0]"] ;
55 -> 59 ;
60 [label="entropy = 0.0\nsamples = 3\nvalue = [3, 0, 0]"] ;
54 -> 60 ;
61 [label="fs1q4 <= 62.5\nentropy = 0.422\nsamples = 35\nvalue = [3, 32, 0]"] ;
53 -> 61 ;
62 [label="entropy = 0.0\nsamples = 20\nvalue = [0, 20, 0]"] ;
61 -> 62 ;
63 [label="fs1q5 <= 2.5\nentropy = 0.722\nsamples = 15\nvalue = [3, 12, 0]"] ;
61 -> 63 ;
64 [label="fs1ct1 <= 161.0\nentropy = 0.954\nsamples = 8\nvalue = [3, 5, 0]"] ;
63 -> 64 ;
65 [label="entropy = 0.0\nsamples = 4\nvalue = [0, 4, 0]"] ;
64 -> 65 ;
66 [label="fs1d1a2 <= 1.5\nentropy = 0.811\nsamples = 4\nvalue = [3, 1, 0]"] ;
64 -> 66 ;
67 [label="entropy = 0.0\nsamples = 3\nvalue = [3, 0, 0]"] ;
66 -> 67 ;
68 [label="entropy = 0.0\nsamples = 1\nvalue = [0, 1, 0]"] ;
66 -> 68 ;
69 [label="entropy = 0.0\nsamples = 7\nvalue = [0, 7, 0]"] ;
63 -> 69 ;
70 [label="entropy = 0.0\nsamples = 16\nvalue = [0, 16, 0]"] ;
52 -> 70 ;
71 [label="fs1a5 <= 3.5\nentropy = 0.437\nsamples = 84\nvalue = [2, 78, 4]"] ;
41 -> 71 ;
72 [label="fs1wc1 <= 1.5\nentropy = 0.183\nsamples = 72\nvalue = [2, 70, 0]"] ;
71 -> 72 ;
73 [label="entropy = 0.0\nsamples = 1\nvalue = [1, 0, 0]"] ;
72 -> 73 ;
74 [label="fs1q3c <= 29.0\nentropy = 0.107\nsamples = 71\nvalue = [1, 70, 0]"] ;
72 -> 74 ;
75 [label="entropy = 0.0\nsamples = 67\nvalue = [0, 67, 0]"] ;
74 -> 75 ;
76 [label="fs1a4b <= 1.5\nentropy = 0.811\nsamples = 4\nvalue = [1, 3, 0]"] ;
74 -> 76 ;
77 [label="entropy = 0.0\nsamples = 3\nvalue = [0, 3, 0]"] ;
76 -> 77 ;
78 [label="entropy = 0.0\nsamples = 1\nvalue = [1, 0, 0]"] ;
76 -> 78 ;
79 [label="age <= 61.0\nentropy = 0.918\nsamples = 12\nvalue = [0, 8, 4]"] ;
71 -> 79 ;
80 [label="entropy = 0.0\nsamples = 6\nvalue = [0, 6, 0]"] ;
79 -> 80 ;
81 [label="fs1d2z <= 1.5\nentropy = 0.918\nsamples = 6\nvalue = [0, 2, 4]"] ;
79 -> 81 ;
82 [label="entropy = 0.0\nsamples = 2\nvalue = [0, 2, 0]"] ;
81 -> 82 ;
83 [label="entropy = 0.0\nsamples = 4\nvalue = [0, 0, 4]"] ;
81 -> 83 ;
84 [label="fs1wc14 <= 1.5\nentropy = 0.856\nsamples = 189\nvalue = [0, 53, 136]"] ;
0 -> 84 [labeldistance=2.5, labelangle=-45, headlabel="False"] ;
85 [label="fs1wc3 <= 2.5\nentropy = 0.944\nsamples = 72\nvalue = [0, 46, 26]"] ;
84 -> 85 ;
86 [label="fs1wc5 <= 1.5\nentropy = 0.607\nsamples = 47\nvalue = [0, 40, 7]"] ;
85 -> 86 ;
87 [label="entropy = 0.0\nsamples = 28\nvalue = [0, 28, 0]"] ;
86 -> 87 ;
88 [label="fs1wa3 <= 1.5\nentropy = 0.949\nsamples = 19\nvalue = [0, 12, 7]"] ;
86 -> 88 ;
89 [label="fs1ct6y3 <= 4.5\nentropy = 0.439\nsamples = 11\nvalue = [0, 10, 1]"] ;
88 -> 89 ;
90 [label="entropy = 0.0\nsamples = 1\nvalue = [0, 0, 1]"] ;
89 -> 90 ;
91 [label="entropy = 0.0\nsamples = 10\nvalue = [0, 10, 0]"] ;
89 -> 91 ;
92 [label="fs1q3c <= 20.0\nentropy = 0.811\nsamples = 8\nvalue = [0, 2, 6]"] ;
88 -> 92 ;
93 [label="entropy = 0.0\nsamples = 6\nvalue = [0, 0, 6]"] ;
92 -> 93 ;
94 [label="entropy = 0.0\nsamples = 2\nvalue = [0, 2, 0]"] ;
92 -> 94 ;
95 [label="fs1wc17 <= 1.5\nentropy = 0.795\nsamples = 25\nvalue = [0, 6, 19]"] ;
85 -> 95 ;
96 [label="entropy = 0.0\nsamples = 3\nvalue = [0, 3, 0]"] ;
95 -> 96 ;
97 [label="fs1d2z <= 1.5\nentropy = 0.575\nsamples = 22\nvalue = [0, 3, 19]"] ;
95 -> 97 ;
98 [label="fs1wc9 <= 1.5\nentropy = 1.0\nsamples = 6\nvalue = [0, 3, 3]"] ;
97 -> 98 ;
99 [label="entropy = 0.0\nsamples = 3\nvalue = [0, 3, 0]"] ;
98 -> 99 ;
100 [label="entropy = 0.0\nsamples = 3\nvalue = [0, 0, 3]"] ;
98 -> 100 ;
101 [label="entropy = 0.0\nsamples = 16\nvalue = [0, 0, 16]"] ;
97 -> 101 ;
102 [label="fs1wa2 <= 2.5\nentropy = 0.327\nsamples = 117\nvalue = [0, 7, 110]"] ;
84 -> 102 ;
103 [label="fs1e4 <= 1.5\nentropy = 0.954\nsamples = 8\nvalue = [0, 5, 3]"] ;
102 -> 103 ;
104 [label="fs1wa3 <= 1.5\nentropy = 0.811\nsamples = 4\nvalue = [0, 1, 3]"] ;
103 -> 104 ;
105 [label="entropy = 0.0\nsamples = 1\nvalue = [0, 1, 0]"] ;
104 -> 105 ;
106 [label="entropy = 0.0\nsamples = 3\nvalue = [0, 0, 3]"] ;
104 -> 106 ;
107 [label="entropy = 0.0\nsamples = 4\nvalue = [0, 4, 0]"] ;
103 -> 107 ;
108 [label="fs1wc8 <= 1.5\nentropy = 0.132\nsamples = 109\nvalue = [0, 2, 107]"] ;
102 -> 108 ;
109 [label="q1b <= 355.5\nentropy = 1.0\nsamples = 4\nvalue = [0, 2, 2]"] ;
108 -> 109 ;
110 [label="entropy = 0.0\nsamples = 2\nvalue = [0, 0, 2]"] ;
109 -> 110 ;
111 [label="entropy = 0.0\nsamples = 2\nvalue = [0, 2, 0]"] ;
109 -> 111 ;
112 [label="entropy = 0.0\nsamples = 105\nvalue = [0, 0, 105]"] ;
108 -> 112 ;
}