digraph Tree {
node [shape=box, fontname="helvetica"] ;
edge [fontname="helvetica"] ;
0 [label="fs1wc13 <= 1.5\nentropy = 1.539\nsamples = 754\nvalue = [215, 342, 197]"] ;
1 [label="fs1wc3 <= 1.5\nentropy = 1.152\nsamples = 489\nvalue = [214, 261, 14]"] ;
0 -> 1 [labeldistance=2.5, labelangle=45, headlabel="True"] ;
2 [label="fs1wb1 <= 1.5\nentropy = 0.896\nsamples = 266\nvalue = [183, 83, 0]"] ;
1 -> 2 ;
3 [label="fs1wc1 <= 2.5\nentropy = 0.636\nsamples = 193\nvalue = [162, 31, 0]"] ;
2 -> 3 ;
4 [label="fs1wc6 <= 1.5\nentropy = 0.405\nsamples = 173\nvalue = [159, 14, 0]"] ;
3 -> 4 ;
5 [label="fs1wa4 <= 1.5\nentropy = 0.259\nsamples = 160\nvalue = [153, 7, 0]"] ;
4 -> 5 ;
6 [label="fs1wc7 <= 2.5\nentropy = 0.141\nsamples = 151\nvalue = [148, 3, 0]"] ;
5 -> 6 ;
7 [label="fs1wc5 <= 1.5\nentropy = 0.058\nsamples = 149\nvalue = [148, 1, 0]"] ;
6 -> 7 ;
8 [label="entropy = 0.0\nsamples = 141\nvalue = [141, 0, 0]"] ;
7 -> 8 ;
9 [label="fs1ct2 <= 51.85\nentropy = 0.544\nsamples = 8\nvalue = [7, 1, 0]"] ;
7 -> 9 ;
10 [label="entropy = 0.0\nsamples = 1\nvalue = [0, 1, 0]"] ;
9 -> 10 ;
11 [label="entropy = 0.0\nsamples = 7\nvalue = [7, 0, 0]"] ;
9 -> 11 ;
12 [label="entropy = 0.0\nsamples = 2\nvalue = [0, 2, 0]"] ;
6 -> 12 ;
13 [label="fs1ct2 <= 62.15\nentropy = 0.991\nsamples = 9\nvalue = [5, 4, 0]"] ;
5 -> 13 ;
14 [label="fs1ct6z3 <= 4.5\nentropy = 0.722\nsamples = 5\nvalue = [1, 4, 0]"] ;
13 -> 14 ;
15 [label="entropy = 0.0\nsamples = 1\nvalue = [1, 0, 0]"] ;
14 -> 15 ;
16 [label="entropy = 0.0\nsamples = 4\nvalue = [0, 4, 0]"] ;
14 -> 16 ;
17 [label="entropy = 0.0\nsamples = 4\nvalue = [4, 0, 0]"] ;
13 -> 17 ;
18 [label="q1b <= 200.0\nentropy = 0.996\nsamples = 13\nvalue = [6, 7, 0]"] ;
4 -> 18 ;
19 [label="entropy = 0.0\nsamples = 5\nvalue = [5, 0, 0]"] ;
18 -> 19 ;
20 [label="fs1ct5a <= 1.5\nentropy = 0.544\nsamples = 8\nvalue = [1, 7, 0]"] ;
18 -> 20 ;
21 [label="entropy = 0.0\nsamples = 1\nvalue = [1, 0, 0]"] ;
20 -> 21 ;
22 [label="entropy = 0.0\nsamples = 7\nvalue = [0, 7, 0]"] ;
20 -> 22 ;
23 [label="fs1wa1 <= 1.5\nentropy = 0.61\nsamples = 20\nvalue = [3, 17, 0]"] ;
3 -> 23 ;
24 [label="fs1c307 <= 1.5\nentropy = 0.971\nsamples = 5\nvalue = [3, 2, 0]"] ;
23 -> 24 ;
25 [label="entropy = 0.0\nsamples = 3\nvalue = [3, 0, 0]"] ;
24 -> 25 ;
26 [label="entropy = 0.0\nsamples = 2\nvalue = [0, 2, 0]"] ;
24 -> 26 ;
27 [label="entropy = 0.0\nsamples = 15\nvalue = [0, 15, 0]"] ;
23 -> 27 ;
28 [label="fs1wc16 <= 1.5\nentropy = 0.866\nsamples = 73\nvalue = [21, 52, 0]"] ;
2 -> 28 ;
29 [label="fs1wa3 <= 1.5\nentropy = 0.934\nsamples = 20\nvalue = [13, 7, 0]"] ;
28 -> 29 ;
30 [label="fs1wa2 <= 2.5\nentropy = 0.696\nsamples = 16\nvalue = [13, 3, 0]"] ;
29 -> 30 ;
31 [label="entropy = 0.0\nsamples = 11\nvalue = [11, 0, 0]"] ;
30 -> 31 ;
32 [label="fs1q5 <= 3.5\nentropy = 0.971\nsamples = 5\nvalue = [2, 3, 0]"] ;
30 -> 32 ;
33 [label="entropy = 0.0\nsamples = 2\nvalue = [2, 0, 0]"] ;
32 -> 33 ;
34 [label="entropy = 0.0\nsamples = 3\nvalue = [0, 3, 0]"] ;
32 -> 34 ;
35 [label="entropy = 0.0\nsamples = 4\nvalue = [0, 4, 0]"] ;
29 -> 35 ;
36 [label="fs1wc1 <= 1.5\nentropy = 0.612\nsamples = 53\nvalue = [8, 45, 0]"] ;
28 -> 36 ;
37 [label="fs1wa3 <= 1.5\nentropy = 0.996\nsamples = 13\nvalue = [6, 7, 0]"] ;
36 -> 37 ;
38 [label="fs1c304 <= 1.5\nentropy = 0.65\nsamples = 6\nvalue = [5, 1, 0]"] ;
37 -> 38 ;
39 [label="entropy = 0.0\nsamples = 5\nvalue = [5, 0, 0]"] ;
38 -> 39 ;
40 [label="entropy = 0.0\nsamples = 1\nvalue = [0, 1, 0]"] ;
38 -> 40 ;
41 [label="fs1a2a <= 1.5\nentropy = 0.592\nsamples = 7\nvalue = [1, 6, 0]"] ;
37 -> 41 ;
42 [label="entropy = 0.0\nsamples = 1\nvalue = [1, 0, 0]"] ;
41 -> 42 ;
43 [label="entropy = 0.0\nsamples = 6\nvalue = [0, 6, 0]"] ;
41 -> 43 ;
44 [label="fs1d1a1 <= 3.0\nentropy = 0.286\nsamples = 40\nvalue = [2, 38, 0]"] ;
36 -> 44 ;
45 [label="fs1a6c <= 4.5\nentropy = 0.172\nsamples = 39\nvalue = [1, 38, 0]"] ;
44 -> 45 ;
46 [label="entropy = 0.0\nsamples = 34\nvalue = [0, 34, 0]"] ;
45 -> 46 ;
47 [label="fs1d1a1 <= 1.5\nentropy = 0.722\nsamples = 5\nvalue = [1, 4, 0]"] ;
45 -> 47 ;
48 [label="entropy = 0.0\nsamples = 4\nvalue = [0, 4, 0]"] ;
47 -> 48 ;
49 [label="entropy = 0.0\nsamples = 1\nvalue = [1, 0, 0]"] ;
47 -> 49 ;
50 [label="entropy = 0.0\nsamples = 1\nvalue = [1, 0, 0]"] ;
44 -> 50 ;
51 [label="fs1wc8 <= 1.5\nentropy = 0.906\nsamples = 223\nvalue = [31, 178, 14]"] ;
1 -> 51 ;
52 [label="fs1wc16 <= 1.5\nentropy = 0.695\nsamples = 166\nvalue = [31, 135, 0]"] ;
51 -> 52 ;
53 [label="fs1wc1 <= 2.5\nentropy = 0.998\nsamples = 34\nvalue = [18, 16, 0]"] ;
52 -> 53 ;
54 [label="fs1e9 <= 1.5\nentropy = 0.958\nsamples = 29\nvalue = [18, 11, 0]"] ;
53 -> 54 ;
55 [label="fs1e3 <= 1.5\nentropy = 0.811\nsamples = 24\nvalue = [18, 6, 0]"] ;
54 -> 55 ;
56 [label="fs1q6 <= 3.5\nentropy = 0.337\nsamples = 16\nvalue = [15, 1, 0]"] ;
55 -> 56 ;
57 [label="entropy = 0.0\nsamples = 15\nvalue = [15, 0, 0]"] ;
56 -> 57 ;
58 [label="entropy = 0.0\nsamples = 1\nvalue = [0, 1, 0]"] ;
56 -> 58 ;
59 [label="fs1c7 <= 1.5\nentropy = 0.954\nsamples = 8\nvalue = [3, 5, 0]"] ;
55 -> 59 ;
60 [label="entropy = 0.0\nsamples = 3\nvalue = [3, 0, 0]"] ;
59 -> 60 ;
61 [label="entropy = 0.0\nsamples = 5\nvalue = [0, 5, 0]"] ;
59 -> 61 ;
62 [label="entropy = 0.0\nsamples = 5\nvalue = [0, 5, 0]"] ;
54 -> 62 ;
63 [label="entropy = 0.0\nsamples = 5\nvalue = [0, 5, 0]"] ;
53 -> 63 ;
64 [label="fs1wc6 <= 1.5\nentropy = 0.464\nsamples = 132\nvalue = [13, 119, 0]"] ;
52 -> 64 ;
65 [label="fs1wb1 <= 1.5\nentropy = 0.64\nsamples = 80\nvalue = [13, 67, 0]"] ;
64 -> 65 ;
66 [label="fs1wa1 <= 1.5\nentropy = 0.819\nsamples = 51\nvalue = [13, 38, 0]"] ;
65 -> 66 ;
67 [label="fs1wc2 <= 2.5\nentropy = 0.997\nsamples = 15\nvalue = [8, 7, 0]"] ;
66 -> 67 ;
68 [label="fs1d1z <= 1.5\nentropy = 0.845\nsamples = 11\nvalue = [8, 3, 0]"] ;
67 -> 68 ;
69 [label="entropy = 0.0\nsamples = 7\nvalue = [7, 0, 0]"] ;
68 -> 69 ;
70 [label="fs1ct1 <= 174.5\nentropy = 0.811\nsamples = 4\nvalue = [1, 3, 0]"] ;
68 -> 70 ;
71 [label="entropy = 0.0\nsamples = 3\nvalue = [0, 3, 0]"] ;
70 -> 71 ;
72 [label="entropy = 0.0\nsamples = 1\nvalue = [1, 0, 0]"] ;
70 -> 72 ;
73 [label="entropy = 0.0\nsamples = 4\nvalue = [0, 4, 0]"] ;
67 -> 73 ;
74 [label="fs1c2y <= 34.5\nentropy = 0.581\nsamples = 36\nvalue = [5, 31, 0]"] ;
66 -> 74 ;
75 [label="entropy = 0.0\nsamples = 20\nvalue = [0, 20, 0]"] ;
74 -> 75 ;
76 [label="fs1ct1 <= 161.0\nentropy = 0.896\nsamples = 16\nvalue = [5, 11, 0]"] ;
74 -> 76 ;
77 [label="entropy = 0.0\nsamples = 8\nvalue = [0, 8, 0]"] ;
76 -> 77 ;
78 [label="fs1ct7y1 <= 115.0\nentropy = 0.954\nsamples = 8\nvalue = [5, 3, 0]"] ;
76 -> 78 ;
79 [label="entropy = 0.0\nsamples = 3\nvalue = [0, 3, 0]"] ;
78 -> 79 ;
80 [label="entropy = 0.0\nsamples = 5\nvalue = [5, 0, 0]"] ;
78 -> 80 ;
81 [label="entropy = 0.0\nsamples = 29\nvalue = [0, 29, 0]"] ;
65 -> 81 ;
82 [label="entropy = 0.0\nsamples = 52\nvalue = [0, 52, 0]"] ;
64 -> 82 ;
83 [label="fs1wc2 <= 2.5\nentropy = 0.804\nsamples = 57\nvalue = [0, 43, 14]"] ;
51 -> 83 ;
84 [label="entropy = 0.0\nsamples = 25\nvalue = [0, 25, 0]"] ;
83 -> 84 ;
85 [label="fs1wc6 <= 1.5\nentropy = 0.989\nsamples = 32\nvalue = [0, 18, 14]"] ;
83 -> 85 ;
86 [label="entropy = 0.0\nsamples = 10\nvalue = [0, 10, 0]"] ;
85 -> 86 ;
87 [label="fs1c2y <= 31.0\nentropy = 0.946\nsamples = 22\nvalue = [0, 8, 14]"] ;
85 -> 87 ;
88 [label="fs1e3 <= 2.5\nentropy = 0.414\nsamples = 12\nvalue = [0, 1, 11]"] ;
87 -> 88 ;
89 [label="entropy = 0.0\nsamples = 11\nvalue = [0, 0, 11]"] ;
88 -> 89 ;
90 [label="entropy = 0.0\nsamples = 1\nvalue = [0, 1, 0]"] ;
88 -> 90 ;
91 [label="fs1ct7z1 <= 127.5\nentropy = 0.881\nsamples = 10\nvalue = [0, 7, 3]"] ;
87 -> 91 ;
92 [label="fs1a4b <= 1.5\nentropy = 0.811\nsamples = 4\nvalue = [0, 1, 3]"] ;
91 -> 92 ;
93 [label="entropy = 0.0\nsamples = 3\nvalue = [0, 0, 3]"] ;
92 -> 93 ;
94 [label="entropy = 0.0\nsamples = 1\nvalue = [0, 1, 0]"] ;
92 -> 94 ;
95 [label="entropy = 0.0\nsamples = 6\nvalue = [0, 6, 0]"] ;
91 -> 95 ;
96 [label="fs1wc14 <= 1.5\nentropy = 0.922\nsamples = 265\nvalue = [1, 81, 183]"] ;
0 -> 96 [labeldistance=2.5, labelangle=-45, headlabel="False"] ;
97 [label="fs1wa2 <= 2.5\nentropy = 0.999\nsamples = 105\nvalue = [1, 68, 36]"] ;
96 -> 97 ;
98 [label="fs1e3 <= 2.5\nentropy = 0.191\nsamples = 34\nvalue = [1, 33, 0]"] ;
97 -> 98 ;
99 [label="entropy = 0.0\nsamples = 33\nvalue = [0, 33, 0]"] ;
98 -> 99 ;
100 [label="entropy = 0.0\nsamples = 1\nvalue = [1, 0, 0]"] ;
98 -> 100 ;
101 [label="fs1wc3 <= 2.5\nentropy = 1.0\nsamples = 71\nvalue = [0, 35, 36]"] ;
97 -> 101 ;
102 [label="fs1wc5 <= 1.5\nentropy = 0.839\nsamples = 41\nvalue = [0, 30, 11]"] ;
101 -> 102 ;
103 [label="entropy = 0.0\nsamples = 20\nvalue = [0, 20, 0]"] ;
102 -> 103 ;
104 [label="fs1wc4 <= 1.5\nentropy = 0.998\nsamples = 21\nvalue = [0, 10, 11]"] ;
102 -> 104 ;
105 [label="entropy = 0.0\nsamples = 6\nvalue = [0, 6, 0]"] ;
104 -> 105 ;
106 [label="fs1q3a <= 1960.5\nentropy = 0.837\nsamples = 15\nvalue = [0, 4, 11]"] ;
104 -> 106 ;
107 [label="entropy = 0.0\nsamples = 8\nvalue = [0, 0, 8]"] ;
106 -> 107 ;
108 [label="fs1wa3 <= 1.5\nentropy = 0.985\nsamples = 7\nvalue = [0, 4, 3]"] ;
106 -> 108 ;
109 [label="entropy = 0.0\nsamples = 4\nvalue = [0, 4, 0]"] ;
108 -> 109 ;
110 [label="entropy = 0.0\nsamples = 3\nvalue = [0, 0, 3]"] ;
108 -> 110 ;
111 [label="fs1a7 <= 4.5\nentropy = 0.65\nsamples = 30\nvalue = [0, 5, 25]"] ;
101 -> 111 ;
112 [label="fs1a6c <= 1.5\nentropy = 0.258\nsamples = 23\nvalue = [0, 1, 22]"] ;
111 -> 112 ;
113 [label="entropy = 0.0\nsamples = 1\nvalue = [0, 1, 0]"] ;
112 -> 113 ;
114 [label="entropy = 0.0\nsamples = 22\nvalue = [0, 0, 22]"] ;
112 -> 114 ;
115 [label="fs1a1 <= 3.5\nentropy = 0.985\nsamples = 7\nvalue = [0, 4, 3]"] ;
111 -> 115 ;
116 [label="entropy = 0.0\nsamples = 4\nvalue = [0, 4, 0]"] ;
115 -> 116 ;
117 [label="entropy = 0.0\nsamples = 3\nvalue = [0, 0, 3]"] ;
115 -> 117 ;
118 [label="fs1wc2 <= 2.5\nentropy = 0.407\nsamples = 160\nvalue = [0, 13, 147]"] ;
96 -> 118 ;
119 [label="fs1wc15 <= 2.5\nentropy = 1.0\nsamples = 22\nvalue = [0, 11, 11]"] ;
118 -> 119 ;
120 [label="fs1wb1 <= 2.5\nentropy = 0.837\nsamples = 15\nvalue = [0, 11, 4]"] ;
119 -> 120 ;
121 [label="q1b <= 482.5\nentropy = 0.414\nsamples = 12\nvalue = [0, 11, 1]"] ;
120 -> 121 ;
122 [label="entropy = 0.0\nsamples = 11\nvalue = [0, 11, 0]"] ;
121 -> 122 ;
123 [label="entropy = 0.0\nsamples = 1\nvalue = [0, 0, 1]"] ;
121 -> 123 ;
124 [label="entropy = 0.0\nsamples = 3\nvalue = [0, 0, 3]"] ;
120 -> 124 ;
125 [label="entropy = 0.0\nsamples = 7\nvalue = [0, 0, 7]"] ;
119 -> 125 ;
126 [label="fs1wc17 <= 1.5\nentropy = 0.109\nsamples = 138\nvalue = [0, 2, 136]"] ;
118 -> 126 ;
127 [label="fs1wc5 <= 2.5\nentropy = 0.971\nsamples = 5\nvalue = [0, 2, 3]"] ;
126 -> 127 ;
128 [label="entropy = 0.0\nsamples = 2\nvalue = [0, 2, 0]"] ;
127 -> 128 ;
129 [label="entropy = 0.0\nsamples = 3\nvalue = [0, 0, 3]"] ;
127 -> 129 ;
130 [label="entropy = 0.0\nsamples = 133\nvalue = [0, 0, 133]"] ;
126 -> 130 ;
}