digraph Tree {
node [shape=box, fontname="helvetica"] ;
edge [fontname="helvetica"] ;
0 [label="fs1a5 <= 2.5\nentropy = 1.585\nsamples = 1525\nvalue = [508.333, 508.333, 508.333]"] ;
1 [label="fs1d2z <= 1.5\nentropy = 1.182\nsamples = 662\nvalue = [422.993, 220.675, 37.031]"] ;
0 -> 1 [labeldistance=2.5, labelangle=45, headlabel="True"] ;
2 [label="fs1d1y <= 1.5\nentropy = 0.978\nsamples = 499\nvalue = [397.019, 159.856, 10.099]"] ;
1 -> 2 ;
3 [label="fs1ct4a <= 1.5\nentropy = 0.681\nsamples = 209\nvalue = [259.732, 57.121, 0.0]"] ;
2 -> 3 ;
4 [label="fs1ct4b <= 1.5\nentropy = 0.925\nsamples = 37\nvalue = [7.421, 14.383, 0.0]"] ;
3 -> 4 ;
5 [label="fs1ct6z1 <= 4.5\nentropy = 0.0\nsamples = 21\nvalue = [0.0, 8.63, 0.0]"] ;
4 -> 5 ;
6 [label="entropy = 0.0\nsamples = 2\nvalue = [0.0, 0.822, 0.0]"] ;
5 -> 6 ;
7 [label="entropy = 0.0\nsamples = 19\nvalue = [0.0, 7.808, 0.0]"] ;
5 -> 7 ;
8 [label="age <= 60.5\nentropy = 0.988\nsamples = 16\nvalue = [7.421, 5.753, 0.0]"] ;
4 -> 8 ;
9 [label="entropy = 0.0\nsamples = 10\nvalue = [0.0, 4.109, 0.0]"] ;
8 -> 9 ;
10 [label="fs1a6a <= 1.5\nentropy = 0.683\nsamples = 6\nvalue = [7.421, 1.644, 0.0]"] ;
8 -> 10 ;
11 [label="entropy = 0.0\nsamples = 3\nvalue = [0.0, 1.233, 0.0]"] ;
10 -> 11 ;
12 [label="fs1a2b <= 2.5\nentropy = 0.297\nsamples = 3\nvalue = [7.421, 0.411, 0.0]"] ;
10 -> 12 ;
13 [label="entropy = 0.0\nsamples = 1\nvalue = [0.0, 0.411, 0.0]"] ;
12 -> 13 ;
14 [label="entropy = 0.0\nsamples = 2\nvalue = [7.421, 0.0, 0.0]"] ;
12 -> 14 ;
15 [label="fs1b3 <= 2.5\nentropy = 0.597\nsamples = 172\nvalue = [252.311, 42.738, 0.0]"] ;
3 -> 15 ;
16 [label="fs1ct5a <= 1.5\nentropy = 0.558\nsamples = 160\nvalue = [252.311, 37.807, 0.0]"] ;
15 -> 16 ;
17 [label="fs1a6b <= 2.5\nentropy = 0.978\nsamples = 22\nvalue = [11.131, 7.808, 0.0]"] ;
16 -> 17 ;
18 [label="fs1a1 <= 3.5\nentropy = 0.89\nsamples = 15\nvalue = [11.131, 4.931, 0.0]"] ;
17 -> 18 ;
19 [label="fs1ct7y1 <= 117.5\nentropy = 0.733\nsamples = 10\nvalue = [11.131, 2.877, 0.0]"] ;
18 -> 19 ;
20 [label="entropy = 0.0\nsamples = 4\nvalue = [0.0, 1.644, 0.0]"] ;
19 -> 20 ;
21 [label="fs1e1 <= 1.5\nentropy = 0.468\nsamples = 6\nvalue = [11.131, 1.233, 0.0]"] ;
19 -> 21 ;
22 [label="age <= 42.0\nentropy = 0.222\nsamples = 4\nvalue = [11.131, 0.411, 0.0]"] ;
21 -> 22 ;
23 [label="entropy = 0.0\nsamples = 1\nvalue = [0.0, 0.411, 0.0]"] ;
22 -> 23 ;
24 [label="entropy = 0.0\nsamples = 3\nvalue = [11.131, 0.0, 0.0]"] ;
22 -> 24 ;
25 [label="entropy = -0.0\nsamples = 2\nvalue = [0.0, 0.822, 0.0]"] ;
21 -> 25 ;
26 [label="entropy = -0.0\nsamples = 5\nvalue = [0.0, 2.055, 0.0]"] ;
18 -> 26 ;
27 [label="fs1a3b <= 1.5\nentropy = 0.0\nsamples = 7\nvalue = [0.0, 2.877, 0.0]"] ;
17 -> 27 ;
28 [label="entropy = 0.0\nsamples = 2\nvalue = [0.0, 0.822, 0.0]"] ;
27 -> 28 ;
29 [label="entropy = 0.0\nsamples = 5\nvalue = [0.0, 2.055, 0.0]"] ;
27 -> 29 ;
30 [label="fs1ct7z1 <= 128.5\nentropy = 0.502\nsamples = 138\nvalue = [241.18, 29.999, 0.0]"] ;
16 -> 30 ;
31 [label="fs1ct7z1 <= 122.5\nentropy = 0.669\nsamples = 70\nvalue = [89.051, 18.903, 0.0]"] ;
30 -> 31 ;
32 [label="age <= 57.5\nentropy = 0.632\nsamples = 65\nvalue = [89.051, 16.849, 0.0]"] ;
31 -> 32 ;
33 [label="fs1a6c <= 4.5\nentropy = 0.37\nsamples = 22\nvalue = [48.236, 3.698, 0.0]"] ;
32 -> 33 ;
34 [label="fs1a3a <= 1.5\nentropy = 0.246\nsamples = 18\nvalue = [48.236, 2.055, 0.0]"] ;
33 -> 34 ;
35 [label="fs1a2b <= 2.5\nentropy = 0.168\nsamples = 16\nvalue = [48.236, 1.233, 0.0]"] ;
34 -> 35 ;
36 [label="fs1a7 <= 3.5\nentropy = 0.337\nsamples = 8\nvalue = [18.552, 1.233, 0.0]"] ;
35 -> 36 ;
37 [label="entropy = 0.0\nsamples = 1\nvalue = [0.0, 0.411, 0.0]"] ;
36 -> 37 ;
38 [label="fs1a2a <= 2.5\nentropy = 0.253\nsamples = 7\nvalue = [18.552, 0.822, 0.0]"] ;
36 -> 38 ;
39 [label="age <= 56.5\nentropy = 0.468\nsamples = 4\nvalue = [7.421, 0.822, 0.0]"] ;
38 -> 39 ;
40 [label="entropy = 0.0\nsamples = 2\nvalue = [0.0, 0.822, 0.0]"] ;
39 -> 40 ;
41 [label="entropy = -0.0\nsamples = 2\nvalue = [7.421, 0.0, 0.0]"] ;
39 -> 41 ;
42 [label="entropy = 0.0\nsamples = 3\nvalue = [11.131, 0.0, 0.0]"] ;
38 -> 42 ;
43 [label="entropy = 0.0\nsamples = 8\nvalue = [29.684, 0.0, 0.0]"] ;
35 -> 43 ;
44 [label="entropy = -0.0\nsamples = 2\nvalue = [0.0, 0.822, 0.0]"] ;
34 -> 44 ;
45 [label="entropy = -0.0\nsamples = 4\nvalue = [0.0, 1.644, 0.0]"] ;
33 -> 45 ;
46 [label="fs1a1 <= 3.5\nentropy = 0.801\nsamples = 43\nvalue = [40.815, 13.15, 0.0]"] ;
32 -> 46 ;
47 [label="age <= 58.5\nentropy = 0.737\nsamples = 37\nvalue = [40.815, 10.684, 0.0]"] ;
46 -> 47 ;
48 [label="entropy = 0.0\nsamples = 4\nvalue = [0.0, 1.644, 0.0]"] ;
47 -> 48 ;
49 [label="fs1a1 <= 2.5\nentropy = 0.683\nsamples = 33\nvalue = [40.815, 9.041, 0.0]"] ;
47 -> 49 ;
50 [label="fs1ct7y1 <= 115.0\nentropy = 0.89\nsamples = 20\nvalue = [14.842, 6.575, 0.0]"] ;
49 -> 50 ;
51 [label="entropy = 0.0\nsamples = 7\nvalue = [0.0, 2.877, 0.0]"] ;
50 -> 51 ;
52 [label="age <= 61.5\nentropy = 0.721\nsamples = 13\nvalue = [14.842, 3.698, 0.0]"] ;
50 -> 52 ;
53 [label="entropy = 0.0\nsamples = 2\nvalue = [7.421, 0.0, 0.0]"] ;
52 -> 53 ;
54 [label="age <= 67.5\nentropy = 0.918\nsamples = 11\nvalue = [7.421, 3.698, 0.0]"] ;
52 -> 54 ;
55 [label="fs1a2a <= 1.5\nentropy = 0.0\nsamples = 6\nvalue = [0.0, 2.466, 0.0]"] ;
54 -> 55 ;
56 [label="entropy = 0.0\nsamples = 1\nvalue = [0.0, 0.411, 0.0]"] ;
55 -> 56 ;
57 [label="entropy = 0.0\nsamples = 5\nvalue = [0.0, 2.055, 0.0]"] ;
55 -> 57 ;
58 [label="fs1a2b <= 2.5\nentropy = 0.591\nsamples = 5\nvalue = [7.421, 1.233, 0.0]"] ;
54 -> 58 ;
59 [label="entropy = -0.0\nsamples = 3\nvalue = [0.0, 1.233, 0.0]"] ;
58 -> 59 ;
60 [label="entropy = -0.0\nsamples = 2\nvalue = [7.421, 0.0, 0.0]"] ;
58 -> 60 ;
61 [label="fs1e2 <= 1.5\nentropy = 0.425\nsamples = 13\nvalue = [25.973, 2.466, 0.0]"] ;
49 -> 61 ;
62 [label="fs1a2a <= 2.5\nentropy = 0.326\nsamples = 11\nvalue = [25.973, 1.644, 0.0]"] ;
61 -> 62 ;
63 [label="fs1ct7z1 <= 115.0\nentropy = 0.683\nsamples = 6\nvalue = [7.421, 1.644, 0.0]"] ;
62 -> 63 ;
64 [label="age <= 62.5\nentropy = 0.297\nsamples = 3\nvalue = [7.421, 0.411, 0.0]"] ;
63 -> 64 ;
65 [label="entropy = 0.0\nsamples = 1\nvalue = [0.0, 0.411, 0.0]"] ;
64 -> 65 ;
66 [label="entropy = 0.0\nsamples = 2\nvalue = [7.421, 0.0, 0.0]"] ;
64 -> 66 ;
67 [label="entropy = -0.0\nsamples = 3\nvalue = [0.0, 1.233, 0.0]"] ;
63 -> 67 ;
68 [label="entropy = 0.0\nsamples = 5\nvalue = [18.552, 0.0, 0.0]"] ;
62 -> 68 ;
69 [label="fs1a6c <= 4.5\nentropy = 0.0\nsamples = 2\nvalue = [0.0, 0.822, 0.0]"] ;
61 -> 69 ;
70 [label="entropy = 0.0\nsamples = 1\nvalue = [0.0, 0.411, 0.0]"] ;
69 -> 70 ;
71 [label="entropy = 0.0\nsamples = 1\nvalue = [0.0, 0.411, 0.0]"] ;
69 -> 71 ;
72 [label="entropy = -0.0\nsamples = 6\nvalue = [0.0, 2.466, 0.0]"] ;
46 -> 72 ;
73 [label="entropy = -0.0\nsamples = 5\nvalue = [0.0, 2.055, 0.0]"] ;
31 -> 73 ;
74 [label="age <= 71.5\nentropy = 0.358\nsamples = 68\nvalue = [152.129, 11.095, 0.0]"] ;
30 -> 74 ;
75 [label="fs1e7 <= 1.5\nentropy = 0.413\nsamples = 60\nvalue = [122.445, 11.095, 0.0]"] ;
74 -> 75 ;
76 [label="fs1a6b <= 4.5\nentropy = 0.372\nsamples = 56\nvalue = [122.445, 9.452, 0.0]"] ;
75 -> 76 ;
77 [label="fs1d1z <= 1.5\nentropy = 0.35\nsamples = 54\nvalue = [122.445, 8.63, 0.0]"] ;
76 -> 77 ;
78 [label="fs1a6c <= 3.5\nentropy = 0.303\nsamples = 47\nvalue = [115.024, 6.575, 0.0]"] ;
77 -> 78 ;
79 [label="fs1e9 <= 1.5\nentropy = 0.087\nsamples = 11\nvalue = [37.105, 0.411, 0.0]"] ;
78 -> 79 ;
80 [label="fs1e1 <= 1.5\nentropy = 0.0\nsamples = 10\nvalue = [37.105, 0.0, 0.0]"] ;
79 -> 80 ;
81 [label="entropy = 0.0\nsamples = 8\nvalue = [29.684, 0.0, 0.0]"] ;
80 -> 81 ;
82 [label="entropy = 0.0\nsamples = 2\nvalue = [7.421, 0.0, 0.0]"] ;
80 -> 82 ;
83 [label="entropy = -0.0\nsamples = 1\nvalue = [0.0, 0.411, 0.0]"] ;
79 -> 83 ;
84 [label="fs1c1y <= 1.5\nentropy = 0.378\nsamples = 36\nvalue = [77.92, 6.164, 0.0]"] ;
78 -> 84 ;
85 [label="fs1ct6z2 <= 7.0\nentropy = 0.344\nsamples = 34\nvalue = [77.92, 5.342, 0.0]"] ;
84 -> 85 ;
86 [label="age <= 68.0\nentropy = 0.326\nsamples = 33\nvalue = [77.92, 4.931, 0.0]"] ;
85 -> 86 ;
87 [label="age <= 59.5\nentropy = 0.307\nsamples = 32\nvalue = [77.92, 4.52, 0.0]"] ;
86 -> 87 ;
88 [label="fs1e3 <= 1.5\nentropy = 0.402\nsamples = 25\nvalue = [51.946, 4.52, 0.0]"] ;
87 -> 88 ;
89 [label="age <= 57.5\nentropy = 0.353\nsamples = 23\nvalue = [51.946, 3.698, 0.0]"] ;
88 -> 89 ;
90 [label="fs1e9 <= 1.5\nentropy = 0.297\nsamples = 21\nvalue = [51.946, 2.877, 0.0]"] ;
89 -> 90 ;
91 [label="fs1a4b <= 1.5\nentropy = 0.266\nsamples = 20\nvalue = [51.946, 2.466, 0.0]"] ;
90 -> 91 ;
92 [label="fs1c2b <= 1.5\nentropy = 0.233\nsamples = 19\nvalue = [51.946, 2.055, 0.0]"] ;
91 -> 92 ;
93 [label="entropy = 0.0\nsamples = 5\nvalue = [18.552, 0.0, 0.0]"] ;
92 -> 93 ;
94 [label="fs1a2a <= 2.5\nentropy = 0.319\nsamples = 14\nvalue = [33.394, 2.055, 0.0]"] ;
92 -> 94 ;
95 [label="entropy = 0.0\nsamples = 2\nvalue = [0.0, 0.822, 0.0]"] ;
94 -> 95 ;
96 [label="fs1d1a2 <= 2.5\nentropy = 0.222\nsamples = 12\nvalue = [33.394, 1.233, 0.0]"] ;
94 -> 96 ;
97 [label="fs1ct7z1 <= 132.5\nentropy = 0.163\nsamples = 11\nvalue = [33.394, 0.822, 0.0]"] ;
96 -> 97 ;
98 [label="age <= 54.5\nentropy = 0.297\nsamples = 6\nvalue = [14.842, 0.822, 0.0]"] ;
97 -> 98 ;
99 [label="age <= 46.5\nentropy = 0.179\nsamples = 5\nvalue = [14.842, 0.411, 0.0]"] ;
98 -> 99 ;
100 [label="entropy = 0.0\nsamples = 1\nvalue = [0.0, 0.411, 0.0]"] ;
99 -> 100 ;
101 [label="entropy = 0.0\nsamples = 4\nvalue = [14.842, 0.0, 0.0]"] ;
99 -> 101 ;
102 [label="entropy = -0.0\nsamples = 1\nvalue = [0.0, 0.411, 0.0]"] ;
98 -> 102 ;
103 [label="entropy = 0.0\nsamples = 5\nvalue = [18.552, 0.0, 0.0]"] ;
97 -> 103 ;
104 [label="entropy = -0.0\nsamples = 1\nvalue = [0.0, 0.411, 0.0]"] ;
96 -> 104 ;
105 [label="entropy = -0.0\nsamples = 1\nvalue = [0.0, 0.411, 0.0]"] ;
91 -> 105 ;
106 [label="entropy = -0.0\nsamples = 1\nvalue = [0.0, 0.411, 0.0]"] ;
90 -> 106 ;
107 [label="entropy = -0.0\nsamples = 2\nvalue = [0.0, 0.822, 0.0]"] ;
89 -> 107 ;
108 [label="entropy = -0.0\nsamples = 2\nvalue = [0.0, 0.822, 0.0]"] ;
88 -> 108 ;
109 [label="entropy = -0.0\nsamples = 7\nvalue = [25.973, 0.0, 0.0]"] ;
87 -> 109 ;
110 [label="entropy = -0.0\nsamples = 1\nvalue = [0.0, 0.411, 0.0]"] ;
86 -> 110 ;
111 [label="entropy = -0.0\nsamples = 1\nvalue = [0.0, 0.411, 0.0]"] ;
85 -> 111 ;
112 [label="entropy = -0.0\nsamples = 2\nvalue = [0.0, 0.822, 0.0]"] ;
84 -> 112 ;
113 [label="fs1a1 <= 2.5\nentropy = 0.754\nsamples = 7\nvalue = [7.421, 2.055, 0.0]"] ;
77 -> 113 ;
114 [label="fs1a2b <= 2.5\nentropy = 0.297\nsamples = 3\nvalue = [7.421, 0.411, 0.0]"] ;
113 -> 114 ;
115 [label="entropy = 0.0\nsamples = 1\nvalue = [0.0, 0.411, 0.0]"] ;
114 -> 115 ;
116 [label="entropy = 0.0\nsamples = 2\nvalue = [7.421, 0.0, 0.0]"] ;
114 -> 116 ;
117 [label="entropy = -0.0\nsamples = 4\nvalue = [0.0, 1.644, 0.0]"] ;
113 -> 117 ;
118 [label="entropy = -0.0\nsamples = 2\nvalue = [0.0, 0.822, 0.0]"] ;
76 -> 118 ;
119 [label="entropy = -0.0\nsamples = 4\nvalue = [0.0, 1.644, 0.0]"] ;
75 -> 119 ;
120 [label="fs1c1z <= 1.5\nentropy = 0.0\nsamples = 8\nvalue = [29.684, 0.0, 0.0]"] ;
74 -> 120 ;
121 [label="entropy = 0.0\nsamples = 6\nvalue = [22.263, 0.0, 0.0]"] ;
120 -> 121 ;
122 [label="entropy = 0.0\nsamples = 2\nvalue = [7.421, 0.0, 0.0]"] ;
120 -> 122 ;
123 [label="fs1d1a1 <= 2.5\nentropy = 0.0\nsamples = 12\nvalue = [0.0, 4.931, 0.0]"] ;
15 -> 123 ;
124 [label="entropy = 0.0\nsamples = 11\nvalue = [0.0, 4.52, 0.0]"] ;
123 -> 124 ;
125 [label="entropy = 0.0\nsamples = 1\nvalue = [0.0, 0.411, 0.0]"] ;
123 -> 125 ;
126 [label="fs1ct6y4 <= 4.5\nentropy = 1.189\nsamples = 290\nvalue = [137.287, 102.735, 10.099]"] ;
2 -> 126 ;
127 [label="fs1a6c <= 4.5\nentropy = 0.714\nsamples = 6\nvalue = [0.0, 1.644, 6.733]"] ;
126 -> 127 ;
128 [label="entropy = 0.0\nsamples = 4\nvalue = [0.0, 1.644, 0.0]"] ;
127 -> 128 ;
129 [label="entropy = -0.0\nsamples = 2\nvalue = [0.0, 0.0, 6.733]"] ;
127 -> 129 ;
130 [label="fs1a7 <= 3.5\nentropy = 1.075\nsamples = 284\nvalue = [137.287, 101.091, 3.366]"] ;
126 -> 130 ;
131 [label="entropy = 0.0\nsamples = 38\nvalue = [0.0, 15.616, 0.0]"] ;
130 -> 131 ;
132 [label="fs1a6a <= 1.5\nentropy = 1.058\nsamples = 246\nvalue = [137.287, 85.476, 3.366]"] ;
130 -> 132 ;
133 [label="fs1a1 <= 3.5\nentropy = 1.186\nsamples = 128\nvalue = [40.815, 47.669, 3.366]"] ;
132 -> 133 ;
134 [label="fs1c7 <= 2.5\nentropy = 1.0\nsamples = 112\nvalue = [40.815, 41.505, 0.0]"] ;
133 -> 134 ;
135 [label="fs1d2y <= 1.5\nentropy = 0.971\nsamples = 102\nvalue = [25.973, 39.039, 0.0]"] ;
134 -> 135 ;
136 [label="fs1a6b <= 1.5\nentropy = 1.0\nsamples = 73\nvalue = [25.973, 27.122, 0.0]"] ;
135 -> 136 ;
137 [label="age <= 50.5\nentropy = 0.988\nsamples = 56\nvalue = [25.973, 20.136, 0.0]"] ;
136 -> 137 ;
138 [label="fs1c7 <= 1.5\nentropy = 0.468\nsamples = 6\nvalue = [11.131, 1.233, 0.0]"] ;
137 -> 138 ;
139 [label="fs1ct4a <= 1.5\nentropy = 0.81\nsamples = 4\nvalue = [3.71, 1.233, 0.0]"] ;
138 -> 139 ;
140 [label="entropy = 0.0\nsamples = 1\nvalue = [3.71, 0.0, 0.0]"] ;
139 -> 140 ;
141 [label="entropy = 0.0\nsamples = 3\nvalue = [0.0, 1.233, 0.0]"] ;
139 -> 141 ;
142 [label="entropy = 0.0\nsamples = 2\nvalue = [7.421, 0.0, 0.0]"] ;
138 -> 142 ;
143 [label="fs1ct4b <= 1.5\nentropy = 0.99\nsamples = 50\nvalue = [14.842, 18.903, 0.0]"] ;
137 -> 143 ;
144 [label="fs1ct7y1 <= 125.0\nentropy = 0.683\nsamples = 6\nvalue = [7.421, 1.644, 0.0]"] ;
143 -> 144 ;
145 [label="entropy = 0.0\nsamples = 2\nvalue = [7.421, 0.0, 0.0]"] ;
144 -> 145 ;
146 [label="entropy = -0.0\nsamples = 4\nvalue = [0.0, 1.644, 0.0]"] ;
144 -> 146 ;
147 [label="fs1a7 <= 4.5\nentropy = 0.882\nsamples = 44\nvalue = [7.421, 17.259, 0.0]"] ;
143 -> 147 ;
148 [label="fs1ct7y1 <= 125.0\nentropy = 0.94\nsamples = 12\nvalue = [7.421, 4.109, 0.0]"] ;
147 -> 148 ;
149 [label="fs1a2b <= 1.5\nentropy = 0.998\nsamples = 11\nvalue = [3.71, 4.109, 0.0]"] ;
148 -> 149 ;
150 [label="age <= 62.0\nentropy = 0.468\nsamples = 2\nvalue = [3.71, 0.411, 0.0]"] ;
149 -> 150 ;
151 [label="entropy = 0.0\nsamples = 1\nvalue = [0.0, 0.411, 0.0]"] ;
150 -> 151 ;
152 [label="entropy = -0.0\nsamples = 1\nvalue = [3.71, 0.0, 0.0]"] ;
150 -> 152 ;
153 [label="fs1ct4a <= 1.5\nentropy = 0.0\nsamples = 9\nvalue = [0.0, 3.698, 0.0]"] ;
149 -> 153 ;
154 [label="entropy = 0.0\nsamples = 1\nvalue = [0.0, 0.411, 0.0]"] ;
153 -> 154 ;
155 [label="entropy = 0.0\nsamples = 8\nvalue = [0.0, 3.288, 0.0]"] ;
153 -> 155 ;
156 [label="entropy = -0.0\nsamples = 1\nvalue = [3.71, 0.0, 0.0]"] ;
148 -> 156 ;
157 [label="fs1e9 <= 1.5\nentropy = 0.0\nsamples = 32\nvalue = [0.0, 13.15, 0.0]"] ;
147 -> 157 ;
158 [label="entropy = 0.0\nsamples = 29\nvalue = [0.0, 11.917, 0.0]"] ;
157 -> 158 ;
159 [label="entropy = 0.0\nsamples = 3\nvalue = [0.0, 1.233, 0.0]"] ;
157 -> 159 ;
160 [label="entropy = -0.0\nsamples = 17\nvalue = [0.0, 6.986, 0.0]"] ;
136 -> 160 ;
161 [label="entropy = -0.0\nsamples = 29\nvalue = [0.0, 11.917, 0.0]"] ;
135 -> 161 ;
162 [label="fs1e4 <= 1.5\nentropy = 0.591\nsamples = 10\nvalue = [14.842, 2.466, 0.0]"] ;
134 -> 162 ;
163 [label="fs1ct7y1 <= 132.5\nentropy = 0.39\nsamples = 7\nvalue = [14.842, 1.233, 0.0]"] ;
162 -> 163 ;
164 [label="fs1c1y <= 1.5\nentropy = 0.297\nsamples = 6\nvalue = [14.842, 0.822, 0.0]"] ;
163 -> 164 ;
165 [label="fs1ct7y1 <= 112.5\nentropy = 0.179\nsamples = 5\nvalue = [14.842, 0.411, 0.0]"] ;
164 -> 165 ;
166 [label="entropy = 0.0\nsamples = 1\nvalue = [0.0, 0.411, 0.0]"] ;
165 -> 166 ;
167 [label="entropy = 0.0\nsamples = 4\nvalue = [14.842, 0.0, 0.0]"] ;
165 -> 167 ;
168 [label="entropy = -0.0\nsamples = 1\nvalue = [0.0, 0.411, 0.0]"] ;
164 -> 168 ;
169 [label="entropy = -0.0\nsamples = 1\nvalue = [0.0, 0.411, 0.0]"] ;
163 -> 169 ;
170 [label="fs1d2y <= 1.5\nentropy = 0.0\nsamples = 3\nvalue = [0.0, 1.233, 0.0]"] ;
162 -> 170 ;
171 [label="entropy = 0.0\nsamples = 2\nvalue = [0.0, 0.822, 0.0]"] ;
170 -> 171 ;
172 [label="entropy = 0.0\nsamples = 1\nvalue = [0.0, 0.411, 0.0]"] ;
170 -> 172 ;
173 [label="age <= 69.5\nentropy = 0.937\nsamples = 16\nvalue = [0.0, 6.164, 3.366]"] ;
133 -> 173 ;
174 [label="fs1c2b <= 1.5\nentropy = 0.0\nsamples = 13\nvalue = [0.0, 5.342, 0.0]"] ;
173 -> 174 ;
175 [label="entropy = 0.0\nsamples = 7\nvalue = [0.0, 2.877, 0.0]"] ;
174 -> 175 ;
176 [label="entropy = 0.0\nsamples = 6\nvalue = [0.0, 2.466, 0.0]"] ;
174 -> 176 ;
177 [label="fs1ct7y1 <= 130.0\nentropy = 0.714\nsamples = 3\nvalue = [0.0, 0.822, 3.366]"] ;
173 -> 177 ;
178 [label="entropy = -0.0\nsamples = 2\nvalue = [0.0, 0.822, 0.0]"] ;
177 -> 178 ;
179 [label="entropy = 0.0\nsamples = 1\nvalue = [0.0, 0.0, 3.366]"] ;
177 -> 179 ;
180 [label="fs1a3a <= 1.5\nentropy = 0.858\nsamples = 118\nvalue = [96.472, 37.807, 0.0]"] ;
132 -> 180 ;
181 [label="fs1ct4b <= 1.5\nentropy = 0.764\nsamples = 93\nvalue = [96.472, 27.533, 0.0]"] ;
180 -> 181 ;
182 [label="entropy = 0.0\nsamples = 11\nvalue = [0.0, 4.52, 0.0]"] ;
181 -> 182 ;
183 [label="fs1c7 <= 3.5\nentropy = 0.707\nsamples = 82\nvalue = [96.472, 23.013, 0.0]"] ;
181 -> 183 ;
184 [label="fs1ct7y1 <= 107.5\nentropy = 0.664\nsamples = 75\nvalue = [96.472, 20.136, 0.0]"] ;
183 -> 184 ;
185 [label="entropy = 0.0\nsamples = 5\nvalue = [0.0, 2.055, 0.0]"] ;
184 -> 185 ;
186 [label="fs1a5 <= 1.5\nentropy = 0.629\nsamples = 70\nvalue = [96.472, 18.081, 0.0]"] ;
184 -> 186 ;
187 [label="fs1ct7z1 <= 121.0\nentropy = 0.116\nsamples = 8\nvalue = [25.973, 0.411, 0.0]"] ;
186 -> 187 ;
188 [label="age <= 68.5\nentropy = 0.468\nsamples = 2\nvalue = [3.71, 0.411, 0.0]"] ;
187 -> 188 ;
189 [label="entropy = 0.0\nsamples = 1\nvalue = [0.0, 0.411, 0.0]"] ;
188 -> 189 ;
190 [label="entropy = -0.0\nsamples = 1\nvalue = [3.71, 0.0, 0.0]"] ;
188 -> 190 ;
191 [label="entropy = -0.0\nsamples = 6\nvalue = [22.263, 0.0, 0.0]"] ;
187 -> 191 ;
192 [label="age <= 45.5\nentropy = 0.723\nsamples = 62\nvalue = [70.499, 17.67, 0.0]"] ;
186 -> 192 ;
193 [label="entropy = 0.0\nsamples = 4\nvalue = [0.0, 1.644, 0.0]"] ;
192 -> 193 ;
194 [label="fs1a1 <= 2.5\nentropy = 0.691\nsamples = 58\nvalue = [70.499, 16.027, 0.0]"] ;
192 -> 194 ;
195 [label="fs1e1 <= 1.5\nentropy = 0.491\nsamples = 25\nvalue = [44.526, 5.342, 0.0]"] ;
194 -> 195 ;
196 [label="fs1b8 <= 2.0\nentropy = 0.39\nsamples = 21\nvalue = [44.526, 3.698, 0.0]"] ;
195 -> 196 ;
197 [label="fs1ct7y1 <= 115.0\nentropy = 0.33\nsamples = 19\nvalue = [44.526, 2.877, 0.0]"] ;
196 -> 197 ;
198 [label="age <= 65.5\nentropy = 0.754\nsamples = 7\nvalue = [7.421, 2.055, 0.0]"] ;
197 -> 198 ;
199 [label="entropy = 0.0\nsamples = 2\nvalue = [0.0, 0.822, 0.0]"] ;
198 -> 199 ;
200 [label="age <= 83.5\nentropy = 0.591\nsamples = 5\nvalue = [7.421, 1.233, 0.0]"] ;
198 -> 200 ;
201 [label="age <= 78.0\nentropy = 0.468\nsamples = 4\nvalue = [7.421, 0.822, 0.0]"] ;
200 -> 201 ;
202 [label="age <= 70.5\nentropy = 0.683\nsamples = 3\nvalue = [3.71, 0.822, 0.0]"] ;
201 -> 202 ;
203 [label="entropy = 0.0\nsamples = 1\nvalue = [3.71, 0.0, 0.0]"] ;
202 -> 203 ;
204 [label="entropy = -0.0\nsamples = 2\nvalue = [0.0, 0.822, 0.0]"] ;
202 -> 204 ;
205 [label="entropy = -0.0\nsamples = 1\nvalue = [3.71, 0.0, 0.0]"] ;
201 -> 205 ;
206 [label="entropy = -0.0\nsamples = 1\nvalue = [0.0, 0.411, 0.0]"] ;
200 -> 206 ;
207 [label="age <= 78.0\nentropy = 0.151\nsamples = 12\nvalue = [37.105, 0.822, 0.0]"] ;
197 -> 207 ;
208 [label="fs1ct7y1 <= 127.5\nentropy = 0.087\nsamples = 11\nvalue = [37.105, 0.411, 0.0]"] ;
207 -> 208 ;
209 [label="fs1a4a <= 1.5\nentropy = 0.0\nsamples = 9\nvalue = [33.394, 0.0, 0.0]"] ;
208 -> 209 ;
210 [label="entropy = 0.0\nsamples = 8\nvalue = [29.684, 0.0, 0.0]"] ;
209 -> 210 ;
211 [label="entropy = 0.0\nsamples = 1\nvalue = [3.71, 0.0, 0.0]"] ;
209 -> 211 ;
212 [label="fs1ct7z1 <= 140.0\nentropy = 0.468\nsamples = 2\nvalue = [3.71, 0.411, 0.0]"] ;
208 -> 212 ;
213 [label="entropy = 0.0\nsamples = 1\nvalue = [0.0, 0.411, 0.0]"] ;
212 -> 213 ;
214 [label="entropy = -0.0\nsamples = 1\nvalue = [3.71, 0.0, 0.0]"] ;
212 -> 214 ;
215 [label="entropy = -0.0\nsamples = 1\nvalue = [0.0, 0.411, 0.0]"] ;
207 -> 215 ;
216 [label="entropy = -0.0\nsamples = 2\nvalue = [0.0, 0.822, 0.0]"] ;
196 -> 216 ;
217 [label="entropy = -0.0\nsamples = 4\nvalue = [0.0, 1.644, 0.0]"] ;
195 -> 217 ;
218 [label="age <= 54.0\nentropy = 0.871\nsamples = 33\nvalue = [25.973, 10.684, 0.0]"] ;
194 -> 218 ;
219 [label="fs1a4b <= 1.5\nentropy = 0.39\nsamples = 7\nvalue = [14.842, 1.233, 0.0]"] ;
218 -> 219 ;
220 [label="fs1c1z <= 2.0\nentropy = 0.179\nsamples = 5\nvalue = [14.842, 0.411, 0.0]"] ;
219 -> 220 ;
221 [label="entropy = 0.0\nsamples = 4\nvalue = [14.842, 0.0, 0.0]"] ;
220 -> 221 ;
222 [label="entropy = -0.0\nsamples = 1\nvalue = [0.0, 0.411, 0.0]"] ;
220 -> 222 ;
223 [label="entropy = -0.0\nsamples = 2\nvalue = [0.0, 0.822, 0.0]"] ;
219 -> 223 ;
224 [label="fs1ct7z1 <= 117.5\nentropy = 0.995\nsamples = 26\nvalue = [11.131, 9.452, 0.0]"] ;
218 -> 224 ;
225 [label="fs1ct5a <= 1.5\nentropy = 0.297\nsamples = 3\nvalue = [7.421, 0.411, 0.0]"] ;
224 -> 225 ;
226 [label="entropy = 0.0\nsamples = 1\nvalue = [0.0, 0.411, 0.0]"] ;
225 -> 226 ;
227 [label="entropy = 0.0\nsamples = 2\nvalue = [7.421, 0.0, 0.0]"] ;
225 -> 227 ;
228 [label="age <= 77.0\nentropy = 0.87\nsamples = 23\nvalue = [3.71, 9.041, 0.0]"] ;
224 -> 228 ;
229 [label="entropy = -0.0\nsamples = 22\nvalue = [0.0, 9.041, 0.0]"] ;
228 -> 229 ;
230 [label="entropy = -0.0\nsamples = 1\nvalue = [3.71, 0.0, 0.0]"] ;
228 -> 230 ;
231 [label="entropy = -0.0\nsamples = 7\nvalue = [0.0, 2.877, 0.0]"] ;
183 -> 231 ;
232 [label="entropy = -0.0\nsamples = 25\nvalue = [0.0, 10.274, 0.0]"] ;
180 -> 232 ;
233 [label="fs1a2b <= 1.5\nentropy = 1.462\nsamples = 163\nvalue = [25.973, 60.819, 26.932]"] ;
1 -> 233 ;
234 [label="fs1a2a <= 1.5\nentropy = 0.6\nsamples = 12\nvalue = [0.0, 2.877, 16.832]"] ;
233 -> 234 ;
235 [label="entropy = 0.0\nsamples = 3\nvalue = [0.0, 0.0, 10.099]"] ;
234 -> 235 ;
236 [label="fs1e5 <= 1.5\nentropy = 0.88\nsamples = 9\nvalue = [0.0, 2.877, 6.733]"] ;
234 -> 236 ;
237 [label="entropy = -0.0\nsamples = 6\nvalue = [0.0, 2.466, 0.0]"] ;
236 -> 237 ;
238 [label="fs1ct5b <= 1.5\nentropy = 0.318\nsamples = 3\nvalue = [0.0, 0.411, 6.733]"] ;
236 -> 238 ;
239 [label="entropy = 0.0\nsamples = 2\nvalue = [0.0, 0.0, 6.733]"] ;
238 -> 239 ;
240 [label="entropy = 0.0\nsamples = 1\nvalue = [0.0, 0.411, 0.0]"] ;
238 -> 240 ;
241 [label="fs1a7 <= 4.5\nentropy = 1.289\nsamples = 151\nvalue = [25.973, 57.943, 10.099]"] ;
233 -> 241 ;
242 [label="fs1e1 <= 2.5\nentropy = 0.423\nsamples = 88\nvalue = [0.0, 35.752, 3.366]"] ;
241 -> 242 ;
243 [label="entropy = -0.0\nsamples = 85\nvalue = [0.0, 34.93, 0.0]"] ;
242 -> 243 ;
244 [label="fs1a1 <= 3.5\nentropy = 0.714\nsamples = 3\nvalue = [0.0, 0.822, 3.366]"] ;
242 -> 244 ;
245 [label="entropy = -0.0\nsamples = 2\nvalue = [0.0, 0.822, 0.0]"] ;
244 -> 245 ;
246 [label="entropy = 0.0\nsamples = 1\nvalue = [0.0, 0.0, 3.366]"] ;
244 -> 246 ;
247 [label="fs1c2b <= 1.5\nentropy = 1.41\nsamples = 63\nvalue = [25.973, 22.191, 6.733]"] ;
241 -> 247 ;
248 [label="fs1b4 <= 1.5\nentropy = 0.706\nsamples = 39\nvalue = [3.71, 15.616, 0.0]"] ;
247 -> 248 ;
249 [label="fs1ct7z1 <= 80.0\nentropy = 0.0\nsamples = 33\nvalue = [0.0, 13.561, 0.0]"] ;
248 -> 249 ;
250 [label="entropy = 0.0\nsamples = 1\nvalue = [0.0, 0.411, 0.0]"] ;
249 -> 250 ;
251 [label="entropy = 0.0\nsamples = 32\nvalue = [0.0, 13.15, 0.0]"] ;
249 -> 251 ;
252 [label="age <= 64.5\nentropy = 0.94\nsamples = 6\nvalue = [3.71, 2.055, 0.0]"] ;
248 -> 252 ;
253 [label="entropy = 0.0\nsamples = 1\nvalue = [3.71, 0.0, 0.0]"] ;
252 -> 253 ;
254 [label="entropy = 0.0\nsamples = 5\nvalue = [0.0, 2.055, 0.0]"] ;
252 -> 254 ;
255 [label="fs1d1z <= 1.5\nentropy = 1.328\nsamples = 24\nvalue = [22.263, 6.575, 6.733]"] ;
247 -> 255 ;
256 [label="fs1a1 <= 2.5\nentropy = 0.337\nsamples = 8\nvalue = [18.552, 1.233, 0.0]"] ;
255 -> 256 ;
257 [label="entropy = 0.0\nsamples = 3\nvalue = [0.0, 1.233, 0.0]"] ;
256 -> 257 ;
258 [label="entropy = 0.0\nsamples = 5\nvalue = [18.552, 0.0, 0.0]"] ;
256 -> 258 ;
259 [label="fs1d1a2 <= 1.5\nentropy = 1.544\nsamples = 16\nvalue = [3.71, 5.342, 6.733]"] ;
255 -> 259 ;
260 [label="fs1b2 <= 2.0\nentropy = 0.993\nsamples = 12\nvalue = [3.71, 4.52, 0.0]"] ;
259 -> 260 ;
261 [label="entropy = 0.0\nsamples = 11\nvalue = [0.0, 4.52, 0.0]"] ;
260 -> 261 ;
262 [label="entropy = -0.0\nsamples = 1\nvalue = [3.71, 0.0, 0.0]"] ;
260 -> 262 ;
263 [label="fs1ct7y1 <= 117.5\nentropy = 0.496\nsamples = 4\nvalue = [0.0, 0.822, 6.733]"] ;
259 -> 263 ;
264 [label="entropy = 0.0\nsamples = 2\nvalue = [0.0, 0.822, 0.0]"] ;
263 -> 264 ;
265 [label="entropy = 0.0\nsamples = 2\nvalue = [0.0, 0.0, 6.733]"] ;
263 -> 265 ;
266 [label="fs1d2y <= 1.5\nentropy = 1.333\nsamples = 863\nvalue = [85.341, 287.658, 471.302]"] ;
0 -> 266 [labeldistance=2.5, labelangle=-45, headlabel="False"] ;
267 [label="fs1d1a1 <= 1.5\nentropy = 1.545\nsamples = 372\nvalue = [74.209, 132.734, 97.627]"] ;
266 -> 267 ;
268 [label="fs1a7 <= 3.5\nentropy = 1.34\nsamples = 250\nvalue = [66.788, 93.283, 16.832]"] ;
267 -> 268 ;
269 [label="fs1b4 <= 2.5\nentropy = 0.85\nsamples = 90\nvalue = [0.0, 35.341, 13.466]"] ;
268 -> 269 ;
270 [label="fs1b1 <= 2.5\nentropy = 0.453\nsamples = 79\nvalue = [0.0, 32.053, 3.366]"] ;
269 -> 270 ;
271 [label="entropy = -0.0\nsamples = 72\nvalue = [0.0, 29.588, 0.0]"] ;
270 -> 271 ;
272 [label="fs1a6a <= 1.5\nentropy = 0.983\nsamples = 7\nvalue = [0.0, 2.466, 3.366]"] ;
270 -> 272 ;
273 [label="entropy = 0.0\nsamples = 1\nvalue = [0.0, 0.0, 3.366]"] ;
272 -> 273 ;
274 [label="entropy = 0.0\nsamples = 6\nvalue = [0.0, 2.466, 0.0]"] ;
272 -> 274 ;
275 [label="fs1a6c <= 3.5\nentropy = 0.804\nsamples = 11\nvalue = [0.0, 3.288, 10.099]"] ;
269 -> 275 ;
276 [label="fs1ct7y1 <= 125.0\nentropy = 0.496\nsamples = 6\nvalue = [0.0, 1.233, 10.099]"] ;
275 -> 276 ;
277 [label="fs1c7 <= 2.5\nentropy = 0.238\nsamples = 4\nvalue = [0.0, 0.411, 10.099]"] ;
276 -> 277 ;
278 [label="entropy = 0.0\nsamples = 3\nvalue = [0.0, 0.0, 10.099]"] ;
277 -> 278 ;
279 [label="entropy = -0.0\nsamples = 1\nvalue = [0.0, 0.411, 0.0]"] ;
277 -> 279 ;
280 [label="entropy = -0.0\nsamples = 2\nvalue = [0.0, 0.822, 0.0]"] ;
276 -> 280 ;
281 [label="entropy = -0.0\nsamples = 5\nvalue = [0.0, 2.055, 0.0]"] ;
275 -> 281 ;
282 [label="fs1ct4a <= 1.5\nentropy = 1.146\nsamples = 160\nvalue = [66.788, 57.943, 3.366]"] ;
268 -> 282 ;
283 [label="fs1a4b <= 5.5\nentropy = 0.666\nsamples = 40\nvalue = [0.0, 16.027, 3.366]"] ;
282 -> 283 ;
284 [label="fs1d1a2 <= 1.5\nentropy = 0.0\nsamples = 39\nvalue = [0.0, 16.027, 0.0]"] ;
283 -> 284 ;
285 [label="entropy = 0.0\nsamples = 38\nvalue = [0.0, 15.616, 0.0]"] ;
284 -> 285 ;
286 [label="entropy = 0.0\nsamples = 1\nvalue = [0.0, 0.411, 0.0]"] ;
284 -> 286 ;
287 [label="entropy = 0.0\nsamples = 1\nvalue = [0.0, 0.0, 3.366]"] ;
283 -> 287 ;
288 [label="age <= 52.5\nentropy = 0.962\nsamples = 120\nvalue = [66.788, 41.916, 0.0]"] ;
282 -> 288 ;
289 [label="fs1a6b <= 2.5\nentropy = 0.435\nsamples = 17\nvalue = [33.394, 3.288, 0.0]"] ;
288 -> 289 ;
290 [label="fs1ct7z1 <= 127.5\nentropy = 0.242\nsamples = 11\nvalue = [29.684, 1.233, 0.0]"] ;
289 -> 290 ;
291 [label="fs1a7 <= 4.5\nentropy = 0.591\nsamples = 5\nvalue = [7.421, 1.233, 0.0]"] ;
290 -> 291 ;
292 [label="entropy = 0.0\nsamples = 2\nvalue = [7.421, 0.0, 0.0]"] ;
291 -> 292 ;
293 [label="entropy = -0.0\nsamples = 3\nvalue = [0.0, 1.233, 0.0]"] ;
291 -> 293 ;
294 [label="entropy = -0.0\nsamples = 6\nvalue = [22.263, 0.0, 0.0]"] ;
290 -> 294 ;
295 [label="fs1c8 <= 2.5\nentropy = 0.94\nsamples = 6\nvalue = [3.71, 2.055, 0.0]"] ;
289 -> 295 ;
296 [label="entropy = 0.0\nsamples = 5\nvalue = [0.0, 2.055, 0.0]"] ;
295 -> 296 ;
297 [label="entropy = 0.0\nsamples = 1\nvalue = [3.71, 0.0, 0.0]"] ;
295 -> 297 ;
298 [label="fs1d1y <= 1.5\nentropy = 0.996\nsamples = 103\nvalue = [33.394, 38.628, 0.0]"] ;
288 -> 298 ;
299 [label="fs1ct5b <= 1.5\nentropy = 0.92\nsamples = 50\nvalue = [33.394, 16.849, 0.0]"] ;
298 -> 299 ;
300 [label="entropy = 0.0\nsamples = 13\nvalue = [0.0, 5.342, 0.0]"] ;
299 -> 300 ;
301 [label="age <= 71.0\nentropy = 0.821\nsamples = 37\nvalue = [33.394, 11.506, 0.0]"] ;
299 -> 301 ;
302 [label="age <= 66.5\nentropy = 0.733\nsamples = 30\nvalue = [33.394, 8.63, 0.0]"] ;
301 -> 302 ;
303 [label="fs1c1y <= 1.5\nentropy = 0.97\nsamples = 21\nvalue = [11.131, 7.397, 0.0]"] ;
302 -> 303 ;
304 [label="fs1ct4b <= 1.5\nentropy = 0.919\nsamples = 19\nvalue = [3.71, 7.397, 0.0]"] ;
303 -> 304 ;
305 [label="entropy = 0.0\nsamples = 1\nvalue = [3.71, 0.0, 0.0]"] ;
304 -> 305 ;
306 [label="entropy = -0.0\nsamples = 18\nvalue = [0.0, 7.397, 0.0]"] ;
304 -> 306 ;
307 [label="entropy = 0.0\nsamples = 2\nvalue = [7.421, 0.0, 0.0]"] ;
303 -> 307 ;
308 [label="fs1a1 <= 1.5\nentropy = 0.297\nsamples = 9\nvalue = [22.263, 1.233, 0.0]"] ;
302 -> 308 ;
309 [label="entropy = 0.0\nsamples = 1\nvalue = [0.0, 0.411, 0.0]"] ;
308 -> 309 ;
310 [label="fs1e9 <= 1.5\nentropy = 0.222\nsamples = 8\nvalue = [22.263, 0.822, 0.0]"] ;
308 -> 310 ;
311 [label="fs1ct7y1 <= 105.0\nentropy = 0.131\nsamples = 7\nvalue = [22.263, 0.411, 0.0]"] ;
310 -> 311 ;
312 [label="fs1c7 <= 1.5\nentropy = 0.468\nsamples = 2\nvalue = [3.71, 0.411, 0.0]"] ;
311 -> 312 ;
313 [label="entropy = 0.0\nsamples = 1\nvalue = [0.0, 0.411, 0.0]"] ;
312 -> 313 ;
314 [label="entropy = -0.0\nsamples = 1\nvalue = [3.71, 0.0, 0.0]"] ;
312 -> 314 ;
315 [label="entropy = -0.0\nsamples = 5\nvalue = [18.552, 0.0, 0.0]"] ;
311 -> 315 ;
316 [label="entropy = 0.0\nsamples = 1\nvalue = [0.0, 0.411, 0.0]"] ;
310 -> 316 ;
317 [label="entropy = -0.0\nsamples = 7\nvalue = [0.0, 2.877, 0.0]"] ;
301 -> 317 ;
318 [label="entropy = -0.0\nsamples = 53\nvalue = [0.0, 21.78, 0.0]"] ;
298 -> 318 ;
319 [label="fs1a2b <= 2.5\nentropy = 1.18\nsamples = 122\nvalue = [7.421, 39.45, 80.795]"] ;
267 -> 319 ;
320 [label="age <= 50.5\nentropy = 0.869\nsamples = 100\nvalue = [0.0, 31.642, 77.428]"] ;
319 -> 320 ;
321 [label="entropy = 0.0\nsamples = 13\nvalue = [0.0, 5.342, 0.0]"] ;
320 -> 321 ;
322 [label="fs1d1z <= 1.5\nentropy = 0.817\nsamples = 87\nvalue = [0.0, 26.3, 77.428]"] ;
320 -> 322 ;
323 [label="fs1b5 <= 2.0\nentropy = 0.896\nsamples = 19\nvalue = [0.0, 7.397, 3.366]"] ;
322 -> 323 ;
324 [label="entropy = -0.0\nsamples = 18\nvalue = [0.0, 7.397, 0.0]"] ;
323 -> 324 ;
325 [label="entropy = -0.0\nsamples = 1\nvalue = [0.0, 0.0, 3.366]"] ;
323 -> 325 ;
326 [label="fs1ct7z1 <= 124.0\nentropy = 0.729\nsamples = 68\nvalue = [0.0, 18.903, 74.062]"] ;
322 -> 326 ;
327 [label="fs1d1y <= 1.5\nentropy = 0.458\nsamples = 30\nvalue = [0.0, 5.753, 53.863]"] ;
326 -> 327 ;
328 [label="fs1a6c <= 4.5\nentropy = 0.839\nsamples = 12\nvalue = [0.0, 3.698, 10.099]"] ;
327 -> 328 ;
329 [label="fs1a2a <= 1.5\nentropy = 0.0\nsamples = 9\nvalue = [0.0, 3.698, 0.0]"] ;
328 -> 329 ;
330 [label="entropy = 0.0\nsamples = 2\nvalue = [0.0, 0.822, 0.0]"] ;
329 -> 330 ;
331 [label="entropy = 0.0\nsamples = 7\nvalue = [0.0, 2.877, 0.0]"] ;
329 -> 331 ;
332 [label="entropy = -0.0\nsamples = 3\nvalue = [0.0, 0.0, 10.099]"] ;
328 -> 332 ;
333 [label="age <= 77.5\nentropy = 0.264\nsamples = 18\nvalue = [0.0, 2.055, 43.764]"] ;
327 -> 333 ;
334 [label="fs1a5 <= 4.5\nentropy = 0.181\nsamples = 16\nvalue = [0.0, 1.233, 43.764]"] ;
333 -> 334 ;
335 [label="fs1ct7y1 <= 127.5\nentropy = 0.133\nsamples = 15\nvalue = [0.0, 0.822, 43.764]"] ;
334 -> 335 ;
336 [label="entropy = 0.0\nsamples = 10\nvalue = [0.0, 0.0, 33.664]"] ;
335 -> 336 ;
337 [label="fs1ct4a <= 1.5\nentropy = 0.385\nsamples = 5\nvalue = [0.0, 0.822, 10.099]"] ;
335 -> 337 ;
338 [label="age <= 65.0\nentropy = 0.0\nsamples = 3\nvalue = [0.0, 0.0, 10.099]"] ;
337 -> 338 ;
339 [label="entropy = 0.0\nsamples = 1\nvalue = [0.0, 0.0, 3.366]"] ;
338 -> 339 ;
340 [label="entropy = 0.0\nsamples = 2\nvalue = [0.0, 0.0, 6.733]"] ;
338 -> 340 ;
341 [label="entropy = -0.0\nsamples = 2\nvalue = [0.0, 0.822, 0.0]"] ;
337 -> 341 ;
342 [label="entropy = -0.0\nsamples = 1\nvalue = [0.0, 0.411, 0.0]"] ;
334 -> 342 ;
343 [label="entropy = -0.0\nsamples = 2\nvalue = [0.0, 0.822, 0.0]"] ;
333 -> 343 ;
344 [label="fs1ct6z1 <= 4.969\nentropy = 0.968\nsamples = 38\nvalue = [0.0, 13.15, 20.199]"] ;
326 -> 344 ;
345 [label="fs1d1a2 <= 1.5\nentropy = 0.496\nsamples = 6\nvalue = [0.0, 1.233, 10.099]"] ;
344 -> 345 ;
346 [label="entropy = 0.0\nsamples = 3\nvalue = [0.0, 0.0, 10.099]"] ;
345 -> 346 ;
347 [label="entropy = -0.0\nsamples = 3\nvalue = [0.0, 1.233, 0.0]"] ;
345 -> 347 ;
348 [label="fs1a6c <= 3.5\nentropy = 0.995\nsamples = 32\nvalue = [0.0, 11.917, 10.099]"] ;
344 -> 348 ;
349 [label="fs1a4b <= 1.5\nentropy = 0.868\nsamples = 13\nvalue = [0.0, 4.109, 10.099]"] ;
348 -> 349 ;
350 [label="age <= 62.0\nentropy = 0.584\nsamples = 7\nvalue = [0.0, 1.644, 10.099]"] ;
349 -> 350 ;
351 [label="entropy = 0.0\nsamples = 3\nvalue = [0.0, 1.233, 0.0]"] ;
350 -> 351 ;
352 [label="fs1a5 <= 3.5\nentropy = 0.238\nsamples = 4\nvalue = [0.0, 0.411, 10.099]"] ;
350 -> 352 ;
353 [label="entropy = 0.0\nsamples = 3\nvalue = [0.0, 0.0, 10.099]"] ;
352 -> 353 ;
354 [label="entropy = -0.0\nsamples = 1\nvalue = [0.0, 0.411, 0.0]"] ;
352 -> 354 ;
355 [label="entropy = -0.0\nsamples = 6\nvalue = [0.0, 2.466, 0.0]"] ;
349 -> 355 ;
356 [label="fs1e3 <= 1.5\nentropy = 0.0\nsamples = 19\nvalue = [0.0, 7.808, 0.0]"] ;
348 -> 356 ;
357 [label="entropy = 0.0\nsamples = 12\nvalue = [0.0, 4.931, 0.0]"] ;
356 -> 357 ;
358 [label="entropy = 0.0\nsamples = 7\nvalue = [0.0, 2.877, 0.0]"] ;
356 -> 358 ;
359 [label="fs1a1 <= 4.5\nentropy = 1.501\nsamples = 22\nvalue = [7.421, 7.808, 3.366]"] ;
319 -> 359 ;
360 [label="fs1ct7y1 <= 121.5\nentropy = 1.0\nsamples = 21\nvalue = [7.421, 7.808, 0.0]"] ;
359 -> 360 ;
361 [label="fs1d1y <= 1.5\nentropy = 0.89\nsamples = 10\nvalue = [7.421, 3.288, 0.0]"] ;
360 -> 361 ;
362 [label="fs1a7 <= 3.5\nentropy = 0.591\nsamples = 5\nvalue = [7.421, 1.233, 0.0]"] ;
361 -> 362 ;
363 [label="entropy = 0.0\nsamples = 2\nvalue = [0.0, 0.822, 0.0]"] ;
362 -> 363 ;
364 [label="fs1c7 <= 1.5\nentropy = 0.297\nsamples = 3\nvalue = [7.421, 0.411, 0.0]"] ;
362 -> 364 ;
365 [label="entropy = 0.0\nsamples = 1\nvalue = [0.0, 0.411, 0.0]"] ;
364 -> 365 ;
366 [label="entropy = 0.0\nsamples = 2\nvalue = [7.421, 0.0, 0.0]"] ;
364 -> 366 ;
367 [label="entropy = -0.0\nsamples = 5\nvalue = [0.0, 2.055, 0.0]"] ;
361 -> 367 ;
368 [label="entropy = -0.0\nsamples = 11\nvalue = [0.0, 4.52, 0.0]"] ;
360 -> 368 ;
369 [label="entropy = -0.0\nsamples = 1\nvalue = [0.0, 0.0, 3.366]"] ;
359 -> 369 ;
370 [label="fs1a2b <= 2.5\nentropy = 1.0\nsamples = 491\nvalue = [11.131, 154.925, 373.675]"] ;
266 -> 370 ;
371 [label="fs1a2b <= 1.5\nentropy = 0.853\nsamples = 445\nvalue = [0.0, 138.898, 360.21]"] ;
370 -> 371 ;
372 [label="fs1e3 <= 1.5\nentropy = 0.558\nsamples = 118\nvalue = [0.0, 26.711, 178.422]"] ;
371 -> 372 ;
373 [label="fs1a7 <= 2.5\nentropy = 0.858\nsamples = 59\nvalue = [0.0, 18.492, 47.13]"] ;
372 -> 373 ;
374 [label="age <= 68.5\nentropy = 0.458\nsamples = 15\nvalue = [0.0, 2.877, 26.932]"] ;
373 -> 374 ;
375 [label="fs1e1 <= 1.5\nentropy = 0.763\nsamples = 10\nvalue = [0.0, 2.877, 10.099]"] ;
374 -> 375 ;
376 [label="entropy = 0.0\nsamples = 5\nvalue = [0.0, 2.055, 0.0]"] ;
375 -> 376 ;
377 [label="fs1e2 <= 2.5\nentropy = 0.385\nsamples = 5\nvalue = [0.0, 0.822, 10.099]"] ;
375 -> 377 ;
378 [label="fs1e2 <= 1.5\nentropy = 0.238\nsamples = 4\nvalue = [0.0, 0.411, 10.099]"] ;
377 -> 378 ;
379 [label="fs1c7 <= 1.5\nentropy = 0.496\nsamples = 2\nvalue = [0.0, 0.411, 3.366]"] ;
378 -> 379 ;
380 [label="entropy = 0.0\nsamples = 1\nvalue = [0.0, 0.411, 0.0]"] ;
379 -> 380 ;
381 [label="entropy = 0.0\nsamples = 1\nvalue = [0.0, 0.0, 3.366]"] ;
379 -> 381 ;
382 [label="entropy = -0.0\nsamples = 2\nvalue = [0.0, 0.0, 6.733]"] ;
378 -> 382 ;
383 [label="entropy = -0.0\nsamples = 1\nvalue = [0.0, 0.411, 0.0]"] ;
377 -> 383 ;
384 [label="fs1c1y <= 1.5\nentropy = 0.0\nsamples = 5\nvalue = [0.0, 0.0, 16.832]"] ;
374 -> 384 ;
385 [label="entropy = 0.0\nsamples = 3\nvalue = [0.0, 0.0, 10.099]"] ;
384 -> 385 ;
386 [label="entropy = 0.0\nsamples = 2\nvalue = [0.0, 0.0, 6.733]"] ;
384 -> 386 ;
387 [label="fs1c7 <= 1.5\nentropy = 0.988\nsamples = 44\nvalue = [0.0, 15.616, 20.199]"] ;
373 -> 387 ;
388 [label="entropy = 0.0\nsamples = 21\nvalue = [0.0, 8.63, 0.0]"] ;
387 -> 388 ;
389 [label="fs1a6a <= 1.5\nentropy = 0.822\nsamples = 23\nvalue = [0.0, 6.986, 20.199]"] ;
387 -> 389 ;
390 [label="entropy = 0.0\nsamples = 8\nvalue = [0.0, 3.288, 0.0]"] ;
389 -> 390 ;
391 [label="fs1a5 <= 3.5\nentropy = 0.622\nsamples = 15\nvalue = [0.0, 3.698, 20.199]"] ;
389 -> 391 ;
392 [label="age <= 54.0\nentropy = 0.998\nsamples = 10\nvalue = [0.0, 3.698, 3.366]"] ;
391 -> 392 ;
393 [label="fs1d1a2 <= 1.5\nentropy = 0.496\nsamples = 2\nvalue = [0.0, 0.411, 3.366]"] ;
392 -> 393 ;
394 [label="entropy = 0.0\nsamples = 1\nvalue = [0.0, 0.411, 0.0]"] ;
393 -> 394 ;
395 [label="entropy = 0.0\nsamples = 1\nvalue = [0.0, 0.0, 3.366]"] ;
393 -> 395 ;
396 [label="entropy = 0.0\nsamples = 8\nvalue = [0.0, 3.288, 0.0]"] ;
392 -> 396 ;
397 [label="entropy = 0.0\nsamples = 5\nvalue = [0.0, 0.0, 16.832]"] ;
391 -> 397 ;
398 [label="age <= 52.5\nentropy = 0.323\nsamples = 59\nvalue = [0.0, 8.219, 131.291]"] ;
372 -> 398 ;
399 [label="entropy = 0.0\nsamples = 3\nvalue = [0.0, 1.233, 0.0]"] ;
398 -> 399 ;
400 [label="fs1a7 <= 3.5\nentropy = 0.289\nsamples = 56\nvalue = [0.0, 6.986, 131.291]"] ;
398 -> 400 ;
401 [label="fs1ct4b <= 1.5\nentropy = 0.38\nsamples = 43\nvalue = [0.0, 6.986, 87.528]"] ;
400 -> 401 ;
402 [label="fs1a5 <= 4.5\nentropy = 0.6\nsamples = 24\nvalue = [0.0, 5.753, 33.664]"] ;
401 -> 402 ;
403 [label="age <= 71.0\nentropy = 0.819\nsamples = 19\nvalue = [0.0, 5.753, 16.832]"] ;
402 -> 403 ;
404 [label="fs1e5 <= 1.5\nentropy = 0.642\nsamples = 13\nvalue = [0.0, 3.288, 16.832]"] ;
403 -> 404 ;
405 [label="fs1c2b <= 1.5\nentropy = 0.496\nsamples = 10\nvalue = [0.0, 2.055, 16.832]"] ;
404 -> 405 ;
406 [label="fs1b2 <= 2.5\nentropy = 0.359\nsamples = 8\nvalue = [0.0, 1.233, 16.832]"] ;
405 -> 406 ;
407 [label="fs1ct7z1 <= 100.0\nentropy = 0.162\nsamples = 6\nvalue = [0.0, 0.411, 16.832]"] ;
406 -> 407 ;
408 [label="entropy = 0.0\nsamples = 1\nvalue = [0.0, 0.411, 0.0]"] ;
407 -> 408 ;
409 [label="entropy = 0.0\nsamples = 5\nvalue = [0.0, 0.0, 16.832]"] ;
407 -> 409 ;
410 [label="fs1ct6z2 <= 4.5\nentropy = 0.0\nsamples = 2\nvalue = [0.0, 0.822, 0.0]"] ;
406 -> 410 ;
411 [label="entropy = 0.0\nsamples = 1\nvalue = [0.0, 0.411, 0.0]"] ;
410 -> 411 ;
412 [label="entropy = 0.0\nsamples = 1\nvalue = [0.0, 0.411, 0.0]"] ;
410 -> 412 ;
413 [label="fs1c7 <= 2.5\nentropy = 0.0\nsamples = 2\nvalue = [0.0, 0.822, 0.0]"] ;
405 -> 413 ;
414 [label="entropy = 0.0\nsamples = 1\nvalue = [0.0, 0.411, 0.0]"] ;
413 -> 414 ;
415 [label="entropy = 0.0\nsamples = 1\nvalue = [0.0, 0.411, 0.0]"] ;
413 -> 415 ;
416 [label="fs1ct7y1 <= 117.5\nentropy = 0.0\nsamples = 3\nvalue = [0.0, 1.233, 0.0]"] ;
404 -> 416 ;
417 [label="entropy = 0.0\nsamples = 2\nvalue = [0.0, 0.822, 0.0]"] ;
416 -> 417 ;
418 [label="entropy = 0.0\nsamples = 1\nvalue = [0.0, 0.411, 0.0]"] ;
416 -> 418 ;
419 [label="fs1b2 <= 2.0\nentropy = 0.0\nsamples = 6\nvalue = [0.0, 2.466, 0.0]"] ;
403 -> 419 ;
420 [label="entropy = 0.0\nsamples = 5\nvalue = [0.0, 2.055, 0.0]"] ;
419 -> 420 ;
421 [label="entropy = 0.0\nsamples = 1\nvalue = [0.0, 0.411, 0.0]"] ;
419 -> 421 ;
422 [label="entropy = 0.0\nsamples = 5\nvalue = [0.0, 0.0, 16.832]"] ;
402 -> 422 ;
423 [label="fs1d2z <= 1.5\nentropy = 0.155\nsamples = 19\nvalue = [0.0, 1.233, 53.863]"] ;
401 -> 423 ;
424 [label="entropy = 0.0\nsamples = 1\nvalue = [0.0, 0.411, 0.0]"] ;
423 -> 424 ;
425 [label="fs1b4 <= 1.5\nentropy = 0.113\nsamples = 18\nvalue = [0.0, 0.822, 53.863]"] ;
423 -> 425 ;
426 [label="fs1e3 <= 2.5\nentropy = 0.0\nsamples = 12\nvalue = [0.0, 0.0, 40.397]"] ;
425 -> 426 ;
427 [label="entropy = 0.0\nsamples = 8\nvalue = [0.0, 0.0, 26.932]"] ;
426 -> 427 ;
428 [label="entropy = 0.0\nsamples = 4\nvalue = [0.0, 0.0, 13.466]"] ;
426 -> 428 ;
429 [label="fs1c8 <= 2.5\nentropy = 0.318\nsamples = 6\nvalue = [0.0, 0.822, 13.466]"] ;
425 -> 429 ;
430 [label="fs1ct7z1 <= 119.0\nentropy = 0.192\nsamples = 5\nvalue = [0.0, 0.411, 13.466]"] ;
429 -> 430 ;
431 [label="fs1c8 <= 1.5\nentropy = 0.496\nsamples = 2\nvalue = [0.0, 0.411, 3.366]"] ;
430 -> 431 ;
432 [label="entropy = 0.0\nsamples = 1\nvalue = [0.0, 0.0, 3.366]"] ;
431 -> 432 ;
433 [label="entropy = 0.0\nsamples = 1\nvalue = [0.0, 0.411, 0.0]"] ;
431 -> 433 ;
434 [label="entropy = -0.0\nsamples = 3\nvalue = [0.0, 0.0, 10.099]"] ;
430 -> 434 ;
435 [label="entropy = -0.0\nsamples = 1\nvalue = [0.0, 0.411, 0.0]"] ;
429 -> 435 ;
436 [label="fs1a6a <= 1.5\nentropy = 0.0\nsamples = 13\nvalue = [0.0, 0.0, 43.764]"] ;
400 -> 436 ;
437 [label="entropy = 0.0\nsamples = 2\nvalue = [0.0, 0.0, 6.733]"] ;
436 -> 437 ;
438 [label="entropy = 0.0\nsamples = 11\nvalue = [0.0, 0.0, 37.031]"] ;
436 -> 438 ;
439 [label="fs1e2 <= 1.5\nentropy = 0.959\nsamples = 327\nvalue = [0.0, 112.187, 181.788]"] ;
371 -> 439 ;
440 [label="fs1ct7y1 <= 116.5\nentropy = 0.999\nsamples = 262\nvalue = [0.0, 95.338, 100.993]"] ;
439 -> 440 ;
441 [label="fs1d1a2 <= 2.5\nentropy = 0.815\nsamples = 64\nvalue = [0.0, 19.314, 57.23]"] ;
440 -> 441 ;
442 [label="fs1c2b <= 1.5\nentropy = 0.961\nsamples = 55\nvalue = [0.0, 18.903, 30.298]"] ;
441 -> 442 ;
443 [label="age <= 74.5\nentropy = 0.892\nsamples = 42\nvalue = [0.0, 13.561, 30.298]"] ;
442 -> 443 ;
444 [label="fs1ct6z1 <= 4.969\nentropy = 0.816\nsamples = 34\nvalue = [0.0, 10.274, 30.298]"] ;
443 -> 444 ;
445 [label="entropy = 0.0\nsamples = 3\nvalue = [0.0, 0.0, 10.099]"] ;
444 -> 445 ;
446 [label="fs1ct4b <= 1.5\nentropy = 0.922\nsamples = 31\nvalue = [0.0, 10.274, 20.199]"] ;
444 -> 446 ;
447 [label="age <= 65.0\nentropy = 0.433\nsamples = 9\nvalue = [0.0, 1.644, 16.832]"] ;
446 -> 447 ;
448 [label="entropy = 0.0\nsamples = 4\nvalue = [0.0, 0.0, 13.466]"] ;
447 -> 448 ;
449 [label="fs1a2a <= 2.5\nentropy = 0.913\nsamples = 5\nvalue = [0.0, 1.644, 3.366]"] ;
447 -> 449 ;
450 [label="entropy = 0.0\nsamples = 4\nvalue = [0.0, 1.644, 0.0]"] ;
449 -> 450 ;
451 [label="entropy = 0.0\nsamples = 1\nvalue = [0.0, 0.0, 3.366]"] ;
449 -> 451 ;
452 [label="fs1b9 <= 2.0\nentropy = 0.856\nsamples = 22\nvalue = [0.0, 8.63, 3.366]"] ;
446 -> 452 ;
453 [label="entropy = -0.0\nsamples = 20\nvalue = [0.0, 8.219, 0.0]"] ;
452 -> 453 ;
454 [label="fs1a4a <= 1.5\nentropy = 0.496\nsamples = 2\nvalue = [0.0, 0.411, 3.366]"] ;
452 -> 454 ;
455 [label="entropy = 0.0\nsamples = 1\nvalue = [0.0, 0.411, 0.0]"] ;
454 -> 455 ;
456 [label="entropy = 0.0\nsamples = 1\nvalue = [0.0, 0.0, 3.366]"] ;
454 -> 456 ;
457 [label="entropy = -0.0\nsamples = 8\nvalue = [0.0, 3.288, 0.0]"] ;
443 -> 457 ;
458 [label="entropy = -0.0\nsamples = 13\nvalue = [0.0, 5.342, 0.0]"] ;
442 -> 458 ;
459 [label="fs1ct7z1 <= 97.5\nentropy = 0.113\nsamples = 9\nvalue = [0.0, 0.411, 26.932]"] ;
441 -> 459 ;
460 [label="entropy = 0.0\nsamples = 1\nvalue = [0.0, 0.411, 0.0]"] ;
459 -> 460 ;
461 [label="entropy = 0.0\nsamples = 8\nvalue = [0.0, 0.0, 26.932]"] ;
459 -> 461 ;
462 [label="fs1a7 <= 4.5\nentropy = 0.947\nsamples = 198\nvalue = [0.0, 76.024, 43.764]"] ;
440 -> 462 ;
463 [label="fs1ct6y2 <= 4.5\nentropy = 0.978\nsamples = 164\nvalue = [0.0, 62.052, 43.764]"] ;
462 -> 463 ;
464 [label="fs1a6a <= 2.5\nentropy = 0.496\nsamples = 6\nvalue = [0.0, 1.233, 10.099]"] ;
463 -> 464 ;
465 [label="entropy = 0.0\nsamples = 2\nvalue = [0.0, 0.822, 0.0]"] ;
464 -> 465 ;
466 [label="fs1ct7z1 <= 120.0\nentropy = 0.238\nsamples = 4\nvalue = [0.0, 0.411, 10.099]"] ;
464 -> 466 ;
467 [label="entropy = 0.0\nsamples = 1\nvalue = [0.0, 0.411, 0.0]"] ;
466 -> 467 ;
468 [label="entropy = 0.0\nsamples = 3\nvalue = [0.0, 0.0, 10.099]"] ;
466 -> 468 ;
469 [label="fs1ct7z1 <= 136.5\nentropy = 0.94\nsamples = 158\nvalue = [0.0, 60.819, 33.664]"] ;
463 -> 469 ;
470 [label="fs1ct5a <= 1.5\nentropy = 0.785\nsamples = 139\nvalue = [0.0, 55.066, 16.832]"] ;
469 -> 470 ;
471 [label="age <= 66.5\nentropy = 0.988\nsamples = 58\nvalue = [0.0, 21.78, 16.832]"] ;
470 -> 471 ;
472 [label="fs1a3a <= 1.5\nentropy = 0.989\nsamples = 37\nvalue = [0.0, 13.15, 16.832]"] ;
471 -> 472 ;
473 [label="entropy = 0.0\nsamples = 12\nvalue = [0.0, 4.931, 0.0]"] ;
472 -> 473 ;
474 [label="fs1a1 <= 2.5\nentropy = 0.913\nsamples = 25\nvalue = [0.0, 8.219, 16.832]"] ;
472 -> 474 ;
475 [label="entropy = 0.0\nsamples = 2\nvalue = [0.0, 0.0, 6.733]"] ;
474 -> 475 ;
476 [label="age <= 56.5\nentropy = 0.992\nsamples = 23\nvalue = [0.0, 8.219, 10.099]"] ;
474 -> 476 ;
477 [label="entropy = 0.0\nsamples = 11\nvalue = [0.0, 4.52, 0.0]"] ;
476 -> 477 ;
478 [label="age <= 62.04\nentropy = 0.839\nsamples = 12\nvalue = [0.0, 3.698, 10.099]"] ;
476 -> 478 ;
479 [label="fs1e3 <= 1.5\nentropy = 0.584\nsamples = 7\nvalue = [0.0, 1.644, 10.099]"] ;
478 -> 479 ;
480 [label="fs1e7 <= 1.5\nentropy = 0.238\nsamples = 4\nvalue = [0.0, 0.411, 10.099]"] ;
479 -> 480 ;
481 [label="entropy = 0.0\nsamples = 3\nvalue = [0.0, 0.0, 10.099]"] ;
480 -> 481 ;
482 [label="entropy = -0.0\nsamples = 1\nvalue = [0.0, 0.411, 0.0]"] ;
480 -> 482 ;
483 [label="entropy = -0.0\nsamples = 3\nvalue = [0.0, 1.233, 0.0]"] ;
479 -> 483 ;
484 [label="entropy = -0.0\nsamples = 5\nvalue = [0.0, 2.055, 0.0]"] ;
478 -> 484 ;
485 [label="entropy = -0.0\nsamples = 21\nvalue = [0.0, 8.63, 0.0]"] ;
471 -> 485 ;
486 [label="entropy = -0.0\nsamples = 81\nvalue = [0.0, 33.286, 0.0]"] ;
470 -> 486 ;
487 [label="fs1d1a2 <= 1.5\nentropy = 0.819\nsamples = 19\nvalue = [0.0, 5.753, 16.832]"] ;
469 -> 487 ;
488 [label="fs1d1y <= 1.5\nentropy = 0.0\nsamples = 11\nvalue = [0.0, 4.52, 0.0]"] ;
487 -> 488 ;
489 [label="entropy = 0.0\nsamples = 4\nvalue = [0.0, 1.644, 0.0]"] ;
488 -> 489 ;
490 [label="entropy = 0.0\nsamples = 7\nvalue = [0.0, 2.877, 0.0]"] ;
488 -> 490 ;
491 [label="fs1a6b <= 1.5\nentropy = 0.359\nsamples = 8\nvalue = [0.0, 1.233, 16.832]"] ;
487 -> 491 ;
492 [label="entropy = 0.0\nsamples = 1\nvalue = [0.0, 0.411, 0.0]"] ;
491 -> 492 ;
493 [label="fs1d3 <= 1.5\nentropy = 0.272\nsamples = 7\nvalue = [0.0, 0.822, 16.832]"] ;
491 -> 493 ;
494 [label="fs1d1z <= 1.5\nentropy = 0.162\nsamples = 6\nvalue = [0.0, 0.411, 16.832]"] ;
493 -> 494 ;
495 [label="fs1e4 <= 1.5\nentropy = 0.496\nsamples = 2\nvalue = [0.0, 0.411, 3.366]"] ;
494 -> 495 ;
496 [label="entropy = 0.0\nsamples = 1\nvalue = [0.0, 0.411, 0.0]"] ;
495 -> 496 ;
497 [label="entropy = 0.0\nsamples = 1\nvalue = [0.0, 0.0, 3.366]"] ;
495 -> 497 ;
498 [label="entropy = 0.0\nsamples = 4\nvalue = [0.0, 0.0, 13.466]"] ;
494 -> 498 ;
499 [label="entropy = 0.0\nsamples = 1\nvalue = [0.0, 0.411, 0.0]"] ;
493 -> 499 ;
500 [label="entropy = 0.0\nsamples = 34\nvalue = [0.0, 13.972, 0.0]"] ;
462 -> 500 ;
501 [label="age <= 57.0\nentropy = 0.664\nsamples = 65\nvalue = [0.0, 16.849, 80.795]"] ;
439 -> 501 ;
502 [label="entropy = 0.0\nsamples = 14\nvalue = [0.0, 5.753, 0.0]"] ;
501 -> 502 ;
503 [label="fs1c8 <= 2.5\nentropy = 0.532\nsamples = 51\nvalue = [0.0, 11.095, 80.795]"] ;
501 -> 503 ;
504 [label="fs1ct6z1 <= 4.469\nentropy = 0.767\nsamples = 37\nvalue = [0.0, 10.684, 37.031]"] ;
503 -> 504 ;
505 [label="entropy = 0.0\nsamples = 7\nvalue = [0.0, 2.877, 0.0]"] ;
504 -> 505 ;
506 [label="fs1ct7y1 <= 107.5\nentropy = 0.667\nsamples = 30\nvalue = [0.0, 7.808, 37.031]"] ;
504 -> 506 ;
507 [label="entropy = 0.0\nsamples = 4\nvalue = [0.0, 1.644, 0.0]"] ;
506 -> 507 ;
508 [label="fs1a6c <= 3.5\nentropy = 0.591\nsamples = 26\nvalue = [0.0, 6.164, 37.031]"] ;
506 -> 508 ;
509 [label="fs1a1 <= 2.5\nentropy = 0.318\nsamples = 12\nvalue = [0.0, 1.644, 26.932]"] ;
508 -> 509 ;
510 [label="entropy = 0.0\nsamples = 2\nvalue = [0.0, 0.822, 0.0]"] ;
509 -> 510 ;
511 [label="fs1e1 <= 1.5\nentropy = 0.192\nsamples = 10\nvalue = [0.0, 0.822, 26.932]"] ;
509 -> 511 ;
512 [label="age <= 70.0\nentropy = 0.714\nsamples = 3\nvalue = [0.0, 0.822, 3.366]"] ;
511 -> 512 ;
513 [label="entropy = -0.0\nsamples = 2\nvalue = [0.0, 0.822, 0.0]"] ;
512 -> 513 ;
514 [label="entropy = 0.0\nsamples = 1\nvalue = [0.0, 0.0, 3.366]"] ;
512 -> 514 ;
515 [label="entropy = 0.0\nsamples = 7\nvalue = [0.0, 0.0, 23.565]"] ;
511 -> 515 ;
516 [label="fs1a1 <= 4.5\nentropy = 0.892\nsamples = 14\nvalue = [0.0, 4.52, 10.099]"] ;
508 -> 516 ;
517 [label="fs1a7 <= 3.5\nentropy = 0.0\nsamples = 11\nvalue = [0.0, 4.52, 0.0]"] ;
516 -> 517 ;
518 [label="entropy = 0.0\nsamples = 4\nvalue = [0.0, 1.644, 0.0]"] ;
517 -> 518 ;
519 [label="entropy = 0.0\nsamples = 7\nvalue = [0.0, 2.877, 0.0]"] ;
517 -> 519 ;
520 [label="entropy = -0.0\nsamples = 3\nvalue = [0.0, 0.0, 10.099]"] ;
516 -> 520 ;
521 [label="fs1a1 <= 2.5\nentropy = 0.076\nsamples = 14\nvalue = [0.0, 0.411, 43.764]"] ;
503 -> 521 ;
522 [label="entropy = 0.0\nsamples = 1\nvalue = [0.0, 0.411, 0.0]"] ;
521 -> 522 ;
523 [label="entropy = 0.0\nsamples = 13\nvalue = [0.0, 0.0, 43.764]"] ;
521 -> 523 ;
524 [label="fs1c1y <= 1.5\nentropy = 1.569\nsamples = 46\nvalue = [11.131, 16.027, 13.466]"] ;
370 -> 524 ;
525 [label="fs1ct6z1 <= 4.5\nentropy = 1.408\nsamples = 36\nvalue = [11.131, 13.15, 3.366]"] ;
524 -> 525 ;
526 [label="entropy = 0.0\nsamples = 1\nvalue = [0.0, 0.0, 3.366]"] ;
525 -> 526 ;
527 [label="fs1e1 <= 1.5\nentropy = 0.995\nsamples = 35\nvalue = [11.131, 13.15, 0.0]"] ;
525 -> 527 ;
528 [label="fs1e2 <= 1.5\nentropy = 0.962\nsamples = 20\nvalue = [11.131, 6.986, 0.0]"] ;
527 -> 528 ;
529 [label="fs1ct7y1 <= 122.5\nentropy = 0.943\nsamples = 17\nvalue = [3.71, 6.575, 0.0]"] ;
528 -> 529 ;
530 [label="fs1c7 <= 2.5\nentropy = 0.89\nsamples = 5\nvalue = [3.71, 1.644, 0.0]"] ;
529 -> 530 ;
531 [label="entropy = 0.0\nsamples = 4\nvalue = [0.0, 1.644, 0.0]"] ;
530 -> 531 ;
532 [label="entropy = 0.0\nsamples = 1\nvalue = [3.71, 0.0, 0.0]"] ;
530 -> 532 ;
533 [label="entropy = -0.0\nsamples = 12\nvalue = [0.0, 4.931, 0.0]"] ;
529 -> 533 ;
534 [label="fs1a6b <= 1.5\nentropy = 0.297\nsamples = 3\nvalue = [7.421, 0.411, 0.0]"] ;
528 -> 534 ;
535 [label="entropy = 0.0\nsamples = 1\nvalue = [0.0, 0.411, 0.0]"] ;
534 -> 535 ;
536 [label="entropy = 0.0\nsamples = 2\nvalue = [7.421, 0.0, 0.0]"] ;
534 -> 536 ;
537 [label="fs1ct7y1 <= 105.0\nentropy = 0.0\nsamples = 15\nvalue = [0.0, 6.164, 0.0]"] ;
527 -> 537 ;
538 [label="entropy = 0.0\nsamples = 1\nvalue = [0.0, 0.411, 0.0]"] ;
537 -> 538 ;
539 [label="entropy = 0.0\nsamples = 14\nvalue = [0.0, 5.753, 0.0]"] ;
537 -> 539 ;
540 [label="fs1ct5b <= 1.5\nentropy = 0.763\nsamples = 10\nvalue = [0.0, 2.877, 10.099]"] ;
524 -> 540 ;
541 [label="age <= 68.5\nentropy = 0.238\nsamples = 4\nvalue = [0.0, 0.411, 10.099]"] ;
540 -> 541 ;
542 [label="entropy = 0.0\nsamples = 3\nvalue = [0.0, 0.0, 10.099]"] ;
541 -> 542 ;
543 [label="entropy = -0.0\nsamples = 1\nvalue = [0.0, 0.411, 0.0]"] ;
541 -> 543 ;
544 [label="entropy = -0.0\nsamples = 6\nvalue = [0.0, 2.466, 0.0]"] ;
540 -> 544 ;
}