digraph Tree {
node [shape=box, fontname="helvetica"] ;
edge [fontname="helvetica"] ;
0 [label="fs1wc13 <= 1.5\nentropy = 1.534\nsamples = 754\nvalue = [210, 348, 196]"] ;
1 [label="fs1wc3 <= 1.5\nentropy = 1.124\nsamples = 485\nvalue = [209, 265, 11]"] ;
0 -> 1 [labeldistance=2.5, labelangle=45, headlabel="True"] ;
2 [label="fs1wb1 <= 1.5\nentropy = 0.896\nsamples = 269\nvalue = [185, 84, 0]"] ;
1 -> 2 ;
3 [label="fs1wc1 <= 2.5\nentropy = 0.654\nsamples = 196\nvalue = [163, 33, 0]"] ;
2 -> 3 ;
4 [label="fs1wa4 <= 1.5\nentropy = 0.439\nsamples = 176\nvalue = [160, 16, 0]"] ;
3 -> 4 ;
5 [label="fs1wc16 <= 2.5\nentropy = 0.282\nsamples = 163\nvalue = [155, 8, 0]"] ;
4 -> 5 ;
6 [label="fs1wc6 <= 1.5\nentropy = 0.202\nsamples = 159\nvalue = [154, 5, 0]"] ;
5 -> 6 ;
7 [label="fs1wc4 <= 1.5\nentropy = 0.058\nsamples = 148\nvalue = [147, 1, 0]"] ;
6 -> 7 ;
8 [label="entropy = 0.0\nsamples = 140\nvalue = [140, 0, 0]"] ;
7 -> 8 ;
9 [label="fs1wc15 <= 1.5\nentropy = 0.544\nsamples = 8\nvalue = [7, 1, 0]"] ;
7 -> 9 ;
10 [label="entropy = 0.0\nsamples = 7\nvalue = [7, 0, 0]"] ;
9 -> 10 ;
11 [label="entropy = 0.0\nsamples = 1\nvalue = [0, 1, 0]"] ;
9 -> 11 ;
12 [label="q1b <= 222.5\nentropy = 0.946\nsamples = 11\nvalue = [7, 4, 0]"] ;
6 -> 12 ;
13 [label="entropy = 0.0\nsamples = 6\nvalue = [6, 0, 0]"] ;
12 -> 13 ;
14 [label="fs1c5a <= 2.0\nentropy = 0.722\nsamples = 5\nvalue = [1, 4, 0]"] ;
12 -> 14 ;
15 [label="entropy = 0.0\nsamples = 4\nvalue = [0, 4, 0]"] ;
14 -> 15 ;
16 [label="entropy = 0.0\nsamples = 1\nvalue = [1, 0, 0]"] ;
14 -> 16 ;
17 [label="fs1q3c <= 25.0\nentropy = 0.811\nsamples = 4\nvalue = [1, 3, 0]"] ;
5 -> 17 ;
18 [label="entropy = 0.0\nsamples = 3\nvalue = [0, 3, 0]"] ;
17 -> 18 ;
19 [label="entropy = 0.0\nsamples = 1\nvalue = [1, 0, 0]"] ;
17 -> 19 ;
20 [label="fs1a5 <= 2.5\nentropy = 0.961\nsamples = 13\nvalue = [5, 8, 0]"] ;
4 -> 20 ;
21 [label="entropy = 0.0\nsamples = 5\nvalue = [0, 5, 0]"] ;
20 -> 21 ;
22 [label="fs1a1 <= 3.5\nentropy = 0.954\nsamples = 8\nvalue = [5, 3, 0]"] ;
20 -> 22 ;
23 [label="fs1e8 <= 1.5\nentropy = 0.811\nsamples = 4\nvalue = [1, 3, 0]"] ;
22 -> 23 ;
24 [label="entropy = 0.0\nsamples = 3\nvalue = [0, 3, 0]"] ;
23 -> 24 ;
25 [label="entropy = 0.0\nsamples = 1\nvalue = [1, 0, 0]"] ;
23 -> 25 ;
26 [label="entropy = 0.0\nsamples = 4\nvalue = [4, 0, 0]"] ;
22 -> 26 ;
27 [label="fs1wa1 <= 1.5\nentropy = 0.61\nsamples = 20\nvalue = [3, 17, 0]"] ;
3 -> 27 ;
28 [label="age <= 61.0\nentropy = 1.0\nsamples = 6\nvalue = [3, 3, 0]"] ;
27 -> 28 ;
29 [label="entropy = 0.0\nsamples = 2\nvalue = [2, 0, 0]"] ;
28 -> 29 ;
30 [label="fs1d1a2 <= 1.5\nentropy = 0.811\nsamples = 4\nvalue = [1, 3, 0]"] ;
28 -> 30 ;
31 [label="entropy = 0.0\nsamples = 3\nvalue = [0, 3, 0]"] ;
30 -> 31 ;
32 [label="entropy = 0.0\nsamples = 1\nvalue = [1, 0, 0]"] ;
30 -> 32 ;
33 [label="entropy = 0.0\nsamples = 14\nvalue = [0, 14, 0]"] ;
27 -> 33 ;
34 [label="fs1wc7 <= 1.5\nentropy = 0.883\nsamples = 73\nvalue = [22, 51, 0]"] ;
2 -> 34 ;
35 [label="fs1wa5 <= 1.5\nentropy = 0.983\nsamples = 52\nvalue = [22, 30, 0]"] ;
34 -> 35 ;
36 [label="fs1wc15 <= 1.5\nentropy = 0.887\nsamples = 23\nvalue = [16, 7, 0]"] ;
35 -> 36 ;
37 [label="fs1wa2 <= 2.5\nentropy = 0.722\nsamples = 20\nvalue = [16, 4, 0]"] ;
36 -> 37 ;
38 [label="fs1a6a <= 3.5\nentropy = 0.337\nsamples = 16\nvalue = [15, 1, 0]"] ;
37 -> 38 ;
39 [label="entropy = 0.0\nsamples = 15\nvalue = [15, 0, 0]"] ;
38 -> 39 ;
40 [label="entropy = 0.0\nsamples = 1\nvalue = [0, 1, 0]"] ;
38 -> 40 ;
41 [label="fs1c1d15 <= 0.5\nentropy = 0.811\nsamples = 4\nvalue = [1, 3, 0]"] ;
37 -> 41 ;
42 [label="entropy = 0.0\nsamples = 3\nvalue = [0, 3, 0]"] ;
41 -> 42 ;
43 [label="entropy = 0.0\nsamples = 1\nvalue = [1, 0, 0]"] ;
41 -> 43 ;
44 [label="entropy = 0.0\nsamples = 3\nvalue = [0, 3, 0]"] ;
36 -> 44 ;
45 [label="fs1wc1 <= 1.5\nentropy = 0.736\nsamples = 29\nvalue = [6, 23, 0]"] ;
35 -> 45 ;
46 [label="fs1wa1 <= 1.5\nentropy = 0.985\nsamples = 14\nvalue = [6, 8, 0]"] ;
45 -> 46 ;
47 [label="entropy = 0.0\nsamples = 4\nvalue = [4, 0, 0]"] ;
46 -> 47 ;
48 [label="fs1a6c <= 4.5\nentropy = 0.722\nsamples = 10\nvalue = [2, 8, 0]"] ;
46 -> 48 ;
49 [label="entropy = 0.0\nsamples = 8\nvalue = [0, 8, 0]"] ;
48 -> 49 ;
50 [label="entropy = 0.0\nsamples = 2\nvalue = [2, 0, 0]"] ;
48 -> 50 ;
51 [label="entropy = 0.0\nsamples = 15\nvalue = [0, 15, 0]"] ;
45 -> 51 ;
52 [label="entropy = 0.0\nsamples = 21\nvalue = [0, 21, 0]"] ;
34 -> 52 ;
53 [label="fs1wc8 <= 1.5\nentropy = 0.785\nsamples = 216\nvalue = [24, 181, 11]"] ;
1 -> 53 ;
54 [label="fs1wc16 <= 1.5\nentropy = 0.589\nsamples = 162\nvalue = [23, 139, 0]"] ;
53 -> 54 ;
55 [label="fs1wc1 <= 1.5\nentropy = 0.999\nsamples = 27\nvalue = [13, 14, 0]"] ;
54 -> 55 ;
56 [label="fs1c5b <= 3.5\nentropy = 0.684\nsamples = 11\nvalue = [9, 2, 0]"] ;
55 -> 56 ;
57 [label="entropy = 0.0\nsamples = 9\nvalue = [9, 0, 0]"] ;
56 -> 57 ;
58 [label="entropy = 0.0\nsamples = 2\nvalue = [0, 2, 0]"] ;
56 -> 58 ;
59 [label="fs1ct2 <= 65.25\nentropy = 0.811\nsamples = 16\nvalue = [4, 12, 0]"] ;
55 -> 59 ;
60 [label="fs1ct2 <= 60.0\nentropy = 0.985\nsamples = 7\nvalue = [4, 3, 0]"] ;
59 -> 60 ;
61 [label="fs1c302 <= 1.5\nentropy = 0.811\nsamples = 4\nvalue = [1, 3, 0]"] ;
60 -> 61 ;
62 [label="entropy = 0.0\nsamples = 3\nvalue = [0, 3, 0]"] ;
61 -> 62 ;
63 [label="entropy = 0.0\nsamples = 1\nvalue = [1, 0, 0]"] ;
61 -> 63 ;
64 [label="entropy = 0.0\nsamples = 3\nvalue = [3, 0, 0]"] ;
60 -> 64 ;
65 [label="entropy = 0.0\nsamples = 9\nvalue = [0, 9, 0]"] ;
59 -> 65 ;
66 [label="fs1wc17 <= 1.5\nentropy = 0.381\nsamples = 135\nvalue = [10, 125, 0]"] ;
54 -> 66 ;
67 [label="fs1wc6 <= 1.5\nentropy = 0.539\nsamples = 81\nvalue = [10, 71, 0]"] ;
66 -> 67 ;
68 [label="fs1ct1 <= 174.5\nentropy = 0.699\nsamples = 53\nvalue = [10, 43, 0]"] ;
67 -> 68 ;
69 [label="fs1q5 <= 2.5\nentropy = 0.592\nsamples = 49\nvalue = [7, 42, 0]"] ;
68 -> 69 ;
70 [label="q1b <= 296.5\nentropy = 0.826\nsamples = 27\nvalue = [7, 20, 0]"] ;
69 -> 70 ;
71 [label="fs1d1z <= 1.5\nentropy = 0.722\nsamples = 5\nvalue = [4, 1, 0]"] ;
70 -> 71 ;
72 [label="entropy = 0.0\nsamples = 4\nvalue = [4, 0, 0]"] ;
71 -> 72 ;
73 [label="entropy = 0.0\nsamples = 1\nvalue = [0, 1, 0]"] ;
71 -> 73 ;
74 [label="q1b <= 349.5\nentropy = 0.575\nsamples = 22\nvalue = [3, 19, 0]"] ;
70 -> 74 ;
75 [label="entropy = 0.0\nsamples = 15\nvalue = [0, 15, 0]"] ;
74 -> 75 ;
76 [label="fs1ct2 <= 71.5\nentropy = 0.985\nsamples = 7\nvalue = [3, 4, 0]"] ;
74 -> 76 ;
77 [label="fs1ct2 <= 63.5\nentropy = 0.811\nsamples = 4\nvalue = [3, 1, 0]"] ;
76 -> 77 ;
78 [label="entropy = 0.0\nsamples = 1\nvalue = [0, 1, 0]"] ;
77 -> 78 ;
79 [label="entropy = 0.0\nsamples = 3\nvalue = [3, 0, 0]"] ;
77 -> 79 ;
80 [label="entropy = 0.0\nsamples = 3\nvalue = [0, 3, 0]"] ;
76 -> 80 ;
81 [label="entropy = 0.0\nsamples = 22\nvalue = [0, 22, 0]"] ;
69 -> 81 ;
82 [label="fs1wc15 <= 2.5\nentropy = 0.811\nsamples = 4\nvalue = [3, 1, 0]"] ;
68 -> 82 ;
83 [label="entropy = 0.0\nsamples = 3\nvalue = [3, 0, 0]"] ;
82 -> 83 ;
84 [label="entropy = 0.0\nsamples = 1\nvalue = [0, 1, 0]"] ;
82 -> 84 ;
85 [label="entropy = 0.0\nsamples = 28\nvalue = [0, 28, 0]"] ;
67 -> 85 ;
86 [label="entropy = 0.0\nsamples = 54\nvalue = [0, 54, 0]"] ;
66 -> 86 ;
87 [label="fs1q4 <= 56.5\nentropy = 0.856\nsamples = 54\nvalue = [1, 42, 11]"] ;
53 -> 87 ;
88 [label="fs1c1f2 <= 3.5\nentropy = 0.235\nsamples = 26\nvalue = [1, 25, 0]"] ;
87 -> 88 ;
89 [label="entropy = 0.0\nsamples = 25\nvalue = [0, 25, 0]"] ;
88 -> 89 ;
90 [label="entropy = 0.0\nsamples = 1\nvalue = [1, 0, 0]"] ;
88 -> 90 ;
91 [label="fs1wa5 <= 2.5\nentropy = 0.967\nsamples = 28\nvalue = [0, 17, 11]"] ;
87 -> 91 ;
92 [label="fs1wc7 <= 2.5\nentropy = 0.722\nsamples = 20\nvalue = [0, 16, 4]"] ;
91 -> 92 ;
93 [label="entropy = 0.0\nsamples = 12\nvalue = [0, 12, 0]"] ;
92 -> 93 ;
94 [label="q1b <= 174.0\nentropy = 1.0\nsamples = 8\nvalue = [0, 4, 4]"] ;
92 -> 94 ;
95 [label="entropy = 0.0\nsamples = 3\nvalue = [0, 0, 3]"] ;
94 -> 95 ;
96 [label="fs1c1f1 <= 2.5\nentropy = 0.722\nsamples = 5\nvalue = [0, 4, 1]"] ;
94 -> 96 ;
97 [label="entropy = 0.0\nsamples = 4\nvalue = [0, 4, 0]"] ;
96 -> 97 ;
98 [label="entropy = 0.0\nsamples = 1\nvalue = [0, 0, 1]"] ;
96 -> 98 ;
99 [label="fs1c2y <= 39.5\nentropy = 0.544\nsamples = 8\nvalue = [0, 1, 7]"] ;
91 -> 99 ;
100 [label="entropy = 0.0\nsamples = 7\nvalue = [0, 0, 7]"] ;
99 -> 100 ;
101 [label="entropy = 0.0\nsamples = 1\nvalue = [0, 1, 0]"] ;
99 -> 101 ;
102 [label="fs1wc14 <= 1.5\nentropy = 0.925\nsamples = 269\nvalue = [1, 83, 185]"] ;
0 -> 102 [labeldistance=2.5, labelangle=-45, headlabel="False"] ;
103 [label="fs1wc3 <= 2.5\nentropy = 0.989\nsamples = 108\nvalue = [1, 71, 36]"] ;
102 -> 103 ;
104 [label="fs1wc5 <= 1.5\nentropy = 0.695\nsamples = 76\nvalue = [1, 64, 11]"] ;
103 -> 104 ;
105 [label="fs1e1 <= 2.5\nentropy = 0.156\nsamples = 44\nvalue = [1, 43, 0]"] ;
104 -> 105 ;
106 [label="entropy = 0.0\nsamples = 43\nvalue = [0, 43, 0]"] ;
105 -> 106 ;
107 [label="entropy = 0.0\nsamples = 1\nvalue = [1, 0, 0]"] ;
105 -> 107 ;
108 [label="fs1wc4 <= 1.5\nentropy = 0.928\nsamples = 32\nvalue = [0, 21, 11]"] ;
104 -> 108 ;
109 [label="entropy = 0.0\nsamples = 12\nvalue = [0, 12, 0]"] ;
108 -> 109 ;
110 [label="fs1wa2 <= 2.5\nentropy = 0.993\nsamples = 20\nvalue = [0, 9, 11]"] ;
108 -> 110 ;
111 [label="entropy = 0.0\nsamples = 5\nvalue = [0, 5, 0]"] ;
110 -> 111 ;
112 [label="age <= 60.5\nentropy = 0.837\nsamples = 15\nvalue = [0, 4, 11]"] ;
110 -> 112 ;
113 [label="fs1wa3 <= 1.5\nentropy = 0.985\nsamples = 7\nvalue = [0, 4, 3]"] ;
112 -> 113 ;
114 [label="entropy = 0.0\nsamples = 4\nvalue = [0, 4, 0]"] ;
113 -> 114 ;
115 [label="entropy = 0.0\nsamples = 3\nvalue = [0, 0, 3]"] ;
113 -> 115 ;
116 [label="entropy = 0.0\nsamples = 8\nvalue = [0, 0, 8]"] ;
112 -> 116 ;
117 [label="fs1a7 <= 4.5\nentropy = 0.758\nsamples = 32\nvalue = [0, 7, 25]"] ;
103 -> 117 ;
118 [label="fs1wa2 <= 2.5\nentropy = 0.25\nsamples = 24\nvalue = [0, 1, 23]"] ;
117 -> 118 ;
119 [label="entropy = 0.0\nsamples = 1\nvalue = [0, 1, 0]"] ;
118 -> 119 ;
120 [label="entropy = 0.0\nsamples = 23\nvalue = [0, 0, 23]"] ;
118 -> 120 ;
121 [label="fs1wc4 <= 2.5\nentropy = 0.811\nsamples = 8\nvalue = [0, 6, 2]"] ;
117 -> 121 ;
122 [label="entropy = 0.0\nsamples = 6\nvalue = [0, 6, 0]"] ;
121 -> 122 ;
123 [label="entropy = 0.0\nsamples = 2\nvalue = [0, 0, 2]"] ;
121 -> 123 ;
124 [label="fs1wc2 <= 2.5\nentropy = 0.383\nsamples = 161\nvalue = [0, 12, 149]"] ;
102 -> 124 ;
125 [label="fs1wc15 <= 2.5\nentropy = 0.994\nsamples = 22\nvalue = [0, 10, 12]"] ;
124 -> 125 ;
126 [label="fs1ct5b <= 1.5\nentropy = 0.863\nsamples = 14\nvalue = [0, 10, 4]"] ;
125 -> 126 ;
127 [label="fs1c309 <= 1.5\nentropy = 0.985\nsamples = 7\nvalue = [0, 3, 4]"] ;
126 -> 127 ;
128 [label="fs1e5 <= 1.5\nentropy = 0.722\nsamples = 5\nvalue = [0, 1, 4]"] ;
127 -> 128 ;
129 [label="entropy = 0.0\nsamples = 4\nvalue = [0, 0, 4]"] ;
128 -> 129 ;
130 [label="entropy = 0.0\nsamples = 1\nvalue = [0, 1, 0]"] ;
128 -> 130 ;
131 [label="entropy = 0.0\nsamples = 2\nvalue = [0, 2, 0]"] ;
127 -> 131 ;
132 [label="entropy = 0.0\nsamples = 7\nvalue = [0, 7, 0]"] ;
126 -> 132 ;
133 [label="entropy = 0.0\nsamples = 8\nvalue = [0, 0, 8]"] ;
125 -> 133 ;
134 [label="fs1wc17 <= 1.5\nentropy = 0.109\nsamples = 139\nvalue = [0, 2, 137]"] ;
124 -> 134 ;
135 [label="fs1c1z <= 1.5\nentropy = 1.0\nsamples = 4\nvalue = [0, 2, 2]"] ;
134 -> 135 ;
136 [label="entropy = 0.0\nsamples = 2\nvalue = [0, 0, 2]"] ;
135 -> 136 ;
137 [label="entropy = 0.0\nsamples = 2\nvalue = [0, 2, 0]"] ;
135 -> 137 ;
138 [label="entropy = 0.0\nsamples = 135\nvalue = [0, 0, 135]"] ;
134 -> 138 ;
}