digraph Tree {
node [shape=box, fontname="helvetica"] ;
edge [fontname="helvetica"] ;
0 [label="fs1wc13 <= 1.5\nentropy = 1.542\nsamples = 561\nvalue = [162, 252, 147]"] ;
1 [label="fs1wc3 <= 1.5\nentropy = 1.136\nsamples = 364\nvalue = [161, 194, 9]"] ;
0 -> 1 [labeldistance=2.5, labelangle=45, headlabel="True"] ;
2 [label="fs1wa5 <= 1.5\nentropy = 0.903\nsamples = 207\nvalue = [141, 66, 0]"] ;
1 -> 2 ;
3 [label="fs1wc16 <= 2.5\nentropy = 0.65\nsamples = 144\nvalue = [120, 24, 0]"] ;
2 -> 3 ;
4 [label="fs1wc6 <= 1.5\nentropy = 0.503\nsamples = 135\nvalue = [120, 15, 0]"] ;
3 -> 4 ;
5 [label="fs1wc1 <= 2.5\nentropy = 0.323\nsamples = 119\nvalue = [112, 7, 0]"] ;
4 -> 5 ;
6 [label="fs1wb1 <= 1.5\nentropy = 0.13\nsamples = 111\nvalue = [109, 2, 0]"] ;
5 -> 6 ;
7 [label="entropy = 0.0\nsamples = 97\nvalue = [97, 0, 0]"] ;
6 -> 7 ;
8 [label="fs1a6b <= 2.5\nentropy = 0.592\nsamples = 14\nvalue = [12, 2, 0]"] ;
6 -> 8 ;
9 [label="entropy = 0.0\nsamples = 11\nvalue = [11, 0, 0]"] ;
8 -> 9 ;
10 [label="fs1c4 <= 1.5\nentropy = 0.918\nsamples = 3\nvalue = [1, 2, 0]"] ;
8 -> 10 ;
11 [label="entropy = 0.0\nsamples = 2\nvalue = [0, 2, 0]"] ;
10 -> 11 ;
12 [label="entropy = 0.0\nsamples = 1\nvalue = [1, 0, 0]"] ;
10 -> 12 ;
13 [label="fs1wc7 <= 1.5\nentropy = 0.954\nsamples = 8\nvalue = [3, 5, 0]"] ;
5 -> 13 ;
14 [label="fs1d2z <= 1.5\nentropy = 0.811\nsamples = 4\nvalue = [3, 1, 0]"] ;
13 -> 14 ;
15 [label="entropy = 0.0\nsamples = 3\nvalue = [3, 0, 0]"] ;
14 -> 15 ;
16 [label="entropy = 0.0\nsamples = 1\nvalue = [0, 1, 0]"] ;
14 -> 16 ;
17 [label="entropy = 0.0\nsamples = 4\nvalue = [0, 4, 0]"] ;
13 -> 17 ;
18 [label="fs1wc2 <= 1.5\nentropy = 1.0\nsamples = 16\nvalue = [8, 8, 0]"] ;
4 -> 18 ;
19 [label="entropy = 0.0\nsamples = 5\nvalue = [5, 0, 0]"] ;
18 -> 19 ;
20 [label="fs1q3c <= 20.5\nentropy = 0.845\nsamples = 11\nvalue = [3, 8, 0]"] ;
18 -> 20 ;
21 [label="entropy = 0.0\nsamples = 7\nvalue = [0, 7, 0]"] ;
20 -> 21 ;
22 [label="fs1ct1 <= 158.0\nentropy = 0.811\nsamples = 4\nvalue = [3, 1, 0]"] ;
20 -> 22 ;
23 [label="entropy = 0.0\nsamples = 1\nvalue = [0, 1, 0]"] ;
22 -> 23 ;
24 [label="entropy = 0.0\nsamples = 3\nvalue = [3, 0, 0]"] ;
22 -> 24 ;
25 [label="entropy = 0.0\nsamples = 9\nvalue = [0, 9, 0]"] ;
3 -> 25 ;
26 [label="fs1wc1 <= 1.5\nentropy = 0.918\nsamples = 63\nvalue = [21, 42, 0]"] ;
2 -> 26 ;
27 [label="fs1wb2 <= 1.5\nentropy = 0.863\nsamples = 21\nvalue = [15, 6, 0]"] ;
26 -> 27 ;
28 [label="entropy = 0.0\nsamples = 13\nvalue = [13, 0, 0]"] ;
27 -> 28 ;
29 [label="fs1wa1 <= 1.5\nentropy = 0.811\nsamples = 8\nvalue = [2, 6, 0]"] ;
27 -> 29 ;
30 [label="entropy = 0.0\nsamples = 2\nvalue = [2, 0, 0]"] ;
29 -> 30 ;
31 [label="entropy = 0.0\nsamples = 6\nvalue = [0, 6, 0]"] ;
29 -> 31 ;
32 [label="fs1wb1 <= 1.5\nentropy = 0.592\nsamples = 42\nvalue = [6, 36, 0]"] ;
26 -> 32 ;
33 [label="fs1wc1 <= 2.5\nentropy = 0.845\nsamples = 22\nvalue = [6, 16, 0]"] ;
32 -> 33 ;
34 [label="fs1e1 <= 1.5\nentropy = 0.996\nsamples = 13\nvalue = [6, 7, 0]"] ;
33 -> 34 ;
35 [label="fs1a5 <= 1.5\nentropy = 0.592\nsamples = 7\nvalue = [1, 6, 0]"] ;
34 -> 35 ;
36 [label="entropy = 0.0\nsamples = 1\nvalue = [1, 0, 0]"] ;
35 -> 36 ;
37 [label="entropy = 0.0\nsamples = 6\nvalue = [0, 6, 0]"] ;
35 -> 37 ;
38 [label="fs1wa3 <= 1.5\nentropy = 0.65\nsamples = 6\nvalue = [5, 1, 0]"] ;
34 -> 38 ;
39 [label="entropy = 0.0\nsamples = 5\nvalue = [5, 0, 0]"] ;
38 -> 39 ;
40 [label="entropy = 0.0\nsamples = 1\nvalue = [0, 1, 0]"] ;
38 -> 40 ;
41 [label="entropy = 0.0\nsamples = 9\nvalue = [0, 9, 0]"] ;
33 -> 41 ;
42 [label="entropy = 0.0\nsamples = 20\nvalue = [0, 20, 0]"] ;
32 -> 42 ;
43 [label="fs1wc8 <= 1.5\nentropy = 0.855\nsamples = 157\nvalue = [20, 128, 9]"] ;
1 -> 43 ;
44 [label="fs1wc16 <= 1.5\nentropy = 0.657\nsamples = 118\nvalue = [20, 98, 0]"] ;
43 -> 44 ;
45 [label="fs1wc1 <= 1.5\nentropy = 1.0\nsamples = 26\nvalue = [13, 13, 0]"] ;
44 -> 45 ;
46 [label="fs1a1 <= 3.5\nentropy = 0.503\nsamples = 9\nvalue = [8, 1, 0]"] ;
45 -> 46 ;
47 [label="entropy = 0.0\nsamples = 8\nvalue = [8, 0, 0]"] ;
46 -> 47 ;
48 [label="entropy = 0.0\nsamples = 1\nvalue = [0, 1, 0]"] ;
46 -> 48 ;
49 [label="fs1a1 <= 1.5\nentropy = 0.874\nsamples = 17\nvalue = [5, 12, 0]"] ;
45 -> 49 ;
50 [label="entropy = 0.0\nsamples = 3\nvalue = [3, 0, 0]"] ;
49 -> 50 ;
51 [label="fs1ct7z1 <= 132.5\nentropy = 0.592\nsamples = 14\nvalue = [2, 12, 0]"] ;
49 -> 51 ;
52 [label="entropy = 0.0\nsamples = 11\nvalue = [0, 11, 0]"] ;
51 -> 52 ;
53 [label="fs1c5a <= 1.5\nentropy = 0.918\nsamples = 3\nvalue = [2, 1, 0]"] ;
51 -> 53 ;
54 [label="entropy = 0.0\nsamples = 1\nvalue = [0, 1, 0]"] ;
53 -> 54 ;
55 [label="entropy = 0.0\nsamples = 2\nvalue = [2, 0, 0]"] ;
53 -> 55 ;
56 [label="fs1wc6 <= 1.5\nentropy = 0.388\nsamples = 92\nvalue = [7, 85, 0]"] ;
44 -> 56 ;
57 [label="fs1c8 <= 2.5\nentropy = 0.556\nsamples = 54\nvalue = [7, 47, 0]"] ;
56 -> 57 ;
58 [label="fs1wa2 <= 1.5\nentropy = 0.457\nsamples = 52\nvalue = [5, 47, 0]"] ;
57 -> 58 ;
59 [label="fs1b10 <= 1.5\nentropy = 0.918\nsamples = 3\nvalue = [2, 1, 0]"] ;
58 -> 59 ;
60 [label="entropy = 0.0\nsamples = 2\nvalue = [2, 0, 0]"] ;
59 -> 60 ;
61 [label="entropy = 0.0\nsamples = 1\nvalue = [0, 1, 0]"] ;
59 -> 61 ;
62 [label="q1b <= 312.5\nentropy = 0.332\nsamples = 49\nvalue = [3, 46, 0]"] ;
58 -> 62 ;
63 [label="entropy = 0.0\nsamples = 26\nvalue = [0, 26, 0]"] ;
62 -> 63 ;
64 [label="q1b <= 314.0\nentropy = 0.559\nsamples = 23\nvalue = [3, 20, 0]"] ;
62 -> 64 ;
65 [label="entropy = 0.0\nsamples = 1\nvalue = [1, 0, 0]"] ;
64 -> 65 ;
66 [label="fs1q3c <= 22.5\nentropy = 0.439\nsamples = 22\nvalue = [2, 20, 0]"] ;
64 -> 66 ;
67 [label="entropy = 0.0\nsamples = 16\nvalue = [0, 16, 0]"] ;
66 -> 67 ;
68 [label="fs1ct1 <= 164.5\nentropy = 0.918\nsamples = 6\nvalue = [2, 4, 0]"] ;
66 -> 68 ;
69 [label="entropy = 0.0\nsamples = 2\nvalue = [2, 0, 0]"] ;
68 -> 69 ;
70 [label="entropy = 0.0\nsamples = 4\nvalue = [0, 4, 0]"] ;
68 -> 70 ;
71 [label="entropy = 0.0\nsamples = 2\nvalue = [2, 0, 0]"] ;
57 -> 71 ;
72 [label="entropy = 0.0\nsamples = 38\nvalue = [0, 38, 0]"] ;
56 -> 72 ;
73 [label="fs1wc2 <= 2.5\nentropy = 0.779\nsamples = 39\nvalue = [0, 30, 9]"] ;
43 -> 73 ;
74 [label="entropy = 0.0\nsamples = 16\nvalue = [0, 16, 0]"] ;
73 -> 74 ;
75 [label="fs1wa3 <= 1.5\nentropy = 0.966\nsamples = 23\nvalue = [0, 14, 9]"] ;
73 -> 75 ;
76 [label="fs1ct3a <= 1.5\nentropy = 0.414\nsamples = 12\nvalue = [0, 11, 1]"] ;
75 -> 76 ;
77 [label="entropy = 0.0\nsamples = 1\nvalue = [0, 0, 1]"] ;
76 -> 77 ;
78 [label="entropy = 0.0\nsamples = 11\nvalue = [0, 11, 0]"] ;
76 -> 78 ;
79 [label="fs1ct4b <= 1.5\nentropy = 0.845\nsamples = 11\nvalue = [0, 3, 8]"] ;
75 -> 79 ;
80 [label="fs1e5 <= 1.5\nentropy = 0.811\nsamples = 4\nvalue = [0, 3, 1]"] ;
79 -> 80 ;
81 [label="entropy = 0.0\nsamples = 1\nvalue = [0, 0, 1]"] ;
80 -> 81 ;
82 [label="entropy = 0.0\nsamples = 3\nvalue = [0, 3, 0]"] ;
80 -> 82 ;
83 [label="entropy = 0.0\nsamples = 7\nvalue = [0, 0, 7]"] ;
79 -> 83 ;
84 [label="fs1wc14 <= 1.5\nentropy = 0.918\nsamples = 197\nvalue = [1, 58, 138]"] ;
0 -> 84 [labeldistance=2.5, labelangle=-45, headlabel="False"] ;
85 [label="fs1wa2 <= 2.5\nentropy = 1.012\nsamples = 80\nvalue = [1, 52, 27]"] ;
84 -> 85 ;
86 [label="fs1e3 <= 2.5\nentropy = 0.216\nsamples = 29\nvalue = [1, 28, 0]"] ;
85 -> 86 ;
87 [label="entropy = 0.0\nsamples = 28\nvalue = [0, 28, 0]"] ;
86 -> 87 ;
88 [label="entropy = 0.0\nsamples = 1\nvalue = [1, 0, 0]"] ;
86 -> 88 ;
89 [label="fs1wc3 <= 2.5\nentropy = 0.998\nsamples = 51\nvalue = [0, 24, 27]"] ;
85 -> 89 ;
90 [label="fs1wc5 <= 1.5\nentropy = 0.85\nsamples = 29\nvalue = [0, 21, 8]"] ;
89 -> 90 ;
91 [label="entropy = 0.0\nsamples = 16\nvalue = [0, 16, 0]"] ;
90 -> 91 ;
92 [label="fs1q4 <= 47.5\nentropy = 0.961\nsamples = 13\nvalue = [0, 5, 8]"] ;
90 -> 92 ;
93 [label="entropy = 0.0\nsamples = 3\nvalue = [0, 3, 0]"] ;
92 -> 93 ;
94 [label="fs1wa3 <= 1.5\nentropy = 0.722\nsamples = 10\nvalue = [0, 2, 8]"] ;
92 -> 94 ;
95 [label="fs1ct2 <= 58.8\nentropy = 0.918\nsamples = 3\nvalue = [0, 2, 1]"] ;
94 -> 95 ;
96 [label="entropy = 0.0\nsamples = 1\nvalue = [0, 0, 1]"] ;
95 -> 96 ;
97 [label="entropy = 0.0\nsamples = 2\nvalue = [0, 2, 0]"] ;
95 -> 97 ;
98 [label="entropy = 0.0\nsamples = 7\nvalue = [0, 0, 7]"] ;
94 -> 98 ;
99 [label="q1b <= 145.0\nentropy = 0.575\nsamples = 22\nvalue = [0, 3, 19]"] ;
89 -> 99 ;
100 [label="fs1ct4a <= 1.5\nentropy = 0.985\nsamples = 7\nvalue = [0, 3, 4]"] ;
99 -> 100 ;
101 [label="entropy = 0.0\nsamples = 4\nvalue = [0, 0, 4]"] ;
100 -> 101 ;
102 [label="entropy = 0.0\nsamples = 3\nvalue = [0, 3, 0]"] ;
100 -> 102 ;
103 [label="entropy = 0.0\nsamples = 15\nvalue = [0, 0, 15]"] ;
99 -> 103 ;
104 [label="fs1wc16 <= 2.5\nentropy = 0.292\nsamples = 117\nvalue = [0, 6, 111]"] ;
84 -> 104 ;
105 [label="fs1a6a <= 1.5\nentropy = 0.937\nsamples = 17\nvalue = [0, 6, 11]"] ;
104 -> 105 ;
106 [label="fs1b13 <= 1.5\nentropy = 0.65\nsamples = 6\nvalue = [0, 5, 1]"] ;
105 -> 106 ;
107 [label="entropy = 0.0\nsamples = 5\nvalue = [0, 5, 0]"] ;
106 -> 107 ;
108 [label="entropy = 0.0\nsamples = 1\nvalue = [0, 0, 1]"] ;
106 -> 108 ;
109 [label="fs1q2 <= 1.5\nentropy = 0.439\nsamples = 11\nvalue = [0, 1, 10]"] ;
105 -> 109 ;
110 [label="entropy = 0.0\nsamples = 1\nvalue = [0, 1, 0]"] ;
109 -> 110 ;
111 [label="entropy = 0.0\nsamples = 10\nvalue = [0, 0, 10]"] ;
109 -> 111 ;
112 [label="entropy = 0.0\nsamples = 100\nvalue = [0, 0, 100]"] ;
104 -> 112 ;
}