digraph Tree {
node [shape=box, fontname="helvetica"] ;
edge [fontname="helvetica"] ;
0 [label="fs1a5 <= 2.5\nentropy = 1.585\nsamples = 1525\nvalue = [508.333, 508.333, 508.333]"] ;
1 [label="fs1d2z <= 1.5\nentropy = 1.162\nsamples = 669\nvalue = [433.157, 221.623, 34.116]"] ;
0 -> 1 [labeldistance=2.5, labelangle=45, headlabel="True"] ;
2 [label="fs1ct5b <= 1.5\nentropy = 0.908\nsamples = 507\nvalue = [408.099, 161.48, 3.412]"] ;
1 -> 2 ;
3 [label="fs1c2b <= 1.5\nentropy = 0.986\nsamples = 125\nvalue = [35.798, 47.373, 0.0]"] ;
2 -> 3 ;
4 [label="fs1c8 <= 2.5\nentropy = 0.538\nsamples = 63\nvalue = [3.58, 25.54, 0.0]"] ;
3 -> 4 ;
5 [label="entropy = 0.0\nsamples = 60\nvalue = [0.0, 24.716, 0.0]"] ;
4 -> 5 ;
6 [label="fs1a6c <= 4.0\nentropy = 0.695\nsamples = 3\nvalue = [3.58, 0.824, 0.0]"] ;
4 -> 6 ;
7 [label="entropy = -0.0\nsamples = 2\nvalue = [0.0, 0.824, 0.0]"] ;
6 -> 7 ;
8 [label="entropy = 0.0\nsamples = 1\nvalue = [3.58, 0.0, 0.0]"] ;
6 -> 8 ;
9 [label="fs1ct4b <= 1.5\nentropy = 0.973\nsamples = 62\nvalue = [32.218, 21.833, 0.0]"] ;
3 -> 9 ;
10 [label="entropy = 0.0\nsamples = 21\nvalue = [0.0, 8.651, 0.0]"] ;
9 -> 10 ;
11 [label="fs1d1a1 <= 1.5\nentropy = 0.869\nsamples = 41\nvalue = [32.218, 13.182, 0.0]"] ;
9 -> 11 ;
12 [label="fs1a3a <= 1.5\nentropy = 0.786\nsamples = 33\nvalue = [32.218, 9.887, 0.0]"] ;
11 -> 12 ;
13 [label="age <= 56.5\nentropy = 0.713\nsamples = 28\nvalue = [32.218, 7.827, 0.0]"] ;
12 -> 13 ;
14 [label="fs1ct7y1 <= 115.0\nentropy = 0.514\nsamples = 17\nvalue = [28.638, 3.707, 0.0]"] ;
13 -> 14 ;
15 [label="entropy = 0.0\nsamples = 2\nvalue = [0.0, 0.824, 0.0]"] ;
14 -> 15 ;
16 [label="fs1ct4a <= 1.5\nentropy = 0.441\nsamples = 15\nvalue = [28.638, 2.884, 0.0]"] ;
14 -> 16 ;
17 [label="entropy = 0.0\nsamples = 2\nvalue = [0.0, 0.824, 0.0]"] ;
16 -> 17 ;
18 [label="age <= 52.0\nentropy = 0.355\nsamples = 13\nvalue = [28.638, 2.06, 0.0]"] ;
16 -> 18 ;
19 [label="fs1a6c <= 3.0\nentropy = 0.546\nsamples = 9\nvalue = [14.319, 2.06, 0.0]"] ;
18 -> 19 ;
20 [label="entropy = 0.0\nsamples = 2\nvalue = [0.0, 0.824, 0.0]"] ;
19 -> 20 ;
21 [label="fs1c309 <= 1.5\nentropy = 0.4\nsamples = 7\nvalue = [14.319, 1.236, 0.0]"] ;
19 -> 21 ;
22 [label="fs1e4 <= 1.5\nentropy = 0.305\nsamples = 6\nvalue = [14.319, 0.824, 0.0]"] ;
21 -> 22 ;
23 [label="entropy = 0.0\nsamples = 3\nvalue = [10.739, 0.0, 0.0]"] ;
22 -> 23 ;
24 [label="fs1e9 <= 1.5\nentropy = 0.695\nsamples = 3\nvalue = [3.58, 0.824, 0.0]"] ;
22 -> 24 ;
25 [label="entropy = -0.0\nsamples = 2\nvalue = [0.0, 0.824, 0.0]"] ;
24 -> 25 ;
26 [label="entropy = 0.0\nsamples = 1\nvalue = [3.58, 0.0, 0.0]"] ;
24 -> 26 ;
27 [label="entropy = 0.0\nsamples = 1\nvalue = [0.0, 0.412, 0.0]"] ;
21 -> 27 ;
28 [label="entropy = -0.0\nsamples = 4\nvalue = [14.319, 0.0, 0.0]"] ;
18 -> 28 ;
29 [label="fs1ct7z1 <= 117.5\nentropy = 0.996\nsamples = 11\nvalue = [3.58, 4.119, 0.0]"] ;
13 -> 29 ;
30 [label="entropy = 0.0\nsamples = 1\nvalue = [3.58, 0.0, 0.0]"] ;
29 -> 30 ;
31 [label="fs1e2 <= 1.5\nentropy = 0.0\nsamples = 10\nvalue = [0.0, 4.119, 0.0]"] ;
29 -> 31 ;
32 [label="entropy = 0.0\nsamples = 9\nvalue = [0.0, 3.707, 0.0]"] ;
31 -> 32 ;
33 [label="entropy = 0.0\nsamples = 1\nvalue = [0.0, 0.412, 0.0]"] ;
31 -> 33 ;
34 [label="entropy = 0.0\nsamples = 5\nvalue = [0.0, 2.06, 0.0]"] ;
12 -> 34 ;
35 [label="entropy = 0.0\nsamples = 8\nvalue = [0.0, 3.296, 0.0]"] ;
11 -> 35 ;
36 [label="fs1a2b <= 2.5\nentropy = 0.84\nsamples = 382\nvalue = [372.3, 114.107, 3.412]"] ;
2 -> 36 ;
37 [label="fs1a6c <= 4.5\nentropy = 1.023\nsamples = 217\nvalue = [143.192, 72.501, 3.412]"] ;
36 -> 37 ;
38 [label="fs1b3 <= 1.5\nentropy = 0.897\nsamples = 174\nvalue = [125.293, 57.26, 0.0]"] ;
37 -> 38 ;
39 [label="fs1a2a <= 1.5\nentropy = 0.87\nsamples = 160\nvalue = [125.293, 51.492, 0.0]"] ;
38 -> 39 ;
40 [label="age <= 59.0\nentropy = 0.155\nsamples = 6\nvalue = [17.899, 0.412, 0.0]"] ;
39 -> 40 ;
41 [label="entropy = 0.0\nsamples = 4\nvalue = [14.319, 0.0, 0.0]"] ;
40 -> 41 ;
42 [label="fs1d1y <= 1.5\nentropy = 0.479\nsamples = 2\nvalue = [3.58, 0.412, 0.0]"] ;
40 -> 42 ;
43 [label="entropy = 0.0\nsamples = 1\nvalue = [3.58, 0.0, 0.0]"] ;
42 -> 43 ;
44 [label="entropy = -0.0\nsamples = 1\nvalue = [0.0, 0.412, 0.0]"] ;
42 -> 44 ;
45 [label="fs1a1 <= 1.5\nentropy = 0.907\nsamples = 154\nvalue = [107.394, 51.08, 0.0]"] ;
39 -> 45 ;
46 [label="entropy = 0.0\nsamples = 9\nvalue = [0.0, 3.707, 0.0]"] ;
45 -> 46 ;
47 [label="fs1e2 <= 1.5\nentropy = 0.889\nsamples = 145\nvalue = [107.394, 47.373, 0.0]"] ;
45 -> 47 ;
48 [label="fs1c7 <= 3.5\nentropy = 0.87\nsamples = 137\nvalue = [107.394, 44.078, 0.0]"] ;
47 -> 48 ;
49 [label="fs1a3b <= 1.5\nentropy = 0.852\nsamples = 130\nvalue = [107.394, 41.194, 0.0]"] ;
48 -> 49 ;
50 [label="fs1e9 <= 1.5\nentropy = 0.786\nsamples = 99\nvalue = [96.655, 29.66, 0.0]"] ;
49 -> 50 ;
51 [label="age <= 55.5\nentropy = 0.759\nsamples = 93\nvalue = [96.655, 27.188, 0.0]"] ;
50 -> 51 ;
52 [label="fs1a3a <= 1.5\nentropy = 0.449\nsamples = 19\nvalue = [35.798, 3.707, 0.0]"] ;
51 -> 52 ;
53 [label="age <= 43.5\nentropy = 0.345\nsamples = 16\nvalue = [35.798, 2.472, 0.0]"] ;
52 -> 53 ;
54 [label="entropy = 0.0\nsamples = 1\nvalue = [0.0, 0.412, 0.0]"] ;
53 -> 54 ;
55 [label="fs1a2a <= 2.5\nentropy = 0.305\nsamples = 15\nvalue = [35.798, 2.06, 0.0]"] ;
53 -> 55 ;
56 [label="fs1e4 <= 1.5\nentropy = 0.695\nsamples = 6\nvalue = [7.16, 1.648, 0.0]"] ;
55 -> 56 ;
57 [label="fs1ct7y1 <= 122.5\nentropy = 0.0\nsamples = 4\nvalue = [0.0, 1.648, 0.0]"] ;
56 -> 57 ;
58 [label="entropy = 0.0\nsamples = 2\nvalue = [0.0, 0.824, 0.0]"] ;
57 -> 58 ;
59 [label="entropy = 0.0\nsamples = 2\nvalue = [0.0, 0.824, 0.0]"] ;
57 -> 59 ;
60 [label="entropy = 0.0\nsamples = 2\nvalue = [7.16, 0.0, 0.0]"] ;
56 -> 60 ;
61 [label="fs1a4b <= 1.5\nentropy = 0.107\nsamples = 9\nvalue = [28.638, 0.412, 0.0]"] ;
55 -> 61 ;
62 [label="entropy = 0.0\nsamples = 7\nvalue = [25.059, 0.0, 0.0]"] ;
61 -> 62 ;
63 [label="age <= 47.0\nentropy = 0.479\nsamples = 2\nvalue = [3.58, 0.412, 0.0]"] ;
61 -> 63 ;
64 [label="entropy = 0.0\nsamples = 1\nvalue = [3.58, 0.0, 0.0]"] ;
63 -> 64 ;
65 [label="entropy = -0.0\nsamples = 1\nvalue = [0.0, 0.412, 0.0]"] ;
63 -> 65 ;
66 [label="fs1c1z <= 1.5\nentropy = 0.0\nsamples = 3\nvalue = [0.0, 1.236, 0.0]"] ;
52 -> 66 ;
67 [label="entropy = 0.0\nsamples = 2\nvalue = [0.0, 0.824, 0.0]"] ;
66 -> 67 ;
68 [label="entropy = 0.0\nsamples = 1\nvalue = [0.0, 0.412, 0.0]"] ;
66 -> 68 ;
69 [label="fs1a6a <= 1.5\nentropy = 0.853\nsamples = 74\nvalue = [60.857, 23.481, 0.0]"] ;
51 -> 69 ;
70 [label="age <= 57.5\nentropy = 0.872\nsamples = 22\nvalue = [3.58, 8.651, 0.0]"] ;
69 -> 70 ;
71 [label="fs1a7 <= 4.5\nentropy = 0.479\nsamples = 2\nvalue = [3.58, 0.412, 0.0]"] ;
70 -> 71 ;
72 [label="entropy = 0.0\nsamples = 1\nvalue = [3.58, 0.0, 0.0]"] ;
71 -> 72 ;
73 [label="entropy = -0.0\nsamples = 1\nvalue = [0.0, 0.412, 0.0]"] ;
71 -> 73 ;
74 [label="entropy = 0.0\nsamples = 20\nvalue = [0.0, 8.239, 0.0]"] ;
70 -> 74 ;
75 [label="fs1e4 <= 1.5\nentropy = 0.733\nsamples = 52\nvalue = [57.277, 14.83, 0.0]"] ;
69 -> 75 ;
76 [label="fs1a1 <= 2.5\nentropy = 0.673\nsamples = 43\nvalue = [53.697, 11.534, 0.0]"] ;
75 -> 76 ;
77 [label="fs1ct7y1 <= 125.0\nentropy = 0.507\nsamples = 21\nvalue = [35.798, 4.531, 0.0]"] ;
76 -> 77 ;
78 [label="fs1ct7y1 <= 115.0\nentropy = 0.417\nsamples = 18\nvalue = [35.798, 3.296, 0.0]"] ;
77 -> 78 ;
79 [label="fs1d1z <= 1.5\nentropy = 0.976\nsamples = 7\nvalue = [3.58, 2.472, 0.0]"] ;
78 -> 79 ;
80 [label="fs1d2y <= 1.5\nentropy = 0.479\nsamples = 2\nvalue = [3.58, 0.412, 0.0]"] ;
79 -> 80 ;
81 [label="entropy = 0.0\nsamples = 1\nvalue = [3.58, 0.0, 0.0]"] ;
80 -> 81 ;
82 [label="entropy = -0.0\nsamples = 1\nvalue = [0.0, 0.412, 0.0]"] ;
80 -> 82 ;
83 [label="fs1e7 <= 1.5\nentropy = 0.0\nsamples = 5\nvalue = [0.0, 2.06, 0.0]"] ;
79 -> 83 ;
84 [label="entropy = 0.0\nsamples = 4\nvalue = [0.0, 1.648, 0.0]"] ;
83 -> 84 ;
85 [label="entropy = 0.0\nsamples = 1\nvalue = [0.0, 0.412, 0.0]"] ;
83 -> 85 ;
86 [label="age <= 70.5\nentropy = 0.168\nsamples = 11\nvalue = [32.218, 0.824, 0.0]"] ;
78 -> 86 ;
87 [label="entropy = 0.0\nsamples = 8\nvalue = [28.638, 0.0, 0.0]"] ;
86 -> 87 ;
88 [label="fs1d1a2 <= 1.5\nentropy = 0.695\nsamples = 3\nvalue = [3.58, 0.824, 0.0]"] ;
86 -> 88 ;
89 [label="fs1a7 <= 4.5\nentropy = 0.479\nsamples = 2\nvalue = [3.58, 0.412, 0.0]"] ;
88 -> 89 ;
90 [label="entropy = 0.0\nsamples = 1\nvalue = [3.58, 0.0, 0.0]"] ;
89 -> 90 ;
91 [label="entropy = -0.0\nsamples = 1\nvalue = [0.0, 0.412, 0.0]"] ;
89 -> 91 ;
92 [label="entropy = -0.0\nsamples = 1\nvalue = [0.0, 0.412, 0.0]"] ;
88 -> 92 ;
93 [label="fs1c1y <= 2.0\nentropy = 0.0\nsamples = 3\nvalue = [0.0, 1.236, 0.0]"] ;
77 -> 93 ;
94 [label="entropy = 0.0\nsamples = 2\nvalue = [0.0, 0.824, 0.0]"] ;
93 -> 94 ;
95 [label="entropy = 0.0\nsamples = 1\nvalue = [0.0, 0.412, 0.0]"] ;
93 -> 95 ;
96 [label="fs1ct7z1 <= 132.5\nentropy = 0.857\nsamples = 22\nvalue = [17.899, 7.003, 0.0]"] ;
76 -> 96 ;
97 [label="age <= 78.5\nentropy = 0.999\nsamples = 18\nvalue = [7.16, 6.591, 0.0]"] ;
96 -> 97 ;
98 [label="age <= 57.5\nentropy = 0.936\nsamples = 17\nvalue = [3.58, 6.591, 0.0]"] ;
97 -> 98 ;
99 [label="fs1a6c <= 3.5\nentropy = 0.479\nsamples = 2\nvalue = [3.58, 0.412, 0.0]"] ;
98 -> 99 ;
100 [label="entropy = 0.0\nsamples = 1\nvalue = [0.0, 0.412, 0.0]"] ;
99 -> 100 ;
101 [label="entropy = 0.0\nsamples = 1\nvalue = [3.58, 0.0, 0.0]"] ;
99 -> 101 ;
102 [label="fs1a2a <= 2.5\nentropy = 0.0\nsamples = 15\nvalue = [0.0, 6.179, 0.0]"] ;
98 -> 102 ;
103 [label="entropy = 0.0\nsamples = 11\nvalue = [0.0, 4.531, 0.0]"] ;
102 -> 103 ;
104 [label="entropy = 0.0\nsamples = 4\nvalue = [0.0, 1.648, 0.0]"] ;
102 -> 104 ;
105 [label="entropy = 0.0\nsamples = 1\nvalue = [3.58, 0.0, 0.0]"] ;
97 -> 105 ;
106 [label="age <= 61.0\nentropy = 0.228\nsamples = 4\nvalue = [10.739, 0.412, 0.0]"] ;
96 -> 106 ;
107 [label="entropy = 0.0\nsamples = 1\nvalue = [0.0, 0.412, 0.0]"] ;
106 -> 107 ;
108 [label="entropy = 0.0\nsamples = 3\nvalue = [10.739, 0.0, 0.0]"] ;
106 -> 108 ;
109 [label="fs1ct7y1 <= 105.0\nentropy = 0.999\nsamples = 9\nvalue = [3.58, 3.296, 0.0]"] ;
75 -> 109 ;
110 [label="fs1d1y <= 1.5\nentropy = 0.479\nsamples = 2\nvalue = [3.58, 0.412, 0.0]"] ;
109 -> 110 ;
111 [label="entropy = 0.0\nsamples = 1\nvalue = [3.58, 0.0, 0.0]"] ;
110 -> 111 ;
112 [label="entropy = -0.0\nsamples = 1\nvalue = [0.0, 0.412, 0.0]"] ;
110 -> 112 ;
113 [label="fs1e3 <= 1.5\nentropy = 0.0\nsamples = 7\nvalue = [0.0, 2.884, 0.0]"] ;
109 -> 113 ;
114 [label="entropy = 0.0\nsamples = 6\nvalue = [0.0, 2.472, 0.0]"] ;
113 -> 114 ;
115 [label="entropy = 0.0\nsamples = 1\nvalue = [0.0, 0.412, 0.0]"] ;
113 -> 115 ;
116 [label="entropy = 0.0\nsamples = 6\nvalue = [0.0, 2.472, 0.0]"] ;
50 -> 116 ;
117 [label="age <= 66.5\nentropy = 0.999\nsamples = 31\nvalue = [10.739, 11.534, 0.0]"] ;
49 -> 117 ;
118 [label="entropy = 0.0\nsamples = 14\nvalue = [0.0, 5.767, 0.0]"] ;
117 -> 118 ;
119 [label="age <= 73.5\nentropy = 0.934\nsamples = 17\nvalue = [10.739, 5.767, 0.0]"] ;
117 -> 119 ;
120 [label="fs1b5 <= 1.5\nentropy = 0.745\nsamples = 10\nvalue = [10.739, 2.884, 0.0]"] ;
119 -> 120 ;
121 [label="fs1c1y <= 1.5\nentropy = 0.566\nsamples = 7\nvalue = [10.739, 1.648, 0.0]"] ;
120 -> 121 ;
122 [label="fs1a6b <= 1.5\nentropy = 0.371\nsamples = 5\nvalue = [10.739, 0.824, 0.0]"] ;
121 -> 122 ;
123 [label="entropy = 0.0\nsamples = 1\nvalue = [3.58, 0.0, 0.0]"] ;
122 -> 123 ;
124 [label="fs1a4b <= 1.5\nentropy = 0.479\nsamples = 4\nvalue = [7.16, 0.824, 0.0]"] ;
122 -> 124 ;
125 [label="age <= 72.5\nentropy = 0.695\nsamples = 3\nvalue = [3.58, 0.824, 0.0]"] ;
124 -> 125 ;
126 [label="entropy = -0.0\nsamples = 2\nvalue = [0.0, 0.824, 0.0]"] ;
125 -> 126 ;
127 [label="entropy = 0.0\nsamples = 1\nvalue = [3.58, 0.0, 0.0]"] ;
125 -> 127 ;
128 [label="entropy = 0.0\nsamples = 1\nvalue = [3.58, 0.0, 0.0]"] ;
124 -> 128 ;
129 [label="fs1ct7z1 <= 132.5\nentropy = 0.0\nsamples = 2\nvalue = [0.0, 0.824, 0.0]"] ;
121 -> 129 ;
130 [label="entropy = 0.0\nsamples = 1\nvalue = [0.0, 0.412, 0.0]"] ;
129 -> 130 ;
131 [label="entropy = 0.0\nsamples = 1\nvalue = [0.0, 0.412, 0.0]"] ;
129 -> 131 ;
132 [label="fs1c309 <= 1.5\nentropy = 0.0\nsamples = 3\nvalue = [0.0, 1.236, 0.0]"] ;
120 -> 132 ;
133 [label="entropy = 0.0\nsamples = 2\nvalue = [0.0, 0.824, 0.0]"] ;
132 -> 133 ;
134 [label="entropy = 0.0\nsamples = 1\nvalue = [0.0, 0.412, 0.0]"] ;
132 -> 134 ;
135 [label="fs1d1z <= 1.5\nentropy = 0.0\nsamples = 7\nvalue = [0.0, 2.884, 0.0]"] ;
119 -> 135 ;
136 [label="entropy = 0.0\nsamples = 3\nvalue = [0.0, 1.236, 0.0]"] ;
135 -> 136 ;
137 [label="entropy = 0.0\nsamples = 4\nvalue = [0.0, 1.648, 0.0]"] ;
135 -> 137 ;
138 [label="entropy = 0.0\nsamples = 7\nvalue = [0.0, 2.884, 0.0]"] ;
48 -> 138 ;
139 [label="entropy = 0.0\nsamples = 8\nvalue = [0.0, 3.296, 0.0]"] ;
47 -> 139 ;
140 [label="entropy = 0.0\nsamples = 14\nvalue = [0.0, 5.767, 0.0]"] ;
38 -> 140 ;
141 [label="fs1ct7z1 <= 134.0\nentropy = 1.35\nsamples = 43\nvalue = [17.899, 15.242, 3.412]"] ;
37 -> 141 ;
142 [label="fs1a6b <= 1.5\nentropy = 0.986\nsamples = 38\nvalue = [17.899, 13.594, 0.0]"] ;
141 -> 142 ;
143 [label="fs1ct7y1 <= 115.0\nentropy = 0.911\nsamples = 26\nvalue = [17.899, 8.651, 0.0]"] ;
142 -> 143 ;
144 [label="entropy = 0.0\nsamples = 8\nvalue = [0.0, 3.296, 0.0]"] ;
143 -> 144 ;
145 [label="fs1a3b <= 1.5\nentropy = 0.779\nsamples = 18\nvalue = [17.899, 5.355, 0.0]"] ;
143 -> 145 ;
146 [label="fs1a2b <= 1.5\nentropy = 0.726\nsamples = 16\nvalue = [17.899, 4.531, 0.0]"] ;
145 -> 146 ;
147 [label="entropy = 0.0\nsamples = 2\nvalue = [7.16, 0.0, 0.0]"] ;
146 -> 147 ;
148 [label="age <= 62.54\nentropy = 0.877\nsamples = 14\nvalue = [10.739, 4.531, 0.0]"] ;
146 -> 148 ;
149 [label="entropy = 0.0\nsamples = 6\nvalue = [0.0, 2.472, 0.0]"] ;
148 -> 149 ;
150 [label="fs1e1 <= 1.5\nentropy = 0.637\nsamples = 8\nvalue = [10.739, 2.06, 0.0]"] ;
148 -> 150 ;
151 [label="fs1d1a2 <= 1.5\nentropy = 0.479\nsamples = 6\nvalue = [10.739, 1.236, 0.0]"] ;
150 -> 151 ;
152 [label="fs1e3 <= 1.5\nentropy = 0.822\nsamples = 4\nvalue = [3.58, 1.236, 0.0]"] ;
151 -> 152 ;
153 [label="entropy = 0.0\nsamples = 3\nvalue = [0.0, 1.236, 0.0]"] ;
152 -> 153 ;
154 [label="entropy = 0.0\nsamples = 1\nvalue = [3.58, 0.0, 0.0]"] ;
152 -> 154 ;
155 [label="entropy = 0.0\nsamples = 2\nvalue = [7.16, 0.0, 0.0]"] ;
151 -> 155 ;
156 [label="fs1a7 <= 4.5\nentropy = 0.0\nsamples = 2\nvalue = [0.0, 0.824, 0.0]"] ;
150 -> 156 ;
157 [label="entropy = 0.0\nsamples = 1\nvalue = [0.0, 0.412, 0.0]"] ;
156 -> 157 ;
158 [label="entropy = 0.0\nsamples = 1\nvalue = [0.0, 0.412, 0.0]"] ;
156 -> 158 ;
159 [label="entropy = 0.0\nsamples = 2\nvalue = [0.0, 0.824, 0.0]"] ;
145 -> 159 ;
160 [label="entropy = 0.0\nsamples = 12\nvalue = [0.0, 4.943, 0.0]"] ;
142 -> 160 ;
161 [label="age <= 69.0\nentropy = 0.91\nsamples = 5\nvalue = [0.0, 1.648, 3.412]"] ;
141 -> 161 ;
162 [label="entropy = 0.0\nsamples = 4\nvalue = [0.0, 1.648, 0.0]"] ;
161 -> 162 ;
163 [label="entropy = 0.0\nsamples = 1\nvalue = [0.0, 0.0, 3.412]"] ;
161 -> 163 ;
164 [label="fs1a5 <= 1.5\nentropy = 0.619\nsamples = 165\nvalue = [229.108, 41.606, 0.0]"] ;
36 -> 164 ;
165 [label="fs1c7 <= 3.5\nentropy = 0.463\nsamples = 70\nvalue = [128.873, 14.006, 0.0]"] ;
164 -> 165 ;
166 [label="age <= 69.5\nentropy = 0.398\nsamples = 61\nvalue = [125.293, 10.71, 0.0]"] ;
165 -> 166 ;
167 [label="fs1a6c <= 4.5\nentropy = 0.458\nsamples = 54\nvalue = [100.235, 10.71, 0.0]"] ;
166 -> 167 ;
168 [label="fs1ct7y1 <= 95.0\nentropy = 0.315\nsamples = 32\nvalue = [75.176, 4.531, 0.0]"] ;
167 -> 168 ;
169 [label="entropy = 0.0\nsamples = 2\nvalue = [0.0, 0.824, 0.0]"] ;
168 -> 169 ;
170 [label="fs1a2a <= 2.5\nentropy = 0.274\nsamples = 30\nvalue = [75.176, 3.707, 0.0]"] ;
168 -> 170 ;
171 [label="entropy = 0.0\nsamples = 1\nvalue = [0.0, 0.412, 0.0]"] ;
170 -> 171 ;
172 [label="fs1e1 <= 2.5\nentropy = 0.251\nsamples = 29\nvalue = [75.176, 3.296, 0.0]"] ;
170 -> 172 ;
173 [label="fs1b2 <= 2.0\nentropy = 0.228\nsamples = 28\nvalue = [75.176, 2.884, 0.0]"] ;
172 -> 173 ;
174 [label="fs1c2b <= 1.5\nentropy = 0.203\nsamples = 27\nvalue = [75.176, 2.472, 0.0]"] ;
173 -> 174 ;
175 [label="entropy = 0.0\nsamples = 7\nvalue = [25.059, 0.0, 0.0]"] ;
174 -> 175 ;
176 [label="fs1ct7y1 <= 115.0\nentropy = 0.274\nsamples = 20\nvalue = [50.117, 2.472, 0.0]"] ;
174 -> 176 ;
177 [label="entropy = 0.0\nsamples = 1\nvalue = [0.0, 0.412, 0.0]"] ;
176 -> 177 ;
178 [label="fs1a1 <= 2.5\nentropy = 0.24\nsamples = 19\nvalue = [50.117, 2.06, 0.0]"] ;
176 -> 178 ;
179 [label="fs1ct7y1 <= 125.0\nentropy = 0.355\nsamples = 13\nvalue = [28.638, 2.06, 0.0]"] ;
178 -> 179 ;
180 [label="entropy = 0.0\nsamples = 1\nvalue = [0.0, 0.412, 0.0]"] ;
179 -> 180 ;
181 [label="fs1a6c <= 3.5\nentropy = 0.305\nsamples = 12\nvalue = [28.638, 1.648, 0.0]"] ;
179 -> 181 ;
182 [label="entropy = 0.0\nsamples = 3\nvalue = [10.739, 0.0, 0.0]"] ;
181 -> 182 ;
183 [label="fs1c309 <= 1.5\nentropy = 0.417\nsamples = 9\nvalue = [17.899, 1.648, 0.0]"] ;
181 -> 183 ;
184 [label="fs1ct4a <= 1.5\nentropy = 0.26\nsamples = 7\nvalue = [17.899, 0.824, 0.0]"] ;
183 -> 184 ;
185 [label="entropy = 0.0\nsamples = 1\nvalue = [0.0, 0.412, 0.0]"] ;
184 -> 185 ;
186 [label="age <= 56.5\nentropy = 0.155\nsamples = 6\nvalue = [17.899, 0.412, 0.0]"] ;
184 -> 186 ;
187 [label="age <= 54.5\nentropy = 0.305\nsamples = 3\nvalue = [7.16, 0.412, 0.0]"] ;
186 -> 187 ;
188 [label="entropy = 0.0\nsamples = 2\nvalue = [7.16, 0.0, 0.0]"] ;
187 -> 188 ;
189 [label="entropy = 0.0\nsamples = 1\nvalue = [0.0, 0.412, 0.0]"] ;
187 -> 189 ;
190 [label="entropy = 0.0\nsamples = 3\nvalue = [10.739, 0.0, 0.0]"] ;
186 -> 190 ;
191 [label="age <= 46.5\nentropy = 0.0\nsamples = 2\nvalue = [0.0, 0.824, 0.0]"] ;
183 -> 191 ;
192 [label="entropy = 0.0\nsamples = 1\nvalue = [0.0, 0.412, 0.0]"] ;
191 -> 192 ;
193 [label="entropy = 0.0\nsamples = 1\nvalue = [0.0, 0.412, 0.0]"] ;
191 -> 193 ;
194 [label="entropy = 0.0\nsamples = 6\nvalue = [21.479, 0.0, 0.0]"] ;
178 -> 194 ;
195 [label="entropy = 0.0\nsamples = 1\nvalue = [0.0, 0.412, 0.0]"] ;
173 -> 195 ;
196 [label="entropy = 0.0\nsamples = 1\nvalue = [0.0, 0.412, 0.0]"] ;
172 -> 196 ;
197 [label="fs1ct7z1 <= 122.5\nentropy = 0.718\nsamples = 22\nvalue = [25.059, 6.179, 0.0]"] ;
167 -> 197 ;
198 [label="entropy = 0.0\nsamples = 6\nvalue = [0.0, 2.472, 0.0]"] ;
197 -> 198 ;
199 [label="fs1ct7y1 <= 127.5\nentropy = 0.554\nsamples = 16\nvalue = [25.059, 3.707, 0.0]"] ;
197 -> 199 ;
200 [label="entropy = 0.0\nsamples = 4\nvalue = [14.319, 0.0, 0.0]"] ;
199 -> 200 ;
201 [label="fs1d1z <= 1.5\nentropy = 0.822\nsamples = 12\nvalue = [10.739, 3.707, 0.0]"] ;
199 -> 201 ;
202 [label="fs1ct7y1 <= 132.5\nentropy = 0.926\nsamples = 11\nvalue = [7.16, 3.707, 0.0]"] ;
201 -> 202 ;
203 [label="age <= 60.5\nentropy = 0.695\nsamples = 6\nvalue = [7.16, 1.648, 0.0]"] ;
202 -> 203 ;
204 [label="age <= 54.5\nentropy = 0.899\nsamples = 5\nvalue = [3.58, 1.648, 0.0]"] ;
203 -> 204 ;
205 [label="fs1a1 <= 1.5\nentropy = 0.479\nsamples = 2\nvalue = [3.58, 0.412, 0.0]"] ;
204 -> 205 ;
206 [label="entropy = 0.0\nsamples = 1\nvalue = [3.58, 0.0, 0.0]"] ;
205 -> 206 ;
207 [label="entropy = -0.0\nsamples = 1\nvalue = [0.0, 0.412, 0.0]"] ;
205 -> 207 ;
208 [label="fs1a1 <= 1.5\nentropy = 0.0\nsamples = 3\nvalue = [0.0, 1.236, 0.0]"] ;
204 -> 208 ;
209 [label="entropy = 0.0\nsamples = 1\nvalue = [0.0, 0.412, 0.0]"] ;
208 -> 209 ;
210 [label="entropy = 0.0\nsamples = 2\nvalue = [0.0, 0.824, 0.0]"] ;
208 -> 210 ;
211 [label="entropy = 0.0\nsamples = 1\nvalue = [3.58, 0.0, 0.0]"] ;
203 -> 211 ;
212 [label="fs1c1z <= 1.5\nentropy = 0.0\nsamples = 5\nvalue = [0.0, 2.06, 0.0]"] ;
202 -> 212 ;
213 [label="entropy = 0.0\nsamples = 4\nvalue = [0.0, 1.648, 0.0]"] ;
212 -> 213 ;
214 [label="entropy = 0.0\nsamples = 1\nvalue = [0.0, 0.412, 0.0]"] ;
212 -> 214 ;
215 [label="entropy = 0.0\nsamples = 1\nvalue = [3.58, 0.0, 0.0]"] ;
201 -> 215 ;
216 [label="entropy = 0.0\nsamples = 7\nvalue = [25.059, 0.0, 0.0]"] ;
166 -> 216 ;
217 [label="fs1d1z <= 1.5\nentropy = 0.999\nsamples = 9\nvalue = [3.58, 3.296, 0.0]"] ;
165 -> 217 ;
218 [label="fs1ct4b <= 1.5\nentropy = 0.0\nsamples = 6\nvalue = [0.0, 2.472, 0.0]"] ;
217 -> 218 ;
219 [label="entropy = 0.0\nsamples = 1\nvalue = [0.0, 0.412, 0.0]"] ;
218 -> 219 ;
220 [label="entropy = 0.0\nsamples = 5\nvalue = [0.0, 2.06, 0.0]"] ;
218 -> 220 ;
221 [label="fs1e4 <= 1.5\nentropy = 0.695\nsamples = 3\nvalue = [3.58, 0.824, 0.0]"] ;
217 -> 221 ;
222 [label="entropy = 0.0\nsamples = 1\nvalue = [3.58, 0.0, 0.0]"] ;
221 -> 222 ;
223 [label="entropy = -0.0\nsamples = 2\nvalue = [0.0, 0.824, 0.0]"] ;
221 -> 223 ;
224 [label="fs1b1 <= 1.5\nentropy = 0.753\nsamples = 95\nvalue = [100.235, 27.6, 0.0]"] ;
164 -> 224 ;
225 [label="fs1d1y <= 1.5\nentropy = 0.707\nsamples = 86\nvalue = [100.235, 23.892, 0.0]"] ;
224 -> 225 ;
226 [label="fs1ct4b <= 1.5\nentropy = 0.551\nsamples = 50\nvalue = [78.756, 11.534, 0.0]"] ;
225 -> 226 ;
227 [label="entropy = 0.0\nsamples = 6\nvalue = [0.0, 2.472, 0.0]"] ;
226 -> 227 ;
228 [label="fs1b8 <= 2.0\nentropy = 0.479\nsamples = 44\nvalue = [78.756, 9.063, 0.0]"] ;
226 -> 228 ;
229 [label="fs1d1a2 <= 1.5\nentropy = 0.452\nsamples = 42\nvalue = [78.756, 8.239, 0.0]"] ;
228 -> 229 ;
230 [label="fs1a6a <= 1.5\nentropy = 0.423\nsamples = 40\nvalue = [78.756, 7.415, 0.0]"] ;
229 -> 230 ;
231 [label="age <= 62.5\nentropy = 0.646\nsamples = 19\nvalue = [25.059, 4.943, 0.0]"] ;
230 -> 231 ;
232 [label="fs1a7 <= 4.5\nentropy = 0.976\nsamples = 14\nvalue = [7.16, 4.943, 0.0]"] ;
231 -> 232 ;
233 [label="fs1c8 <= 1.5\nentropy = 0.695\nsamples = 6\nvalue = [7.16, 1.648, 0.0]"] ;
232 -> 233 ;
234 [label="age <= 46.0\nentropy = 0.479\nsamples = 4\nvalue = [7.16, 0.824, 0.0]"] ;
233 -> 234 ;
235 [label="entropy = 0.0\nsamples = 1\nvalue = [0.0, 0.412, 0.0]"] ;
234 -> 235 ;
236 [label="fs1ct6z1 <= 4.5\nentropy = 0.305\nsamples = 3\nvalue = [7.16, 0.412, 0.0]"] ;
234 -> 236 ;
237 [label="entropy = 0.0\nsamples = 1\nvalue = [3.58, 0.0, 0.0]"] ;
236 -> 237 ;
238 [label="fs1a1 <= 1.5\nentropy = 0.479\nsamples = 2\nvalue = [3.58, 0.412, 0.0]"] ;
236 -> 238 ;
239 [label="entropy = 0.0\nsamples = 1\nvalue = [3.58, 0.0, 0.0]"] ;
238 -> 239 ;
240 [label="entropy = -0.0\nsamples = 1\nvalue = [0.0, 0.412, 0.0]"] ;
238 -> 240 ;
241 [label="fs1c309 <= 1.5\nentropy = 0.0\nsamples = 2\nvalue = [0.0, 0.824, 0.0]"] ;
233 -> 241 ;
242 [label="entropy = 0.0\nsamples = 1\nvalue = [0.0, 0.412, 0.0]"] ;
241 -> 242 ;
243 [label="entropy = 0.0\nsamples = 1\nvalue = [0.0, 0.412, 0.0]"] ;
241 -> 243 ;
244 [label="age <= 38.5\nentropy = 0.0\nsamples = 8\nvalue = [0.0, 3.296, 0.0]"] ;
232 -> 244 ;
245 [label="entropy = 0.0\nsamples = 1\nvalue = [0.0, 0.412, 0.0]"] ;
244 -> 245 ;
246 [label="entropy = 0.0\nsamples = 7\nvalue = [0.0, 2.884, 0.0]"] ;
244 -> 246 ;
247 [label="entropy = -0.0\nsamples = 5\nvalue = [17.899, 0.0, 0.0]"] ;
231 -> 247 ;
248 [label="age <= 68.5\nentropy = 0.26\nsamples = 21\nvalue = [53.697, 2.472, 0.0]"] ;
230 -> 248 ;
249 [label="fs1c309 <= 1.5\nentropy = 0.228\nsamples = 20\nvalue = [53.697, 2.06, 0.0]"] ;
248 -> 249 ;
250 [label="fs1b4 <= 2.0\nentropy = 0.193\nsamples = 19\nvalue = [53.697, 1.648, 0.0]"] ;
249 -> 250 ;
251 [label="fs1a2a <= 2.5\nentropy = 0.155\nsamples = 18\nvalue = [53.697, 1.236, 0.0]"] ;
250 -> 251 ;
252 [label="entropy = 0.0\nsamples = 1\nvalue = [0.0, 0.412, 0.0]"] ;
251 -> 252 ;
253 [label="fs1a4b <= 1.5\nentropy = 0.113\nsamples = 17\nvalue = [53.697, 0.824, 0.0]"] ;
251 -> 253 ;
254 [label="entropy = 0.0\nsamples = 14\nvalue = [50.117, 0.0, 0.0]"] ;
253 -> 254 ;
255 [label="fs1ct7y1 <= 137.5\nentropy = 0.695\nsamples = 3\nvalue = [3.58, 0.824, 0.0]"] ;
253 -> 255 ;
256 [label="entropy = -0.0\nsamples = 2\nvalue = [0.0, 0.824, 0.0]"] ;
255 -> 256 ;
257 [label="entropy = 0.0\nsamples = 1\nvalue = [3.58, 0.0, 0.0]"] ;
255 -> 257 ;
258 [label="entropy = 0.0\nsamples = 1\nvalue = [0.0, 0.412, 0.0]"] ;
250 -> 258 ;
259 [label="entropy = 0.0\nsamples = 1\nvalue = [0.0, 0.412, 0.0]"] ;
249 -> 259 ;
260 [label="entropy = 0.0\nsamples = 1\nvalue = [0.0, 0.412, 0.0]"] ;
248 -> 260 ;
261 [label="entropy = 0.0\nsamples = 2\nvalue = [0.0, 0.824, 0.0]"] ;
229 -> 261 ;
262 [label="entropy = 0.0\nsamples = 2\nvalue = [0.0, 0.824, 0.0]"] ;
228 -> 262 ;
263 [label="fs1c8 <= 1.5\nentropy = 0.947\nsamples = 36\nvalue = [21.479, 12.358, 0.0]"] ;
225 -> 263 ;
264 [label="fs1d2y <= 1.5\nentropy = 0.822\nsamples = 24\nvalue = [21.479, 7.415, 0.0]"] ;
263 -> 264 ;
265 [label="fs1c309 <= 1.5\nentropy = 0.695\nsamples = 18\nvalue = [21.479, 4.943, 0.0]"] ;
264 -> 265 ;
266 [label="fs1a4b <= 1.5\nentropy = 0.603\nsamples = 15\nvalue = [21.479, 3.707, 0.0]"] ;
265 -> 266 ;
267 [label="fs1c1y <= 1.5\nentropy = 0.479\nsamples = 12\nvalue = [21.479, 2.472, 0.0]"] ;
266 -> 267 ;
268 [label="age <= 54.0\nentropy = 0.371\nsamples = 10\nvalue = [21.479, 1.648, 0.0]"] ;
267 -> 268 ;
269 [label="fs1a3a <= 1.5\nentropy = 0.155\nsamples = 6\nvalue = [17.899, 0.412, 0.0]"] ;
268 -> 269 ;
270 [label="entropy = 0.0\nsamples = 5\nvalue = [17.899, 0.0, 0.0]"] ;
269 -> 270 ;
271 [label="entropy = 0.0\nsamples = 1\nvalue = [0.0, 0.412, 0.0]"] ;
269 -> 271 ;
272 [label="fs1a3a <= 1.5\nentropy = 0.822\nsamples = 4\nvalue = [3.58, 1.236, 0.0]"] ;
268 -> 272 ;
273 [label="entropy = 0.0\nsamples = 3\nvalue = [0.0, 1.236, 0.0]"] ;
272 -> 273 ;
274 [label="entropy = 0.0\nsamples = 1\nvalue = [3.58, 0.0, 0.0]"] ;
272 -> 274 ;
275 [label="fs1a1 <= 3.5\nentropy = 0.0\nsamples = 2\nvalue = [0.0, 0.824, 0.0]"] ;
267 -> 275 ;
276 [label="entropy = 0.0\nsamples = 1\nvalue = [0.0, 0.412, 0.0]"] ;
275 -> 276 ;
277 [label="entropy = 0.0\nsamples = 1\nvalue = [0.0, 0.412, 0.0]"] ;
275 -> 277 ;
278 [label="fs1ct7y1 <= 127.5\nentropy = 0.0\nsamples = 3\nvalue = [0.0, 1.236, 0.0]"] ;
266 -> 278 ;
279 [label="entropy = 0.0\nsamples = 1\nvalue = [0.0, 0.412, 0.0]"] ;
278 -> 279 ;
280 [label="entropy = 0.0\nsamples = 2\nvalue = [0.0, 0.824, 0.0]"] ;
278 -> 280 ;
281 [label="fs1a6b <= 1.5\nentropy = 0.0\nsamples = 3\nvalue = [0.0, 1.236, 0.0]"] ;
265 -> 281 ;
282 [label="entropy = 0.0\nsamples = 1\nvalue = [0.0, 0.412, 0.0]"] ;
281 -> 282 ;
283 [label="entropy = 0.0\nsamples = 2\nvalue = [0.0, 0.824, 0.0]"] ;
281 -> 283 ;
284 [label="entropy = 0.0\nsamples = 6\nvalue = [0.0, 2.472, 0.0]"] ;
264 -> 284 ;
285 [label="entropy = 0.0\nsamples = 12\nvalue = [0.0, 4.943, 0.0]"] ;
263 -> 285 ;
286 [label="entropy = 0.0\nsamples = 9\nvalue = [0.0, 3.707, 0.0]"] ;
224 -> 286 ;
287 [label="fs1a2b <= 1.5\nentropy = 1.477\nsamples = 162\nvalue = [25.059, 60.143, 30.705]"] ;
1 -> 287 ;
288 [label="fs1c1z <= 1.5\nentropy = 0.43\nsamples = 9\nvalue = [0.0, 1.648, 17.058]"] ;
287 -> 288 ;
289 [label="fs1d1a1 <= 2.5\nentropy = 0.161\nsamples = 6\nvalue = [0.0, 0.412, 17.058]"] ;
288 -> 289 ;
290 [label="entropy = 0.0\nsamples = 5\nvalue = [0.0, 0.0, 17.058]"] ;
289 -> 290 ;
291 [label="entropy = 0.0\nsamples = 1\nvalue = [0.0, 0.412, 0.0]"] ;
289 -> 291 ;
292 [label="fs1d2y <= 1.5\nentropy = 0.0\nsamples = 3\nvalue = [0.0, 1.236, 0.0]"] ;
288 -> 292 ;
293 [label="entropy = 0.0\nsamples = 2\nvalue = [0.0, 0.824, 0.0]"] ;
292 -> 293 ;
294 [label="entropy = 0.0\nsamples = 1\nvalue = [0.0, 0.412, 0.0]"] ;
292 -> 294 ;
295 [label="fs1a7 <= 4.5\nentropy = 1.343\nsamples = 153\nvalue = [25.059, 58.495, 13.647]"] ;
287 -> 295 ;
296 [label="fs1e5 <= 1.5\nentropy = 0.623\nsamples = 92\nvalue = [0.0, 37.075, 6.823]"] ;
295 -> 296 ;
297 [label="entropy = 0.0\nsamples = 74\nvalue = [0.0, 30.484, 0.0]"] ;
296 -> 297 ;
298 [label="fs1a6a <= 2.5\nentropy = 1.0\nsamples = 18\nvalue = [0.0, 6.591, 6.823]"] ;
296 -> 298 ;
299 [label="fs1a3b <= 1.5\nentropy = 0.0\nsamples = 15\nvalue = [0.0, 6.179, 0.0]"] ;
298 -> 299 ;
300 [label="entropy = 0.0\nsamples = 10\nvalue = [0.0, 4.119, 0.0]"] ;
299 -> 300 ;
301 [label="entropy = 0.0\nsamples = 5\nvalue = [0.0, 2.06, 0.0]"] ;
299 -> 301 ;
302 [label="fs1a3a <= 1.5\nentropy = 0.315\nsamples = 3\nvalue = [0.0, 0.412, 6.823]"] ;
298 -> 302 ;
303 [label="entropy = 0.0\nsamples = 1\nvalue = [0.0, 0.412, 0.0]"] ;
302 -> 303 ;
304 [label="entropy = 0.0\nsamples = 2\nvalue = [0.0, 0.0, 6.823]"] ;
302 -> 304 ;
305 [label="age <= 64.5\nentropy = 1.42\nsamples = 61\nvalue = [25.059, 21.421, 6.823]"] ;
295 -> 305 ;
306 [label="fs1a6b <= 1.5\nentropy = 1.38\nsamples = 36\nvalue = [25.059, 11.122, 6.823]"] ;
305 -> 306 ;
307 [label="fs1ct4b <= 1.5\nentropy = 0.952\nsamples = 15\nvalue = [0.0, 5.767, 3.412]"] ;
306 -> 307 ;
308 [label="age <= 54.0\nentropy = 0.493\nsamples = 2\nvalue = [0.0, 0.412, 3.412]"] ;
307 -> 308 ;
309 [label="entropy = 0.0\nsamples = 1\nvalue = [0.0, 0.0, 3.412]"] ;
308 -> 309 ;
310 [label="entropy = -0.0\nsamples = 1\nvalue = [0.0, 0.412, 0.0]"] ;
308 -> 310 ;
311 [label="fs1e4 <= 1.5\nentropy = 0.0\nsamples = 13\nvalue = [0.0, 5.355, 0.0]"] ;
307 -> 311 ;
312 [label="entropy = 0.0\nsamples = 10\nvalue = [0.0, 4.119, 0.0]"] ;
311 -> 312 ;
313 [label="entropy = 0.0\nsamples = 3\nvalue = [0.0, 1.236, 0.0]"] ;
311 -> 313 ;
314 [label="fs1d1z <= 1.5\nentropy = 1.075\nsamples = 21\nvalue = [25.059, 5.355, 3.412]"] ;
306 -> 314 ;
315 [label="fs1c1y <= 1.5\nentropy = 0.26\nsamples = 7\nvalue = [17.899, 0.824, 0.0]"] ;
314 -> 315 ;
316 [label="entropy = 0.0\nsamples = 5\nvalue = [17.899, 0.0, 0.0]"] ;
315 -> 316 ;
317 [label="fs1b8 <= 2.0\nentropy = 0.0\nsamples = 2\nvalue = [0.0, 0.824, 0.0]"] ;
315 -> 317 ;
318 [label="entropy = 0.0\nsamples = 1\nvalue = [0.0, 0.412, 0.0]"] ;
317 -> 318 ;
319 [label="entropy = 0.0\nsamples = 1\nvalue = [0.0, 0.412, 0.0]"] ;
317 -> 319 ;
320 [label="fs1ct7y1 <= 129.5\nentropy = 1.516\nsamples = 14\nvalue = [7.16, 4.531, 3.412]"] ;
314 -> 320 ;
321 [label="fs1a2a <= 2.5\nentropy = 1.0\nsamples = 9\nvalue = [0.0, 3.296, 3.412]"] ;
320 -> 321 ;
322 [label="fs1c8 <= 2.0\nentropy = 0.493\nsamples = 2\nvalue = [0.0, 0.412, 3.412]"] ;
321 -> 322 ;
323 [label="entropy = 0.0\nsamples = 1\nvalue = [0.0, 0.0, 3.412]"] ;
322 -> 323 ;
324 [label="entropy = -0.0\nsamples = 1\nvalue = [0.0, 0.412, 0.0]"] ;
322 -> 324 ;
325 [label="fs1c7 <= 1.5\nentropy = 0.0\nsamples = 7\nvalue = [0.0, 2.884, 0.0]"] ;
321 -> 325 ;
326 [label="entropy = 0.0\nsamples = 4\nvalue = [0.0, 1.648, 0.0]"] ;
325 -> 326 ;
327 [label="entropy = 0.0\nsamples = 3\nvalue = [0.0, 1.236, 0.0]"] ;
325 -> 327 ;
328 [label="fs1c8 <= 1.5\nentropy = 0.603\nsamples = 5\nvalue = [7.16, 1.236, 0.0]"] ;
320 -> 328 ;
329 [label="fs1a5 <= 1.5\nentropy = 0.305\nsamples = 3\nvalue = [7.16, 0.412, 0.0]"] ;
328 -> 329 ;
330 [label="entropy = 0.0\nsamples = 1\nvalue = [0.0, 0.412, 0.0]"] ;
329 -> 330 ;
331 [label="entropy = 0.0\nsamples = 2\nvalue = [7.16, 0.0, 0.0]"] ;
329 -> 331 ;
332 [label="fs1b8 <= 2.0\nentropy = 0.0\nsamples = 2\nvalue = [0.0, 0.824, 0.0]"] ;
328 -> 332 ;
333 [label="entropy = 0.0\nsamples = 1\nvalue = [0.0, 0.412, 0.0]"] ;
332 -> 333 ;
334 [label="entropy = 0.0\nsamples = 1\nvalue = [0.0, 0.412, 0.0]"] ;
332 -> 334 ;
335 [label="entropy = 0.0\nsamples = 25\nvalue = [0.0, 10.298, 0.0]"] ;
305 -> 335 ;
336 [label="fs1d1a2 <= 1.5\nentropy = 1.306\nsamples = 856\nvalue = [75.176, 286.71, 474.217]"] ;
0 -> 336 [labeldistance=2.5, labelangle=-45, headlabel="False"] ;
337 [label="fs1a7 <= 3.5\nentropy = 1.486\nsamples = 495\nvalue = [68.016, 178.37, 146.7]"] ;
336 -> 337 ;
338 [label="fs1d1z <= 1.5\nentropy = 1.166\nsamples = 227\nvalue = [7.16, 79.092, 112.584]"] ;
337 -> 338 ;
339 [label="fs1a2a <= 1.5\nentropy = 1.042\nsamples = 55\nvalue = [3.58, 21.833, 3.412]"] ;
338 -> 339 ;
340 [label="age <= 68.0\nentropy = 0.695\nsamples = 3\nvalue = [3.58, 0.824, 0.0]"] ;
339 -> 340 ;
341 [label="entropy = 0.0\nsamples = 1\nvalue = [3.58, 0.0, 0.0]"] ;
340 -> 341 ;
342 [label="entropy = -0.0\nsamples = 2\nvalue = [0.0, 0.824, 0.0]"] ;
340 -> 342 ;
343 [label="fs1ct6z2 <= 4.5\nentropy = 0.583\nsamples = 52\nvalue = [0.0, 21.009, 3.412]"] ;
339 -> 343 ;
344 [label="fs1a6a <= 3.5\nentropy = 0.711\nsamples = 3\nvalue = [0.0, 0.824, 3.412]"] ;
343 -> 344 ;
345 [label="entropy = -0.0\nsamples = 2\nvalue = [0.0, 0.824, 0.0]"] ;
344 -> 345 ;
346 [label="entropy = 0.0\nsamples = 1\nvalue = [0.0, 0.0, 3.412]"] ;
344 -> 346 ;
347 [label="entropy = 0.0\nsamples = 49\nvalue = [0.0, 20.185, 0.0]"] ;
343 -> 347 ;
348 [label="fs1a6b <= 4.5\nentropy = 1.056\nsamples = 172\nvalue = [3.58, 57.26, 109.172]"] ;
338 -> 348 ;
349 [label="age <= 73.5\nentropy = 0.926\nsamples = 169\nvalue = [0.0, 56.436, 109.172]"] ;
348 -> 349 ;
350 [label="fs1a2a <= 2.5\nentropy = 0.873\nsamples = 142\nvalue = [0.0, 45.313, 109.172]"] ;
349 -> 350 ;
351 [label="age <= 49.5\nentropy = 0.769\nsamples = 102\nvalue = [0.0, 29.66, 102.349]"] ;
350 -> 351 ;
352 [label="entropy = 0.0\nsamples = 12\nvalue = [0.0, 4.943, 0.0]"] ;
351 -> 352 ;
353 [label="fs1ct4a <= 1.5\nentropy = 0.711\nsamples = 90\nvalue = [0.0, 24.716, 102.349]"] ;
351 -> 353 ;
354 [label="fs1b8 <= 2.0\nentropy = 0.461\nsamples = 36\nvalue = [0.0, 7.003, 64.821]"] ;
353 -> 354 ;
355 [label="fs1e4 <= 1.5\nentropy = 0.552\nsamples = 31\nvalue = [0.0, 7.003, 47.763]"] ;
354 -> 355 ;
356 [label="fs1ct7z1 <= 117.5\nentropy = 0.793\nsamples = 18\nvalue = [0.0, 5.355, 17.058]"] ;
355 -> 356 ;
357 [label="entropy = 0.0\nsamples = 6\nvalue = [0.0, 2.472, 0.0]"] ;
356 -> 357 ;
358 [label="fs1ct6y1 <= 4.5\nentropy = 0.596\nsamples = 12\nvalue = [0.0, 2.884, 17.058]"] ;
356 -> 358 ;
359 [label="entropy = 0.0\nsamples = 3\nvalue = [0.0, 1.236, 0.0]"] ;
358 -> 359 ;
360 [label="fs1ct7z1 <= 130.5\nentropy = 0.43\nsamples = 9\nvalue = [0.0, 1.648, 17.058]"] ;
358 -> 360 ;
361 [label="fs1ct7y1 <= 112.5\nentropy = 0.269\nsamples = 7\nvalue = [0.0, 0.824, 17.058]"] ;
360 -> 361 ;
362 [label="entropy = 0.0\nsamples = 1\nvalue = [0.0, 0.412, 0.0]"] ;
361 -> 362 ;
363 [label="fs1ct5a <= 1.5\nentropy = 0.161\nsamples = 6\nvalue = [0.0, 0.412, 17.058]"] ;
361 -> 363 ;
364 [label="entropy = 0.0\nsamples = 5\nvalue = [0.0, 0.0, 17.058]"] ;
363 -> 364 ;
365 [label="entropy = 0.0\nsamples = 1\nvalue = [0.0, 0.412, 0.0]"] ;
363 -> 365 ;
366 [label="fs1ct7z1 <= 133.0\nentropy = 0.0\nsamples = 2\nvalue = [0.0, 0.824, 0.0]"] ;
360 -> 366 ;
367 [label="entropy = 0.0\nsamples = 1\nvalue = [0.0, 0.412, 0.0]"] ;
366 -> 367 ;
368 [label="entropy = 0.0\nsamples = 1\nvalue = [0.0, 0.412, 0.0]"] ;
366 -> 368 ;
369 [label="fs1a1 <= 3.5\nentropy = 0.29\nsamples = 13\nvalue = [0.0, 1.648, 30.705]"] ;
355 -> 369 ;
370 [label="fs1ct7y1 <= 121.0\nentropy = 0.581\nsamples = 7\nvalue = [0.0, 1.648, 10.235]"] ;
369 -> 370 ;
371 [label="fs1a1 <= 2.5\nentropy = 0.236\nsamples = 4\nvalue = [0.0, 0.412, 10.235]"] ;
370 -> 371 ;
372 [label="entropy = 0.0\nsamples = 1\nvalue = [0.0, 0.412, 0.0]"] ;
371 -> 372 ;
373 [label="entropy = 0.0\nsamples = 3\nvalue = [0.0, 0.0, 10.235]"] ;
371 -> 373 ;
374 [label="fs1e7 <= 1.5\nentropy = 0.0\nsamples = 3\nvalue = [0.0, 1.236, 0.0]"] ;
370 -> 374 ;
375 [label="entropy = 0.0\nsamples = 1\nvalue = [0.0, 0.412, 0.0]"] ;
374 -> 375 ;
376 [label="entropy = 0.0\nsamples = 2\nvalue = [0.0, 0.824, 0.0]"] ;
374 -> 376 ;
377 [label="entropy = 0.0\nsamples = 6\nvalue = [0.0, 0.0, 20.47]"] ;
369 -> 377 ;
378 [label="entropy = 0.0\nsamples = 5\nvalue = [0.0, 0.0, 17.058]"] ;
354 -> 378 ;
379 [label="fs1d2z <= 1.5\nentropy = 0.905\nsamples = 54\nvalue = [0.0, 17.713, 37.528]"] ;
353 -> 379 ;
380 [label="entropy = 0.0\nsamples = 13\nvalue = [0.0, 5.355, 0.0]"] ;
379 -> 380 ;
381 [label="fs1a6a <= 2.5\nentropy = 0.808\nsamples = 41\nvalue = [0.0, 12.358, 37.528]"] ;
379 -> 381 ;
382 [label="age <= 70.0\nentropy = 0.989\nsamples = 30\nvalue = [0.0, 10.71, 13.647]"] ;
381 -> 382 ;
383 [label="fs1a1 <= 2.5\nentropy = 0.809\nsamples = 26\nvalue = [0.0, 10.298, 3.412]"] ;
382 -> 383 ;
384 [label="fs1c7 <= 1.5\nentropy = 0.91\nsamples = 5\nvalue = [0.0, 1.648, 3.412]"] ;
383 -> 384 ;
385 [label="entropy = 0.0\nsamples = 4\nvalue = [0.0, 1.648, 0.0]"] ;
384 -> 385 ;
386 [label="entropy = 0.0\nsamples = 1\nvalue = [0.0, 0.0, 3.412]"] ;
384 -> 386 ;
387 [label="entropy = -0.0\nsamples = 21\nvalue = [0.0, 8.651, 0.0]"] ;
383 -> 387 ;
388 [label="fs1c7 <= 2.0\nentropy = 0.236\nsamples = 4\nvalue = [0.0, 0.412, 10.235]"] ;
382 -> 388 ;
389 [label="entropy = 0.0\nsamples = 1\nvalue = [0.0, 0.412, 0.0]"] ;
388 -> 389 ;
390 [label="entropy = 0.0\nsamples = 3\nvalue = [0.0, 0.0, 10.235]"] ;
388 -> 390 ;
391 [label="fs1b8 <= 1.5\nentropy = 0.345\nsamples = 11\nvalue = [0.0, 1.648, 23.881]"] ;
381 -> 391 ;
392 [label="fs1ct6z1 <= 4.469\nentropy = 0.711\nsamples = 6\nvalue = [0.0, 1.648, 6.823]"] ;
391 -> 392 ;
393 [label="entropy = 0.0\nsamples = 2\nvalue = [0.0, 0.0, 6.823]"] ;
392 -> 393 ;
394 [label="fs1ct5b <= 1.5\nentropy = 0.0\nsamples = 4\nvalue = [0.0, 1.648, 0.0]"] ;
392 -> 394 ;
395 [label="entropy = 0.0\nsamples = 2\nvalue = [0.0, 0.824, 0.0]"] ;
394 -> 395 ;
396 [label="entropy = 0.0\nsamples = 2\nvalue = [0.0, 0.824, 0.0]"] ;
394 -> 396 ;
397 [label="entropy = 0.0\nsamples = 5\nvalue = [0.0, 0.0, 17.058]"] ;
391 -> 397 ;
398 [label="fs1ct7z1 <= 136.0\nentropy = 0.886\nsamples = 40\nvalue = [0.0, 15.654, 6.823]"] ;
350 -> 398 ;
399 [label="fs1e3 <= 1.5\nentropy = 0.0\nsamples = 36\nvalue = [0.0, 14.83, 0.0]"] ;
398 -> 399 ;
400 [label="entropy = 0.0\nsamples = 26\nvalue = [0.0, 10.71, 0.0]"] ;
399 -> 400 ;
401 [label="entropy = 0.0\nsamples = 10\nvalue = [0.0, 4.119, 0.0]"] ;
399 -> 401 ;
402 [label="fs1ct7y1 <= 143.5\nentropy = 0.493\nsamples = 4\nvalue = [0.0, 0.824, 6.823]"] ;
398 -> 402 ;
403 [label="entropy = 0.0\nsamples = 2\nvalue = [0.0, 0.0, 6.823]"] ;
402 -> 403 ;
404 [label="entropy = -0.0\nsamples = 2\nvalue = [0.0, 0.824, 0.0]"] ;
402 -> 404 ;
405 [label="entropy = 0.0\nsamples = 27\nvalue = [0.0, 11.122, 0.0]"] ;
349 -> 405 ;
406 [label="age <= 65.0\nentropy = 0.695\nsamples = 3\nvalue = [3.58, 0.824, 0.0]"] ;
348 -> 406 ;
407 [label="entropy = -0.0\nsamples = 2\nvalue = [0.0, 0.824, 0.0]"] ;
406 -> 407 ;
408 [label="entropy = 0.0\nsamples = 1\nvalue = [3.58, 0.0, 0.0]"] ;
406 -> 408 ;
409 [label="fs1ct5a <= 1.5\nentropy = 1.46\nsamples = 268\nvalue = [60.857, 99.277, 34.116]"] ;
337 -> 409 ;
410 [label="fs1a2b <= 2.5\nentropy = 1.366\nsamples = 94\nvalue = [7.16, 34.191, 30.705]"] ;
409 -> 410 ;
411 [label="age <= 55.0\nentropy = 0.999\nsamples = 78\nvalue = [0.0, 28.836, 27.293]"] ;
410 -> 411 ;
412 [label="entropy = 0.0\nsamples = 17\nvalue = [0.0, 7.003, 0.0]"] ;
411 -> 412 ;
413 [label="fs1b5 <= 1.5\nentropy = 0.991\nsamples = 61\nvalue = [0.0, 21.833, 27.293]"] ;
411 -> 413 ;
414 [label="fs1ct6z4 <= 4.5\nentropy = 0.951\nsamples = 47\nvalue = [0.0, 16.066, 27.293]"] ;
413 -> 414 ;
415 [label="entropy = 0.0\nsamples = 2\nvalue = [0.0, 0.0, 6.823]"] ;
414 -> 415 ;
416 [label="age <= 69.5\nentropy = 0.989\nsamples = 45\nvalue = [0.0, 16.066, 20.47]"] ;
414 -> 416 ;
417 [label="fs1ct4b <= 1.5\nentropy = 0.943\nsamples = 34\nvalue = [0.0, 11.534, 20.47]"] ;
416 -> 417 ;
418 [label="entropy = 0.0\nsamples = 7\nvalue = [0.0, 2.884, 0.0]"] ;
417 -> 418 ;
419 [label="fs1ct7z1 <= 105.0\nentropy = 0.878\nsamples = 27\nvalue = [0.0, 8.651, 20.47]"] ;
417 -> 419 ;
420 [label="entropy = 0.0\nsamples = 2\nvalue = [0.0, 0.0, 6.823]"] ;
419 -> 420 ;
421 [label="fs1a3b <= 1.5\nentropy = 0.963\nsamples = 25\nvalue = [0.0, 8.651, 13.647]"] ;
419 -> 421 ;
422 [label="entropy = 0.0\nsamples = 8\nvalue = [0.0, 3.296, 0.0]"] ;
421 -> 422 ;
423 [label="fs1c7 <= 2.5\nentropy = 0.858\nsamples = 17\nvalue = [0.0, 5.355, 13.647]"] ;
421 -> 423 ;
424 [label="fs1ct7y1 <= 117.5\nentropy = 0.748\nsamples = 13\nvalue = [0.0, 3.707, 13.647]"] ;
423 -> 424 ;
425 [label="entropy = 0.0\nsamples = 3\nvalue = [0.0, 1.236, 0.0]"] ;
424 -> 425 ;
426 [label="fs1c309 <= 1.5\nentropy = 0.618\nsamples = 10\nvalue = [0.0, 2.472, 13.647]"] ;
424 -> 426 ;
427 [label="age <= 57.5\nentropy = 0.493\nsamples = 8\nvalue = [0.0, 1.648, 13.647]"] ;
426 -> 427 ;
428 [label="entropy = 0.0\nsamples = 2\nvalue = [0.0, 0.0, 6.823]"] ;
427 -> 428 ;
429 [label="fs1a6a <= 1.5\nentropy = 0.711\nsamples = 6\nvalue = [0.0, 1.648, 6.823]"] ;
427 -> 429 ;
430 [label="age <= 60.0\nentropy = 0.315\nsamples = 3\nvalue = [0.0, 0.412, 6.823]"] ;
429 -> 430 ;
431 [label="entropy = 0.0\nsamples = 1\nvalue = [0.0, 0.412, 0.0]"] ;
430 -> 431 ;
432 [label="entropy = 0.0\nsamples = 2\nvalue = [0.0, 0.0, 6.823]"] ;
430 -> 432 ;
433 [label="entropy = -0.0\nsamples = 3\nvalue = [0.0, 1.236, 0.0]"] ;
429 -> 433 ;
434 [label="entropy = 0.0\nsamples = 2\nvalue = [0.0, 0.824, 0.0]"] ;
426 -> 434 ;
435 [label="fs1c7 <= 3.5\nentropy = 0.0\nsamples = 4\nvalue = [0.0, 1.648, 0.0]"] ;
423 -> 435 ;
436 [label="entropy = 0.0\nsamples = 1\nvalue = [0.0, 0.412, 0.0]"] ;
435 -> 436 ;
437 [label="entropy = 0.0\nsamples = 3\nvalue = [0.0, 1.236, 0.0]"] ;
435 -> 437 ;
438 [label="entropy = 0.0\nsamples = 11\nvalue = [0.0, 4.531, 0.0]"] ;
416 -> 438 ;
439 [label="entropy = 0.0\nsamples = 14\nvalue = [0.0, 5.767, 0.0]"] ;
413 -> 439 ;
440 [label="fs1a4b <= 5.5\nentropy = 1.523\nsamples = 16\nvalue = [7.16, 5.355, 3.412]"] ;
410 -> 440 ;
441 [label="fs1a6a <= 1.5\nentropy = 0.985\nsamples = 15\nvalue = [7.16, 5.355, 0.0]"] ;
440 -> 441 ;
442 [label="fs1a3b <= 1.5\nentropy = 0.603\nsamples = 5\nvalue = [7.16, 1.236, 0.0]"] ;
441 -> 442 ;
443 [label="fs1a2a <= 2.5\nentropy = 0.305\nsamples = 3\nvalue = [7.16, 0.412, 0.0]"] ;
442 -> 443 ;
444 [label="entropy = 0.0\nsamples = 1\nvalue = [0.0, 0.412, 0.0]"] ;
443 -> 444 ;
445 [label="entropy = 0.0\nsamples = 2\nvalue = [7.16, 0.0, 0.0]"] ;
443 -> 445 ;
446 [label="fs1a7 <= 4.5\nentropy = 0.0\nsamples = 2\nvalue = [0.0, 0.824, 0.0]"] ;
442 -> 446 ;
447 [label="entropy = 0.0\nsamples = 1\nvalue = [0.0, 0.412, 0.0]"] ;
446 -> 447 ;
448 [label="entropy = 0.0\nsamples = 1\nvalue = [0.0, 0.412, 0.0]"] ;
446 -> 448 ;
449 [label="fs1b9 <= 1.5\nentropy = 0.0\nsamples = 10\nvalue = [0.0, 4.119, 0.0]"] ;
441 -> 449 ;
450 [label="entropy = 0.0\nsamples = 8\nvalue = [0.0, 3.296, 0.0]"] ;
449 -> 450 ;
451 [label="entropy = 0.0\nsamples = 2\nvalue = [0.0, 0.824, 0.0]"] ;
449 -> 451 ;
452 [label="entropy = -0.0\nsamples = 1\nvalue = [0.0, 0.0, 3.412]"] ;
440 -> 452 ;
453 [label="fs1a2a <= 1.5\nentropy = 1.149\nsamples = 174\nvalue = [53.697, 65.086, 3.412]"] ;
409 -> 453 ;
454 [label="fs1ct7y1 <= 117.5\nentropy = 0.493\nsamples = 2\nvalue = [0.0, 0.412, 3.412]"] ;
453 -> 454 ;
455 [label="entropy = 0.0\nsamples = 1\nvalue = [0.0, 0.0, 3.412]"] ;
454 -> 455 ;
456 [label="entropy = -0.0\nsamples = 1\nvalue = [0.0, 0.412, 0.0]"] ;
454 -> 456 ;
457 [label="fs1ct4a <= 1.5\nentropy = 0.994\nsamples = 172\nvalue = [53.697, 64.675, 0.0]"] ;
453 -> 457 ;
458 [label="entropy = 0.0\nsamples = 31\nvalue = [0.0, 12.77, 0.0]"] ;
457 -> 458 ;
459 [label="fs1d2y <= 1.5\nentropy = 1.0\nsamples = 141\nvalue = [53.697, 51.904, 0.0]"] ;
457 -> 459 ;
460 [label="fs1b9 <= 1.5\nentropy = 0.967\nsamples = 93\nvalue = [50.117, 32.543, 0.0]"] ;
459 -> 460 ;
461 [label="fs1a1 <= 2.5\nentropy = 0.929\nsamples = 78\nvalue = [50.117, 26.364, 0.0]"] ;
460 -> 461 ;
462 [label="fs1a3b <= 1.5\nentropy = 0.729\nsamples = 29\nvalue = [32.218, 8.239, 0.0]"] ;
461 -> 462 ;
463 [label="fs1a2b <= 2.5\nentropy = 0.899\nsamples = 25\nvalue = [17.899, 8.239, 0.0]"] ;
462 -> 463 ;
464 [label="fs1ct7z1 <= 102.5\nentropy = 1.0\nsamples = 20\nvalue = [7.16, 7.415, 0.0]"] ;
463 -> 464 ;
465 [label="age <= 75.0\nentropy = 0.695\nsamples = 6\nvalue = [7.16, 1.648, 0.0]"] ;
464 -> 465 ;
466 [label="fs1a6c <= 3.5\nentropy = 0.479\nsamples = 4\nvalue = [7.16, 0.824, 0.0]"] ;
465 -> 466 ;
467 [label="entropy = 0.0\nsamples = 1\nvalue = [0.0, 0.412, 0.0]"] ;
466 -> 467 ;
468 [label="fs1c7 <= 1.5\nentropy = 0.305\nsamples = 3\nvalue = [7.16, 0.412, 0.0]"] ;
466 -> 468 ;
469 [label="entropy = 0.0\nsamples = 1\nvalue = [0.0, 0.412, 0.0]"] ;
468 -> 469 ;
470 [label="entropy = 0.0\nsamples = 2\nvalue = [7.16, 0.0, 0.0]"] ;
468 -> 470 ;
471 [label="fs1d1y <= 1.5\nentropy = 0.0\nsamples = 2\nvalue = [0.0, 0.824, 0.0]"] ;
465 -> 471 ;
472 [label="entropy = 0.0\nsamples = 1\nvalue = [0.0, 0.412, 0.0]"] ;
471 -> 472 ;
473 [label="entropy = 0.0\nsamples = 1\nvalue = [0.0, 0.412, 0.0]"] ;
471 -> 473 ;
474 [label="fs1d1a1 <= 1.5\nentropy = 0.0\nsamples = 14\nvalue = [0.0, 5.767, 0.0]"] ;
464 -> 474 ;
475 [label="entropy = 0.0\nsamples = 13\nvalue = [0.0, 5.355, 0.0]"] ;
474 -> 475 ;
476 [label="entropy = 0.0\nsamples = 1\nvalue = [0.0, 0.412, 0.0]"] ;
474 -> 476 ;
477 [label="fs1e5 <= 1.5\nentropy = 0.371\nsamples = 5\nvalue = [10.739, 0.824, 0.0]"] ;
463 -> 477 ;
478 [label="fs1a3a <= 1.5\nentropy = 0.228\nsamples = 4\nvalue = [10.739, 0.412, 0.0]"] ;
477 -> 478 ;
479 [label="entropy = 0.0\nsamples = 3\nvalue = [10.739, 0.0, 0.0]"] ;
478 -> 479 ;
480 [label="entropy = 0.0\nsamples = 1\nvalue = [0.0, 0.412, 0.0]"] ;
478 -> 480 ;
481 [label="entropy = 0.0\nsamples = 1\nvalue = [0.0, 0.412, 0.0]"] ;
477 -> 481 ;
482 [label="entropy = 0.0\nsamples = 4\nvalue = [14.319, 0.0, 0.0]"] ;
462 -> 482 ;
483 [label="fs1ct7y1 <= 122.5\nentropy = 1.0\nsamples = 49\nvalue = [17.899, 18.125, 0.0]"] ;
461 -> 483 ;
484 [label="fs1a2a <= 2.5\nentropy = 0.801\nsamples = 19\nvalue = [17.899, 5.767, 0.0]"] ;
483 -> 484 ;
485 [label="fs1a7 <= 4.5\nentropy = 0.417\nsamples = 9\nvalue = [17.899, 1.648, 0.0]"] ;
484 -> 485 ;
486 [label="entropy = 0.0\nsamples = 4\nvalue = [14.319, 0.0, 0.0]"] ;
485 -> 486 ;
487 [label="age <= 65.54\nentropy = 0.899\nsamples = 5\nvalue = [3.58, 1.648, 0.0]"] ;
485 -> 487 ;
488 [label="entropy = 0.0\nsamples = 4\nvalue = [0.0, 1.648, 0.0]"] ;
487 -> 488 ;
489 [label="entropy = 0.0\nsamples = 1\nvalue = [3.58, 0.0, 0.0]"] ;
487 -> 489 ;
490 [label="fs1c2b <= 1.5\nentropy = 0.0\nsamples = 10\nvalue = [0.0, 4.119, 0.0]"] ;
484 -> 490 ;
491 [label="entropy = 0.0\nsamples = 6\nvalue = [0.0, 2.472, 0.0]"] ;
490 -> 491 ;
492 [label="entropy = 0.0\nsamples = 4\nvalue = [0.0, 1.648, 0.0]"] ;
490 -> 492 ;
493 [label="entropy = -0.0\nsamples = 30\nvalue = [0.0, 12.358, 0.0]"] ;
483 -> 493 ;
494 [label="entropy = 0.0\nsamples = 15\nvalue = [0.0, 6.179, 0.0]"] ;
460 -> 494 ;
495 [label="fs1a6c <= 2.5\nentropy = 0.625\nsamples = 48\nvalue = [3.58, 19.361, 0.0]"] ;
459 -> 495 ;
496 [label="fs1c2b <= 1.5\nentropy = 0.479\nsamples = 2\nvalue = [3.58, 0.412, 0.0]"] ;
495 -> 496 ;
497 [label="entropy = 0.0\nsamples = 1\nvalue = [3.58, 0.0, 0.0]"] ;
496 -> 497 ;
498 [label="entropy = -0.0\nsamples = 1\nvalue = [0.0, 0.412, 0.0]"] ;
496 -> 498 ;
499 [label="fs1b5 <= 1.5\nentropy = 0.0\nsamples = 46\nvalue = [0.0, 18.949, 0.0]"] ;
495 -> 499 ;
500 [label="entropy = 0.0\nsamples = 39\nvalue = [0.0, 16.066, 0.0]"] ;
499 -> 500 ;
501 [label="entropy = 0.0\nsamples = 7\nvalue = [0.0, 2.884, 0.0]"] ;
499 -> 501 ;
502 [label="age <= 51.5\nentropy = 0.915\nsamples = 361\nvalue = [7.16, 108.34, 327.517]"] ;
336 -> 502 ;
503 [label="fs1a4a <= 1.5\nentropy = 1.489\nsamples = 51\nvalue = [7.16, 18.537, 13.647]"] ;
502 -> 503 ;
504 [label="fs1c7 <= 1.5\nentropy = 0.994\nsamples = 23\nvalue = [7.16, 8.651, 0.0]"] ;
503 -> 504 ;
505 [label="fs1a1 <= 2.5\nentropy = 0.0\nsamples = 14\nvalue = [0.0, 5.767, 0.0]"] ;
504 -> 505 ;
506 [label="entropy = 0.0\nsamples = 4\nvalue = [0.0, 1.648, 0.0]"] ;
505 -> 506 ;
507 [label="entropy = 0.0\nsamples = 10\nvalue = [0.0, 4.119, 0.0]"] ;
505 -> 507 ;
508 [label="fs1ct7y1 <= 129.0\nentropy = 0.865\nsamples = 9\nvalue = [7.16, 2.884, 0.0]"] ;
504 -> 508 ;
509 [label="entropy = 0.0\nsamples = 4\nvalue = [0.0, 1.648, 0.0]"] ;
508 -> 509 ;
510 [label="fs1a6b <= 2.5\nentropy = 0.603\nsamples = 5\nvalue = [7.16, 1.236, 0.0]"] ;
508 -> 510 ;
511 [label="fs1a6a <= 1.5\nentropy = 0.305\nsamples = 3\nvalue = [7.16, 0.412, 0.0]"] ;
510 -> 511 ;
512 [label="entropy = 0.0\nsamples = 1\nvalue = [0.0, 0.412, 0.0]"] ;
511 -> 512 ;
513 [label="entropy = 0.0\nsamples = 2\nvalue = [7.16, 0.0, 0.0]"] ;
511 -> 513 ;
514 [label="fs1ct5b <= 2.0\nentropy = 0.0\nsamples = 2\nvalue = [0.0, 0.824, 0.0]"] ;
510 -> 514 ;
515 [label="entropy = 0.0\nsamples = 1\nvalue = [0.0, 0.412, 0.0]"] ;
514 -> 515 ;
516 [label="entropy = 0.0\nsamples = 1\nvalue = [0.0, 0.412, 0.0]"] ;
514 -> 516 ;
517 [label="age <= 46.0\nentropy = 0.982\nsamples = 28\nvalue = [0.0, 9.887, 13.647]"] ;
503 -> 517 ;
518 [label="fs1e3 <= 1.5\nentropy = 0.81\nsamples = 15\nvalue = [0.0, 4.531, 13.647]"] ;
517 -> 518 ;
519 [label="fs1d1z <= 1.5\nentropy = 0.561\nsamples = 9\nvalue = [0.0, 2.06, 13.647]"] ;
518 -> 519 ;
520 [label="entropy = 0.0\nsamples = 3\nvalue = [0.0, 1.236, 0.0]"] ;
519 -> 520 ;
521 [label="fs1a1 <= 3.5\nentropy = 0.315\nsamples = 6\nvalue = [0.0, 0.824, 13.647]"] ;
519 -> 521 ;
522 [label="entropy = 0.0\nsamples = 2\nvalue = [0.0, 0.824, 0.0]"] ;
521 -> 522 ;
523 [label="entropy = 0.0\nsamples = 4\nvalue = [0.0, 0.0, 13.647]"] ;
521 -> 523 ;
524 [label="fs1c1y <= 1.5\nentropy = 0.0\nsamples = 6\nvalue = [0.0, 2.472, 0.0]"] ;
518 -> 524 ;
525 [label="entropy = 0.0\nsamples = 2\nvalue = [0.0, 0.824, 0.0]"] ;
524 -> 525 ;
526 [label="entropy = 0.0\nsamples = 4\nvalue = [0.0, 1.648, 0.0]"] ;
524 -> 526 ;
527 [label="entropy = 0.0\nsamples = 13\nvalue = [0.0, 5.355, 0.0]"] ;
517 -> 527 ;
528 [label="fs1a2b <= 1.5\nentropy = 0.765\nsamples = 310\nvalue = [0.0, 89.803, 313.87]"] ;
502 -> 528 ;
529 [label="fs1d2y <= 1.5\nentropy = 0.405\nsamples = 76\nvalue = [0.0, 13.182, 150.112]"] ;
528 -> 529 ;
530 [label="entropy = 0.0\nsamples = 4\nvalue = [0.0, 1.648, 0.0]"] ;
529 -> 530 ;
531 [label="fs1a2a <= 1.5\nentropy = 0.371\nsamples = 72\nvalue = [0.0, 11.534, 150.112]"] ;
529 -> 531 ;
532 [label="fs1a6a <= 1.5\nentropy = 0.14\nsamples = 21\nvalue = [0.0, 1.236, 61.409]"] ;
531 -> 532 ;
533 [label="entropy = 0.0\nsamples = 2\nvalue = [0.0, 0.824, 0.0]"] ;
532 -> 533 ;
534 [label="fs1c7 <= 1.5\nentropy = 0.058\nsamples = 19\nvalue = [0.0, 0.412, 61.409]"] ;
532 -> 534 ;
535 [label="fs1ct5b <= 1.5\nentropy = 0.493\nsamples = 2\nvalue = [0.0, 0.412, 3.412]"] ;
534 -> 535 ;
536 [label="entropy = 0.0\nsamples = 1\nvalue = [0.0, 0.0, 3.412]"] ;
535 -> 536 ;
537 [label="entropy = -0.0\nsamples = 1\nvalue = [0.0, 0.412, 0.0]"] ;
535 -> 537 ;
538 [label="entropy = 0.0\nsamples = 17\nvalue = [0.0, 0.0, 57.998]"] ;
534 -> 538 ;
539 [label="fs1e5 <= 1.5\nentropy = 0.482\nsamples = 51\nvalue = [0.0, 10.298, 88.702]"] ;
531 -> 539 ;
540 [label="fs1ct5b <= 1.5\nentropy = 0.633\nsamples = 36\nvalue = [0.0, 9.063, 47.763]"] ;
539 -> 540 ;
541 [label="age <= 77.5\nentropy = 0.515\nsamples = 27\nvalue = [0.0, 5.767, 44.351]"] ;
540 -> 541 ;
542 [label="fs1b5 <= 1.5\nentropy = 0.47\nsamples = 25\nvalue = [0.0, 4.943, 44.351]"] ;
541 -> 542 ;
543 [label="fs1a5 <= 3.5\nentropy = 0.652\nsamples = 16\nvalue = [0.0, 4.119, 20.47]"] ;
542 -> 543 ;
544 [label="entropy = 0.0\nsamples = 4\nvalue = [0.0, 1.648, 0.0]"] ;
543 -> 544 ;
545 [label="fs1a6b <= 3.5\nentropy = 0.493\nsamples = 12\nvalue = [0.0, 2.472, 20.47]"] ;
543 -> 545 ;
546 [label="fs1ct4b <= 1.5\nentropy = 0.315\nsamples = 9\nvalue = [0.0, 1.236, 20.47]"] ;
545 -> 546 ;
547 [label="entropy = -0.0\nsamples = 5\nvalue = [0.0, 0.0, 17.058]"] ;
546 -> 547 ;
548 [label="fs1c1y <= 2.0\nentropy = 0.836\nsamples = 4\nvalue = [0.0, 1.236, 3.412]"] ;
546 -> 548 ;
549 [label="entropy = 0.0\nsamples = 3\nvalue = [0.0, 1.236, 0.0]"] ;
548 -> 549 ;
550 [label="entropy = 0.0\nsamples = 1\nvalue = [0.0, 0.0, 3.412]"] ;
548 -> 550 ;
551 [label="fs1a4b <= 1.5\nentropy = 0.0\nsamples = 3\nvalue = [0.0, 1.236, 0.0]"] ;
545 -> 551 ;
552 [label="entropy = 0.0\nsamples = 1\nvalue = [0.0, 0.412, 0.0]"] ;
551 -> 552 ;
553 [label="entropy = 0.0\nsamples = 2\nvalue = [0.0, 0.824, 0.0]"] ;
551 -> 553 ;
554 [label="fs1ct6y1 <= 4.5\nentropy = 0.211\nsamples = 9\nvalue = [0.0, 0.824, 23.881]"] ;
542 -> 554 ;
555 [label="entropy = 0.0\nsamples = 2\nvalue = [0.0, 0.824, 0.0]"] ;
554 -> 555 ;
556 [label="entropy = 0.0\nsamples = 7\nvalue = [0.0, 0.0, 23.881]"] ;
554 -> 556 ;
557 [label="entropy = 0.0\nsamples = 2\nvalue = [0.0, 0.824, 0.0]"] ;
541 -> 557 ;
558 [label="fs1a3b <= 1.5\nentropy = 1.0\nsamples = 9\nvalue = [0.0, 3.296, 3.412]"] ;
540 -> 558 ;
559 [label="entropy = 0.0\nsamples = 1\nvalue = [0.0, 0.0, 3.412]"] ;
558 -> 559 ;
560 [label="fs1ct7z1 <= 110.0\nentropy = 0.0\nsamples = 8\nvalue = [0.0, 3.296, 0.0]"] ;
558 -> 560 ;
561 [label="entropy = 0.0\nsamples = 1\nvalue = [0.0, 0.412, 0.0]"] ;
560 -> 561 ;
562 [label="entropy = 0.0\nsamples = 7\nvalue = [0.0, 2.884, 0.0]"] ;
560 -> 562 ;
563 [label="fs1ct7z1 <= 95.0\nentropy = 0.191\nsamples = 15\nvalue = [0.0, 1.236, 40.94]"] ;
539 -> 563 ;
564 [label="entropy = 0.0\nsamples = 1\nvalue = [0.0, 0.412, 0.0]"] ;
563 -> 564 ;
565 [label="fs1ct7y1 <= 92.5\nentropy = 0.14\nsamples = 14\nvalue = [0.0, 0.824, 40.94]"] ;
563 -> 565 ;
566 [label="entropy = 0.0\nsamples = 1\nvalue = [0.0, 0.412, 0.0]"] ;
565 -> 566 ;
567 [label="fs1e2 <= 2.5\nentropy = 0.081\nsamples = 13\nvalue = [0.0, 0.412, 40.94]"] ;
565 -> 567 ;
568 [label="entropy = 0.0\nsamples = 12\nvalue = [0.0, 0.0, 40.94]"] ;
567 -> 568 ;
569 [label="entropy = 0.0\nsamples = 1\nvalue = [0.0, 0.412, 0.0]"] ;
567 -> 569 ;
570 [label="fs1e1 <= 2.5\nentropy = 0.903\nsamples = 234\nvalue = [0.0, 76.621, 163.758]"] ;
528 -> 570 ;
571 [label="fs1a3a <= 1.5\nentropy = 0.965\nsamples = 214\nvalue = [0.0, 74.149, 115.996]"] ;
570 -> 571 ;
572 [label="fs1e1 <= 1.5\nentropy = 0.947\nsamples = 77\nvalue = [0.0, 29.66, 17.058]"] ;
571 -> 572 ;
573 [label="fs1ct5a <= 1.5\nentropy = 0.0\nsamples = 42\nvalue = [0.0, 17.301, 0.0]"] ;
572 -> 573 ;
574 [label="entropy = 0.0\nsamples = 18\nvalue = [0.0, 7.415, 0.0]"] ;
573 -> 574 ;
575 [label="entropy = 0.0\nsamples = 24\nvalue = [0.0, 9.887, 0.0]"] ;
573 -> 575 ;
576 [label="fs1d1a1 <= 2.5\nentropy = 0.982\nsamples = 35\nvalue = [0.0, 12.358, 17.058]"] ;
572 -> 576 ;
577 [label="fs1a6c <= 3.5\nentropy = 0.946\nsamples = 31\nvalue = [0.0, 11.946, 6.823]"] ;
576 -> 577 ;
578 [label="fs1c7 <= 2.5\nentropy = 0.878\nsamples = 9\nvalue = [0.0, 2.884, 6.823]"] ;
577 -> 578 ;
579 [label="fs1ct5b <= 1.5\nentropy = 0.493\nsamples = 4\nvalue = [0.0, 0.824, 6.823]"] ;
578 -> 579 ;
580 [label="entropy = 0.0\nsamples = 2\nvalue = [0.0, 0.0, 6.823]"] ;
579 -> 580 ;
581 [label="fs1a3b <= 1.5\nentropy = 0.0\nsamples = 2\nvalue = [0.0, 0.824, 0.0]"] ;
579 -> 581 ;
582 [label="entropy = 0.0\nsamples = 1\nvalue = [0.0, 0.412, 0.0]"] ;
581 -> 582 ;
583 [label="entropy = 0.0\nsamples = 1\nvalue = [0.0, 0.412, 0.0]"] ;
581 -> 583 ;
584 [label="fs1e2 <= 1.5\nentropy = 0.0\nsamples = 5\nvalue = [0.0, 2.06, 0.0]"] ;
578 -> 584 ;
585 [label="entropy = 0.0\nsamples = 3\nvalue = [0.0, 1.236, 0.0]"] ;
584 -> 585 ;
586 [label="entropy = 0.0\nsamples = 2\nvalue = [0.0, 0.824, 0.0]"] ;
584 -> 586 ;
587 [label="entropy = 0.0\nsamples = 22\nvalue = [0.0, 9.063, 0.0]"] ;
577 -> 587 ;
588 [label="fs1a7 <= 3.5\nentropy = 0.236\nsamples = 4\nvalue = [0.0, 0.412, 10.235]"] ;
576 -> 588 ;
589 [label="entropy = 0.0\nsamples = 1\nvalue = [0.0, 0.412, 0.0]"] ;
588 -> 589 ;
590 [label="entropy = 0.0\nsamples = 3\nvalue = [0.0, 0.0, 10.235]"] ;
588 -> 590 ;
591 [label="fs1ct4b <= 1.5\nentropy = 0.893\nsamples = 137\nvalue = [0.0, 44.489, 98.937]"] ;
571 -> 591 ;
592 [label="fs1ct7y1 <= 130.5\nentropy = 0.67\nsamples = 47\nvalue = [0.0, 12.358, 57.998]"] ;
591 -> 592 ;
593 [label="fs1ct7z1 <= 124.5\nentropy = 0.526\nsamples = 36\nvalue = [0.0, 7.827, 57.998]"] ;
592 -> 593 ;
594 [label="age <= 62.54\nentropy = 0.753\nsamples = 23\nvalue = [0.0, 6.591, 23.881]"] ;
593 -> 594 ;
595 [label="entropy = 0.0\nsamples = 6\nvalue = [0.0, 2.472, 0.0]"] ;
594 -> 595 ;
596 [label="fs1e8 <= 1.5\nentropy = 0.603\nsamples = 17\nvalue = [0.0, 4.119, 23.881]"] ;
594 -> 596 ;
597 [label="fs1ct6z1 <= 4.969\nentropy = 0.449\nsamples = 13\nvalue = [0.0, 2.472, 23.881]"] ;
596 -> 597 ;
598 [label="entropy = 0.0\nsamples = 5\nvalue = [0.0, 0.0, 17.058]"] ;
597 -> 598 ;
599 [label="fs1ct7z1 <= 114.5\nentropy = 0.836\nsamples = 8\nvalue = [0.0, 2.472, 6.823]"] ;
597 -> 599 ;
600 [label="fs1c7 <= 2.5\nentropy = 0.315\nsamples = 3\nvalue = [0.0, 0.412, 6.823]"] ;
599 -> 600 ;
601 [label="entropy = 0.0\nsamples = 1\nvalue = [0.0, 0.412, 0.0]"] ;
600 -> 601 ;
602 [label="entropy = 0.0\nsamples = 2\nvalue = [0.0, 0.0, 6.823]"] ;
600 -> 602 ;
603 [label="entropy = -0.0\nsamples = 5\nvalue = [0.0, 2.06, 0.0]"] ;
599 -> 603 ;
604 [label="fs1c8 <= 1.5\nentropy = 0.0\nsamples = 4\nvalue = [0.0, 1.648, 0.0]"] ;
596 -> 604 ;
605 [label="entropy = 0.0\nsamples = 3\nvalue = [0.0, 1.236, 0.0]"] ;
604 -> 605 ;
606 [label="entropy = 0.0\nsamples = 1\nvalue = [0.0, 0.412, 0.0]"] ;
604 -> 606 ;
607 [label="age <= 74.0\nentropy = 0.219\nsamples = 13\nvalue = [0.0, 1.236, 34.116]"] ;
593 -> 607 ;
608 [label="age <= 69.5\nentropy = 0.161\nsamples = 12\nvalue = [0.0, 0.824, 34.116]"] ;
607 -> 608 ;
609 [label="entropy = 0.0\nsamples = 7\nvalue = [0.0, 0.0, 23.881]"] ;
608 -> 609 ;
610 [label="fs1ct7z1 <= 129.0\nentropy = 0.382\nsamples = 5\nvalue = [0.0, 0.824, 10.235]"] ;
608 -> 610 ;
611 [label="entropy = -0.0\nsamples = 3\nvalue = [0.0, 0.0, 10.235]"] ;
610 -> 611 ;
612 [label="fs1d1z <= 1.5\nentropy = 0.0\nsamples = 2\nvalue = [0.0, 0.824, 0.0]"] ;
610 -> 612 ;
613 [label="entropy = 0.0\nsamples = 1\nvalue = [0.0, 0.412, 0.0]"] ;
612 -> 613 ;
614 [label="entropy = 0.0\nsamples = 1\nvalue = [0.0, 0.412, 0.0]"] ;
612 -> 614 ;
615 [label="entropy = 0.0\nsamples = 1\nvalue = [0.0, 0.412, 0.0]"] ;
607 -> 615 ;
616 [label="entropy = 0.0\nsamples = 11\nvalue = [0.0, 4.531, 0.0]"] ;
592 -> 616 ;
617 [label="fs1e9 <= 1.5\nentropy = 0.989\nsamples = 90\nvalue = [0.0, 32.131, 40.94]"] ;
591 -> 617 ;
618 [label="fs1c7 <= 3.5\nentropy = 0.923\nsamples = 69\nvalue = [0.0, 26.776, 13.647]"] ;
617 -> 618 ;
619 [label="fs1c8 <= 1.5\nentropy = 0.0\nsamples = 56\nvalue = [0.0, 23.069, 0.0]"] ;
618 -> 619 ;
620 [label="entropy = 0.0\nsamples = 41\nvalue = [0.0, 16.89, 0.0]"] ;
619 -> 620 ;
621 [label="entropy = 0.0\nsamples = 15\nvalue = [0.0, 6.179, 0.0]"] ;
619 -> 621 ;
622 [label="fs1c1y <= 1.5\nentropy = 0.748\nsamples = 13\nvalue = [0.0, 3.707, 13.647]"] ;
618 -> 622 ;
623 [label="fs1a6b <= 2.5\nentropy = 0.0\nsamples = 7\nvalue = [0.0, 2.884, 0.0]"] ;
622 -> 623 ;
624 [label="entropy = 0.0\nsamples = 4\nvalue = [0.0, 1.648, 0.0]"] ;
623 -> 624 ;
625 [label="entropy = 0.0\nsamples = 3\nvalue = [0.0, 1.236, 0.0]"] ;
623 -> 625 ;
626 [label="fs1ct7y1 <= 127.5\nentropy = 0.315\nsamples = 6\nvalue = [0.0, 0.824, 13.647]"] ;
622 -> 626 ;
627 [label="entropy = 0.0\nsamples = 4\nvalue = [0.0, 0.0, 13.647]"] ;
626 -> 627 ;
628 [label="fs1e5 <= 1.5\nentropy = 0.0\nsamples = 2\nvalue = [0.0, 0.824, 0.0]"] ;
626 -> 628 ;
629 [label="entropy = 0.0\nsamples = 1\nvalue = [0.0, 0.412, 0.0]"] ;
628 -> 629 ;
630 [label="entropy = 0.0\nsamples = 1\nvalue = [0.0, 0.412, 0.0]"] ;
628 -> 630 ;
631 [label="fs1b3 <= 1.5\nentropy = 0.644\nsamples = 21\nvalue = [0.0, 5.355, 27.293]"] ;
617 -> 631 ;
632 [label="fs1a2a <= 2.5\nentropy = 0.493\nsamples = 16\nvalue = [0.0, 3.296, 27.293]"] ;
631 -> 632 ;
633 [label="fs1ct7y1 <= 121.5\nentropy = 0.315\nsamples = 12\nvalue = [0.0, 1.648, 27.293]"] ;
632 -> 633 ;
634 [label="fs1ct7z1 <= 97.5\nentropy = 0.836\nsamples = 4\nvalue = [0.0, 1.236, 3.412]"] ;
633 -> 634 ;
635 [label="entropy = 0.0\nsamples = 1\nvalue = [0.0, 0.0, 3.412]"] ;
634 -> 635 ;
636 [label="entropy = 0.0\nsamples = 3\nvalue = [0.0, 1.236, 0.0]"] ;
634 -> 636 ;
637 [label="fs1b9 <= 1.5\nentropy = 0.124\nsamples = 8\nvalue = [0.0, 0.412, 23.881]"] ;
633 -> 637 ;
638 [label="entropy = 0.0\nsamples = 7\nvalue = [0.0, 0.0, 23.881]"] ;
637 -> 638 ;
639 [label="entropy = 0.0\nsamples = 1\nvalue = [0.0, 0.412, 0.0]"] ;
637 -> 639 ;
640 [label="age <= 61.5\nentropy = 0.0\nsamples = 4\nvalue = [0.0, 1.648, 0.0]"] ;
632 -> 640 ;
641 [label="entropy = 0.0\nsamples = 1\nvalue = [0.0, 0.412, 0.0]"] ;
640 -> 641 ;
642 [label="entropy = 0.0\nsamples = 3\nvalue = [0.0, 1.236, 0.0]"] ;
640 -> 642 ;
643 [label="fs1a4b <= 1.5\nentropy = 0.0\nsamples = 5\nvalue = [0.0, 2.06, 0.0]"] ;
631 -> 643 ;
644 [label="entropy = 0.0\nsamples = 3\nvalue = [0.0, 1.236, 0.0]"] ;
643 -> 644 ;
645 [label="entropy = 0.0\nsamples = 2\nvalue = [0.0, 0.824, 0.0]"] ;
643 -> 645 ;
646 [label="fs1d1y <= 1.5\nentropy = 0.283\nsamples = 20\nvalue = [0.0, 2.472, 47.763]"] ;
570 -> 646 ;
647 [label="entropy = 0.0\nsamples = 4\nvalue = [0.0, 1.648, 0.0]"] ;
646 -> 647 ;
648 [label="age <= 62.54\nentropy = 0.124\nsamples = 16\nvalue = [0.0, 0.824, 47.763]"] ;
646 -> 648 ;
649 [label="fs1e2 <= 2.0\nentropy = 0.711\nsamples = 3\nvalue = [0.0, 0.824, 3.412]"] ;
648 -> 649 ;
650 [label="entropy = 0.0\nsamples = 1\nvalue = [0.0, 0.0, 3.412]"] ;
649 -> 650 ;
651 [label="entropy = -0.0\nsamples = 2\nvalue = [0.0, 0.824, 0.0]"] ;
649 -> 651 ;
652 [label="entropy = 0.0\nsamples = 13\nvalue = [0.0, 0.0, 44.351]"] ;
648 -> 652 ;
}