digraph Tree {
node [shape=box, fontname="helvetica"] ;
edge [fontname="helvetica"] ;
0 [label="fs1a5 <= 2.5\nentropy = 1.585\nsamples = 1525\nvalue = [508.333, 508.333, 508.333]"] ;
1 [label="fs1d2y <= 1.5\nentropy = 1.103\nsamples = 673\nvalue = [430.978, 224.025, 21.942]"] ;
0 -> 1 [labeldistance=2.5, labelangle=45, headlabel="True"] ;
2 [label="fs1a2b <= 2.5\nentropy = 0.907\nsamples = 499\nvalue = [405.193, 158.04, 3.657]"] ;
1 -> 2 ;
3 [label="fs1a4b <= 1.5\nentropy = 1.054\nsamples = 297\nvalue = [162.077, 102.644, 3.657]"] ;
2 -> 3 ;
4 [label="age <= 64.5\nentropy = 1.024\nsamples = 237\nvalue = [154.71, 79.02, 3.657]"] ;
3 -> 4 ;
5 [label="fs1ct7z1 <= 136.0\nentropy = 0.84\nsamples = 147\nvalue = [125.242, 46.027, 0.0]"] ;
4 -> 5 ;
6 [label="fs1c1z <= 1.5\nentropy = 0.795\nsamples = 131\nvalue = [125.242, 39.51, 0.0]"] ;
5 -> 6 ;
7 [label="fs1e3 <= 2.5\nentropy = 0.744\nsamples = 113\nvalue = [121.558, 32.585, 0.0]"] ;
6 -> 7 ;
8 [label="fs1b5 <= 2.0\nentropy = 0.719\nsamples = 107\nvalue = [121.558, 30.142, 0.0]"] ;
7 -> 8 ;
9 [label="age <= 63.5\nentropy = 0.697\nsamples = 102\nvalue = [121.558, 28.105, 0.0]"] ;
8 -> 9 ;
10 [label="age <= 60.5\nentropy = 0.752\nsamples = 94\nvalue = [99.457, 27.29, 0.0]"] ;
9 -> 10 ;
11 [label="fs1d1y <= 1.5\nentropy = 0.647\nsamples = 67\nvalue = [88.406, 17.515, 0.0]"] ;
10 -> 11 ;
12 [label="fs1ct5a <= 1.5\nentropy = 0.484\nsamples = 35\nvalue = [62.621, 7.332, 0.0]"] ;
11 -> 12 ;
13 [label="age <= 47.5\nentropy = 0.988\nsamples = 8\nvalue = [3.684, 2.851, 0.0]"] ;
12 -> 13 ;
14 [label="fs1c8 <= 1.5\nentropy = 0.468\nsamples = 2\nvalue = [3.684, 0.407, 0.0]"] ;
13 -> 14 ;
15 [label="entropy = 0.0\nsamples = 1\nvalue = [0.0, 0.407, 0.0]"] ;
14 -> 15 ;
16 [label="entropy = -0.0\nsamples = 1\nvalue = [3.684, 0.0, 0.0]"] ;
14 -> 16 ;
17 [label="fs1ct7z1 <= 110.0\nentropy = 0.0\nsamples = 6\nvalue = [0.0, 2.444, 0.0]"] ;
13 -> 17 ;
18 [label="entropy = 0.0\nsamples = 2\nvalue = [0.0, 0.815, 0.0]"] ;
17 -> 18 ;
19 [label="entropy = 0.0\nsamples = 4\nvalue = [0.0, 1.629, 0.0]"] ;
17 -> 19 ;
20 [label="fs1d1z <= 1.5\nentropy = 0.368\nsamples = 27\nvalue = [58.937, 4.481, 0.0]"] ;
12 -> 20 ;
21 [label="fs1b9 <= 2.0\nentropy = 0.221\nsamples = 16\nvalue = [44.203, 1.629, 0.0]"] ;
20 -> 21 ;
22 [label="age <= 52.0\nentropy = 0.179\nsamples = 15\nvalue = [44.203, 1.222, 0.0]"] ;
21 -> 22 ;
23 [label="entropy = 0.0\nsamples = 6\nvalue = [22.101, 0.0, 0.0]"] ;
22 -> 23 ;
24 [label="fs1a7 <= 4.5\nentropy = 0.296\nsamples = 9\nvalue = [22.101, 1.222, 0.0]"] ;
22 -> 24 ;
25 [label="entropy = 0.0\nsamples = 2\nvalue = [0.0, 0.815, 0.0]"] ;
24 -> 25 ;
26 [label="age <= 54.5\nentropy = 0.131\nsamples = 7\nvalue = [22.101, 0.407, 0.0]"] ;
24 -> 26 ;
27 [label="entropy = 0.0\nsamples = 1\nvalue = [0.0, 0.407, 0.0]"] ;
26 -> 27 ;
28 [label="entropy = 0.0\nsamples = 6\nvalue = [22.101, 0.0, 0.0]"] ;
26 -> 28 ;
29 [label="entropy = -0.0\nsamples = 1\nvalue = [0.0, 0.407, 0.0]"] ;
21 -> 29 ;
30 [label="fs1e1 <= 1.5\nentropy = 0.639\nsamples = 11\nvalue = [14.734, 2.851, 0.0]"] ;
20 -> 30 ;
31 [label="fs1d2z <= 1.5\nentropy = 0.533\nsamples = 9\nvalue = [14.734, 2.037, 0.0]"] ;
30 -> 31 ;
32 [label="fs1a6c <= 4.5\nentropy = 0.39\nsamples = 7\nvalue = [14.734, 1.222, 0.0]"] ;
31 -> 32 ;
33 [label="age <= 59.5\nentropy = 0.296\nsamples = 6\nvalue = [14.734, 0.815, 0.0]"] ;
32 -> 33 ;
34 [label="fs1a6b <= 1.5\nentropy = 0.179\nsamples = 5\nvalue = [14.734, 0.407, 0.0]"] ;
33 -> 34 ;
35 [label="fs1c7 <= 1.5\nentropy = 0.468\nsamples = 2\nvalue = [3.684, 0.407, 0.0]"] ;
34 -> 35 ;
36 [label="entropy = 0.0\nsamples = 1\nvalue = [0.0, 0.407, 0.0]"] ;
35 -> 36 ;
37 [label="entropy = -0.0\nsamples = 1\nvalue = [3.684, 0.0, 0.0]"] ;
35 -> 37 ;
38 [label="entropy = -0.0\nsamples = 3\nvalue = [11.051, 0.0, 0.0]"] ;
34 -> 38 ;
39 [label="entropy = 0.0\nsamples = 1\nvalue = [0.0, 0.407, 0.0]"] ;
33 -> 39 ;
40 [label="entropy = 0.0\nsamples = 1\nvalue = [0.0, 0.407, 0.0]"] ;
32 -> 40 ;
41 [label="entropy = -0.0\nsamples = 2\nvalue = [0.0, 0.815, 0.0]"] ;
31 -> 41 ;
42 [label="entropy = -0.0\nsamples = 2\nvalue = [0.0, 0.815, 0.0]"] ;
30 -> 42 ;
43 [label="fs1a6c <= 4.5\nentropy = 0.86\nsamples = 32\nvalue = [25.785, 10.183, 0.0]"] ;
11 -> 43 ;
44 [label="fs1a3a <= 1.5\nentropy = 0.763\nsamples = 25\nvalue = [25.785, 7.332, 0.0]"] ;
43 -> 44 ;
45 [label="fs1e7 <= 1.5\nentropy = 0.659\nsamples = 20\nvalue = [25.785, 5.295, 0.0]"] ;
44 -> 45 ;
46 [label="fs1c7 <= 1.5\nentropy = 0.542\nsamples = 16\nvalue = [25.785, 3.666, 0.0]"] ;
45 -> 46 ;
47 [label="fs1ct5b <= 1.5\nentropy = 0.72\nsamples = 13\nvalue = [14.734, 3.666, 0.0]"] ;
46 -> 47 ;
48 [label="entropy = 0.0\nsamples = 5\nvalue = [0.0, 2.037, 0.0]"] ;
47 -> 48 ;
49 [label="fs1d1z <= 1.5\nentropy = 0.468\nsamples = 8\nvalue = [14.734, 1.629, 0.0]"] ;
47 -> 49 ;
50 [label="entropy = 0.0\nsamples = 2\nvalue = [0.0, 0.815, 0.0]"] ;
49 -> 50 ;
51 [label="fs1a2a <= 1.5\nentropy = 0.296\nsamples = 6\nvalue = [14.734, 0.815, 0.0]"] ;
49 -> 51 ;
52 [label="entropy = 0.0\nsamples = 2\nvalue = [7.367, 0.0, 0.0]"] ;
51 -> 52 ;
53 [label="fs1a6a <= 1.5\nentropy = 0.468\nsamples = 4\nvalue = [7.367, 0.815, 0.0]"] ;
51 -> 53 ;
54 [label="entropy = 0.0\nsamples = 1\nvalue = [0.0, 0.407, 0.0]"] ;
53 -> 54 ;
55 [label="fs1ct5a <= 1.5\nentropy = 0.296\nsamples = 3\nvalue = [7.367, 0.407, 0.0]"] ;
53 -> 55 ;
56 [label="entropy = 0.0\nsamples = 1\nvalue = [3.684, 0.0, 0.0]"] ;
55 -> 56 ;
57 [label="fs1a1 <= 3.0\nentropy = 0.468\nsamples = 2\nvalue = [3.684, 0.407, 0.0]"] ;
55 -> 57 ;
58 [label="entropy = 0.0\nsamples = 1\nvalue = [3.684, 0.0, 0.0]"] ;
57 -> 58 ;
59 [label="entropy = -0.0\nsamples = 1\nvalue = [0.0, 0.407, 0.0]"] ;
57 -> 59 ;
60 [label="entropy = 0.0\nsamples = 3\nvalue = [11.051, 0.0, 0.0]"] ;
46 -> 60 ;
61 [label="entropy = -0.0\nsamples = 4\nvalue = [0.0, 1.629, 0.0]"] ;
45 -> 61 ;
62 [label="entropy = -0.0\nsamples = 5\nvalue = [0.0, 2.037, 0.0]"] ;
44 -> 62 ;
63 [label="entropy = -0.0\nsamples = 7\nvalue = [0.0, 2.851, 0.0]"] ;
43 -> 63 ;
64 [label="fs1a1 <= 2.5\nentropy = 0.997\nsamples = 27\nvalue = [11.051, 9.776, 0.0]"] ;
10 -> 64 ;
65 [label="fs1ct7z1 <= 115.0\nentropy = 0.889\nsamples = 15\nvalue = [11.051, 4.888, 0.0]"] ;
64 -> 65 ;
66 [label="entropy = 0.0\nsamples = 6\nvalue = [0.0, 2.444, 0.0]"] ;
65 -> 66 ;
67 [label="fs1ct7z1 <= 122.5\nentropy = 0.682\nsamples = 9\nvalue = [11.051, 2.444, 0.0]"] ;
65 -> 67 ;
68 [label="fs1e1 <= 1.5\nentropy = 0.468\nsamples = 6\nvalue = [11.051, 1.222, 0.0]"] ;
67 -> 68 ;
69 [label="age <= 61.5\nentropy = 0.361\nsamples = 5\nvalue = [11.051, 0.815, 0.0]"] ;
68 -> 69 ;
70 [label="entropy = 0.0\nsamples = 1\nvalue = [3.684, 0.0, 0.0]"] ;
69 -> 70 ;
71 [label="age <= 62.5\nentropy = 0.468\nsamples = 4\nvalue = [7.367, 0.815, 0.0]"] ;
69 -> 71 ;
72 [label="entropy = 0.0\nsamples = 1\nvalue = [0.0, 0.407, 0.0]"] ;
71 -> 72 ;
73 [label="fs1d1a2 <= 2.5\nentropy = 0.296\nsamples = 3\nvalue = [7.367, 0.407, 0.0]"] ;
71 -> 73 ;
74 [label="entropy = 0.0\nsamples = 2\nvalue = [7.367, 0.0, 0.0]"] ;
73 -> 74 ;
75 [label="entropy = -0.0\nsamples = 1\nvalue = [0.0, 0.407, 0.0]"] ;
73 -> 75 ;
76 [label="entropy = 0.0\nsamples = 1\nvalue = [0.0, 0.407, 0.0]"] ;
68 -> 76 ;
77 [label="fs1a2a <= 2.5\nentropy = 0.0\nsamples = 3\nvalue = [0.0, 1.222, 0.0]"] ;
67 -> 77 ;
78 [label="entropy = 0.0\nsamples = 2\nvalue = [0.0, 0.815, 0.0]"] ;
77 -> 78 ;
79 [label="entropy = 0.0\nsamples = 1\nvalue = [0.0, 0.407, 0.0]"] ;
77 -> 79 ;
80 [label="entropy = -0.0\nsamples = 12\nvalue = [0.0, 4.888, 0.0]"] ;
64 -> 80 ;
81 [label="fs1a3a <= 1.5\nentropy = 0.221\nsamples = 8\nvalue = [22.101, 0.815, 0.0]"] ;
9 -> 81 ;
82 [label="fs1b9 <= 2.0\nentropy = 0.131\nsamples = 7\nvalue = [22.101, 0.407, 0.0]"] ;
81 -> 82 ;
83 [label="entropy = 0.0\nsamples = 6\nvalue = [22.101, 0.0, 0.0]"] ;
82 -> 83 ;
84 [label="entropy = -0.0\nsamples = 1\nvalue = [0.0, 0.407, 0.0]"] ;
82 -> 84 ;
85 [label="entropy = -0.0\nsamples = 1\nvalue = [0.0, 0.407, 0.0]"] ;
81 -> 85 ;
86 [label="fs1e1 <= 2.0\nentropy = 0.0\nsamples = 5\nvalue = [0.0, 2.037, 0.0]"] ;
8 -> 86 ;
87 [label="entropy = 0.0\nsamples = 3\nvalue = [0.0, 1.222, 0.0]"] ;
86 -> 87 ;
88 [label="entropy = 0.0\nsamples = 2\nvalue = [0.0, 0.815, 0.0]"] ;
86 -> 88 ;
89 [label="fs1d1y <= 1.5\nentropy = 0.0\nsamples = 6\nvalue = [0.0, 2.444, 0.0]"] ;
7 -> 89 ;
90 [label="entropy = 0.0\nsamples = 1\nvalue = [0.0, 0.407, 0.0]"] ;
89 -> 90 ;
91 [label="entropy = 0.0\nsamples = 5\nvalue = [0.0, 2.037, 0.0]"] ;
89 -> 91 ;
92 [label="fs1ct5b <= 1.5\nentropy = 0.932\nsamples = 18\nvalue = [3.684, 6.924, 0.0]"] ;
6 -> 92 ;
93 [label="fs1ct7y1 <= 125.0\nentropy = 0.682\nsamples = 3\nvalue = [3.684, 0.815, 0.0]"] ;
92 -> 93 ;
94 [label="entropy = 0.0\nsamples = 2\nvalue = [0.0, 0.815, 0.0]"] ;
93 -> 94 ;
95 [label="entropy = 0.0\nsamples = 1\nvalue = [3.684, 0.0, 0.0]"] ;
93 -> 95 ;
96 [label="entropy = 0.0\nsamples = 15\nvalue = [0.0, 6.11, 0.0]"] ;
92 -> 96 ;
97 [label="fs1a1 <= 1.5\nentropy = 0.0\nsamples = 16\nvalue = [0.0, 6.517, 0.0]"] ;
5 -> 97 ;
98 [label="entropy = 0.0\nsamples = 1\nvalue = [0.0, 0.407, 0.0]"] ;
97 -> 98 ;
99 [label="entropy = 0.0\nsamples = 15\nvalue = [0.0, 6.11, 0.0]"] ;
97 -> 99 ;
100 [label="fs1a1 <= 3.5\nentropy = 1.251\nsamples = 90\nvalue = [29.469, 32.993, 3.657]"] ;
4 -> 100 ;
101 [label="fs1e1 <= 1.5\nentropy = 0.99\nsamples = 65\nvalue = [29.469, 23.217, 0.0]"] ;
100 -> 101 ;
102 [label="fs1c7 <= 1.5\nentropy = 0.929\nsamples = 46\nvalue = [29.469, 15.478, 0.0]"] ;
101 -> 102 ;
103 [label="fs1d2z <= 1.5\nentropy = 0.844\nsamples = 35\nvalue = [29.469, 10.998, 0.0]"] ;
102 -> 103 ;
104 [label="age <= 80.0\nentropy = 0.769\nsamples = 29\nvalue = [29.469, 8.554, 0.0]"] ;
103 -> 104 ;
105 [label="age <= 70.5\nentropy = 0.889\nsamples = 25\nvalue = [18.418, 8.146, 0.0]"] ;
104 -> 105 ;
106 [label="age <= 65.5\nentropy = 0.713\nsamples = 16\nvalue = [18.418, 4.481, 0.0]"] ;
105 -> 106 ;
107 [label="entropy = 0.0\nsamples = 2\nvalue = [0.0, 0.815, 0.0]"] ;
106 -> 107 ;
108 [label="fs1c1z <= 1.5\nentropy = 0.648\nsamples = 14\nvalue = [18.418, 3.666, 0.0]"] ;
106 -> 108 ;
109 [label="fs1a7 <= 4.5\nentropy = 0.568\nsamples = 12\nvalue = [18.418, 2.851, 0.0]"] ;
108 -> 109 ;
110 [label="entropy = 0.0\nsamples = 2\nvalue = [7.367, 0.0, 0.0]"] ;
109 -> 110 ;
111 [label="fs1a1 <= 2.5\nentropy = 0.732\nsamples = 10\nvalue = [11.051, 2.851, 0.0]"] ;
109 -> 111 ;
112 [label="fs1ct7z1 <= 115.0\nentropy = 0.624\nsamples = 8\nvalue = [11.051, 2.037, 0.0]"] ;
111 -> 112 ;
113 [label="entropy = 0.0\nsamples = 1\nvalue = [0.0, 0.407, 0.0]"] ;
112 -> 113 ;
114 [label="age <= 68.0\nentropy = 0.553\nsamples = 7\nvalue = [11.051, 1.629, 0.0]"] ;
112 -> 114 ;
115 [label="entropy = 0.0\nsamples = 1\nvalue = [0.0, 0.407, 0.0]"] ;
114 -> 115 ;
116 [label="fs1a3b <= 1.5\nentropy = 0.468\nsamples = 6\nvalue = [11.051, 1.222, 0.0]"] ;
114 -> 116 ;
117 [label="fs1a3a <= 1.5\nentropy = 0.59\nsamples = 5\nvalue = [7.367, 1.222, 0.0]"] ;
116 -> 117 ;
118 [label="fs1d1a1 <= 2.5\nentropy = 0.468\nsamples = 4\nvalue = [7.367, 0.815, 0.0]"] ;
117 -> 118 ;
119 [label="fs1a6a <= 1.5\nentropy = 0.682\nsamples = 3\nvalue = [3.684, 0.815, 0.0]"] ;
118 -> 119 ;
120 [label="entropy = 0.0\nsamples = 2\nvalue = [0.0, 0.815, 0.0]"] ;
119 -> 120 ;
121 [label="entropy = 0.0\nsamples = 1\nvalue = [3.684, 0.0, 0.0]"] ;
119 -> 121 ;
122 [label="entropy = 0.0\nsamples = 1\nvalue = [3.684, 0.0, 0.0]"] ;
118 -> 122 ;
123 [label="entropy = 0.0\nsamples = 1\nvalue = [0.0, 0.407, 0.0]"] ;
117 -> 123 ;
124 [label="entropy = -0.0\nsamples = 1\nvalue = [3.684, 0.0, 0.0]"] ;
116 -> 124 ;
125 [label="fs1a6a <= 1.5\nentropy = 0.0\nsamples = 2\nvalue = [0.0, 0.815, 0.0]"] ;
111 -> 125 ;
126 [label="entropy = 0.0\nsamples = 1\nvalue = [0.0, 0.407, 0.0]"] ;
125 -> 126 ;
127 [label="entropy = 0.0\nsamples = 1\nvalue = [0.0, 0.407, 0.0]"] ;
125 -> 127 ;
128 [label="entropy = -0.0\nsamples = 2\nvalue = [0.0, 0.815, 0.0]"] ;
108 -> 128 ;
129 [label="entropy = -0.0\nsamples = 9\nvalue = [0.0, 3.666, 0.0]"] ;
105 -> 129 ;
130 [label="fs1a1 <= 2.5\nentropy = 0.221\nsamples = 4\nvalue = [11.051, 0.407, 0.0]"] ;
104 -> 130 ;
131 [label="fs1ct7y1 <= 115.0\nentropy = 0.468\nsamples = 2\nvalue = [3.684, 0.407, 0.0]"] ;
130 -> 131 ;
132 [label="entropy = 0.0\nsamples = 1\nvalue = [3.684, 0.0, 0.0]"] ;
131 -> 132 ;
133 [label="entropy = -0.0\nsamples = 1\nvalue = [0.0, 0.407, 0.0]"] ;
131 -> 133 ;
134 [label="entropy = -0.0\nsamples = 2\nvalue = [7.367, 0.0, 0.0]"] ;
130 -> 134 ;
135 [label="entropy = -0.0\nsamples = 6\nvalue = [0.0, 2.444, 0.0]"] ;
103 -> 135 ;
136 [label="entropy = -0.0\nsamples = 11\nvalue = [0.0, 4.481, 0.0]"] ;
102 -> 136 ;
137 [label="entropy = -0.0\nsamples = 19\nvalue = [0.0, 7.739, 0.0]"] ;
101 -> 137 ;
138 [label="fs1ct7z1 <= 132.5\nentropy = 0.845\nsamples = 25\nvalue = [0.0, 9.776, 3.657]"] ;
100 -> 138 ;
139 [label="entropy = 0.0\nsamples = 22\nvalue = [0.0, 8.961, 0.0]"] ;
138 -> 139 ;
140 [label="age <= 69.0\nentropy = 0.685\nsamples = 3\nvalue = [0.0, 0.815, 3.657]"] ;
138 -> 140 ;
141 [label="age <= 67.5\nentropy = 0.0\nsamples = 2\nvalue = [0.0, 0.815, 0.0]"] ;
140 -> 141 ;
142 [label="entropy = 0.0\nsamples = 1\nvalue = [0.0, 0.407, 0.0]"] ;
141 -> 142 ;
143 [label="entropy = 0.0\nsamples = 1\nvalue = [0.0, 0.407, 0.0]"] ;
141 -> 143 ;
144 [label="entropy = 0.0\nsamples = 1\nvalue = [0.0, 0.0, 3.657]"] ;
140 -> 144 ;
145 [label="fs1d1z <= 1.5\nentropy = 0.791\nsamples = 60\nvalue = [7.367, 23.624, 0.0]"] ;
3 -> 145 ;
146 [label="fs1ct7y1 <= 125.0\nentropy = 0.996\nsamples = 23\nvalue = [7.367, 8.554, 0.0]"] ;
145 -> 146 ;
147 [label="entropy = -0.0\nsamples = 14\nvalue = [0.0, 5.702, 0.0]"] ;
146 -> 147 ;
148 [label="fs1a7 <= 4.5\nentropy = 0.854\nsamples = 9\nvalue = [7.367, 2.851, 0.0]"] ;
146 -> 148 ;
149 [label="fs1ct6z1 <= 4.969\nentropy = 0.59\nsamples = 5\nvalue = [7.367, 1.222, 0.0]"] ;
148 -> 149 ;
150 [label="entropy = 0.0\nsamples = 2\nvalue = [0.0, 0.815, 0.0]"] ;
149 -> 150 ;
151 [label="fs1c8 <= 1.5\nentropy = 0.296\nsamples = 3\nvalue = [7.367, 0.407, 0.0]"] ;
149 -> 151 ;
152 [label="entropy = 0.0\nsamples = 2\nvalue = [7.367, 0.0, 0.0]"] ;
151 -> 152 ;
153 [label="entropy = -0.0\nsamples = 1\nvalue = [0.0, 0.407, 0.0]"] ;
151 -> 153 ;
154 [label="fs1a6b <= 2.5\nentropy = 0.0\nsamples = 4\nvalue = [0.0, 1.629, 0.0]"] ;
148 -> 154 ;
155 [label="entropy = 0.0\nsamples = 3\nvalue = [0.0, 1.222, 0.0]"] ;
154 -> 155 ;
156 [label="entropy = 0.0\nsamples = 1\nvalue = [0.0, 0.407, 0.0]"] ;
154 -> 156 ;
157 [label="entropy = -0.0\nsamples = 37\nvalue = [0.0, 15.071, 0.0]"] ;
145 -> 157 ;
158 [label="fs1ct5b <= 1.5\nentropy = 0.692\nsamples = 202\nvalue = [243.116, 55.395, 0.0]"] ;
2 -> 158 ;
159 [label="fs1ct7z1 <= 139.0\nentropy = 0.991\nsamples = 41\nvalue = [18.418, 14.663, 0.0]"] ;
158 -> 159 ;
160 [label="fs1c8 <= 1.5\nentropy = 0.991\nsamples = 37\nvalue = [11.051, 13.849, 0.0]"] ;
159 -> 160 ;
161 [label="fs1a1 <= 1.5\nentropy = 0.0\nsamples = 24\nvalue = [0.0, 9.776, 0.0]"] ;
160 -> 161 ;
162 [label="entropy = 0.0\nsamples = 1\nvalue = [0.0, 0.407, 0.0]"] ;
161 -> 162 ;
163 [label="entropy = 0.0\nsamples = 23\nvalue = [0.0, 9.368, 0.0]"] ;
161 -> 163 ;
164 [label="fs1ct7y1 <= 124.0\nentropy = 0.84\nsamples = 13\nvalue = [11.051, 4.073, 0.0]"] ;
160 -> 164 ;
165 [label="fs1ct5a <= 1.5\nentropy = 0.624\nsamples = 8\nvalue = [11.051, 2.037, 0.0]"] ;
164 -> 165 ;
166 [label="age <= 54.5\nentropy = 0.361\nsamples = 5\nvalue = [11.051, 0.815, 0.0]"] ;
165 -> 166 ;
167 [label="entropy = 0.0\nsamples = 2\nvalue = [0.0, 0.815, 0.0]"] ;
166 -> 167 ;
168 [label="entropy = -0.0\nsamples = 3\nvalue = [11.051, 0.0, 0.0]"] ;
166 -> 168 ;
169 [label="fs1b9 <= 2.0\nentropy = 0.0\nsamples = 3\nvalue = [0.0, 1.222, 0.0]"] ;
165 -> 169 ;
170 [label="entropy = 0.0\nsamples = 2\nvalue = [0.0, 0.815, 0.0]"] ;
169 -> 170 ;
171 [label="entropy = 0.0\nsamples = 1\nvalue = [0.0, 0.407, 0.0]"] ;
169 -> 171 ;
172 [label="fs1b2 <= 2.0\nentropy = 0.0\nsamples = 5\nvalue = [0.0, 2.037, 0.0]"] ;
164 -> 172 ;
173 [label="entropy = 0.0\nsamples = 4\nvalue = [0.0, 1.629, 0.0]"] ;
172 -> 173 ;
174 [label="entropy = 0.0\nsamples = 1\nvalue = [0.0, 0.407, 0.0]"] ;
172 -> 174 ;
175 [label="fs1a4a <= 1.5\nentropy = 0.468\nsamples = 4\nvalue = [7.367, 0.815, 0.0]"] ;
159 -> 175 ;
176 [label="entropy = 0.0\nsamples = 2\nvalue = [0.0, 0.815, 0.0]"] ;
175 -> 176 ;
177 [label="entropy = -0.0\nsamples = 2\nvalue = [7.367, 0.0, 0.0]"] ;
175 -> 177 ;
178 [label="fs1d2z <= 1.5\nentropy = 0.618\nsamples = 161\nvalue = [224.698, 40.732, 0.0]"] ;
158 -> 178 ;
179 [label="fs1c7 <= 3.5\nentropy = 0.581\nsamples = 150\nvalue = [224.698, 36.251, 0.0]"] ;
178 -> 179 ;
180 [label="age <= 70.5\nentropy = 0.53\nsamples = 132\nvalue = [217.331, 29.734, 0.0]"] ;
179 -> 180 ;
181 [label="fs1d1y <= 1.5\nentropy = 0.59\nsamples = 120\nvalue = [176.812, 29.327, 0.0]"] ;
180 -> 181 ;
182 [label="fs1ct4a <= 1.5\nentropy = 0.475\nsamples = 79\nvalue = [143.659, 16.293, 0.0]"] ;
181 -> 182 ;
183 [label="fs1c1z <= 1.5\nentropy = 0.957\nsamples = 13\nvalue = [7.367, 4.481, 0.0]"] ;
182 -> 183 ;
184 [label="fs1a5 <= 1.5\nentropy = 0.0\nsamples = 10\nvalue = [0.0, 4.073, 0.0]"] ;
183 -> 184 ;
185 [label="entropy = 0.0\nsamples = 3\nvalue = [0.0, 1.222, 0.0]"] ;
184 -> 185 ;
186 [label="entropy = 0.0\nsamples = 7\nvalue = [0.0, 2.851, 0.0]"] ;
184 -> 186 ;
187 [label="fs1e8 <= 1.5\nentropy = 0.296\nsamples = 3\nvalue = [7.367, 0.407, 0.0]"] ;
183 -> 187 ;
188 [label="entropy = 0.0\nsamples = 2\nvalue = [7.367, 0.0, 0.0]"] ;
187 -> 188 ;
189 [label="entropy = -0.0\nsamples = 1\nvalue = [0.0, 0.407, 0.0]"] ;
187 -> 189 ;
190 [label="fs1b3 <= 2.5\nentropy = 0.401\nsamples = 66\nvalue = [136.292, 11.812, 0.0]"] ;
182 -> 190 ;
191 [label="fs1a6b <= 4.5\nentropy = 0.374\nsamples = 63\nvalue = [136.292, 10.59, 0.0]"] ;
190 -> 191 ;
192 [label="age <= 58.5\nentropy = 0.354\nsamples = 61\nvalue = [136.292, 9.776, 0.0]"] ;
191 -> 192 ;
193 [label="fs1e9 <= 1.5\nentropy = 0.43\nsamples = 45\nvalue = [88.406, 8.554, 0.0]"] ;
192 -> 193 ;
194 [label="fs1ct7y1 <= 122.5\nentropy = 0.404\nsamples = 43\nvalue = [88.406, 7.739, 0.0]"] ;
193 -> 194 ;
195 [label="fs1a6a <= 3.5\nentropy = 0.116\nsamples = 8\nvalue = [25.785, 0.407, 0.0]"] ;
194 -> 195 ;
196 [label="entropy = 0.0\nsamples = 7\nvalue = [25.785, 0.0, 0.0]"] ;
195 -> 196 ;
197 [label="entropy = -0.0\nsamples = 1\nvalue = [0.0, 0.407, 0.0]"] ;
195 -> 197 ;
198 [label="fs1a6a <= 3.0\nentropy = 0.484\nsamples = 35\nvalue = [62.621, 7.332, 0.0]"] ;
194 -> 198 ;
199 [label="fs1d1a1 <= 1.5\nentropy = 0.542\nsamples = 32\nvalue = [51.57, 7.332, 0.0]"] ;
198 -> 199 ;
200 [label="fs1a3b <= 1.5\nentropy = 0.488\nsamples = 29\nvalue = [51.57, 6.11, 0.0]"] ;
199 -> 200 ;
201 [label="fs1a1 <= 3.5\nentropy = 0.468\nsamples = 28\nvalue = [51.57, 5.702, 0.0]"] ;
200 -> 201 ;
202 [label="fs1e7 <= 1.5\nentropy = 0.447\nsamples = 27\nvalue = [51.57, 5.295, 0.0]"] ;
201 -> 202 ;
203 [label="fs1ct6z2 <= 7.0\nentropy = 0.425\nsamples = 26\nvalue = [51.57, 4.888, 0.0]"] ;
202 -> 203 ;
204 [label="fs1ct4b <= 1.5\nentropy = 0.402\nsamples = 25\nvalue = [51.57, 4.481, 0.0]"] ;
203 -> 204 ;
205 [label="entropy = 0.0\nsamples = 1\nvalue = [0.0, 0.407, 0.0]"] ;
204 -> 205 ;
206 [label="fs1a2a <= 2.5\nentropy = 0.378\nsamples = 24\nvalue = [51.57, 4.073, 0.0]"] ;
204 -> 206 ;
207 [label="fs1ct6z1 <= 4.5\nentropy = 0.81\nsamples = 4\nvalue = [3.684, 1.222, 0.0]"] ;
206 -> 207 ;
208 [label="entropy = 0.0\nsamples = 1\nvalue = [3.684, 0.0, 0.0]"] ;
207 -> 208 ;
209 [label="fs1a6a <= 1.5\nentropy = 0.0\nsamples = 3\nvalue = [0.0, 1.222, 0.0]"] ;
207 -> 209 ;
210 [label="entropy = 0.0\nsamples = 2\nvalue = [0.0, 0.815, 0.0]"] ;
209 -> 210 ;
211 [label="entropy = 0.0\nsamples = 1\nvalue = [0.0, 0.407, 0.0]"] ;
209 -> 211 ;
212 [label="fs1a7 <= 4.5\nentropy = 0.312\nsamples = 20\nvalue = [47.886, 2.851, 0.0]"] ;
206 -> 212 ;
213 [label="fs1a4a <= 1.5\nentropy = 0.163\nsamples = 11\nvalue = [33.152, 0.815, 0.0]"] ;
212 -> 213 ;
214 [label="age <= 54.5\nentropy = 0.104\nsamples = 9\nvalue = [29.469, 0.407, 0.0]"] ;
213 -> 214 ;
215 [label="entropy = 0.0\nsamples = 6\nvalue = [22.101, 0.0, 0.0]"] ;
214 -> 215 ;
216 [label="fs1ct7z1 <= 132.5\nentropy = 0.296\nsamples = 3\nvalue = [7.367, 0.407, 0.0]"] ;
214 -> 216 ;
217 [label="entropy = 0.0\nsamples = 1\nvalue = [0.0, 0.407, 0.0]"] ;
216 -> 217 ;
218 [label="entropy = 0.0\nsamples = 2\nvalue = [7.367, 0.0, 0.0]"] ;
216 -> 218 ;
219 [label="fs1a6c <= 3.5\nentropy = 0.468\nsamples = 2\nvalue = [3.684, 0.407, 0.0]"] ;
213 -> 219 ;
220 [label="entropy = 0.0\nsamples = 1\nvalue = [0.0, 0.407, 0.0]"] ;
219 -> 220 ;
221 [label="entropy = -0.0\nsamples = 1\nvalue = [3.684, 0.0, 0.0]"] ;
219 -> 221 ;
222 [label="age <= 55.0\nentropy = 0.533\nsamples = 9\nvalue = [14.734, 2.037, 0.0]"] ;
212 -> 222 ;
223 [label="fs1d1z <= 1.5\nentropy = 0.39\nsamples = 7\nvalue = [14.734, 1.222, 0.0]"] ;
222 -> 223 ;
224 [label="fs1e3 <= 1.5\nentropy = 0.296\nsamples = 6\nvalue = [14.734, 0.815, 0.0]"] ;
223 -> 224 ;
225 [label="age <= 47.0\nentropy = 0.179\nsamples = 5\nvalue = [14.734, 0.407, 0.0]"] ;
224 -> 225 ;
226 [label="age <= 35.5\nentropy = 0.468\nsamples = 2\nvalue = [3.684, 0.407, 0.0]"] ;
225 -> 226 ;
227 [label="entropy = 0.0\nsamples = 1\nvalue = [3.684, 0.0, 0.0]"] ;
226 -> 227 ;
228 [label="entropy = -0.0\nsamples = 1\nvalue = [0.0, 0.407, 0.0]"] ;
226 -> 228 ;
229 [label="entropy = 0.0\nsamples = 3\nvalue = [11.051, 0.0, 0.0]"] ;
225 -> 229 ;
230 [label="entropy = 0.0\nsamples = 1\nvalue = [0.0, 0.407, 0.0]"] ;
224 -> 230 ;
231 [label="entropy = 0.0\nsamples = 1\nvalue = [0.0, 0.407, 0.0]"] ;
223 -> 231 ;
232 [label="entropy = -0.0\nsamples = 2\nvalue = [0.0, 0.815, 0.0]"] ;
222 -> 232 ;
233 [label="entropy = -0.0\nsamples = 1\nvalue = [0.0, 0.407, 0.0]"] ;
203 -> 233 ;
234 [label="entropy = -0.0\nsamples = 1\nvalue = [0.0, 0.407, 0.0]"] ;
202 -> 234 ;
235 [label="entropy = -0.0\nsamples = 1\nvalue = [0.0, 0.407, 0.0]"] ;
201 -> 235 ;
236 [label="entropy = -0.0\nsamples = 1\nvalue = [0.0, 0.407, 0.0]"] ;
200 -> 236 ;
237 [label="entropy = -0.0\nsamples = 3\nvalue = [0.0, 1.222, 0.0]"] ;
199 -> 237 ;
238 [label="entropy = 0.0\nsamples = 3\nvalue = [11.051, 0.0, 0.0]"] ;
198 -> 238 ;
239 [label="entropy = -0.0\nsamples = 2\nvalue = [0.0, 0.815, 0.0]"] ;
193 -> 239 ;
240 [label="fs1ct7y1 <= 125.0\nentropy = 0.168\nsamples = 16\nvalue = [47.886, 1.222, 0.0]"] ;
192 -> 240 ;
241 [label="fs1a1 <= 2.5\nentropy = 0.468\nsamples = 6\nvalue = [11.051, 1.222, 0.0]"] ;
240 -> 241 ;
242 [label="entropy = 0.0\nsamples = 2\nvalue = [0.0, 0.815, 0.0]"] ;
241 -> 242 ;
243 [label="fs1ct4b <= 1.5\nentropy = 0.221\nsamples = 4\nvalue = [11.051, 0.407, 0.0]"] ;
241 -> 243 ;
244 [label="entropy = 0.0\nsamples = 1\nvalue = [0.0, 0.407, 0.0]"] ;
243 -> 244 ;
245 [label="entropy = -0.0\nsamples = 3\nvalue = [11.051, 0.0, 0.0]"] ;
243 -> 245 ;
246 [label="entropy = 0.0\nsamples = 10\nvalue = [36.836, 0.0, 0.0]"] ;
240 -> 246 ;
247 [label="fs1c7 <= 1.5\nentropy = 0.0\nsamples = 2\nvalue = [0.0, 0.815, 0.0]"] ;
191 -> 247 ;
248 [label="entropy = 0.0\nsamples = 1\nvalue = [0.0, 0.407, 0.0]"] ;
247 -> 248 ;
249 [label="entropy = 0.0\nsamples = 1\nvalue = [0.0, 0.407, 0.0]"] ;
247 -> 249 ;
250 [label="fs1e9 <= 1.5\nentropy = 0.0\nsamples = 3\nvalue = [0.0, 1.222, 0.0]"] ;
190 -> 250 ;
251 [label="entropy = 0.0\nsamples = 2\nvalue = [0.0, 0.815, 0.0]"] ;
250 -> 251 ;
252 [label="entropy = 0.0\nsamples = 1\nvalue = [0.0, 0.407, 0.0]"] ;
250 -> 252 ;
253 [label="fs1c8 <= 1.5\nentropy = 0.858\nsamples = 41\nvalue = [33.152, 13.034, 0.0]"] ;
181 -> 253 ;
254 [label="fs1c7 <= 1.5\nentropy = 0.732\nsamples = 30\nvalue = [33.152, 8.554, 0.0]"] ;
253 -> 254 ;
255 [label="fs1d1z <= 1.5\nentropy = 0.949\nsamples = 25\nvalue = [14.734, 8.554, 0.0]"] ;
254 -> 255 ;
256 [label="fs1ct7z1 <= 125.0\nentropy = 0.754\nsamples = 14\nvalue = [14.734, 4.073, 0.0]"] ;
255 -> 256 ;
257 [label="entropy = 0.0\nsamples = 5\nvalue = [0.0, 2.037, 0.0]"] ;
256 -> 257 ;
258 [label="fs1a7 <= 4.5\nentropy = 0.533\nsamples = 9\nvalue = [14.734, 2.037, 0.0]"] ;
256 -> 258 ;
259 [label="entropy = 0.0\nsamples = 2\nvalue = [0.0, 0.815, 0.0]"] ;
258 -> 259 ;
260 [label="age <= 59.0\nentropy = 0.39\nsamples = 7\nvalue = [14.734, 1.222, 0.0]"] ;
258 -> 260 ;
261 [label="fs1c309 <= 1.5\nentropy = 0.179\nsamples = 5\nvalue = [14.734, 0.407, 0.0]"] ;
260 -> 261 ;
262 [label="entropy = -0.0\nsamples = 4\nvalue = [14.734, 0.0, 0.0]"] ;
261 -> 262 ;
263 [label="entropy = 0.0\nsamples = 1\nvalue = [0.0, 0.407, 0.0]"] ;
261 -> 263 ;
264 [label="fs1a6a <= 1.5\nentropy = 0.0\nsamples = 2\nvalue = [0.0, 0.815, 0.0]"] ;
260 -> 264 ;
265 [label="entropy = 0.0\nsamples = 1\nvalue = [0.0, 0.407, 0.0]"] ;
264 -> 265 ;
266 [label="entropy = 0.0\nsamples = 1\nvalue = [0.0, 0.407, 0.0]"] ;
264 -> 266 ;
267 [label="entropy = -0.0\nsamples = 11\nvalue = [0.0, 4.481, 0.0]"] ;
255 -> 267 ;
268 [label="entropy = 0.0\nsamples = 5\nvalue = [18.418, 0.0, 0.0]"] ;
254 -> 268 ;
269 [label="entropy = -0.0\nsamples = 11\nvalue = [0.0, 4.481, 0.0]"] ;
253 -> 269 ;
270 [label="fs1d3 <= 1.5\nentropy = 0.08\nsamples = 12\nvalue = [40.519, 0.407, 0.0]"] ;
180 -> 270 ;
271 [label="entropy = 0.0\nsamples = 11\nvalue = [40.519, 0.0, 0.0]"] ;
270 -> 271 ;
272 [label="entropy = -0.0\nsamples = 1\nvalue = [0.0, 0.407, 0.0]"] ;
270 -> 272 ;
273 [label="fs1ct7z1 <= 129.0\nentropy = 0.997\nsamples = 18\nvalue = [7.367, 6.517, 0.0]"] ;
179 -> 273 ;
274 [label="entropy = 0.0\nsamples = 8\nvalue = [0.0, 3.259, 0.0]"] ;
273 -> 274 ;
275 [label="fs1a6c <= 3.5\nentropy = 0.889\nsamples = 10\nvalue = [7.367, 3.259, 0.0]"] ;
273 -> 275 ;
276 [label="entropy = 0.0\nsamples = 5\nvalue = [0.0, 2.037, 0.0]"] ;
275 -> 276 ;
277 [label="fs1a1 <= 2.0\nentropy = 0.59\nsamples = 5\nvalue = [7.367, 1.222, 0.0]"] ;
275 -> 277 ;
278 [label="entropy = 0.0\nsamples = 2\nvalue = [0.0, 0.815, 0.0]"] ;
277 -> 278 ;
279 [label="age <= 58.0\nentropy = 0.296\nsamples = 3\nvalue = [7.367, 0.407, 0.0]"] ;
277 -> 279 ;
280 [label="entropy = 0.0\nsamples = 1\nvalue = [0.0, 0.407, 0.0]"] ;
279 -> 280 ;
281 [label="entropy = 0.0\nsamples = 2\nvalue = [7.367, 0.0, 0.0]"] ;
279 -> 281 ;
282 [label="entropy = -0.0\nsamples = 11\nvalue = [0.0, 4.481, 0.0]"] ;
178 -> 282 ;
283 [label="fs1ct7y1 <= 123.5\nentropy = 1.363\nsamples = 174\nvalue = [25.785, 65.986, 18.285]"] ;
1 -> 283 ;
284 [label="fs1a1 <= 2.5\nentropy = 1.125\nsamples = 117\nvalue = [3.684, 45.212, 18.285]"] ;
283 -> 284 ;
285 [label="fs1e7 <= 1.5\nentropy = 0.55\nsamples = 63\nvalue = [3.684, 25.254, 0.0]"] ;
284 -> 285 ;
286 [label="entropy = -0.0\nsamples = 57\nvalue = [0.0, 23.217, 0.0]"] ;
285 -> 286 ;
287 [label="fs1e5 <= 1.5\nentropy = 0.939\nsamples = 6\nvalue = [3.684, 2.037, 0.0]"] ;
285 -> 287 ;
288 [label="fs1ct5b <= 1.5\nentropy = 0.0\nsamples = 4\nvalue = [0.0, 1.629, 0.0]"] ;
287 -> 288 ;
289 [label="entropy = 0.0\nsamples = 2\nvalue = [0.0, 0.815, 0.0]"] ;
288 -> 289 ;
290 [label="entropy = 0.0\nsamples = 2\nvalue = [0.0, 0.815, 0.0]"] ;
288 -> 290 ;
291 [label="fs1ct5b <= 1.5\nentropy = 0.468\nsamples = 2\nvalue = [3.684, 0.407, 0.0]"] ;
287 -> 291 ;
292 [label="entropy = 0.0\nsamples = 1\nvalue = [0.0, 0.407, 0.0]"] ;
291 -> 292 ;
293 [label="entropy = -0.0\nsamples = 1\nvalue = [3.684, 0.0, 0.0]"] ;
291 -> 293 ;
294 [label="fs1d1z <= 1.5\nentropy = 0.999\nsamples = 54\nvalue = [0.0, 19.959, 18.285]"] ;
284 -> 294 ;
295 [label="entropy = 0.0\nsamples = 22\nvalue = [0.0, 8.961, 0.0]"] ;
294 -> 295 ;
296 [label="fs1a2b <= 1.5\nentropy = 0.955\nsamples = 32\nvalue = [0.0, 10.998, 18.285]"] ;
294 -> 296 ;
297 [label="fs1ct7y1 <= 97.5\nentropy = 0.223\nsamples = 4\nvalue = [0.0, 0.407, 10.971]"] ;
296 -> 297 ;
298 [label="entropy = 0.0\nsamples = 1\nvalue = [0.0, 0.407, 0.0]"] ;
297 -> 298 ;
299 [label="entropy = -0.0\nsamples = 3\nvalue = [0.0, 0.0, 10.971]"] ;
297 -> 299 ;
300 [label="age <= 57.5\nentropy = 0.976\nsamples = 28\nvalue = [0.0, 10.59, 7.314]"] ;
296 -> 300 ;
301 [label="fs1a7 <= 4.5\nentropy = 0.592\nsamples = 5\nvalue = [0.0, 1.222, 7.314]"] ;
300 -> 301 ;
302 [label="fs1e3 <= 1.5\nentropy = 0.0\nsamples = 3\nvalue = [0.0, 1.222, 0.0]"] ;
301 -> 302 ;
303 [label="entropy = 0.0\nsamples = 2\nvalue = [0.0, 0.815, 0.0]"] ;
302 -> 303 ;
304 [label="entropy = 0.0\nsamples = 1\nvalue = [0.0, 0.407, 0.0]"] ;
302 -> 304 ;
305 [label="entropy = -0.0\nsamples = 2\nvalue = [0.0, 0.0, 7.314]"] ;
301 -> 305 ;
306 [label="entropy = -0.0\nsamples = 23\nvalue = [0.0, 9.368, 0.0]"] ;
300 -> 306 ;
307 [label="age <= 54.0\nentropy = 0.999\nsamples = 57\nvalue = [22.101, 20.773, 0.0]"] ;
283 -> 307 ;
308 [label="fs1a3a <= 1.5\nentropy = 0.732\nsamples = 20\nvalue = [22.101, 5.702, 0.0]"] ;
307 -> 308 ;
309 [label="fs1d1z <= 1.5\nentropy = 0.513\nsamples = 13\nvalue = [22.101, 2.851, 0.0]"] ;
308 -> 309 ;
310 [label="fs1a5 <= 1.5\nentropy = 0.361\nsamples = 10\nvalue = [22.101, 1.629, 0.0]"] ;
309 -> 310 ;
311 [label="entropy = 0.0\nsamples = 4\nvalue = [14.734, 0.0, 0.0]"] ;
310 -> 311 ;
312 [label="fs1d1y <= 1.5\nentropy = 0.682\nsamples = 6\nvalue = [7.367, 1.629, 0.0]"] ;
310 -> 312 ;
313 [label="fs1e4 <= 1.5\nentropy = 0.296\nsamples = 3\nvalue = [7.367, 0.407, 0.0]"] ;
312 -> 313 ;
314 [label="entropy = 0.0\nsamples = 2\nvalue = [7.367, 0.0, 0.0]"] ;
313 -> 314 ;
315 [label="entropy = -0.0\nsamples = 1\nvalue = [0.0, 0.407, 0.0]"] ;
313 -> 315 ;
316 [label="fs1a2a <= 2.5\nentropy = 0.0\nsamples = 3\nvalue = [0.0, 1.222, 0.0]"] ;
312 -> 316 ;
317 [label="entropy = 0.0\nsamples = 1\nvalue = [0.0, 0.407, 0.0]"] ;
316 -> 317 ;
318 [label="entropy = 0.0\nsamples = 2\nvalue = [0.0, 0.815, 0.0]"] ;
316 -> 318 ;
319 [label="entropy = -0.0\nsamples = 3\nvalue = [0.0, 1.222, 0.0]"] ;
309 -> 319 ;
320 [label="entropy = -0.0\nsamples = 7\nvalue = [0.0, 2.851, 0.0]"] ;
308 -> 320 ;
321 [label="entropy = -0.0\nsamples = 37\nvalue = [0.0, 15.071, 0.0]"] ;
307 -> 321 ;
322 [label="fs1d1a2 <= 1.5\nentropy = 1.304\nsamples = 852\nvalue = [77.355, 284.308, 486.391]"] ;
0 -> 322 [labeldistance=2.5, labelangle=-45, headlabel="False"] ;
323 [label="fs1a7 <= 3.5\nentropy = 1.487\nsamples = 507\nvalue = [69.988, 181.664, 153.597]"] ;
322 -> 323 ;
324 [label="fs1ct7y1 <= 121.0\nentropy = 1.162\nsamples = 227\nvalue = [7.367, 78.612, 117.026]"] ;
323 -> 324 ;
325 [label="age <= 75.5\nentropy = 0.846\nsamples = 105\nvalue = [0.0, 32.993, 87.77]"] ;
324 -> 325 ;
326 [label="fs1a3a <= 1.5\nentropy = 0.786\nsamples = 90\nvalue = [0.0, 26.883, 87.77]"] ;
325 -> 326 ;
327 [label="fs1b5 <= 2.5\nentropy = 0.856\nsamples = 24\nvalue = [0.0, 9.368, 3.657]"] ;
326 -> 327 ;
328 [label="entropy = 0.0\nsamples = 23\nvalue = [0.0, 9.368, 0.0]"] ;
327 -> 328 ;
329 [label="entropy = -0.0\nsamples = 1\nvalue = [0.0, 0.0, 3.657]"] ;
327 -> 329 ;
330 [label="fs1ct6y2 <= 4.5\nentropy = 0.663\nsamples = 66\nvalue = [0.0, 17.515, 84.113]"] ;
326 -> 330 ;
331 [label="entropy = 0.0\nsamples = 5\nvalue = [0.0, 0.0, 18.285]"] ;
330 -> 331 ;
332 [label="fs1a5 <= 4.5\nentropy = 0.742\nsamples = 61\nvalue = [0.0, 17.515, 65.827]"] ;
330 -> 332 ;
333 [label="fs1c1y <= 1.5\nentropy = 0.84\nsamples = 56\nvalue = [0.0, 17.515, 47.542]"] ;
332 -> 333 ;
334 [label="fs1d1z <= 1.5\nentropy = 0.709\nsamples = 41\nvalue = [0.0, 11.405, 47.542]"] ;
333 -> 334 ;
335 [label="entropy = 0.0\nsamples = 4\nvalue = [0.0, 1.629, 0.0]"] ;
334 -> 335 ;
336 [label="fs1a4b <= 1.5\nentropy = 0.659\nsamples = 37\nvalue = [0.0, 9.776, 47.542]"] ;
334 -> 336 ;
337 [label="fs1a6c <= 4.5\nentropy = 1.0\nsamples = 10\nvalue = [0.0, 3.666, 3.657]"] ;
336 -> 337 ;
338 [label="fs1e2 <= 1.5\nentropy = 0.0\nsamples = 9\nvalue = [0.0, 3.666, 0.0]"] ;
337 -> 338 ;
339 [label="entropy = 0.0\nsamples = 7\nvalue = [0.0, 2.851, 0.0]"] ;
338 -> 339 ;
340 [label="entropy = 0.0\nsamples = 2\nvalue = [0.0, 0.815, 0.0]"] ;
338 -> 340 ;
341 [label="entropy = 0.0\nsamples = 1\nvalue = [0.0, 0.0, 3.657]"] ;
337 -> 341 ;
342 [label="fs1b2 <= 1.5\nentropy = 0.536\nsamples = 27\nvalue = [0.0, 6.11, 43.885]"] ;
336 -> 342 ;
343 [label="fs1e4 <= 1.5\nentropy = 0.707\nsamples = 22\nvalue = [0.0, 6.11, 25.6]"] ;
342 -> 343 ;
344 [label="fs1ct7z1 <= 125.0\nentropy = 0.998\nsamples = 11\nvalue = [0.0, 4.073, 3.657]"] ;
343 -> 344 ;
345 [label="fs1ct7y1 <= 105.0\nentropy = 0.0\nsamples = 10\nvalue = [0.0, 4.073, 0.0]"] ;
344 -> 345 ;
346 [label="entropy = 0.0\nsamples = 3\nvalue = [0.0, 1.222, 0.0]"] ;
345 -> 346 ;
347 [label="entropy = 0.0\nsamples = 7\nvalue = [0.0, 2.851, 0.0]"] ;
345 -> 347 ;
348 [label="entropy = -0.0\nsamples = 1\nvalue = [0.0, 0.0, 3.657]"] ;
344 -> 348 ;
349 [label="fs1a6b <= 1.5\nentropy = 0.419\nsamples = 11\nvalue = [0.0, 2.037, 21.942]"] ;
343 -> 349 ;
350 [label="entropy = 0.0\nsamples = 2\nvalue = [0.0, 0.815, 0.0]"] ;
349 -> 350 ;
351 [label="age <= 65.5\nentropy = 0.298\nsamples = 9\nvalue = [0.0, 1.222, 21.942]"] ;
349 -> 351 ;
352 [label="fs1ct6z1 <= 4.969\nentropy = 0.592\nsamples = 5\nvalue = [0.0, 1.222, 7.314]"] ;
351 -> 352 ;
353 [label="entropy = 0.0\nsamples = 2\nvalue = [0.0, 0.0, 7.314]"] ;
352 -> 353 ;
354 [label="fs1ct7z1 <= 105.0\nentropy = 0.0\nsamples = 3\nvalue = [0.0, 1.222, 0.0]"] ;
352 -> 354 ;
355 [label="entropy = 0.0\nsamples = 1\nvalue = [0.0, 0.407, 0.0]"] ;
354 -> 355 ;
356 [label="entropy = 0.0\nsamples = 2\nvalue = [0.0, 0.815, 0.0]"] ;
354 -> 356 ;
357 [label="entropy = 0.0\nsamples = 4\nvalue = [0.0, 0.0, 14.628]"] ;
351 -> 357 ;
358 [label="entropy = 0.0\nsamples = 5\nvalue = [0.0, 0.0, 18.285]"] ;
342 -> 358 ;
359 [label="entropy = -0.0\nsamples = 15\nvalue = [0.0, 6.11, 0.0]"] ;
333 -> 359 ;
360 [label="entropy = -0.0\nsamples = 5\nvalue = [0.0, 0.0, 18.285]"] ;
332 -> 360 ;
361 [label="entropy = 0.0\nsamples = 15\nvalue = [0.0, 6.11, 0.0]"] ;
325 -> 361 ;
362 [label="fs1c7 <= 1.5\nentropy = 1.314\nsamples = 122\nvalue = [7.367, 45.62, 29.257]"] ;
324 -> 362 ;
363 [label="fs1ct6y2 <= 4.5\nentropy = 1.265\nsamples = 52\nvalue = [7.367, 19.959, 3.657]"] ;
362 -> 363 ;
364 [label="fs1a6a <= 3.5\nentropy = 0.685\nsamples = 3\nvalue = [0.0, 0.815, 3.657]"] ;
363 -> 364 ;
365 [label="fs1a1 <= 3.5\nentropy = 0.0\nsamples = 2\nvalue = [0.0, 0.815, 0.0]"] ;
364 -> 365 ;
366 [label="entropy = 0.0\nsamples = 1\nvalue = [0.0, 0.407, 0.0]"] ;
365 -> 366 ;
367 [label="entropy = 0.0\nsamples = 1\nvalue = [0.0, 0.407, 0.0]"] ;
365 -> 367 ;
368 [label="entropy = 0.0\nsamples = 1\nvalue = [0.0, 0.0, 3.657]"] ;
364 -> 368 ;
369 [label="age <= 65.5\nentropy = 0.853\nsamples = 49\nvalue = [7.367, 19.144, 0.0]"] ;
363 -> 369 ;
370 [label="entropy = -0.0\nsamples = 34\nvalue = [0.0, 13.849, 0.0]"] ;
369 -> 370 ;
371 [label="fs1d2y <= 1.5\nentropy = 0.981\nsamples = 15\nvalue = [7.367, 5.295, 0.0]"] ;
369 -> 371 ;
372 [label="entropy = 0.0\nsamples = 9\nvalue = [0.0, 3.666, 0.0]"] ;
371 -> 372 ;
373 [label="fs1a2a <= 2.5\nentropy = 0.682\nsamples = 6\nvalue = [7.367, 1.629, 0.0]"] ;
371 -> 373 ;
374 [label="fs1ct4a <= 1.5\nentropy = 0.296\nsamples = 3\nvalue = [7.367, 0.407, 0.0]"] ;
373 -> 374 ;
375 [label="entropy = 0.0\nsamples = 1\nvalue = [0.0, 0.407, 0.0]"] ;
374 -> 375 ;
376 [label="entropy = 0.0\nsamples = 2\nvalue = [7.367, 0.0, 0.0]"] ;
374 -> 376 ;
377 [label="entropy = -0.0\nsamples = 3\nvalue = [0.0, 1.222, 0.0]"] ;
373 -> 377 ;
378 [label="fs1d2z <= 1.5\nentropy = 1.0\nsamples = 70\nvalue = [0.0, 25.661, 25.6]"] ;
362 -> 378 ;
379 [label="entropy = 0.0\nsamples = 22\nvalue = [0.0, 8.961, 0.0]"] ;
378 -> 379 ;
380 [label="fs1ct7z1 <= 129.0\nentropy = 0.968\nsamples = 48\nvalue = [0.0, 16.7, 25.6]"] ;
378 -> 380 ;
381 [label="entropy = 0.0\nsamples = 13\nvalue = [0.0, 5.295, 0.0]"] ;
380 -> 381 ;
382 [label="fs1ct7z1 <= 138.5\nentropy = 0.891\nsamples = 35\nvalue = [0.0, 11.405, 25.6]"] ;
380 -> 382 ;
383 [label="fs1c2b <= 1.5\nentropy = 0.812\nsamples = 28\nvalue = [0.0, 8.554, 25.6]"] ;
382 -> 383 ;
384 [label="age <= 71.5\nentropy = 0.728\nsamples = 23\nvalue = [0.0, 6.517, 25.6]"] ;
383 -> 384 ;
385 [label="fs1b1 <= 2.0\nentropy = 0.635\nsamples = 19\nvalue = [0.0, 4.888, 25.6]"] ;
384 -> 385 ;
386 [label="fs1b8 <= 2.5\nentropy = 0.544\nsamples = 16\nvalue = [0.0, 3.666, 25.6]"] ;
385 -> 386 ;
387 [label="fs1e9 <= 1.5\nentropy = 0.723\nsamples = 13\nvalue = [0.0, 3.666, 14.628]"] ;
386 -> 387 ;
388 [label="fs1a3a <= 1.5\nentropy = 0.0\nsamples = 7\nvalue = [0.0, 2.851, 0.0]"] ;
387 -> 388 ;
389 [label="entropy = 0.0\nsamples = 2\nvalue = [0.0, 0.815, 0.0]"] ;
388 -> 389 ;
390 [label="entropy = 0.0\nsamples = 5\nvalue = [0.0, 2.037, 0.0]"] ;
388 -> 390 ;
391 [label="fs1a6c <= 2.5\nentropy = 0.298\nsamples = 6\nvalue = [0.0, 0.815, 14.628]"] ;
387 -> 391 ;
392 [label="entropy = 0.0\nsamples = 2\nvalue = [0.0, 0.815, 0.0]"] ;
391 -> 392 ;
393 [label="entropy = -0.0\nsamples = 4\nvalue = [0.0, 0.0, 14.628]"] ;
391 -> 393 ;
394 [label="entropy = 0.0\nsamples = 3\nvalue = [0.0, 0.0, 10.971]"] ;
386 -> 394 ;
395 [label="entropy = -0.0\nsamples = 3\nvalue = [0.0, 1.222, 0.0]"] ;
385 -> 395 ;
396 [label="entropy = -0.0\nsamples = 4\nvalue = [0.0, 1.629, 0.0]"] ;
384 -> 396 ;
397 [label="entropy = -0.0\nsamples = 5\nvalue = [0.0, 2.037, 0.0]"] ;
383 -> 397 ;
398 [label="entropy = -0.0\nsamples = 7\nvalue = [0.0, 2.851, 0.0]"] ;
382 -> 398 ;
399 [label="fs1ct5a <= 1.5\nentropy = 1.466\nsamples = 280\nvalue = [62.621, 103.052, 36.571]"] ;
323 -> 399 ;
400 [label="fs1a3b <= 1.5\nentropy = 1.452\nsamples = 96\nvalue = [11.051, 34.622, 29.257]"] ;
399 -> 400 ;
401 [label="fs1a2b <= 2.5\nentropy = 0.995\nsamples = 35\nvalue = [11.051, 13.034, 0.0]"] ;
400 -> 401 ;
402 [label="fs1ct7y1 <= 105.0\nentropy = 0.0\nsamples = 23\nvalue = [0.0, 9.368, 0.0]"] ;
401 -> 402 ;
403 [label="entropy = 0.0\nsamples = 2\nvalue = [0.0, 0.815, 0.0]"] ;
402 -> 403 ;
404 [label="entropy = 0.0\nsamples = 21\nvalue = [0.0, 8.554, 0.0]"] ;
402 -> 404 ;
405 [label="fs1a6a <= 1.5\nentropy = 0.81\nsamples = 12\nvalue = [11.051, 3.666, 0.0]"] ;
401 -> 405 ;
406 [label="fs1a2a <= 2.5\nentropy = 0.361\nsamples = 5\nvalue = [11.051, 0.815, 0.0]"] ;
405 -> 406 ;
407 [label="entropy = 0.0\nsamples = 1\nvalue = [0.0, 0.407, 0.0]"] ;
406 -> 407 ;
408 [label="fs1ct7y1 <= 139.0\nentropy = 0.221\nsamples = 4\nvalue = [11.051, 0.407, 0.0]"] ;
406 -> 408 ;
409 [label="entropy = 0.0\nsamples = 3\nvalue = [11.051, 0.0, 0.0]"] ;
408 -> 409 ;
410 [label="entropy = 0.0\nsamples = 1\nvalue = [0.0, 0.407, 0.0]"] ;
408 -> 410 ;
411 [label="fs1a7 <= 4.5\nentropy = 0.0\nsamples = 7\nvalue = [0.0, 2.851, 0.0]"] ;
405 -> 411 ;
412 [label="entropy = 0.0\nsamples = 3\nvalue = [0.0, 1.222, 0.0]"] ;
411 -> 412 ;
413 [label="entropy = 0.0\nsamples = 4\nvalue = [0.0, 1.629, 0.0]"] ;
411 -> 413 ;
414 [label="fs1a6c <= 3.5\nentropy = 0.984\nsamples = 61\nvalue = [0.0, 21.588, 29.257]"] ;
400 -> 414 ;
415 [label="entropy = 0.0\nsamples = 12\nvalue = [0.0, 4.888, 0.0]"] ;
414 -> 415 ;
416 [label="fs1ct7y1 <= 102.5\nentropy = 0.945\nsamples = 49\nvalue = [0.0, 16.7, 29.257]"] ;
414 -> 416 ;
417 [label="entropy = 0.0\nsamples = 2\nvalue = [0.0, 0.0, 7.314]"] ;
416 -> 417 ;
418 [label="age <= 67.5\nentropy = 0.987\nsamples = 47\nvalue = [0.0, 16.7, 21.942]"] ;
416 -> 418 ;
419 [label="fs1c309 <= 1.5\nentropy = 0.934\nsamples = 35\nvalue = [0.0, 11.812, 21.942]"] ;
418 -> 419 ;
420 [label="age <= 64.5\nentropy = 0.869\nsamples = 28\nvalue = [0.0, 8.961, 21.942]"] ;
419 -> 420 ;
421 [label="fs1ct7y1 <= 129.5\nentropy = 0.989\nsamples = 24\nvalue = [0.0, 8.554, 10.971]"] ;
420 -> 421 ;
422 [label="fs1a7 <= 4.5\nentropy = 0.734\nsamples = 10\nvalue = [0.0, 2.851, 10.971]"] ;
421 -> 422 ;
423 [label="entropy = 0.0\nsamples = 5\nvalue = [0.0, 2.037, 0.0]"] ;
422 -> 423 ;
424 [label="age <= 52.5\nentropy = 0.363\nsamples = 5\nvalue = [0.0, 0.815, 10.971]"] ;
422 -> 424 ;
425 [label="entropy = 0.0\nsamples = 1\nvalue = [0.0, 0.407, 0.0]"] ;
424 -> 425 ;
426 [label="fs1c1y <= 1.5\nentropy = 0.223\nsamples = 4\nvalue = [0.0, 0.407, 10.971]"] ;
424 -> 426 ;
427 [label="entropy = 0.0\nsamples = 3\nvalue = [0.0, 0.0, 10.971]"] ;
426 -> 427 ;
428 [label="entropy = 0.0\nsamples = 1\nvalue = [0.0, 0.407, 0.0]"] ;
426 -> 428 ;
429 [label="entropy = -0.0\nsamples = 14\nvalue = [0.0, 5.702, 0.0]"] ;
421 -> 429 ;
430 [label="fs1a6b <= 1.5\nentropy = 0.223\nsamples = 4\nvalue = [0.0, 0.407, 10.971]"] ;
420 -> 430 ;
431 [label="entropy = 0.0\nsamples = 1\nvalue = [0.0, 0.407, 0.0]"] ;
430 -> 431 ;
432 [label="entropy = 0.0\nsamples = 3\nvalue = [0.0, 0.0, 10.971]"] ;
430 -> 432 ;
433 [label="entropy = -0.0\nsamples = 7\nvalue = [0.0, 2.851, 0.0]"] ;
419 -> 433 ;
434 [label="entropy = -0.0\nsamples = 12\nvalue = [0.0, 4.888, 0.0]"] ;
418 -> 434 ;
435 [label="fs1d1a1 <= 1.5\nentropy = 1.246\nsamples = 184\nvalue = [51.57, 68.429, 7.314]"] ;
399 -> 435 ;
436 [label="fs1ct4a <= 1.5\nentropy = 0.977\nsamples = 168\nvalue = [44.203, 63.542, 0.0]"] ;
435 -> 436 ;
437 [label="entropy = 0.0\nsamples = 35\nvalue = [0.0, 14.256, 0.0]"] ;
436 -> 437 ;
438 [label="fs1d2y <= 1.5\nentropy = 0.998\nsamples = 133\nvalue = [44.203, 49.286, 0.0]"] ;
436 -> 438 ;
439 [label="fs1b9 <= 1.5\nentropy = 0.984\nsamples = 85\nvalue = [40.519, 30.142, 0.0]"] ;
438 -> 439 ;
440 [label="age <= 52.0\nentropy = 0.961\nsamples = 73\nvalue = [40.519, 25.254, 0.0]"] ;
439 -> 440 ;
441 [label="fs1ct7z1 <= 127.5\nentropy = 0.533\nsamples = 9\nvalue = [14.734, 2.037, 0.0]"] ;
440 -> 441 ;
442 [label="entropy = 0.0\nsamples = 2\nvalue = [0.0, 0.815, 0.0]"] ;
441 -> 442 ;
443 [label="fs1c1z <= 1.5\nentropy = 0.39\nsamples = 7\nvalue = [14.734, 1.222, 0.0]"] ;
441 -> 443 ;
444 [label="fs1d1z <= 1.5\nentropy = 0.296\nsamples = 6\nvalue = [14.734, 0.815, 0.0]"] ;
443 -> 444 ;
445 [label="fs1a6a <= 2.0\nentropy = 0.682\nsamples = 3\nvalue = [3.684, 0.815, 0.0]"] ;
444 -> 445 ;
446 [label="entropy = 0.0\nsamples = 2\nvalue = [0.0, 0.815, 0.0]"] ;
445 -> 446 ;
447 [label="entropy = 0.0\nsamples = 1\nvalue = [3.684, 0.0, 0.0]"] ;
445 -> 447 ;
448 [label="entropy = -0.0\nsamples = 3\nvalue = [11.051, 0.0, 0.0]"] ;
444 -> 448 ;
449 [label="entropy = 0.0\nsamples = 1\nvalue = [0.0, 0.407, 0.0]"] ;
443 -> 449 ;
450 [label="age <= 59.0\nentropy = 0.998\nsamples = 64\nvalue = [25.785, 23.217, 0.0]"] ;
440 -> 450 ;
451 [label="entropy = 0.0\nsamples = 17\nvalue = [0.0, 6.924, 0.0]"] ;
450 -> 451 ;
452 [label="fs1a4b <= 1.5\nentropy = 0.963\nsamples = 47\nvalue = [25.785, 16.293, 0.0]"] ;
450 -> 452 ;
453 [label="fs1b1 <= 1.5\nentropy = 0.88\nsamples = 34\nvalue = [25.785, 10.998, 0.0]"] ;
452 -> 453 ;
454 [label="age <= 66.5\nentropy = 0.954\nsamples = 32\nvalue = [18.418, 10.998, 0.0]"] ;
453 -> 454 ;
455 [label="entropy = 0.0\nsamples = 9\nvalue = [0.0, 3.666, 0.0]"] ;
454 -> 455 ;
456 [label="fs1a6c <= 4.5\nentropy = 0.862\nsamples = 23\nvalue = [18.418, 7.332, 0.0]"] ;
454 -> 456 ;
457 [label="fs1e9 <= 1.5\nentropy = 0.741\nsamples = 17\nvalue = [18.418, 4.888, 0.0]"] ;
456 -> 457 ;
458 [label="fs1ct5b <= 1.5\nentropy = 0.648\nsamples = 14\nvalue = [18.418, 3.666, 0.0]"] ;
457 -> 458 ;
459 [label="entropy = 0.0\nsamples = 3\nvalue = [0.0, 1.222, 0.0]"] ;
458 -> 459 ;
460 [label="fs1b5 <= 1.5\nentropy = 0.521\nsamples = 11\nvalue = [18.418, 2.444, 0.0]"] ;
458 -> 460 ;
461 [label="fs1ct7z1 <= 115.0\nentropy = 0.682\nsamples = 9\nvalue = [11.051, 2.444, 0.0]"] ;
460 -> 461 ;
462 [label="fs1b4 <= 1.5\nentropy = 0.468\nsamples = 6\nvalue = [11.051, 1.222, 0.0]"] ;
461 -> 462 ;
463 [label="fs1a1 <= 2.5\nentropy = 0.221\nsamples = 4\nvalue = [11.051, 0.407, 0.0]"] ;
462 -> 463 ;
464 [label="fs1d1y <= 1.5\nentropy = 0.468\nsamples = 2\nvalue = [3.684, 0.407, 0.0]"] ;
463 -> 464 ;
465 [label="entropy = 0.0\nsamples = 1\nvalue = [0.0, 0.407, 0.0]"] ;
464 -> 465 ;
466 [label="entropy = -0.0\nsamples = 1\nvalue = [3.684, 0.0, 0.0]"] ;
464 -> 466 ;
467 [label="entropy = 0.0\nsamples = 2\nvalue = [7.367, 0.0, 0.0]"] ;
463 -> 467 ;
468 [label="fs1d2z <= 1.5\nentropy = 0.0\nsamples = 2\nvalue = [0.0, 0.815, 0.0]"] ;
462 -> 468 ;
469 [label="entropy = 0.0\nsamples = 1\nvalue = [0.0, 0.407, 0.0]"] ;
468 -> 469 ;
470 [label="entropy = 0.0\nsamples = 1\nvalue = [0.0, 0.407, 0.0]"] ;
468 -> 470 ;
471 [label="fs1e4 <= 1.5\nentropy = 0.0\nsamples = 3\nvalue = [0.0, 1.222, 0.0]"] ;
461 -> 471 ;
472 [label="entropy = 0.0\nsamples = 1\nvalue = [0.0, 0.407, 0.0]"] ;
471 -> 472 ;
473 [label="entropy = 0.0\nsamples = 2\nvalue = [0.0, 0.815, 0.0]"] ;
471 -> 473 ;
474 [label="entropy = 0.0\nsamples = 2\nvalue = [7.367, 0.0, 0.0]"] ;
460 -> 474 ;
475 [label="entropy = -0.0\nsamples = 3\nvalue = [0.0, 1.222, 0.0]"] ;
457 -> 475 ;
476 [label="entropy = -0.0\nsamples = 6\nvalue = [0.0, 2.444, 0.0]"] ;
456 -> 476 ;
477 [label="entropy = 0.0\nsamples = 2\nvalue = [7.367, 0.0, 0.0]"] ;
453 -> 477 ;
478 [label="entropy = -0.0\nsamples = 13\nvalue = [0.0, 5.295, 0.0]"] ;
452 -> 478 ;
479 [label="entropy = 0.0\nsamples = 12\nvalue = [0.0, 4.888, 0.0]"] ;
439 -> 479 ;
480 [label="fs1a6c <= 2.5\nentropy = 0.638\nsamples = 48\nvalue = [3.684, 19.144, 0.0]"] ;
438 -> 480 ;
481 [label="fs1a6c <= 1.5\nentropy = 0.468\nsamples = 2\nvalue = [3.684, 0.407, 0.0]"] ;
480 -> 481 ;
482 [label="entropy = 0.0\nsamples = 1\nvalue = [0.0, 0.407, 0.0]"] ;
481 -> 482 ;
483 [label="entropy = -0.0\nsamples = 1\nvalue = [3.684, 0.0, 0.0]"] ;
481 -> 483 ;
484 [label="entropy = -0.0\nsamples = 46\nvalue = [0.0, 18.737, 0.0]"] ;
480 -> 484 ;
485 [label="fs1a1 <= 2.5\nentropy = 1.561\nsamples = 16\nvalue = [7.367, 4.888, 7.314]"] ;
435 -> 485 ;
486 [label="fs1a2b <= 2.5\nentropy = 0.468\nsamples = 4\nvalue = [7.367, 0.815, 0.0]"] ;
485 -> 486 ;
487 [label="entropy = 0.0\nsamples = 2\nvalue = [0.0, 0.815, 0.0]"] ;
486 -> 487 ;
488 [label="entropy = -0.0\nsamples = 2\nvalue = [7.367, 0.0, 0.0]"] ;
486 -> 488 ;
489 [label="fs1a3a <= 1.5\nentropy = 0.941\nsamples = 12\nvalue = [0.0, 4.073, 7.314]"] ;
485 -> 489 ;
490 [label="fs1a2a <= 2.5\nentropy = 0.685\nsamples = 6\nvalue = [0.0, 1.629, 7.314]"] ;
489 -> 490 ;
491 [label="entropy = 0.0\nsamples = 2\nvalue = [0.0, 0.0, 7.314]"] ;
490 -> 491 ;
492 [label="fs1a5 <= 3.5\nentropy = 0.0\nsamples = 4\nvalue = [0.0, 1.629, 0.0]"] ;
490 -> 492 ;
493 [label="entropy = 0.0\nsamples = 3\nvalue = [0.0, 1.222, 0.0]"] ;
492 -> 493 ;
494 [label="entropy = 0.0\nsamples = 1\nvalue = [0.0, 0.407, 0.0]"] ;
492 -> 494 ;
495 [label="fs1ct7y1 <= 117.0\nentropy = 0.0\nsamples = 6\nvalue = [0.0, 2.444, 0.0]"] ;
489 -> 495 ;
496 [label="entropy = 0.0\nsamples = 1\nvalue = [0.0, 0.407, 0.0]"] ;
495 -> 496 ;
497 [label="entropy = 0.0\nsamples = 5\nvalue = [0.0, 2.037, 0.0]"] ;
495 -> 497 ;
498 [label="fs1d2y <= 1.5\nentropy = 0.897\nsamples = 345\nvalue = [7.367, 102.644, 332.794]"] ;
322 -> 498 ;
499 [label="fs1b5 <= 1.5\nentropy = 1.43\nsamples = 64\nvalue = [7.367, 22.403, 25.6]"] ;
498 -> 499 ;
500 [label="fs1e1 <= 2.5\nentropy = 1.407\nsamples = 53\nvalue = [7.367, 19.959, 7.314]"] ;
499 -> 500 ;
501 [label="fs1a6b <= 2.5\nentropy = 0.864\nsamples = 47\nvalue = [7.367, 18.329, 0.0]"] ;
500 -> 501 ;
502 [label="fs1ct5b <= 1.5\nentropy = 0.999\nsamples = 19\nvalue = [7.367, 6.924, 0.0]"] ;
501 -> 502 ;
503 [label="fs1c1y <= 2.0\nentropy = 0.0\nsamples = 10\nvalue = [0.0, 4.073, 0.0]"] ;
502 -> 503 ;
504 [label="entropy = 0.0\nsamples = 9\nvalue = [0.0, 3.666, 0.0]"] ;
503 -> 504 ;
505 [label="entropy = 0.0\nsamples = 1\nvalue = [0.0, 0.407, 0.0]"] ;
503 -> 505 ;
506 [label="fs1a3a <= 1.5\nentropy = 0.854\nsamples = 9\nvalue = [7.367, 2.851, 0.0]"] ;
502 -> 506 ;
507 [label="entropy = 0.0\nsamples = 4\nvalue = [0.0, 1.629, 0.0]"] ;
506 -> 507 ;
508 [label="fs1a7 <= 3.5\nentropy = 0.59\nsamples = 5\nvalue = [7.367, 1.222, 0.0]"] ;
506 -> 508 ;
509 [label="fs1b9 <= 1.5\nentropy = 0.0\nsamples = 3\nvalue = [0.0, 1.222, 0.0]"] ;
508 -> 509 ;
510 [label="entropy = 0.0\nsamples = 2\nvalue = [0.0, 0.815, 0.0]"] ;
509 -> 510 ;
511 [label="entropy = 0.0\nsamples = 1\nvalue = [0.0, 0.407, 0.0]"] ;
509 -> 511 ;
512 [label="entropy = 0.0\nsamples = 2\nvalue = [7.367, 0.0, 0.0]"] ;
508 -> 512 ;
513 [label="entropy = -0.0\nsamples = 28\nvalue = [0.0, 11.405, 0.0]"] ;
501 -> 513 ;
514 [label="fs1c7 <= 2.5\nentropy = 0.685\nsamples = 6\nvalue = [0.0, 1.629, 7.314]"] ;
500 -> 514 ;
515 [label="age <= 65.04\nentropy = 0.298\nsamples = 3\nvalue = [0.0, 0.407, 7.314]"] ;
514 -> 515 ;
516 [label="entropy = 0.0\nsamples = 1\nvalue = [0.0, 0.407, 0.0]"] ;
515 -> 516 ;
517 [label="entropy = -0.0\nsamples = 2\nvalue = [0.0, 0.0, 7.314]"] ;
515 -> 517 ;
518 [label="fs1c2b <= 1.5\nentropy = 0.0\nsamples = 3\nvalue = [0.0, 1.222, 0.0]"] ;
514 -> 518 ;
519 [label="entropy = 0.0\nsamples = 2\nvalue = [0.0, 0.815, 0.0]"] ;
518 -> 519 ;
520 [label="entropy = 0.0\nsamples = 1\nvalue = [0.0, 0.407, 0.0]"] ;
518 -> 520 ;
521 [label="fs1a6c <= 3.5\nentropy = 0.523\nsamples = 11\nvalue = [0.0, 2.444, 18.285]"] ;
499 -> 521 ;
522 [label="fs1a2b <= 2.5\nentropy = 0.254\nsamples = 7\nvalue = [0.0, 0.815, 18.285]"] ;
521 -> 522 ;
523 [label="fs1c8 <= 2.5\nentropy = 0.151\nsamples = 6\nvalue = [0.0, 0.407, 18.285]"] ;
522 -> 523 ;
524 [label="entropy = 0.0\nsamples = 5\nvalue = [0.0, 0.0, 18.285]"] ;
523 -> 524 ;
525 [label="entropy = -0.0\nsamples = 1\nvalue = [0.0, 0.407, 0.0]"] ;
523 -> 525 ;
526 [label="entropy = -0.0\nsamples = 1\nvalue = [0.0, 0.407, 0.0]"] ;
522 -> 526 ;
527 [label="entropy = -0.0\nsamples = 4\nvalue = [0.0, 1.629, 0.0]"] ;
521 -> 527 ;
528 [label="fs1a2b <= 1.5\nentropy = 0.736\nsamples = 281\nvalue = [0.0, 80.242, 307.194]"] ;
498 -> 528 ;
529 [label="fs1a2a <= 1.5\nentropy = 0.405\nsamples = 77\nvalue = [0.0, 13.849, 157.254]"] ;
528 -> 529 ;
530 [label="fs1a1 <= 2.5\nentropy = 0.121\nsamples = 23\nvalue = [0.0, 1.222, 73.141]"] ;
529 -> 530 ;
531 [label="entropy = 0.0\nsamples = 2\nvalue = [0.0, 0.815, 0.0]"] ;
530 -> 531 ;
532 [label="fs1a6a <= 1.5\nentropy = 0.049\nsamples = 21\nvalue = [0.0, 0.407, 73.141]"] ;
530 -> 532 ;
533 [label="entropy = 0.0\nsamples = 1\nvalue = [0.0, 0.407, 0.0]"] ;
532 -> 533 ;
534 [label="entropy = 0.0\nsamples = 20\nvalue = [0.0, 0.0, 73.141]"] ;
532 -> 534 ;
535 [label="age <= 51.5\nentropy = 0.559\nsamples = 54\nvalue = [0.0, 12.627, 84.113]"] ;
529 -> 535 ;
536 [label="entropy = 0.0\nsamples = 4\nvalue = [0.0, 1.629, 0.0]"] ;
535 -> 536 ;
537 [label="fs1a1 <= 3.5\nentropy = 0.517\nsamples = 50\nvalue = [0.0, 10.998, 84.113]"] ;
535 -> 537 ;
538 [label="fs1e4 <= 2.5\nentropy = 0.223\nsamples = 16\nvalue = [0.0, 1.629, 43.885]"] ;
537 -> 538 ;
539 [label="fs1a6b <= 3.5\nentropy = 0.18\nsamples = 15\nvalue = [0.0, 1.222, 43.885]"] ;
538 -> 539 ;
540 [label="fs1c309 <= 1.5\nentropy = 0.081\nsamples = 12\nvalue = [0.0, 0.407, 40.228]"] ;
539 -> 540 ;
541 [label="entropy = 0.0\nsamples = 10\nvalue = [0.0, 0.0, 36.571]"] ;
540 -> 541 ;
542 [label="fs1ct6z4 <= 4.5\nentropy = 0.47\nsamples = 2\nvalue = [0.0, 0.407, 3.657]"] ;
540 -> 542 ;
543 [label="entropy = 0.0\nsamples = 1\nvalue = [0.0, 0.0, 3.657]"] ;
542 -> 543 ;
544 [label="entropy = 0.0\nsamples = 1\nvalue = [0.0, 0.407, 0.0]"] ;
542 -> 544 ;
545 [label="fs1ct7y1 <= 135.0\nentropy = 0.685\nsamples = 3\nvalue = [0.0, 0.815, 3.657]"] ;
539 -> 545 ;
546 [label="fs1c8 <= 1.5\nentropy = 0.0\nsamples = 2\nvalue = [0.0, 0.815, 0.0]"] ;
545 -> 546 ;
547 [label="entropy = 0.0\nsamples = 1\nvalue = [0.0, 0.407, 0.0]"] ;
546 -> 547 ;
548 [label="entropy = 0.0\nsamples = 1\nvalue = [0.0, 0.407, 0.0]"] ;
546 -> 548 ;
549 [label="entropy = 0.0\nsamples = 1\nvalue = [0.0, 0.0, 3.657]"] ;
545 -> 549 ;
550 [label="entropy = -0.0\nsamples = 1\nvalue = [0.0, 0.407, 0.0]"] ;
538 -> 550 ;
551 [label="fs1b8 <= 1.5\nentropy = 0.699\nsamples = 34\nvalue = [0.0, 9.368, 40.228]"] ;
537 -> 551 ;
552 [label="fs1d1z <= 1.5\nentropy = 0.541\nsamples = 25\nvalue = [0.0, 5.702, 40.228]"] ;
551 -> 552 ;
553 [label="entropy = 0.0\nsamples = 4\nvalue = [0.0, 1.629, 0.0]"] ;
552 -> 553 ;
554 [label="fs1e5 <= 1.5\nentropy = 0.443\nsamples = 21\nvalue = [0.0, 4.073, 40.228]"] ;
552 -> 554 ;
555 [label="fs1ct5a <= 1.5\nentropy = 0.626\nsamples = 16\nvalue = [0.0, 4.073, 21.942]"] ;
554 -> 555 ;
556 [label="age <= 71.5\nentropy = 0.47\nsamples = 12\nvalue = [0.0, 2.444, 21.942]"] ;
555 -> 556 ;
557 [label="fs1a7 <= 4.5\nentropy = 0.298\nsamples = 9\nvalue = [0.0, 1.222, 21.942]"] ;
556 -> 557 ;
558 [label="fs1d3 <= 1.5\nentropy = 0.131\nsamples = 7\nvalue = [0.0, 0.407, 21.942]"] ;
557 -> 558 ;
559 [label="entropy = 0.0\nsamples = 6\nvalue = [0.0, 0.0, 21.942]"] ;
558 -> 559 ;
560 [label="entropy = -0.0\nsamples = 1\nvalue = [0.0, 0.407, 0.0]"] ;
558 -> 560 ;
561 [label="entropy = -0.0\nsamples = 2\nvalue = [0.0, 0.815, 0.0]"] ;
557 -> 561 ;
562 [label="entropy = -0.0\nsamples = 3\nvalue = [0.0, 1.222, 0.0]"] ;
556 -> 562 ;
563 [label="entropy = -0.0\nsamples = 4\nvalue = [0.0, 1.629, 0.0]"] ;
555 -> 563 ;
564 [label="entropy = 0.0\nsamples = 5\nvalue = [0.0, 0.0, 18.285]"] ;
554 -> 564 ;
565 [label="entropy = -0.0\nsamples = 9\nvalue = [0.0, 3.666, 0.0]"] ;
551 -> 565 ;
566 [label="fs1d1a2 <= 2.5\nentropy = 0.89\nsamples = 204\nvalue = [0.0, 66.393, 149.94]"] ;
528 -> 566 ;
567 [label="fs1e2 <= 1.5\nentropy = 0.976\nsamples = 173\nvalue = [0.0, 60.69, 87.77]"] ;
566 -> 567 ;
568 [label="age <= 74.5\nentropy = 1.0\nsamples = 147\nvalue = [0.0, 53.766, 54.856]"] ;
567 -> 568 ;
569 [label="fs1ct6z1 <= 4.469\nentropy = 0.996\nsamples = 130\nvalue = [0.0, 46.842, 54.856]"] ;
568 -> 569 ;
570 [label="fs1e3 <= 1.5\nentropy = 0.363\nsamples = 5\nvalue = [0.0, 0.815, 10.971]"] ;
569 -> 570 ;
571 [label="entropy = 0.0\nsamples = 2\nvalue = [0.0, 0.815, 0.0]"] ;
570 -> 571 ;
572 [label="entropy = 0.0\nsamples = 3\nvalue = [0.0, 0.0, 10.971]"] ;
570 -> 572 ;
573 [label="fs1ct7y1 <= 111.5\nentropy = 1.0\nsamples = 125\nvalue = [0.0, 46.027, 43.885]"] ;
569 -> 573 ;
574 [label="fs1a3a <= 1.5\nentropy = 0.901\nsamples = 31\nvalue = [0.0, 10.183, 21.942]"] ;
573 -> 574 ;
575 [label="entropy = 0.0\nsamples = 8\nvalue = [0.0, 3.259, 0.0]"] ;
574 -> 575 ;
576 [label="age <= 59.5\nentropy = 0.795\nsamples = 23\nvalue = [0.0, 6.924, 21.942]"] ;
574 -> 576 ;
577 [label="entropy = 0.0\nsamples = 7\nvalue = [0.0, 2.851, 0.0]"] ;
576 -> 577 ;
578 [label="fs1e9 <= 1.5\nentropy = 0.626\nsamples = 16\nvalue = [0.0, 4.073, 21.942]"] ;
576 -> 578 ;
579 [label="fs1a1 <= 2.5\nentropy = 0.47\nsamples = 12\nvalue = [0.0, 2.444, 21.942]"] ;
578 -> 579 ;
580 [label="entropy = 0.0\nsamples = 3\nvalue = [0.0, 1.222, 0.0]"] ;
579 -> 580 ;
581 [label="fs1c8 <= 2.5\nentropy = 0.298\nsamples = 9\nvalue = [0.0, 1.222, 21.942]"] ;
579 -> 581 ;
582 [label="fs1a1 <= 6.5\nentropy = 0.131\nsamples = 7\nvalue = [0.0, 0.407, 21.942]"] ;
581 -> 582 ;
583 [label="entropy = 0.0\nsamples = 6\nvalue = [0.0, 0.0, 21.942]"] ;
582 -> 583 ;
584 [label="entropy = -0.0\nsamples = 1\nvalue = [0.0, 0.407, 0.0]"] ;
582 -> 584 ;
585 [label="entropy = -0.0\nsamples = 2\nvalue = [0.0, 0.815, 0.0]"] ;
581 -> 585 ;
586 [label="entropy = -0.0\nsamples = 4\nvalue = [0.0, 1.629, 0.0]"] ;
578 -> 586 ;
587 [label="fs1ct7z1 <= 136.5\nentropy = 0.958\nsamples = 94\nvalue = [0.0, 35.844, 21.942]"] ;
573 -> 587 ;
588 [label="fs1c1y <= 1.5\nentropy = 0.803\nsamples = 86\nvalue = [0.0, 33.807, 10.971]"] ;
587 -> 588 ;
589 [label="fs1ct6y1 <= 4.5\nentropy = 0.0\nsamples = 54\nvalue = [0.0, 21.995, 0.0]"] ;
588 -> 589 ;
590 [label="entropy = 0.0\nsamples = 1\nvalue = [0.0, 0.407, 0.0]"] ;
589 -> 590 ;
591 [label="entropy = 0.0\nsamples = 53\nvalue = [0.0, 21.588, 0.0]"] ;
589 -> 591 ;
592 [label="fs1c2b <= 1.5\nentropy = 0.999\nsamples = 32\nvalue = [0.0, 11.812, 10.971]"] ;
588 -> 592 ;
593 [label="fs1b2 <= 2.0\nentropy = 0.0\nsamples = 17\nvalue = [0.0, 6.924, 0.0]"] ;
592 -> 593 ;
594 [label="entropy = 0.0\nsamples = 15\nvalue = [0.0, 6.11, 0.0]"] ;
593 -> 594 ;
595 [label="entropy = 0.0\nsamples = 2\nvalue = [0.0, 0.815, 0.0]"] ;
593 -> 595 ;
596 [label="fs1e3 <= 1.5\nentropy = 0.891\nsamples = 15\nvalue = [0.0, 4.888, 10.971]"] ;
592 -> 596 ;
597 [label="fs1a6c <= 3.5\nentropy = 0.734\nsamples = 10\nvalue = [0.0, 2.851, 10.971]"] ;
596 -> 597 ;
598 [label="entropy = 0.0\nsamples = 4\nvalue = [0.0, 1.629, 0.0]"] ;
597 -> 598 ;
599 [label="fs1a7 <= 4.5\nentropy = 0.47\nsamples = 6\nvalue = [0.0, 1.222, 10.971]"] ;
597 -> 599 ;
600 [label="entropy = 0.0\nsamples = 2\nvalue = [0.0, 0.0, 7.314]"] ;
599 -> 600 ;
601 [label="fs1e9 <= 1.5\nentropy = 0.812\nsamples = 4\nvalue = [0.0, 1.222, 3.657]"] ;
599 -> 601 ;
602 [label="fs1a3a <= 1.5\nentropy = 0.0\nsamples = 3\nvalue = [0.0, 1.222, 0.0]"] ;
601 -> 602 ;
603 [label="entropy = 0.0\nsamples = 1\nvalue = [0.0, 0.407, 0.0]"] ;
602 -> 603 ;
604 [label="entropy = 0.0\nsamples = 2\nvalue = [0.0, 0.815, 0.0]"] ;
602 -> 604 ;
605 [label="entropy = 0.0\nsamples = 1\nvalue = [0.0, 0.0, 3.657]"] ;
601 -> 605 ;
606 [label="fs1ct5b <= 1.5\nentropy = 0.0\nsamples = 5\nvalue = [0.0, 2.037, 0.0]"] ;
596 -> 606 ;
607 [label="entropy = 0.0\nsamples = 2\nvalue = [0.0, 0.815, 0.0]"] ;
606 -> 607 ;
608 [label="entropy = 0.0\nsamples = 3\nvalue = [0.0, 1.222, 0.0]"] ;
606 -> 608 ;
609 [label="fs1a6c <= 3.5\nentropy = 0.626\nsamples = 8\nvalue = [0.0, 2.037, 10.971]"] ;
587 -> 609 ;
610 [label="fs1a6a <= 2.5\nentropy = 0.363\nsamples = 5\nvalue = [0.0, 0.815, 10.971]"] ;
609 -> 610 ;
611 [label="entropy = -0.0\nsamples = 3\nvalue = [0.0, 0.0, 10.971]"] ;
610 -> 611 ;
612 [label="fs1a5 <= 3.5\nentropy = 0.0\nsamples = 2\nvalue = [0.0, 0.815, 0.0]"] ;
610 -> 612 ;
613 [label="entropy = 0.0\nsamples = 1\nvalue = [0.0, 0.407, 0.0]"] ;
612 -> 613 ;
614 [label="entropy = 0.0\nsamples = 1\nvalue = [0.0, 0.407, 0.0]"] ;
612 -> 614 ;
615 [label="fs1b5 <= 2.0\nentropy = 0.0\nsamples = 3\nvalue = [0.0, 1.222, 0.0]"] ;
609 -> 615 ;
616 [label="entropy = 0.0\nsamples = 2\nvalue = [0.0, 0.815, 0.0]"] ;
615 -> 616 ;
617 [label="entropy = 0.0\nsamples = 1\nvalue = [0.0, 0.407, 0.0]"] ;
615 -> 617 ;
618 [label="entropy = 0.0\nsamples = 17\nvalue = [0.0, 6.924, 0.0]"] ;
568 -> 618 ;
619 [label="fs1c2b <= 1.5\nentropy = 0.666\nsamples = 26\nvalue = [0.0, 6.924, 32.914]"] ;
567 -> 619 ;
620 [label="fs1a2a <= 2.5\nentropy = 0.47\nsamples = 18\nvalue = [0.0, 3.666, 32.914]"] ;
619 -> 620 ;
621 [label="fs1a1 <= 3.5\nentropy = 0.363\nsamples = 15\nvalue = [0.0, 2.444, 32.914]"] ;
620 -> 621 ;
622 [label="entropy = 0.0\nsamples = 2\nvalue = [0.0, 0.815, 0.0]"] ;
621 -> 622 ;
623 [label="fs1c7 <= 1.5\nentropy = 0.274\nsamples = 13\nvalue = [0.0, 1.629, 32.914]"] ;
621 -> 623 ;
624 [label="fs1ct7z1 <= 132.5\nentropy = 0.812\nsamples = 4\nvalue = [0.0, 1.222, 3.657]"] ;
623 -> 624 ;
625 [label="fs1ct5a <= 1.5\nentropy = 0.0\nsamples = 3\nvalue = [0.0, 1.222, 0.0]"] ;
624 -> 625 ;
626 [label="entropy = 0.0\nsamples = 2\nvalue = [0.0, 0.815, 0.0]"] ;
625 -> 626 ;
627 [label="entropy = 0.0\nsamples = 1\nvalue = [0.0, 0.407, 0.0]"] ;
625 -> 627 ;
628 [label="entropy = 0.0\nsamples = 1\nvalue = [0.0, 0.0, 3.657]"] ;
624 -> 628 ;
629 [label="fs1ct7z1 <= 95.0\nentropy = 0.105\nsamples = 9\nvalue = [0.0, 0.407, 29.257]"] ;
623 -> 629 ;
630 [label="entropy = 0.0\nsamples = 1\nvalue = [0.0, 0.407, 0.0]"] ;
629 -> 630 ;
631 [label="entropy = 0.0\nsamples = 8\nvalue = [0.0, 0.0, 29.257]"] ;
629 -> 631 ;
632 [label="entropy = -0.0\nsamples = 3\nvalue = [0.0, 1.222, 0.0]"] ;
620 -> 632 ;
633 [label="entropy = -0.0\nsamples = 8\nvalue = [0.0, 3.259, 0.0]"] ;
619 -> 633 ;
634 [label="fs1ct7y1 <= 128.5\nentropy = 0.416\nsamples = 31\nvalue = [0.0, 5.702, 62.17]"] ;
566 -> 634 ;
635 [label="age <= 52.5\nentropy = 0.26\nsamples = 24\nvalue = [0.0, 2.851, 62.17]"] ;
634 -> 635 ;
636 [label="entropy = 0.0\nsamples = 5\nvalue = [0.0, 2.037, 0.0]"] ;
635 -> 636 ;
637 [label="fs1d1y <= 6.0\nentropy = 0.1\nsamples = 19\nvalue = [0.0, 0.815, 62.17]"] ;
635 -> 637 ;
638 [label="fs1ct7z1 <= 132.5\nentropy = 0.057\nsamples = 18\nvalue = [0.0, 0.407, 62.17]"] ;
637 -> 638 ;
639 [label="entropy = 0.0\nsamples = 17\nvalue = [0.0, 0.0, 62.17]"] ;
638 -> 639 ;
640 [label="entropy = -0.0\nsamples = 1\nvalue = [0.0, 0.407, 0.0]"] ;
638 -> 640 ;
641 [label="entropy = -0.0\nsamples = 1\nvalue = [0.0, 0.407, 0.0]"] ;
637 -> 641 ;
642 [label="entropy = -0.0\nsamples = 7\nvalue = [0.0, 2.851, 0.0]"] ;
634 -> 642 ;
}