digraph Tree {
node [shape=box, fontname="helvetica"] ;
edge [fontname="helvetica"] ;
0 [label="fs1wc13 <= 1.5\nentropy = 1.533\nsamples = 561\nvalue = [153, 260, 148]"] ;
1 [label="fs1wc3 <= 1.5\nentropy = 1.132\nsamples = 360\nvalue = [153, 198, 9]"] ;
0 -> 1 [labeldistance=2.5, labelangle=45, headlabel="True"] ;
2 [label="fs1wb1 <= 1.5\nentropy = 0.922\nsamples = 199\nvalue = [132, 67, 0]"] ;
1 -> 2 ;
3 [label="fs1wc1 <= 2.5\nentropy = 0.661\nsamples = 140\nvalue = [116, 24, 0]"] ;
2 -> 3 ;
4 [label="fs1wa4 <= 1.5\nentropy = 0.435\nsamples = 123\nvalue = [112, 11, 0]"] ;
3 -> 4 ;
5 [label="fs1a3a <= 1.5\nentropy = 0.178\nsamples = 112\nvalue = [109, 3, 0]"] ;
4 -> 5 ;
6 [label="entropy = 0.0\nsamples = 94\nvalue = [94, 0, 0]"] ;
5 -> 6 ;
7 [label="fs1ct1 <= 162.5\nentropy = 0.65\nsamples = 18\nvalue = [15, 3, 0]"] ;
5 -> 7 ;
8 [label="fs1ct7y1 <= 125.0\nentropy = 0.954\nsamples = 8\nvalue = [5, 3, 0]"] ;
7 -> 8 ;
9 [label="fs1q4 <= 70.5\nentropy = 0.811\nsamples = 4\nvalue = [1, 3, 0]"] ;
8 -> 9 ;
10 [label="entropy = 0.0\nsamples = 3\nvalue = [0, 3, 0]"] ;
9 -> 10 ;
11 [label="entropy = 0.0\nsamples = 1\nvalue = [1, 0, 0]"] ;
9 -> 11 ;
12 [label="entropy = 0.0\nsamples = 4\nvalue = [4, 0, 0]"] ;
8 -> 12 ;
13 [label="entropy = 0.0\nsamples = 10\nvalue = [10, 0, 0]"] ;
7 -> 13 ;
14 [label="fs1d1y <= 1.5\nentropy = 0.845\nsamples = 11\nvalue = [3, 8, 0]"] ;
4 -> 14 ;
15 [label="fs1q4 <= 60.5\nentropy = 0.811\nsamples = 4\nvalue = [3, 1, 0]"] ;
14 -> 15 ;
16 [label="entropy = 0.0\nsamples = 3\nvalue = [3, 0, 0]"] ;
15 -> 16 ;
17 [label="entropy = 0.0\nsamples = 1\nvalue = [0, 1, 0]"] ;
15 -> 17 ;
18 [label="entropy = 0.0\nsamples = 7\nvalue = [0, 7, 0]"] ;
14 -> 18 ;
19 [label="fs1wa1 <= 1.5\nentropy = 0.787\nsamples = 17\nvalue = [4, 13, 0]"] ;
3 -> 19 ;
20 [label="fs1c8 <= 2.5\nentropy = 0.722\nsamples = 5\nvalue = [4, 1, 0]"] ;
19 -> 20 ;
21 [label="entropy = 0.0\nsamples = 4\nvalue = [4, 0, 0]"] ;
20 -> 21 ;
22 [label="entropy = 0.0\nsamples = 1\nvalue = [0, 1, 0]"] ;
20 -> 22 ;
23 [label="entropy = 0.0\nsamples = 12\nvalue = [0, 12, 0]"] ;
19 -> 23 ;
24 [label="fs1wc2 <= 1.5\nentropy = 0.843\nsamples = 59\nvalue = [16, 43, 0]"] ;
2 -> 24 ;
25 [label="fs1a4b <= 1.5\nentropy = 0.845\nsamples = 11\nvalue = [8, 3, 0]"] ;
24 -> 25 ;
26 [label="entropy = 0.0\nsamples = 7\nvalue = [7, 0, 0]"] ;
25 -> 26 ;
27 [label="fs1c7 <= 2.5\nentropy = 0.811\nsamples = 4\nvalue = [1, 3, 0]"] ;
25 -> 27 ;
28 [label="entropy = 0.0\nsamples = 3\nvalue = [0, 3, 0]"] ;
27 -> 28 ;
29 [label="entropy = 0.0\nsamples = 1\nvalue = [1, 0, 0]"] ;
27 -> 29 ;
30 [label="fs1a5 <= 2.5\nentropy = 0.65\nsamples = 48\nvalue = [8, 40, 0]"] ;
24 -> 30 ;
31 [label="fs1e1 <= 1.5\nentropy = 0.904\nsamples = 25\nvalue = [8, 17, 0]"] ;
30 -> 31 ;
32 [label="fs1c307 <= 1.5\nentropy = 0.998\nsamples = 17\nvalue = [8, 9, 0]"] ;
31 -> 32 ;
33 [label="fs1e4 <= 1.5\nentropy = 0.684\nsamples = 11\nvalue = [2, 9, 0]"] ;
32 -> 33 ;
34 [label="entropy = 0.0\nsamples = 8\nvalue = [0, 8, 0]"] ;
33 -> 34 ;
35 [label="fs1q3a <= 1966.0\nentropy = 0.918\nsamples = 3\nvalue = [2, 1, 0]"] ;
33 -> 35 ;
36 [label="entropy = 0.0\nsamples = 1\nvalue = [0, 1, 0]"] ;
35 -> 36 ;
37 [label="entropy = 0.0\nsamples = 2\nvalue = [2, 0, 0]"] ;
35 -> 37 ;
38 [label="entropy = 0.0\nsamples = 6\nvalue = [6, 0, 0]"] ;
32 -> 38 ;
39 [label="entropy = 0.0\nsamples = 8\nvalue = [0, 8, 0]"] ;
31 -> 39 ;
40 [label="entropy = 0.0\nsamples = 23\nvalue = [0, 23, 0]"] ;
30 -> 40 ;
41 [label="fs1wc4 <= 1.5\nentropy = 0.858\nsamples = 161\nvalue = [21, 131, 9]"] ;
1 -> 41 ;
42 [label="fs1wc16 <= 1.5\nentropy = 0.771\nsamples = 93\nvalue = [21, 72, 0]"] ;
41 -> 42 ;
43 [label="fs1wc1 <= 2.5\nentropy = 0.999\nsamples = 25\nvalue = [13, 12, 0]"] ;
42 -> 43 ;
44 [label="fs1b10 <= 1.5\nentropy = 0.934\nsamples = 20\nvalue = [13, 7, 0]"] ;
43 -> 44 ;
45 [label="fs1e9 <= 1.5\nentropy = 0.787\nsamples = 17\nvalue = [13, 4, 0]"] ;
44 -> 45 ;
46 [label="fs1wb1 <= 2.5\nentropy = 0.391\nsamples = 13\nvalue = [12, 1, 0]"] ;
45 -> 46 ;
47 [label="entropy = 0.0\nsamples = 12\nvalue = [12, 0, 0]"] ;
46 -> 47 ;
48 [label="entropy = 0.0\nsamples = 1\nvalue = [0, 1, 0]"] ;
46 -> 48 ;
49 [label="fs1wc1 <= 1.5\nentropy = 0.811\nsamples = 4\nvalue = [1, 3, 0]"] ;
45 -> 49 ;
50 [label="entropy = 0.0\nsamples = 1\nvalue = [1, 0, 0]"] ;
49 -> 50 ;
51 [label="entropy = 0.0\nsamples = 3\nvalue = [0, 3, 0]"] ;
49 -> 51 ;
52 [label="entropy = 0.0\nsamples = 3\nvalue = [0, 3, 0]"] ;
44 -> 52 ;
53 [label="entropy = 0.0\nsamples = 5\nvalue = [0, 5, 0]"] ;
43 -> 53 ;
54 [label="fs1a6c <= 4.5\nentropy = 0.523\nsamples = 68\nvalue = [8, 60, 0]"] ;
42 -> 54 ;
55 [label="fs1q3c <= 4.5\nentropy = 0.31\nsamples = 54\nvalue = [3, 51, 0]"] ;
54 -> 55 ;
56 [label="fs1q2 <= 1.5\nentropy = 0.811\nsamples = 8\nvalue = [2, 6, 0]"] ;
55 -> 56 ;
57 [label="entropy = 0.0\nsamples = 2\nvalue = [2, 0, 0]"] ;
56 -> 57 ;
58 [label="entropy = 0.0\nsamples = 6\nvalue = [0, 6, 0]"] ;
56 -> 58 ;
59 [label="fs1q3c <= 29.5\nentropy = 0.151\nsamples = 46\nvalue = [1, 45, 0]"] ;
55 -> 59 ;
60 [label="entropy = 0.0\nsamples = 43\nvalue = [0, 43, 0]"] ;
59 -> 60 ;
61 [label="fs1a6a <= 1.5\nentropy = 0.918\nsamples = 3\nvalue = [1, 2, 0]"] ;
59 -> 61 ;
62 [label="entropy = 0.0\nsamples = 2\nvalue = [0, 2, 0]"] ;
61 -> 62 ;
63 [label="entropy = 0.0\nsamples = 1\nvalue = [1, 0, 0]"] ;
61 -> 63 ;
64 [label="fs1q3a <= 1962.5\nentropy = 0.94\nsamples = 14\nvalue = [5, 9, 0]"] ;
54 -> 64 ;
65 [label="fs1wa1 <= 1.5\nentropy = 0.991\nsamples = 9\nvalue = [5, 4, 0]"] ;
64 -> 65 ;
66 [label="entropy = 0.0\nsamples = 4\nvalue = [4, 0, 0]"] ;
65 -> 66 ;
67 [label="fs1c5b <= 1.5\nentropy = 0.722\nsamples = 5\nvalue = [1, 4, 0]"] ;
65 -> 67 ;
68 [label="entropy = 0.0\nsamples = 4\nvalue = [0, 4, 0]"] ;
67 -> 68 ;
69 [label="entropy = 0.0\nsamples = 1\nvalue = [1, 0, 0]"] ;
67 -> 69 ;
70 [label="entropy = 0.0\nsamples = 5\nvalue = [0, 5, 0]"] ;
64 -> 70 ;
71 [label="fs1wa5 <= 2.5\nentropy = 0.564\nsamples = 68\nvalue = [0, 59, 9]"] ;
41 -> 71 ;
72 [label="fs1ct7z2 <= 1.5\nentropy = 0.216\nsamples = 58\nvalue = [0, 56, 2]"] ;
71 -> 72 ;
73 [label="entropy = 0.0\nsamples = 55\nvalue = [0, 55, 0]"] ;
72 -> 73 ;
74 [label="fs1c307 <= 1.5\nentropy = 0.918\nsamples = 3\nvalue = [0, 1, 2]"] ;
72 -> 74 ;
75 [label="entropy = 0.0\nsamples = 2\nvalue = [0, 0, 2]"] ;
74 -> 75 ;
76 [label="entropy = 0.0\nsamples = 1\nvalue = [0, 1, 0]"] ;
74 -> 76 ;
77 [label="fs1q4 <= 40.5\nentropy = 0.881\nsamples = 10\nvalue = [0, 3, 7]"] ;
71 -> 77 ;
78 [label="entropy = 0.0\nsamples = 3\nvalue = [0, 3, 0]"] ;
77 -> 78 ;
79 [label="entropy = 0.0\nsamples = 7\nvalue = [0, 0, 7]"] ;
77 -> 79 ;
80 [label="fs1wc14 <= 1.5\nentropy = 0.891\nsamples = 201\nvalue = [0, 62, 139]"] ;
0 -> 80 [labeldistance=2.5, labelangle=-45, headlabel="False"] ;
81 [label="fs1wc3 <= 2.5\nentropy = 0.937\nsamples = 82\nvalue = [0, 53, 29]"] ;
80 -> 81 ;
82 [label="fs1wc4 <= 1.5\nentropy = 0.636\nsamples = 56\nvalue = [0, 47, 9]"] ;
81 -> 82 ;
83 [label="entropy = 0.0\nsamples = 31\nvalue = [0, 31, 0]"] ;
82 -> 83 ;
84 [label="fs1wc7 <= 2.5\nentropy = 0.943\nsamples = 25\nvalue = [0, 16, 9]"] ;
82 -> 84 ;
85 [label="fs1wb1 <= 2.5\nentropy = 0.544\nsamples = 16\nvalue = [0, 14, 2]"] ;
84 -> 85 ;
86 [label="entropy = 0.0\nsamples = 14\nvalue = [0, 14, 0]"] ;
85 -> 86 ;
87 [label="entropy = 0.0\nsamples = 2\nvalue = [0, 0, 2]"] ;
85 -> 87 ;
88 [label="fs1ct1 <= 154.0\nentropy = 0.764\nsamples = 9\nvalue = [0, 2, 7]"] ;
84 -> 88 ;
89 [label="entropy = 0.0\nsamples = 2\nvalue = [0, 2, 0]"] ;
88 -> 89 ;
90 [label="entropy = 0.0\nsamples = 7\nvalue = [0, 0, 7]"] ;
88 -> 90 ;
91 [label="fs1a3a <= 1.5\nentropy = 0.779\nsamples = 26\nvalue = [0, 6, 20]"] ;
81 -> 91 ;
92 [label="fs1q4 <= 62.5\nentropy = 0.971\nsamples = 10\nvalue = [0, 6, 4]"] ;
91 -> 92 ;
93 [label="entropy = 0.0\nsamples = 5\nvalue = [0, 5, 0]"] ;
92 -> 93 ;
94 [label="fs1c307 <= 1.5\nentropy = 0.722\nsamples = 5\nvalue = [0, 1, 4]"] ;
92 -> 94 ;
95 [label="entropy = 0.0\nsamples = 4\nvalue = [0, 0, 4]"] ;
94 -> 95 ;
96 [label="entropy = 0.0\nsamples = 1\nvalue = [0, 1, 0]"] ;
94 -> 96 ;
97 [label="entropy = 0.0\nsamples = 16\nvalue = [0, 0, 16]"] ;
91 -> 97 ;
98 [label="fs1wc2 <= 2.5\nentropy = 0.387\nsamples = 119\nvalue = [0, 9, 110]"] ;
80 -> 98 ;
99 [label="center <= 2.5\nentropy = 0.997\nsamples = 15\nvalue = [0, 7, 8]"] ;
98 -> 99 ;
100 [label="entropy = 0.0\nsamples = 5\nvalue = [0, 0, 5]"] ;
99 -> 100 ;
101 [label="fs1wa5 <= 2.5\nentropy = 0.881\nsamples = 10\nvalue = [0, 7, 3]"] ;
99 -> 101 ;
102 [label="fs1b10 <= 2.5\nentropy = 0.544\nsamples = 8\nvalue = [0, 7, 1]"] ;
101 -> 102 ;
103 [label="entropy = 0.0\nsamples = 7\nvalue = [0, 7, 0]"] ;
102 -> 103 ;
104 [label="entropy = 0.0\nsamples = 1\nvalue = [0, 0, 1]"] ;
102 -> 104 ;
105 [label="entropy = 0.0\nsamples = 2\nvalue = [0, 0, 2]"] ;
101 -> 105 ;
106 [label="fs1wc17 <= 1.5\nentropy = 0.137\nsamples = 104\nvalue = [0, 2, 102]"] ;
98 -> 106 ;
107 [label="fs1q4 <= 67.5\nentropy = 1.0\nsamples = 4\nvalue = [0, 2, 2]"] ;
106 -> 107 ;
108 [label="entropy = 0.0\nsamples = 2\nvalue = [0, 0, 2]"] ;
107 -> 108 ;
109 [label="entropy = 0.0\nsamples = 2\nvalue = [0, 2, 0]"] ;
107 -> 109 ;
110 [label="entropy = 0.0\nsamples = 100\nvalue = [0, 0, 100]"] ;
106 -> 110 ;
}