digraph Tree {
node [shape=box, fontname="helvetica"] ;
edge [fontname="helvetica"] ;
0 [label="fs1a5 <= 2.5\nentropy = 1.585\nsamples = 1525\nvalue = [508.333, 508.333, 508.333]"] ;
1 [label="fs1a2b <= 2.5\nentropy = 1.205\nsamples = 666\nvalue = [416.551, 220.979, 41.216]"] ;
0 -> 1 [labeldistance=2.5, labelangle=45, headlabel="True"] ;
2 [label="fs1d2z <= 1.5\nentropy = 1.411\nsamples = 421\nvalue = [148.264, 151.304, 41.216]"] ;
1 -> 2 ;
3 [label="fs1ct6y4 <= 4.5\nentropy = 1.192\nsamples = 292\nvalue = [137.674, 103.068, 10.304]"] ;
2 -> 3 ;
4 [label="fs1a6c <= 4.5\nentropy = 0.779\nsamples = 7\nvalue = [0.0, 2.061, 6.869]"] ;
3 -> 4 ;
5 [label="entropy = 0.0\nsamples = 5\nvalue = [0.0, 2.061, 0.0]"] ;
4 -> 5 ;
6 [label="entropy = 0.0\nsamples = 2\nvalue = [0.0, 0.0, 6.869]"] ;
4 -> 6 ;
7 [label="fs1a4b <= 1.5\nentropy = 1.076\nsamples = 285\nvalue = [137.674, 101.007, 3.435]"] ;
3 -> 7 ;
8 [label="fs1b4 <= 1.5\nentropy = 1.055\nsamples = 232\nvalue = [134.144, 79.569, 3.435]"] ;
7 -> 8 ;
9 [label="fs1ct7z1 <= 131.0\nentropy = 1.034\nsamples = 209\nvalue = [134.144, 70.087, 3.435]"] ;
8 -> 9 ;
10 [label="fs1a3a <= 1.5\nentropy = 0.919\nsamples = 180\nvalue = [120.023, 60.192, 0.0]"] ;
9 -> 10 ;
11 [label="age <= 59.5\nentropy = 0.875\nsamples = 151\nvalue = [116.493, 48.648, 0.0]"] ;
10 -> 11 ;
12 [label="age <= 44.5\nentropy = 0.664\nsamples = 53\nvalue = [67.072, 14.017, 0.0]"] ;
11 -> 12 ;
13 [label="entropy = 0.0\nsamples = 6\nvalue = [0.0, 2.474, 0.0]"] ;
12 -> 13 ;
14 [label="fs1d1y <= 1.5\nentropy = 0.602\nsamples = 47\nvalue = [67.072, 11.544, 0.0]"] ;
12 -> 14 ;
15 [label="fs1a6c <= 4.5\nentropy = 0.404\nsamples = 21\nvalue = [42.361, 3.71, 0.0]"] ;
14 -> 15 ;
16 [label="fs1e9 <= 2.5\nentropy = 0.288\nsamples = 16\nvalue = [38.831, 2.061, 0.0]"] ;
15 -> 16 ;
17 [label="fs1a5 <= 1.5\nentropy = 0.246\nsamples = 15\nvalue = [38.831, 1.649, 0.0]"] ;
16 -> 17 ;
18 [label="fs1c1z <= 1.5\nentropy = 0.7\nsamples = 3\nvalue = [3.53, 0.825, 0.0]"] ;
17 -> 18 ;
19 [label="fs1e1 <= 1.5\nentropy = 0.0\nsamples = 2\nvalue = [0.0, 0.825, 0.0]"] ;
18 -> 19 ;
20 [label="entropy = 0.0\nsamples = 1\nvalue = [0.0, 0.412, 0.0]"] ;
19 -> 20 ;
21 [label="entropy = 0.0\nsamples = 1\nvalue = [0.0, 0.412, 0.0]"] ;
19 -> 21 ;
22 [label="entropy = 0.0\nsamples = 1\nvalue = [3.53, 0.0, 0.0]"] ;
18 -> 22 ;
23 [label="fs1ct7y1 <= 122.5\nentropy = 0.157\nsamples = 12\nvalue = [35.301, 0.825, 0.0]"] ;
17 -> 23 ;
24 [label="entropy = 0.0\nsamples = 8\nvalue = [28.241, 0.0, 0.0]"] ;
23 -> 24 ;
25 [label="fs1a1 <= 3.5\nentropy = 0.483\nsamples = 4\nvalue = [7.06, 0.825, 0.0]"] ;
23 -> 25 ;
26 [label="entropy = 0.0\nsamples = 2\nvalue = [0.0, 0.825, 0.0]"] ;
25 -> 26 ;
27 [label="entropy = 0.0\nsamples = 2\nvalue = [7.06, 0.0, 0.0]"] ;
25 -> 27 ;
28 [label="entropy = 0.0\nsamples = 1\nvalue = [0.0, 0.412, 0.0]"] ;
16 -> 28 ;
29 [label="fs1c8 <= 1.5\nentropy = 0.903\nsamples = 5\nvalue = [3.53, 1.649, 0.0]"] ;
15 -> 29 ;
30 [label="entropy = 0.0\nsamples = 4\nvalue = [0.0, 1.649, 0.0]"] ;
29 -> 30 ;
31 [label="entropy = 0.0\nsamples = 1\nvalue = [3.53, 0.0, 0.0]"] ;
29 -> 31 ;
32 [label="fs1a6b <= 2.5\nentropy = 0.796\nsamples = 26\nvalue = [24.711, 7.833, 0.0]"] ;
14 -> 32 ;
33 [label="fs1c7 <= 2.5\nentropy = 0.7\nsamples = 21\nvalue = [24.711, 5.772, 0.0]"] ;
32 -> 33 ;
34 [label="fs1d2y <= 1.5\nentropy = 0.869\nsamples = 18\nvalue = [14.12, 5.772, 0.0]"] ;
33 -> 34 ;
35 [label="fs1e3 <= 1.5\nentropy = 0.7\nsamples = 12\nvalue = [14.12, 3.298, 0.0]"] ;
34 -> 35 ;
36 [label="fs1a6c <= 4.5\nentropy = 0.608\nsamples = 10\nvalue = [14.12, 2.474, 0.0]"] ;
35 -> 36 ;
37 [label="age <= 53.5\nentropy = 0.483\nsamples = 8\nvalue = [14.12, 1.649, 0.0]"] ;
36 -> 37 ;
38 [label="entropy = 0.0\nsamples = 2\nvalue = [0.0, 0.825, 0.0]"] ;
37 -> 38 ;
39 [label="fs1ct7z1 <= 115.0\nentropy = 0.308\nsamples = 6\nvalue = [14.12, 0.825, 0.0]"] ;
37 -> 39 ;
40 [label="entropy = 0.0\nsamples = 1\nvalue = [0.0, 0.412, 0.0]"] ;
39 -> 40 ;
41 [label="fs1a1 <= 3.0\nentropy = 0.186\nsamples = 5\nvalue = [14.12, 0.412, 0.0]"] ;
39 -> 41 ;
42 [label="entropy = 0.0\nsamples = 3\nvalue = [10.59, 0.0, 0.0]"] ;
41 -> 42 ;
43 [label="fs1a2a <= 2.5\nentropy = 0.483\nsamples = 2\nvalue = [3.53, 0.412, 0.0]"] ;
41 -> 43 ;
44 [label="entropy = 0.0\nsamples = 1\nvalue = [0.0, 0.412, 0.0]"] ;
43 -> 44 ;
45 [label="entropy = 0.0\nsamples = 1\nvalue = [3.53, 0.0, 0.0]"] ;
43 -> 45 ;
46 [label="fs1ct5b <= 1.5\nentropy = 0.0\nsamples = 2\nvalue = [0.0, 0.825, 0.0]"] ;
36 -> 46 ;
47 [label="entropy = 0.0\nsamples = 1\nvalue = [0.0, 0.412, 0.0]"] ;
46 -> 47 ;
48 [label="entropy = 0.0\nsamples = 1\nvalue = [0.0, 0.412, 0.0]"] ;
46 -> 48 ;
49 [label="fs1c8 <= 1.5\nentropy = 0.0\nsamples = 2\nvalue = [0.0, 0.825, 0.0]"] ;
35 -> 49 ;
50 [label="entropy = 0.0\nsamples = 1\nvalue = [0.0, 0.412, 0.0]"] ;
49 -> 50 ;
51 [label="entropy = 0.0\nsamples = 1\nvalue = [0.0, 0.412, 0.0]"] ;
49 -> 51 ;
52 [label="fs1a6b <= 1.5\nentropy = 0.0\nsamples = 6\nvalue = [0.0, 2.474, 0.0]"] ;
34 -> 52 ;
53 [label="entropy = 0.0\nsamples = 3\nvalue = [0.0, 1.237, 0.0]"] ;
52 -> 53 ;
54 [label="entropy = 0.0\nsamples = 3\nvalue = [0.0, 1.237, 0.0]"] ;
52 -> 54 ;
55 [label="entropy = 0.0\nsamples = 3\nvalue = [10.59, 0.0, 0.0]"] ;
33 -> 55 ;
56 [label="fs1a2a <= 1.5\nentropy = 0.0\nsamples = 5\nvalue = [0.0, 2.061, 0.0]"] ;
32 -> 56 ;
57 [label="entropy = 0.0\nsamples = 1\nvalue = [0.0, 0.412, 0.0]"] ;
56 -> 57 ;
58 [label="entropy = 0.0\nsamples = 4\nvalue = [0.0, 1.649, 0.0]"] ;
56 -> 58 ;
59 [label="fs1a1 <= 3.5\nentropy = 0.978\nsamples = 98\nvalue = [49.421, 34.631, 0.0]"] ;
11 -> 59 ;
60 [label="fs1e1 <= 1.5\nentropy = 0.95\nsamples = 84\nvalue = [49.421, 28.859, 0.0]"] ;
59 -> 60 ;
61 [label="age <= 62.54\nentropy = 0.872\nsamples = 59\nvalue = [45.891, 18.965, 0.0]"] ;
60 -> 61 ;
62 [label="fs1a2b <= 1.5\nentropy = 0.958\nsamples = 15\nvalue = [3.53, 5.772, 0.0]"] ;
61 -> 62 ;
63 [label="fs1a6b <= 1.5\nentropy = 0.483\nsamples = 2\nvalue = [3.53, 0.412, 0.0]"] ;
62 -> 63 ;
64 [label="entropy = 0.0\nsamples = 1\nvalue = [0.0, 0.412, 0.0]"] ;
63 -> 64 ;
65 [label="entropy = 0.0\nsamples = 1\nvalue = [3.53, 0.0, 0.0]"] ;
63 -> 65 ;
66 [label="entropy = -0.0\nsamples = 13\nvalue = [0.0, 5.36, 0.0]"] ;
62 -> 66 ;
67 [label="fs1c1z <= 1.5\nentropy = 0.791\nsamples = 44\nvalue = [42.361, 13.193, 0.0]"] ;
61 -> 67 ;
68 [label="fs1a3b <= 1.5\nentropy = 0.76\nsamples = 41\nvalue = [42.361, 11.956, 0.0]"] ;
67 -> 68 ;
69 [label="fs1c7 <= 3.5\nentropy = 0.738\nsamples = 39\nvalue = [42.361, 11.131, 0.0]"] ;
68 -> 69 ;
70 [label="fs1e4 <= 1.5\nentropy = 0.713\nsamples = 37\nvalue = [42.361, 10.307, 0.0]"] ;
69 -> 70 ;
71 [label="fs1d1a2 <= 1.5\nentropy = 0.791\nsamples = 33\nvalue = [31.771, 9.895, 0.0]"] ;
70 -> 71 ;
72 [label="fs1a6b <= 1.5\nentropy = 0.881\nsamples = 28\nvalue = [21.181, 9.07, 0.0]"] ;
71 -> 72 ;
73 [label="entropy = 0.0\nsamples = 9\nvalue = [0.0, 3.71, 0.0]"] ;
72 -> 73 ;
74 [label="fs1d1y <= 1.5\nentropy = 0.726\nsamples = 19\nvalue = [21.181, 5.36, 0.0]"] ;
72 -> 74 ;
75 [label="entropy = 0.0\nsamples = 2\nvalue = [0.0, 0.825, 0.0]"] ;
74 -> 75 ;
76 [label="fs1a1 <= 2.5\nentropy = 0.672\nsamples = 17\nvalue = [21.181, 4.535, 0.0]"] ;
74 -> 76 ;
77 [label="fs1ct7y1 <= 100.0\nentropy = 0.538\nsamples = 11\nvalue = [17.65, 2.474, 0.0]"] ;
76 -> 77 ;
78 [label="entropy = 0.0\nsamples = 1\nvalue = [0.0, 0.412, 0.0]"] ;
77 -> 78 ;
79 [label="fs1ct7y1 <= 125.0\nentropy = 0.483\nsamples = 10\nvalue = [17.65, 2.061, 0.0]"] ;
77 -> 79 ;
80 [label="age <= 70.5\nentropy = 0.421\nsamples = 9\nvalue = [17.65, 1.649, 0.0]"] ;
79 -> 80 ;
81 [label="entropy = 0.0\nsamples = 3\nvalue = [10.59, 0.0, 0.0]"] ;
80 -> 81 ;
82 [label="fs1a7 <= 4.5\nentropy = 0.7\nsamples = 6\nvalue = [7.06, 1.649, 0.0]"] ;
80 -> 82 ;
83 [label="age <= 73.5\nentropy = 0.308\nsamples = 3\nvalue = [7.06, 0.412, 0.0]"] ;
82 -> 83 ;
84 [label="entropy = 0.0\nsamples = 1\nvalue = [0.0, 0.412, 0.0]"] ;
83 -> 84 ;
85 [label="entropy = 0.0\nsamples = 2\nvalue = [7.06, 0.0, 0.0]"] ;
83 -> 85 ;
86 [label="entropy = -0.0\nsamples = 3\nvalue = [0.0, 1.237, 0.0]"] ;
82 -> 86 ;
87 [label="entropy = 0.0\nsamples = 1\nvalue = [0.0, 0.412, 0.0]"] ;
79 -> 87 ;
88 [label="age <= 77.0\nentropy = 0.95\nsamples = 6\nvalue = [3.53, 2.061, 0.0]"] ;
76 -> 88 ;
89 [label="entropy = 0.0\nsamples = 5\nvalue = [0.0, 2.061, 0.0]"] ;
88 -> 89 ;
90 [label="entropy = 0.0\nsamples = 1\nvalue = [3.53, 0.0, 0.0]"] ;
88 -> 90 ;
91 [label="age <= 64.5\nentropy = 0.374\nsamples = 5\nvalue = [10.59, 0.825, 0.0]"] ;
71 -> 91 ;
92 [label="entropy = 0.0\nsamples = 1\nvalue = [0.0, 0.412, 0.0]"] ;
91 -> 92 ;
93 [label="fs1ct7y1 <= 115.0\nentropy = 0.231\nsamples = 4\nvalue = [10.59, 0.412, 0.0]"] ;
91 -> 93 ;
94 [label="entropy = 0.0\nsamples = 1\nvalue = [0.0, 0.412, 0.0]"] ;
93 -> 94 ;
95 [label="entropy = 0.0\nsamples = 3\nvalue = [10.59, 0.0, 0.0]"] ;
93 -> 95 ;
96 [label="age <= 67.0\nentropy = 0.231\nsamples = 4\nvalue = [10.59, 0.412, 0.0]"] ;
70 -> 96 ;
97 [label="entropy = 0.0\nsamples = 3\nvalue = [10.59, 0.0, 0.0]"] ;
96 -> 97 ;
98 [label="entropy = -0.0\nsamples = 1\nvalue = [0.0, 0.412, 0.0]"] ;
96 -> 98 ;
99 [label="fs1e8 <= 1.5\nentropy = 0.0\nsamples = 2\nvalue = [0.0, 0.825, 0.0]"] ;
69 -> 99 ;
100 [label="entropy = 0.0\nsamples = 1\nvalue = [0.0, 0.412, 0.0]"] ;
99 -> 100 ;
101 [label="entropy = 0.0\nsamples = 1\nvalue = [0.0, 0.412, 0.0]"] ;
99 -> 101 ;
102 [label="fs1d1z <= 1.5\nentropy = 0.0\nsamples = 2\nvalue = [0.0, 0.825, 0.0]"] ;
68 -> 102 ;
103 [label="entropy = 0.0\nsamples = 1\nvalue = [0.0, 0.412, 0.0]"] ;
102 -> 103 ;
104 [label="entropy = 0.0\nsamples = 1\nvalue = [0.0, 0.412, 0.0]"] ;
102 -> 104 ;
105 [label="fs1e4 <= 1.5\nentropy = 0.0\nsamples = 3\nvalue = [0.0, 1.237, 0.0]"] ;
67 -> 105 ;
106 [label="entropy = 0.0\nsamples = 1\nvalue = [0.0, 0.412, 0.0]"] ;
105 -> 106 ;
107 [label="entropy = 0.0\nsamples = 2\nvalue = [0.0, 0.825, 0.0]"] ;
105 -> 107 ;
108 [label="fs1a2b <= 1.5\nentropy = 0.831\nsamples = 25\nvalue = [3.53, 9.895, 0.0]"] ;
60 -> 108 ;
109 [label="entropy = 0.0\nsamples = 1\nvalue = [3.53, 0.0, 0.0]"] ;
108 -> 109 ;
110 [label="entropy = -0.0\nsamples = 24\nvalue = [0.0, 9.895, 0.0]"] ;
108 -> 110 ;
111 [label="entropy = 0.0\nsamples = 14\nvalue = [0.0, 5.772, 0.0]"] ;
59 -> 111 ;
112 [label="fs1a2b <= 1.5\nentropy = 0.785\nsamples = 29\nvalue = [3.53, 11.544, 0.0]"] ;
10 -> 112 ;
113 [label="fs1a2a <= 2.5\nentropy = 0.7\nsamples = 3\nvalue = [3.53, 0.825, 0.0]"] ;
112 -> 113 ;
114 [label="entropy = -0.0\nsamples = 2\nvalue = [0.0, 0.825, 0.0]"] ;
113 -> 114 ;
115 [label="entropy = 0.0\nsamples = 1\nvalue = [3.53, 0.0, 0.0]"] ;
113 -> 115 ;
116 [label="entropy = -0.0\nsamples = 26\nvalue = [0.0, 10.719, 0.0]"] ;
112 -> 116 ;
117 [label="fs1d1z <= 1.5\nentropy = 1.399\nsamples = 29\nvalue = [14.12, 9.895, 3.435]"] ;
9 -> 117 ;
118 [label="fs1a7 <= 4.5\nentropy = 0.771\nsamples = 14\nvalue = [14.12, 4.123, 0.0]"] ;
117 -> 118 ;
119 [label="entropy = 0.0\nsamples = 4\nvalue = [0.0, 1.649, 0.0]"] ;
118 -> 119 ;
120 [label="fs1ct7z1 <= 137.5\nentropy = 0.608\nsamples = 10\nvalue = [14.12, 2.474, 0.0]"] ;
118 -> 120 ;
121 [label="fs1c2b <= 1.5\nentropy = 0.404\nsamples = 7\nvalue = [14.12, 1.237, 0.0]"] ;
120 -> 121 ;
122 [label="entropy = 0.0\nsamples = 3\nvalue = [10.59, 0.0, 0.0]"] ;
121 -> 122 ;
123 [label="age <= 47.5\nentropy = 0.826\nsamples = 4\nvalue = [3.53, 1.237, 0.0]"] ;
121 -> 123 ;
124 [label="entropy = 0.0\nsamples = 1\nvalue = [3.53, 0.0, 0.0]"] ;
123 -> 124 ;
125 [label="fs1ct5b <= 1.5\nentropy = 0.0\nsamples = 3\nvalue = [0.0, 1.237, 0.0]"] ;
123 -> 125 ;
126 [label="entropy = 0.0\nsamples = 1\nvalue = [0.0, 0.412, 0.0]"] ;
125 -> 126 ;
127 [label="entropy = 0.0\nsamples = 2\nvalue = [0.0, 0.825, 0.0]"] ;
125 -> 127 ;
128 [label="entropy = -0.0\nsamples = 3\nvalue = [0.0, 1.237, 0.0]"] ;
120 -> 128 ;
129 [label="age <= 69.0\nentropy = 0.953\nsamples = 15\nvalue = [0.0, 5.772, 3.435]"] ;
117 -> 129 ;
130 [label="entropy = -0.0\nsamples = 14\nvalue = [0.0, 5.772, 0.0]"] ;
129 -> 130 ;
131 [label="entropy = 0.0\nsamples = 1\nvalue = [0.0, 0.0, 3.435]"] ;
129 -> 131 ;
132 [label="entropy = 0.0\nsamples = 23\nvalue = [0.0, 9.482, 0.0]"] ;
8 -> 132 ;
133 [label="fs1e9 <= 1.5\nentropy = 0.588\nsamples = 53\nvalue = [3.53, 21.438, 0.0]"] ;
7 -> 133 ;
134 [label="age <= 41.0\nentropy = 0.0\nsamples = 46\nvalue = [0.0, 18.965, 0.0]"] ;
133 -> 134 ;
135 [label="entropy = 0.0\nsamples = 1\nvalue = [0.0, 0.412, 0.0]"] ;
134 -> 135 ;
136 [label="entropy = 0.0\nsamples = 45\nvalue = [0.0, 18.552, 0.0]"] ;
134 -> 136 ;
137 [label="fs1d1y <= 1.5\nentropy = 0.978\nsamples = 7\nvalue = [3.53, 2.474, 0.0]"] ;
133 -> 137 ;
138 [label="age <= 59.0\nentropy = 0.483\nsamples = 2\nvalue = [3.53, 0.412, 0.0]"] ;
137 -> 138 ;
139 [label="entropy = 0.0\nsamples = 1\nvalue = [0.0, 0.412, 0.0]"] ;
138 -> 139 ;
140 [label="entropy = 0.0\nsamples = 1\nvalue = [3.53, 0.0, 0.0]"] ;
138 -> 140 ;
141 [label="entropy = 0.0\nsamples = 5\nvalue = [0.0, 2.061, 0.0]"] ;
137 -> 141 ;
142 [label="fs1d2y <= 1.5\nentropy = 1.375\nsamples = 129\nvalue = [10.59, 48.236, 30.912]"] ;
2 -> 142 ;
143 [label="fs1a7 <= 4.5\nentropy = 1.305\nsamples = 53\nvalue = [10.59, 20.201, 3.435]"] ;
142 -> 143 ;
144 [label="fs1d3 <= 1.5\nentropy = 0.755\nsamples = 31\nvalue = [0.0, 12.368, 3.435]"] ;
143 -> 144 ;
145 [label="entropy = 0.0\nsamples = 29\nvalue = [0.0, 11.956, 0.0]"] ;
144 -> 145 ;
146 [label="fs1ct7z1 <= 110.0\nentropy = 0.491\nsamples = 2\nvalue = [0.0, 0.412, 3.435]"] ;
144 -> 146 ;
147 [label="entropy = 0.0\nsamples = 1\nvalue = [0.0, 0.412, 0.0]"] ;
146 -> 147 ;
148 [label="entropy = 0.0\nsamples = 1\nvalue = [0.0, 0.0, 3.435]"] ;
146 -> 148 ;
149 [label="age <= 64.5\nentropy = 0.984\nsamples = 22\nvalue = [10.59, 7.833, 0.0]"] ;
143 -> 149 ;
150 [label="age <= 59.5\nentropy = 0.791\nsamples = 11\nvalue = [10.59, 3.298, 0.0]"] ;
149 -> 150 ;
151 [label="fs1d1z <= 1.5\nentropy = 0.0\nsamples = 6\nvalue = [0.0, 2.474, 0.0]"] ;
150 -> 151 ;
152 [label="entropy = 0.0\nsamples = 1\nvalue = [0.0, 0.412, 0.0]"] ;
151 -> 152 ;
153 [label="entropy = 0.0\nsamples = 5\nvalue = [0.0, 2.061, 0.0]"] ;
151 -> 153 ;
154 [label="fs1a6b <= 1.5\nentropy = 0.374\nsamples = 5\nvalue = [10.59, 0.825, 0.0]"] ;
150 -> 154 ;
155 [label="entropy = 0.0\nsamples = 2\nvalue = [0.0, 0.825, 0.0]"] ;
154 -> 155 ;
156 [label="entropy = -0.0\nsamples = 3\nvalue = [10.59, 0.0, 0.0]"] ;
154 -> 156 ;
157 [label="entropy = -0.0\nsamples = 11\nvalue = [0.0, 4.535, 0.0]"] ;
149 -> 157 ;
158 [label="fs1c309 <= 1.5\nentropy = 1.0\nsamples = 76\nvalue = [0.0, 28.035, 27.477]"] ;
142 -> 158 ;
159 [label="fs1ct5b <= 1.5\nentropy = 0.865\nsamples = 65\nvalue = [0.0, 25.561, 10.304]"] ;
158 -> 159 ;
160 [label="fs1e3 <= 1.5\nentropy = 0.0\nsamples = 33\nvalue = [0.0, 13.605, 0.0]"] ;
159 -> 160 ;
161 [label="entropy = 0.0\nsamples = 31\nvalue = [0.0, 12.78, 0.0]"] ;
160 -> 161 ;
162 [label="entropy = 0.0\nsamples = 2\nvalue = [0.0, 0.825, 0.0]"] ;
160 -> 162 ;
163 [label="fs1a6a <= 2.5\nentropy = 0.996\nsamples = 32\nvalue = [0.0, 11.956, 10.304]"] ;
159 -> 163 ;
164 [label="fs1d1a2 <= 1.5\nentropy = 0.788\nsamples = 28\nvalue = [0.0, 11.131, 3.435]"] ;
163 -> 164 ;
165 [label="entropy = 0.0\nsamples = 19\nvalue = [0.0, 7.833, 0.0]"] ;
164 -> 165 ;
166 [label="fs1e1 <= 1.5\nentropy = 1.0\nsamples = 9\nvalue = [0.0, 3.298, 3.435]"] ;
164 -> 166 ;
167 [label="entropy = 0.0\nsamples = 5\nvalue = [0.0, 2.061, 0.0]"] ;
166 -> 167 ;
168 [label="fs1a1 <= 2.5\nentropy = 0.834\nsamples = 4\nvalue = [0.0, 1.237, 3.435]"] ;
166 -> 168 ;
169 [label="entropy = 0.0\nsamples = 2\nvalue = [0.0, 0.825, 0.0]"] ;
168 -> 169 ;
170 [label="fs1d1y <= 1.5\nentropy = 0.491\nsamples = 2\nvalue = [0.0, 0.412, 3.435]"] ;
168 -> 170 ;
171 [label="entropy = 0.0\nsamples = 1\nvalue = [0.0, 0.412, 0.0]"] ;
170 -> 171 ;
172 [label="entropy = 0.0\nsamples = 1\nvalue = [0.0, 0.0, 3.435]"] ;
170 -> 172 ;
173 [label="fs1c8 <= 1.5\nentropy = 0.491\nsamples = 4\nvalue = [0.0, 0.825, 6.869]"] ;
163 -> 173 ;
174 [label="entropy = 0.0\nsamples = 2\nvalue = [0.0, 0.825, 0.0]"] ;
173 -> 174 ;
175 [label="entropy = 0.0\nsamples = 2\nvalue = [0.0, 0.0, 6.869]"] ;
173 -> 175 ;
176 [label="fs1a3a <= 1.5\nentropy = 0.546\nsamples = 11\nvalue = [0.0, 2.474, 17.173]"] ;
158 -> 176 ;
177 [label="age <= 68.5\nentropy = 0.954\nsamples = 6\nvalue = [0.0, 2.061, 3.435]"] ;
176 -> 177 ;
178 [label="fs1a1 <= 1.5\nentropy = 0.0\nsamples = 5\nvalue = [0.0, 2.061, 0.0]"] ;
177 -> 178 ;
179 [label="entropy = 0.0\nsamples = 2\nvalue = [0.0, 0.825, 0.0]"] ;
178 -> 179 ;
180 [label="entropy = 0.0\nsamples = 3\nvalue = [0.0, 1.237, 0.0]"] ;
178 -> 180 ;
181 [label="entropy = 0.0\nsamples = 1\nvalue = [0.0, 0.0, 3.435]"] ;
177 -> 181 ;
182 [label="fs1d3 <= 2.0\nentropy = 0.19\nsamples = 5\nvalue = [0.0, 0.412, 13.739]"] ;
176 -> 182 ;
183 [label="entropy = 0.0\nsamples = 4\nvalue = [0.0, 0.0, 13.739]"] ;
182 -> 183 ;
184 [label="entropy = -0.0\nsamples = 1\nvalue = [0.0, 0.412, 0.0]"] ;
182 -> 184 ;
185 [label="fs1d1y <= 1.5\nentropy = 0.734\nsamples = 245\nvalue = [268.287, 69.674, 0.0]"] ;
1 -> 185 ;
186 [label="fs1ct4b <= 1.5\nentropy = 0.581\nsamples = 138\nvalue = [204.745, 32.982, 0.0]"] ;
185 -> 186 ;
187 [label="fs1a6b <= 1.5\nentropy = 0.989\nsamples = 23\nvalue = [10.59, 8.245, 0.0]"] ;
186 -> 187 ;
188 [label="fs1ct7y1 <= 125.5\nentropy = 0.57\nsamples = 7\nvalue = [10.59, 1.649, 0.0]"] ;
187 -> 188 ;
189 [label="entropy = 0.0\nsamples = 2\nvalue = [0.0, 0.825, 0.0]"] ;
188 -> 189 ;
190 [label="fs1c7 <= 3.0\nentropy = 0.374\nsamples = 5\nvalue = [10.59, 0.825, 0.0]"] ;
188 -> 190 ;
191 [label="fs1c8 <= 1.5\nentropy = 0.231\nsamples = 4\nvalue = [10.59, 0.412, 0.0]"] ;
190 -> 191 ;
192 [label="age <= 59.0\nentropy = 0.483\nsamples = 2\nvalue = [3.53, 0.412, 0.0]"] ;
191 -> 192 ;
193 [label="entropy = 0.0\nsamples = 1\nvalue = [0.0, 0.412, 0.0]"] ;
192 -> 193 ;
194 [label="entropy = 0.0\nsamples = 1\nvalue = [3.53, 0.0, 0.0]"] ;
192 -> 194 ;
195 [label="entropy = -0.0\nsamples = 2\nvalue = [7.06, 0.0, 0.0]"] ;
191 -> 195 ;
196 [label="entropy = -0.0\nsamples = 1\nvalue = [0.0, 0.412, 0.0]"] ;
190 -> 196 ;
197 [label="entropy = 0.0\nsamples = 16\nvalue = [0.0, 6.596, 0.0]"] ;
187 -> 197 ;
198 [label="fs1ct6y4 <= 4.5\nentropy = 0.509\nsamples = 115\nvalue = [194.155, 24.736, 0.0]"] ;
186 -> 198 ;
199 [label="entropy = 0.0\nsamples = 3\nvalue = [0.0, 1.237, 0.0]"] ;
198 -> 199 ;
200 [label="fs1d1a1 <= 1.5\nentropy = 0.494\nsamples = 112\nvalue = [194.155, 23.5, 0.0]"] ;
198 -> 200 ;
201 [label="fs1e9 <= 1.5\nentropy = 0.441\nsamples = 93\nvalue = [176.505, 17.728, 0.0]"] ;
200 -> 201 ;
202 [label="fs1b8 <= 2.0\nentropy = 0.401\nsamples = 87\nvalue = [176.505, 15.254, 0.0]"] ;
201 -> 202 ;
203 [label="fs1d1a2 <= 2.5\nentropy = 0.379\nsamples = 84\nvalue = [176.505, 14.017, 0.0]"] ;
202 -> 203 ;
204 [label="age <= 26.0\nentropy = 0.364\nsamples = 82\nvalue = [176.505, 13.193, 0.0]"] ;
203 -> 204 ;
205 [label="entropy = 0.0\nsamples = 2\nvalue = [0.0, 0.825, 0.0]"] ;
204 -> 205 ;
206 [label="fs1ct6z1 <= 4.969\nentropy = 0.349\nsamples = 80\nvalue = [176.505, 12.368, 0.0]"] ;
204 -> 206 ;
207 [label="entropy = 0.0\nsamples = 7\nvalue = [24.711, 0.0, 0.0]"] ;
206 -> 207 ;
208 [label="fs1ct7z1 <= 127.5\nentropy = 0.386\nsamples = 73\nvalue = [151.794, 12.368, 0.0]"] ;
206 -> 208 ;
209 [label="fs1e1 <= 1.5\nentropy = 0.619\nsamples = 23\nvalue = [31.771, 5.772, 0.0]"] ;
208 -> 209 ;
210 [label="fs1a6b <= 2.5\nentropy = 0.45\nsamples = 17\nvalue = [31.771, 3.298, 0.0]"] ;
209 -> 210 ;
211 [label="fs1b4 <= 2.0\nentropy = 0.374\nsamples = 15\nvalue = [31.771, 2.474, 0.0]"] ;
210 -> 211 ;
212 [label="fs1ct5a <= 1.5\nentropy = 0.284\nsamples = 13\nvalue = [31.771, 1.649, 0.0]"] ;
211 -> 212 ;
213 [label="entropy = 0.0\nsamples = 1\nvalue = [0.0, 0.412, 0.0]"] ;
212 -> 213 ;
214 [label="fs1b3 <= 2.0\nentropy = 0.231\nsamples = 12\nvalue = [31.771, 1.237, 0.0]"] ;
212 -> 214 ;
215 [label="fs1a7 <= 4.5\nentropy = 0.17\nsamples = 11\nvalue = [31.771, 0.825, 0.0]"] ;
214 -> 215 ;
216 [label="age <= 57.0\nentropy = 0.374\nsamples = 5\nvalue = [10.59, 0.825, 0.0]"] ;
215 -> 216 ;
217 [label="entropy = 0.0\nsamples = 2\nvalue = [7.06, 0.0, 0.0]"] ;
216 -> 217 ;
218 [label="age <= 63.0\nentropy = 0.7\nsamples = 3\nvalue = [3.53, 0.825, 0.0]"] ;
216 -> 218 ;
219 [label="fs1a6b <= 1.5\nentropy = 0.0\nsamples = 2\nvalue = [0.0, 0.825, 0.0]"] ;
218 -> 219 ;
220 [label="entropy = 0.0\nsamples = 1\nvalue = [0.0, 0.412, 0.0]"] ;
219 -> 220 ;
221 [label="entropy = 0.0\nsamples = 1\nvalue = [0.0, 0.412, 0.0]"] ;
219 -> 221 ;
222 [label="entropy = 0.0\nsamples = 1\nvalue = [3.53, 0.0, 0.0]"] ;
218 -> 222 ;
223 [label="fs1a3a <= 1.5\nentropy = 0.0\nsamples = 6\nvalue = [21.181, 0.0, 0.0]"] ;
215 -> 223 ;
224 [label="entropy = 0.0\nsamples = 5\nvalue = [17.65, 0.0, 0.0]"] ;
223 -> 224 ;
225 [label="entropy = 0.0\nsamples = 1\nvalue = [3.53, 0.0, 0.0]"] ;
223 -> 225 ;
226 [label="entropy = 0.0\nsamples = 1\nvalue = [0.0, 0.412, 0.0]"] ;
214 -> 226 ;
227 [label="fs1a7 <= 4.5\nentropy = 0.0\nsamples = 2\nvalue = [0.0, 0.825, 0.0]"] ;
211 -> 227 ;
228 [label="entropy = 0.0\nsamples = 1\nvalue = [0.0, 0.412, 0.0]"] ;
227 -> 228 ;
229 [label="entropy = 0.0\nsamples = 1\nvalue = [0.0, 0.412, 0.0]"] ;
227 -> 229 ;
230 [label="fs1a4b <= 1.5\nentropy = 0.0\nsamples = 2\nvalue = [0.0, 0.825, 0.0]"] ;
210 -> 230 ;
231 [label="entropy = 0.0\nsamples = 1\nvalue = [0.0, 0.412, 0.0]"] ;
230 -> 231 ;
232 [label="entropy = 0.0\nsamples = 1\nvalue = [0.0, 0.412, 0.0]"] ;
230 -> 232 ;
233 [label="fs1d1z <= 1.5\nentropy = 0.0\nsamples = 6\nvalue = [0.0, 2.474, 0.0]"] ;
209 -> 233 ;
234 [label="entropy = 0.0\nsamples = 5\nvalue = [0.0, 2.061, 0.0]"] ;
233 -> 234 ;
235 [label="entropy = 0.0\nsamples = 1\nvalue = [0.0, 0.412, 0.0]"] ;
233 -> 235 ;
236 [label="age <= 66.5\nentropy = 0.295\nsamples = 50\nvalue = [120.023, 6.596, 0.0]"] ;
208 -> 236 ;
237 [label="age <= 65.0\nentropy = 0.346\nsamples = 43\nvalue = [95.313, 6.596, 0.0]"] ;
236 -> 237 ;
238 [label="fs1ct7z1 <= 137.5\nentropy = 0.316\nsamples = 41\nvalue = [95.313, 5.772, 0.0]"] ;
237 -> 238 ;
239 [label="fs1a1 <= 3.5\nentropy = 0.386\nsamples = 34\nvalue = [70.602, 5.772, 0.0]"] ;
238 -> 239 ;
240 [label="age <= 58.5\nentropy = 0.349\nsamples = 32\nvalue = [70.602, 4.947, 0.0]"] ;
239 -> 240 ;
241 [label="fs1a1 <= 2.5\nentropy = 0.483\nsamples = 22\nvalue = [38.831, 4.535, 0.0]"] ;
240 -> 241 ;
242 [label="age <= 50.0\nentropy = 0.386\nsamples = 17\nvalue = [35.301, 2.886, 0.0]"] ;
241 -> 242 ;
243 [label="fs1ct4a <= 1.5\nentropy = 0.136\nsamples = 7\nvalue = [21.181, 0.412, 0.0]"] ;
242 -> 243 ;
244 [label="entropy = 0.0\nsamples = 1\nvalue = [0.0, 0.412, 0.0]"] ;
243 -> 244 ;
245 [label="entropy = 0.0\nsamples = 6\nvalue = [21.181, 0.0, 0.0]"] ;
243 -> 245 ;
246 [label="fs1e3 <= 1.5\nentropy = 0.608\nsamples = 10\nvalue = [14.12, 2.474, 0.0]"] ;
242 -> 246 ;
247 [label="fs1ct7z1 <= 132.5\nentropy = 0.483\nsamples = 8\nvalue = [14.12, 1.649, 0.0]"] ;
246 -> 247 ;
248 [label="age <= 54.5\nentropy = 0.7\nsamples = 6\nvalue = [7.06, 1.649, 0.0]"] ;
247 -> 248 ;
249 [label="fs1a6b <= 1.5\nentropy = 0.308\nsamples = 3\nvalue = [7.06, 0.412, 0.0]"] ;
248 -> 249 ;
250 [label="entropy = 0.0\nsamples = 2\nvalue = [7.06, 0.0, 0.0]"] ;
249 -> 250 ;
251 [label="entropy = 0.0\nsamples = 1\nvalue = [0.0, 0.412, 0.0]"] ;
249 -> 251 ;
252 [label="entropy = -0.0\nsamples = 3\nvalue = [0.0, 1.237, 0.0]"] ;
248 -> 252 ;
253 [label="entropy = -0.0\nsamples = 2\nvalue = [7.06, 0.0, 0.0]"] ;
247 -> 253 ;
254 [label="age <= 51.5\nentropy = 0.0\nsamples = 2\nvalue = [0.0, 0.825, 0.0]"] ;
246 -> 254 ;
255 [label="entropy = 0.0\nsamples = 1\nvalue = [0.0, 0.412, 0.0]"] ;
254 -> 255 ;
256 [label="entropy = 0.0\nsamples = 1\nvalue = [0.0, 0.412, 0.0]"] ;
254 -> 256 ;
257 [label="fs1b9 <= 2.0\nentropy = 0.903\nsamples = 5\nvalue = [3.53, 1.649, 0.0]"] ;
241 -> 257 ;
258 [label="entropy = 0.0\nsamples = 4\nvalue = [0.0, 1.649, 0.0]"] ;
257 -> 258 ;
259 [label="entropy = 0.0\nsamples = 1\nvalue = [3.53, 0.0, 0.0]"] ;
257 -> 259 ;
260 [label="fs1a6c <= 1.5\nentropy = 0.099\nsamples = 10\nvalue = [31.771, 0.412, 0.0]"] ;
240 -> 260 ;
261 [label="entropy = 0.0\nsamples = 1\nvalue = [0.0, 0.412, 0.0]"] ;
260 -> 261 ;
262 [label="entropy = 0.0\nsamples = 9\nvalue = [31.771, 0.0, 0.0]"] ;
260 -> 262 ;
263 [label="fs1a6b <= 1.5\nentropy = 0.0\nsamples = 2\nvalue = [0.0, 0.825, 0.0]"] ;
239 -> 263 ;
264 [label="entropy = 0.0\nsamples = 1\nvalue = [0.0, 0.412, 0.0]"] ;
263 -> 264 ;
265 [label="entropy = 0.0\nsamples = 1\nvalue = [0.0, 0.412, 0.0]"] ;
263 -> 265 ;
266 [label="entropy = 0.0\nsamples = 7\nvalue = [24.711, 0.0, 0.0]"] ;
238 -> 266 ;
267 [label="fs1c8 <= 1.5\nentropy = 0.0\nsamples = 2\nvalue = [0.0, 0.825, 0.0]"] ;
237 -> 267 ;
268 [label="entropy = 0.0\nsamples = 1\nvalue = [0.0, 0.412, 0.0]"] ;
267 -> 268 ;
269 [label="entropy = 0.0\nsamples = 1\nvalue = [0.0, 0.412, 0.0]"] ;
267 -> 269 ;
270 [label="entropy = 0.0\nsamples = 7\nvalue = [24.711, 0.0, 0.0]"] ;
236 -> 270 ;
271 [label="fs1ct7z1 <= 125.0\nentropy = 0.0\nsamples = 2\nvalue = [0.0, 0.825, 0.0]"] ;
203 -> 271 ;
272 [label="entropy = 0.0\nsamples = 1\nvalue = [0.0, 0.412, 0.0]"] ;
271 -> 272 ;
273 [label="entropy = 0.0\nsamples = 1\nvalue = [0.0, 0.412, 0.0]"] ;
271 -> 273 ;
274 [label="fs1b3 <= 2.0\nentropy = 0.0\nsamples = 3\nvalue = [0.0, 1.237, 0.0]"] ;
202 -> 274 ;
275 [label="entropy = 0.0\nsamples = 1\nvalue = [0.0, 0.412, 0.0]"] ;
274 -> 275 ;
276 [label="entropy = 0.0\nsamples = 2\nvalue = [0.0, 0.825, 0.0]"] ;
274 -> 276 ;
277 [label="fs1ct5a <= 1.5\nentropy = 0.0\nsamples = 6\nvalue = [0.0, 2.474, 0.0]"] ;
201 -> 277 ;
278 [label="entropy = 0.0\nsamples = 1\nvalue = [0.0, 0.412, 0.0]"] ;
277 -> 278 ;
279 [label="entropy = 0.0\nsamples = 5\nvalue = [0.0, 2.061, 0.0]"] ;
277 -> 279 ;
280 [label="fs1c2b <= 1.5\nentropy = 0.806\nsamples = 19\nvalue = [17.65, 5.772, 0.0]"] ;
200 -> 280 ;
281 [label="entropy = 0.0\nsamples = 9\nvalue = [0.0, 3.71, 0.0]"] ;
280 -> 281 ;
282 [label="fs1c309 <= 1.5\nentropy = 0.483\nsamples = 10\nvalue = [17.65, 2.061, 0.0]"] ;
280 -> 282 ;
283 [label="fs1ct5a <= 1.5\nentropy = 0.263\nsamples = 7\nvalue = [17.65, 0.825, 0.0]"] ;
282 -> 283 ;
284 [label="entropy = 0.0\nsamples = 2\nvalue = [0.0, 0.825, 0.0]"] ;
283 -> 284 ;
285 [label="entropy = 0.0\nsamples = 5\nvalue = [17.65, 0.0, 0.0]"] ;
283 -> 285 ;
286 [label="fs1a5 <= 1.5\nentropy = 0.0\nsamples = 3\nvalue = [0.0, 1.237, 0.0]"] ;
282 -> 286 ;
287 [label="entropy = 0.0\nsamples = 2\nvalue = [0.0, 0.825, 0.0]"] ;
286 -> 287 ;
288 [label="entropy = 0.0\nsamples = 1\nvalue = [0.0, 0.412, 0.0]"] ;
286 -> 288 ;
289 [label="fs1c309 <= 1.5\nentropy = 0.948\nsamples = 107\nvalue = [63.542, 36.692, 0.0]"] ;
185 -> 289 ;
290 [label="fs1e7 <= 1.5\nentropy = 0.889\nsamples = 86\nvalue = [63.542, 28.035, 0.0]"] ;
289 -> 290 ;
291 [label="fs1a7 <= 3.5\nentropy = 0.841\nsamples = 75\nvalue = [63.542, 23.5, 0.0]"] ;
290 -> 291 ;
292 [label="entropy = 0.0\nsamples = 9\nvalue = [0.0, 3.71, 0.0]"] ;
291 -> 292 ;
293 [label="age <= 69.5\nentropy = 0.791\nsamples = 66\nvalue = [63.542, 19.789, 0.0]"] ;
291 -> 293 ;
294 [label="age <= 53.5\nentropy = 0.883\nsamples = 61\nvalue = [45.891, 19.789, 0.0]"] ;
293 -> 294 ;
295 [label="fs1c1y <= 1.5\nentropy = 0.619\nsamples = 23\nvalue = [31.771, 5.772, 0.0]"] ;
294 -> 295 ;
296 [label="age <= 40.0\nentropy = 0.514\nsamples = 19\nvalue = [31.771, 4.123, 0.0]"] ;
295 -> 296 ;
297 [label="entropy = 0.0\nsamples = 2\nvalue = [0.0, 0.825, 0.0]"] ;
296 -> 297 ;
298 [label="fs1b8 <= 1.5\nentropy = 0.45\nsamples = 17\nvalue = [31.771, 3.298, 0.0]"] ;
296 -> 298 ;
299 [label="fs1a1 <= 2.5\nentropy = 0.374\nsamples = 15\nvalue = [31.771, 2.474, 0.0]"] ;
298 -> 299 ;
300 [label="fs1ct5b <= 1.5\nentropy = 0.136\nsamples = 7\nvalue = [21.181, 0.412, 0.0]"] ;
299 -> 300 ;
301 [label="entropy = 0.0\nsamples = 1\nvalue = [0.0, 0.412, 0.0]"] ;
300 -> 301 ;
302 [label="entropy = 0.0\nsamples = 6\nvalue = [21.181, 0.0, 0.0]"] ;
300 -> 302 ;
303 [label="fs1ct7z1 <= 132.5\nentropy = 0.641\nsamples = 8\nvalue = [10.59, 2.061, 0.0]"] ;
299 -> 303 ;
304 [label="entropy = 0.0\nsamples = 4\nvalue = [0.0, 1.649, 0.0]"] ;
303 -> 304 ;
305 [label="age <= 50.5\nentropy = 0.231\nsamples = 4\nvalue = [10.59, 0.412, 0.0]"] ;
303 -> 305 ;
306 [label="entropy = 0.0\nsamples = 3\nvalue = [10.59, 0.0, 0.0]"] ;
305 -> 306 ;
307 [label="entropy = -0.0\nsamples = 1\nvalue = [0.0, 0.412, 0.0]"] ;
305 -> 307 ;
308 [label="fs1ct5a <= 1.5\nentropy = 0.0\nsamples = 2\nvalue = [0.0, 0.825, 0.0]"] ;
298 -> 308 ;
309 [label="entropy = 0.0\nsamples = 1\nvalue = [0.0, 0.412, 0.0]"] ;
308 -> 309 ;
310 [label="entropy = 0.0\nsamples = 1\nvalue = [0.0, 0.412, 0.0]"] ;
308 -> 310 ;
311 [label="fs1a5 <= 1.5\nentropy = 0.0\nsamples = 4\nvalue = [0.0, 1.649, 0.0]"] ;
295 -> 311 ;
312 [label="entropy = 0.0\nsamples = 1\nvalue = [0.0, 0.412, 0.0]"] ;
311 -> 312 ;
313 [label="entropy = 0.0\nsamples = 3\nvalue = [0.0, 1.237, 0.0]"] ;
311 -> 313 ;
314 [label="fs1a1 <= 2.5\nentropy = 1.0\nsamples = 38\nvalue = [14.12, 14.017, 0.0]"] ;
294 -> 314 ;
315 [label="entropy = 0.0\nsamples = 18\nvalue = [0.0, 7.421, 0.0]"] ;
314 -> 315 ;
316 [label="fs1ct4b <= 1.5\nentropy = 0.903\nsamples = 20\nvalue = [14.12, 6.596, 0.0]"] ;
314 -> 316 ;
317 [label="entropy = 0.0\nsamples = 9\nvalue = [0.0, 3.71, 0.0]"] ;
316 -> 317 ;
318 [label="fs1a6c <= 4.5\nentropy = 0.657\nsamples = 11\nvalue = [14.12, 2.886, 0.0]"] ;
316 -> 318 ;
319 [label="fs1b9 <= 2.0\nentropy = 0.483\nsamples = 8\nvalue = [14.12, 1.649, 0.0]"] ;
318 -> 319 ;
320 [label="fs1a6b <= 3.0\nentropy = 0.186\nsamples = 5\nvalue = [14.12, 0.412, 0.0]"] ;
319 -> 320 ;
321 [label="entropy = 0.0\nsamples = 4\nvalue = [14.12, 0.0, 0.0]"] ;
320 -> 321 ;
322 [label="entropy = -0.0\nsamples = 1\nvalue = [0.0, 0.412, 0.0]"] ;
320 -> 322 ;
323 [label="entropy = -0.0\nsamples = 3\nvalue = [0.0, 1.237, 0.0]"] ;
319 -> 323 ;
324 [label="fs1a5 <= 1.5\nentropy = 0.0\nsamples = 3\nvalue = [0.0, 1.237, 0.0]"] ;
318 -> 324 ;
325 [label="entropy = 0.0\nsamples = 2\nvalue = [0.0, 0.825, 0.0]"] ;
324 -> 325 ;
326 [label="entropy = 0.0\nsamples = 1\nvalue = [0.0, 0.412, 0.0]"] ;
324 -> 326 ;
327 [label="entropy = 0.0\nsamples = 5\nvalue = [17.65, 0.0, 0.0]"] ;
293 -> 327 ;
328 [label="entropy = 0.0\nsamples = 11\nvalue = [0.0, 4.535, 0.0]"] ;
290 -> 328 ;
329 [label="entropy = 0.0\nsamples = 21\nvalue = [0.0, 8.658, 0.0]"] ;
289 -> 329 ;
330 [label="fs1d2y <= 1.5\nentropy = 1.35\nsamples = 859\nvalue = [91.782, 287.355, 467.117]"] ;
0 -> 330 [labeldistance=2.5, labelangle=-45, headlabel="False"] ;
331 [label="fs1d1a1 <= 1.5\nentropy = 1.543\nsamples = 377\nvalue = [74.132, 134.813, 99.606]"] ;
330 -> 331 ;
332 [label="fs1ct4a <= 1.5\nentropy = 1.298\nsamples = 250\nvalue = [63.542, 93.998, 13.739]"] ;
331 -> 332 ;
333 [label="fs1b2 <= 2.0\nentropy = 0.943\nsamples = 63\nvalue = [0.0, 24.324, 13.739]"] ;
332 -> 333 ;
334 [label="fs1ct6z4 <= 4.5\nentropy = 0.573\nsamples = 54\nvalue = [0.0, 21.851, 3.435]"] ;
333 -> 334 ;
335 [label="entropy = 0.0\nsamples = 1\nvalue = [0.0, 0.0, 3.435]"] ;
334 -> 335 ;
336 [label="fs1a4b <= 1.5\nentropy = 0.0\nsamples = 53\nvalue = [0.0, 21.851, 0.0]"] ;
334 -> 336 ;
337 [label="entropy = 0.0\nsamples = 26\nvalue = [0.0, 10.719, 0.0]"] ;
336 -> 337 ;
338 [label="entropy = 0.0\nsamples = 27\nvalue = [0.0, 11.131, 0.0]"] ;
336 -> 338 ;
339 [label="fs1a6b <= 2.5\nentropy = 0.709\nsamples = 9\nvalue = [0.0, 2.474, 10.304]"] ;
333 -> 339 ;
340 [label="fs1a6a <= 2.5\nentropy = 0.235\nsamples = 4\nvalue = [0.0, 0.412, 10.304]"] ;
339 -> 340 ;
341 [label="entropy = 0.0\nsamples = 3\nvalue = [0.0, 0.0, 10.304]"] ;
340 -> 341 ;
342 [label="entropy = -0.0\nsamples = 1\nvalue = [0.0, 0.412, 0.0]"] ;
340 -> 342 ;
343 [label="fs1a5 <= 3.5\nentropy = 0.0\nsamples = 5\nvalue = [0.0, 2.061, 0.0]"] ;
339 -> 343 ;
344 [label="entropy = 0.0\nsamples = 4\nvalue = [0.0, 1.649, 0.0]"] ;
343 -> 344 ;
345 [label="entropy = 0.0\nsamples = 1\nvalue = [0.0, 0.412, 0.0]"] ;
343 -> 345 ;
346 [label="fs1a7 <= 3.5\nentropy = 0.998\nsamples = 187\nvalue = [63.542, 69.674, 0.0]"] ;
332 -> 346 ;
347 [label="entropy = 0.0\nsamples = 56\nvalue = [0.0, 23.087, 0.0]"] ;
346 -> 347 ;
348 [label="age <= 52.5\nentropy = 0.983\nsamples = 131\nvalue = [63.542, 46.587, 0.0]"] ;
346 -> 348 ;
349 [label="fs1a3a <= 1.5\nentropy = 0.608\nsamples = 20\nvalue = [28.241, 4.947, 0.0]"] ;
348 -> 349 ;
350 [label="fs1a6b <= 2.5\nentropy = 0.231\nsamples = 8\nvalue = [21.181, 0.825, 0.0]"] ;
349 -> 350 ;
351 [label="entropy = -0.0\nsamples = 6\nvalue = [21.181, 0.0, 0.0]"] ;
350 -> 351 ;
352 [label="fs1a2a <= 2.5\nentropy = 0.0\nsamples = 2\nvalue = [0.0, 0.825, 0.0]"] ;
350 -> 352 ;
353 [label="entropy = 0.0\nsamples = 1\nvalue = [0.0, 0.412, 0.0]"] ;
352 -> 353 ;
354 [label="entropy = 0.0\nsamples = 1\nvalue = [0.0, 0.412, 0.0]"] ;
352 -> 354 ;
355 [label="fs1e4 <= 1.5\nentropy = 0.95\nsamples = 12\nvalue = [7.06, 4.123, 0.0]"] ;
349 -> 355 ;
356 [label="entropy = -0.0\nsamples = 10\nvalue = [0.0, 4.123, 0.0]"] ;
355 -> 356 ;
357 [label="entropy = 0.0\nsamples = 2\nvalue = [7.06, 0.0, 0.0]"] ;
355 -> 357 ;
358 [label="fs1ct5b <= 1.5\nentropy = 0.995\nsamples = 111\nvalue = [35.301, 41.64, 0.0]"] ;
348 -> 358 ;
359 [label="entropy = 0.0\nsamples = 36\nvalue = [0.0, 14.842, 0.0]"] ;
358 -> 359 ;
360 [label="fs1a4a <= 1.5\nentropy = 0.986\nsamples = 75\nvalue = [35.301, 26.798, 0.0]"] ;
358 -> 360 ;
361 [label="fs1a6c <= 4.5\nentropy = 0.942\nsamples = 58\nvalue = [35.301, 19.789, 0.0]"] ;
360 -> 361 ;
362 [label="fs1ct5a <= 1.5\nentropy = 0.869\nsamples = 45\nvalue = [35.301, 14.43, 0.0]"] ;
361 -> 362 ;
363 [label="entropy = 0.0\nsamples = 5\nvalue = [0.0, 2.061, 0.0]"] ;
362 -> 363 ;
364 [label="age <= 56.0\nentropy = 0.826\nsamples = 40\nvalue = [35.301, 12.368, 0.0]"] ;
362 -> 364 ;
365 [label="entropy = 0.0\nsamples = 5\nvalue = [0.0, 2.061, 0.0]"] ;
364 -> 365 ;
366 [label="fs1d1y <= 1.5\nentropy = 0.771\nsamples = 35\nvalue = [35.301, 10.307, 0.0]"] ;
364 -> 366 ;
367 [label="fs1e5 <= 1.5\nentropy = 0.58\nsamples = 19\nvalue = [28.241, 4.535, 0.0]"] ;
366 -> 367 ;
368 [label="fs1a6b <= 2.5\nentropy = 0.518\nsamples = 17\nvalue = [28.241, 3.71, 0.0]"] ;
367 -> 368 ;
369 [label="fs1c309 <= 1.5\nentropy = 0.445\nsamples = 15\nvalue = [28.241, 2.886, 0.0]"] ;
368 -> 369 ;
370 [label="fs1a3b <= 1.5\nentropy = 0.404\nsamples = 14\nvalue = [28.241, 2.474, 0.0]"] ;
369 -> 370 ;
371 [label="fs1ct7y1 <= 130.0\nentropy = 0.538\nsamples = 11\nvalue = [17.65, 2.474, 0.0]"] ;
370 -> 371 ;
372 [label="fs1a6c <= 3.5\nentropy = 0.421\nsamples = 9\nvalue = [17.65, 1.649, 0.0]"] ;
371 -> 372 ;
373 [label="entropy = 0.0\nsamples = 1\nvalue = [0.0, 0.412, 0.0]"] ;
372 -> 373 ;
374 [label="age <= 73.0\nentropy = 0.349\nsamples = 8\nvalue = [17.65, 1.237, 0.0]"] ;
372 -> 374 ;
375 [label="age <= 68.0\nentropy = 0.263\nsamples = 7\nvalue = [17.65, 0.825, 0.0]"] ;
374 -> 375 ;
376 [label="fs1e4 <= 1.5\nentropy = 0.483\nsamples = 4\nvalue = [7.06, 0.825, 0.0]"] ;
375 -> 376 ;
377 [label="entropy = 0.0\nsamples = 1\nvalue = [0.0, 0.412, 0.0]"] ;
376 -> 377 ;
378 [label="fs1a1 <= 2.5\nentropy = 0.308\nsamples = 3\nvalue = [7.06, 0.412, 0.0]"] ;
376 -> 378 ;
379 [label="entropy = 0.0\nsamples = 1\nvalue = [0.0, 0.412, 0.0]"] ;
378 -> 379 ;
380 [label="entropy = 0.0\nsamples = 2\nvalue = [7.06, 0.0, 0.0]"] ;
378 -> 380 ;
381 [label="entropy = 0.0\nsamples = 3\nvalue = [10.59, 0.0, 0.0]"] ;
375 -> 381 ;
382 [label="entropy = 0.0\nsamples = 1\nvalue = [0.0, 0.412, 0.0]"] ;
374 -> 382 ;
383 [label="age <= 62.5\nentropy = 0.0\nsamples = 2\nvalue = [0.0, 0.825, 0.0]"] ;
371 -> 383 ;
384 [label="entropy = 0.0\nsamples = 1\nvalue = [0.0, 0.412, 0.0]"] ;
383 -> 384 ;
385 [label="entropy = 0.0\nsamples = 1\nvalue = [0.0, 0.412, 0.0]"] ;
383 -> 385 ;
386 [label="entropy = 0.0\nsamples = 3\nvalue = [10.59, 0.0, 0.0]"] ;
370 -> 386 ;
387 [label="entropy = 0.0\nsamples = 1\nvalue = [0.0, 0.412, 0.0]"] ;
369 -> 387 ;
388 [label="fs1a6a <= 3.0\nentropy = 0.0\nsamples = 2\nvalue = [0.0, 0.825, 0.0]"] ;
368 -> 388 ;
389 [label="entropy = 0.0\nsamples = 1\nvalue = [0.0, 0.412, 0.0]"] ;
388 -> 389 ;
390 [label="entropy = 0.0\nsamples = 1\nvalue = [0.0, 0.412, 0.0]"] ;
388 -> 390 ;
391 [label="fs1e7 <= 1.5\nentropy = 0.0\nsamples = 2\nvalue = [0.0, 0.825, 0.0]"] ;
367 -> 391 ;
392 [label="entropy = 0.0\nsamples = 1\nvalue = [0.0, 0.412, 0.0]"] ;
391 -> 392 ;
393 [label="entropy = 0.0\nsamples = 1\nvalue = [0.0, 0.412, 0.0]"] ;
391 -> 393 ;
394 [label="fs1ct7y1 <= 97.5\nentropy = 0.993\nsamples = 16\nvalue = [7.06, 5.772, 0.0]"] ;
366 -> 394 ;
395 [label="fs1d1z <= 1.5\nentropy = 0.308\nsamples = 3\nvalue = [7.06, 0.412, 0.0]"] ;
394 -> 395 ;
396 [label="entropy = 0.0\nsamples = 1\nvalue = [0.0, 0.412, 0.0]"] ;
395 -> 396 ;
397 [label="entropy = 0.0\nsamples = 2\nvalue = [7.06, 0.0, 0.0]"] ;
395 -> 397 ;
398 [label="entropy = -0.0\nsamples = 13\nvalue = [0.0, 5.36, 0.0]"] ;
394 -> 398 ;
399 [label="fs1d1a2 <= 1.5\nentropy = 0.0\nsamples = 13\nvalue = [0.0, 5.36, 0.0]"] ;
361 -> 399 ;
400 [label="entropy = 0.0\nsamples = 11\nvalue = [0.0, 4.535, 0.0]"] ;
399 -> 400 ;
401 [label="entropy = 0.0\nsamples = 2\nvalue = [0.0, 0.825, 0.0]"] ;
399 -> 401 ;
402 [label="entropy = 0.0\nsamples = 17\nvalue = [0.0, 7.009, 0.0]"] ;
360 -> 402 ;
403 [label="fs1a2b <= 2.5\nentropy = 1.229\nsamples = 127\nvalue = [10.59, 40.815, 85.867]"] ;
331 -> 403 ;
404 [label="fs1a1 <= 2.5\nentropy = 0.876\nsamples = 108\nvalue = [0.0, 34.631, 82.432]"] ;
403 -> 404 ;
405 [label="entropy = 0.0\nsamples = 16\nvalue = [0.0, 6.596, 0.0]"] ;
404 -> 405 ;
406 [label="age <= 50.5\nentropy = 0.817\nsamples = 92\nvalue = [0.0, 28.035, 82.432]"] ;
404 -> 406 ;
407 [label="entropy = 0.0\nsamples = 12\nvalue = [0.0, 4.947, 0.0]"] ;
406 -> 407 ;
408 [label="fs1d1a2 <= 3.5\nentropy = 0.758\nsamples = 80\nvalue = [0.0, 23.087, 82.432]"] ;
406 -> 408 ;
409 [label="fs1ct7z1 <= 127.5\nentropy = 0.722\nsamples = 74\nvalue = [0.0, 20.614, 82.432]"] ;
408 -> 409 ;
410 [label="fs1ct4a <= 1.5\nentropy = 0.54\nsamples = 37\nvalue = [0.0, 8.245, 58.39]"] ;
409 -> 410 ;
411 [label="fs1e3 <= 2.5\nentropy = 0.149\nsamples = 13\nvalue = [0.0, 0.825, 37.782]"] ;
410 -> 411 ;
412 [label="age <= 75.5\nentropy = 0.086\nsamples = 12\nvalue = [0.0, 0.412, 37.782]"] ;
411 -> 412 ;
413 [label="entropy = 0.0\nsamples = 11\nvalue = [0.0, 0.0, 37.782]"] ;
412 -> 413 ;
414 [label="entropy = 0.0\nsamples = 1\nvalue = [0.0, 0.412, 0.0]"] ;
412 -> 414 ;
415 [label="entropy = 0.0\nsamples = 1\nvalue = [0.0, 0.412, 0.0]"] ;
411 -> 415 ;
416 [label="fs1b5 <= 1.5\nentropy = 0.834\nsamples = 24\nvalue = [0.0, 7.421, 20.608]"] ;
410 -> 416 ;
417 [label="fs1a1 <= 3.5\nentropy = 0.981\nsamples = 21\nvalue = [0.0, 7.421, 10.304]"] ;
416 -> 417 ;
418 [label="fs1d1z <= 1.5\nentropy = 0.834\nsamples = 12\nvalue = [0.0, 3.71, 10.304]"] ;
417 -> 418 ;
419 [label="entropy = 0.0\nsamples = 5\nvalue = [0.0, 2.061, 0.0]"] ;
418 -> 419 ;
420 [label="fs1a7 <= 2.5\nentropy = 0.579\nsamples = 7\nvalue = [0.0, 1.649, 10.304]"] ;
418 -> 420 ;
421 [label="entropy = 0.0\nsamples = 3\nvalue = [0.0, 1.237, 0.0]"] ;
420 -> 421 ;
422 [label="fs1e5 <= 1.5\nentropy = 0.235\nsamples = 4\nvalue = [0.0, 0.412, 10.304]"] ;
420 -> 422 ;
423 [label="entropy = 0.0\nsamples = 3\nvalue = [0.0, 0.0, 10.304]"] ;
422 -> 423 ;
424 [label="entropy = -0.0\nsamples = 1\nvalue = [0.0, 0.412, 0.0]"] ;
422 -> 424 ;
425 [label="entropy = -0.0\nsamples = 9\nvalue = [0.0, 3.71, 0.0]"] ;
417 -> 425 ;
426 [label="entropy = -0.0\nsamples = 3\nvalue = [0.0, 0.0, 10.304]"] ;
416 -> 426 ;
427 [label="fs1a7 <= 4.5\nentropy = 0.925\nsamples = 37\nvalue = [0.0, 12.368, 24.043]"] ;
409 -> 427 ;
428 [label="fs1e3 <= 2.5\nentropy = 0.859\nsamples = 30\nvalue = [0.0, 9.482, 24.043]"] ;
427 -> 428 ;
429 [label="fs1b9 <= 1.5\nentropy = 0.788\nsamples = 25\nvalue = [0.0, 7.421, 24.043]"] ;
428 -> 429 ;
430 [label="fs1a6c <= 3.5\nentropy = 0.954\nsamples = 18\nvalue = [0.0, 6.184, 10.304]"] ;
429 -> 430 ;
431 [label="fs1a5 <= 3.5\nentropy = 0.65\nsamples = 8\nvalue = [0.0, 2.061, 10.304]"] ;
430 -> 431 ;
432 [label="fs1e1 <= 1.5\nentropy = 0.235\nsamples = 4\nvalue = [0.0, 0.412, 10.304]"] ;
431 -> 432 ;
433 [label="entropy = 0.0\nsamples = 1\nvalue = [0.0, 0.412, 0.0]"] ;
432 -> 433 ;
434 [label="entropy = 0.0\nsamples = 3\nvalue = [0.0, 0.0, 10.304]"] ;
432 -> 434 ;
435 [label="entropy = -0.0\nsamples = 4\nvalue = [0.0, 1.649, 0.0]"] ;
431 -> 435 ;
436 [label="entropy = 0.0\nsamples = 10\nvalue = [0.0, 4.123, 0.0]"] ;
430 -> 436 ;
437 [label="age <= 65.0\nentropy = 0.411\nsamples = 7\nvalue = [0.0, 1.237, 13.739]"] ;
429 -> 437 ;
438 [label="fs1e7 <= 1.5\nentropy = 0.19\nsamples = 5\nvalue = [0.0, 0.412, 13.739]"] ;
437 -> 438 ;
439 [label="entropy = 0.0\nsamples = 4\nvalue = [0.0, 0.0, 13.739]"] ;
438 -> 439 ;
440 [label="entropy = -0.0\nsamples = 1\nvalue = [0.0, 0.412, 0.0]"] ;
438 -> 440 ;
441 [label="entropy = -0.0\nsamples = 2\nvalue = [0.0, 0.825, 0.0]"] ;
437 -> 441 ;
442 [label="fs1a2a <= 2.5\nentropy = 0.0\nsamples = 5\nvalue = [0.0, 2.061, 0.0]"] ;
428 -> 442 ;
443 [label="entropy = 0.0\nsamples = 3\nvalue = [0.0, 1.237, 0.0]"] ;
442 -> 443 ;
444 [label="entropy = 0.0\nsamples = 2\nvalue = [0.0, 0.825, 0.0]"] ;
442 -> 444 ;
445 [label="fs1a6c <= 3.5\nentropy = 0.0\nsamples = 7\nvalue = [0.0, 2.886, 0.0]"] ;
427 -> 445 ;
446 [label="entropy = 0.0\nsamples = 2\nvalue = [0.0, 0.825, 0.0]"] ;
445 -> 446 ;
447 [label="entropy = 0.0\nsamples = 5\nvalue = [0.0, 2.061, 0.0]"] ;
445 -> 447 ;
448 [label="entropy = 0.0\nsamples = 6\nvalue = [0.0, 2.474, 0.0]"] ;
408 -> 448 ;
449 [label="fs1a1 <= 4.5\nentropy = 1.446\nsamples = 19\nvalue = [10.59, 6.184, 3.435]"] ;
403 -> 449 ;
450 [label="fs1ct6z1 <= 4.969\nentropy = 0.95\nsamples = 18\nvalue = [10.59, 6.184, 0.0]"] ;
449 -> 450 ;
451 [label="entropy = 0.0\nsamples = 7\nvalue = [0.0, 2.886, 0.0]"] ;
450 -> 451 ;
452 [label="fs1a1 <= 2.5\nentropy = 0.791\nsamples = 11\nvalue = [10.59, 3.298, 0.0]"] ;
450 -> 452 ;
453 [label="entropy = 0.0\nsamples = 2\nvalue = [7.06, 0.0, 0.0]"] ;
452 -> 453 ;
454 [label="fs1d1a1 <= 3.5\nentropy = 0.999\nsamples = 9\nvalue = [3.53, 3.298, 0.0]"] ;
452 -> 454 ;
455 [label="entropy = 0.0\nsamples = 8\nvalue = [0.0, 3.298, 0.0]"] ;
454 -> 455 ;
456 [label="entropy = 0.0\nsamples = 1\nvalue = [3.53, 0.0, 0.0]"] ;
454 -> 456 ;
457 [label="entropy = -0.0\nsamples = 1\nvalue = [0.0, 0.0, 3.435]"] ;
449 -> 457 ;
458 [label="fs1a2a <= 2.5\nentropy = 1.053\nsamples = 482\nvalue = [17.65, 152.541, 367.511]"] ;
330 -> 458 ;
459 [label="fs1e4 <= 1.5\nentropy = 0.954\nsamples = 355\nvalue = [14.12, 103.481, 343.468]"] ;
458 -> 459 ;
460 [label="fs1ct7z1 <= 130.5\nentropy = 1.231\nsamples = 189\nvalue = [14.12, 61.841, 120.214]"] ;
459 -> 460 ;
461 [label="fs1ct5b <= 1.5\nentropy = 1.071\nsamples = 153\nvalue = [7.06, 47.824, 120.214]"] ;
460 -> 461 ;
462 [label="age <= 52.0\nentropy = 0.682\nsamples = 71\nvalue = [0.0, 18.965, 85.867]"] ;
461 -> 462 ;
463 [label="entropy = 0.0\nsamples = 10\nvalue = [0.0, 4.123, 0.0]"] ;
462 -> 463 ;
464 [label="fs1b2 <= 1.5\nentropy = 0.603\nsamples = 61\nvalue = [0.0, 14.842, 85.867]"] ;
462 -> 464 ;
465 [label="fs1a6c <= 4.5\nentropy = 0.718\nsamples = 52\nvalue = [0.0, 14.43, 58.39]"] ;
464 -> 465 ;
466 [label="fs1d2y <= 2.5\nentropy = 0.669\nsamples = 47\nvalue = [0.0, 12.368, 58.39]"] ;
465 -> 466 ;
467 [label="fs1b9 <= 1.5\nentropy = 0.635\nsamples = 44\nvalue = [0.0, 11.131, 58.39]"] ;
466 -> 467 ;
468 [label="fs1a7 <= 1.5\nentropy = 0.735\nsamples = 38\nvalue = [0.0, 10.719, 41.216]"] ;
467 -> 468 ;
469 [label="entropy = 0.0\nsamples = 4\nvalue = [0.0, 1.649, 0.0]"] ;
468 -> 469 ;
470 [label="age <= 70.0\nentropy = 0.681\nsamples = 34\nvalue = [0.0, 9.07, 41.216]"] ;
468 -> 470 ;
471 [label="fs1a6a <= 1.5\nentropy = 0.458\nsamples = 17\nvalue = [0.0, 3.298, 30.912]"] ;
470 -> 471 ;
472 [label="entropy = 0.0\nsamples = 3\nvalue = [0.0, 1.237, 0.0]"] ;
471 -> 472 ;
473 [label="fs1d3 <= 1.5\nentropy = 0.337\nsamples = 14\nvalue = [0.0, 2.061, 30.912]"] ;
471 -> 473 ;
474 [label="fs1ct7z1 <= 117.5\nentropy = 0.289\nsamples = 13\nvalue = [0.0, 1.649, 30.912]"] ;
473 -> 474 ;
475 [label="entropy = 0.0\nsamples = 4\nvalue = [0.0, 0.0, 13.739]"] ;
474 -> 475 ;
476 [label="fs1c7 <= 3.5\nentropy = 0.428\nsamples = 9\nvalue = [0.0, 1.649, 17.173]"] ;
474 -> 476 ;
477 [label="fs1a1 <= 2.5\nentropy = 0.268\nsamples = 7\nvalue = [0.0, 0.825, 17.173]"] ;
476 -> 477 ;
478 [label="entropy = 0.0\nsamples = 1\nvalue = [0.0, 0.412, 0.0]"] ;
477 -> 478 ;
479 [label="fs1a2b <= 1.5\nentropy = 0.16\nsamples = 6\nvalue = [0.0, 0.412, 17.173]"] ;
477 -> 479 ;
480 [label="entropy = 0.0\nsamples = 4\nvalue = [0.0, 0.0, 13.739]"] ;
479 -> 480 ;
481 [label="fs1ct7z1 <= 125.0\nentropy = 0.491\nsamples = 2\nvalue = [0.0, 0.412, 3.435]"] ;
479 -> 481 ;
482 [label="entropy = 0.0\nsamples = 1\nvalue = [0.0, 0.412, 0.0]"] ;
481 -> 482 ;
483 [label="entropy = 0.0\nsamples = 1\nvalue = [0.0, 0.0, 3.435]"] ;
481 -> 483 ;
484 [label="fs1e1 <= 1.5\nentropy = 0.0\nsamples = 2\nvalue = [0.0, 0.825, 0.0]"] ;
476 -> 484 ;
485 [label="entropy = 0.0\nsamples = 1\nvalue = [0.0, 0.412, 0.0]"] ;
484 -> 485 ;
486 [label="entropy = 0.0\nsamples = 1\nvalue = [0.0, 0.412, 0.0]"] ;
484 -> 486 ;
487 [label="entropy = 0.0\nsamples = 1\nvalue = [0.0, 0.412, 0.0]"] ;
473 -> 487 ;
488 [label="fs1c7 <= 2.5\nentropy = 0.942\nsamples = 17\nvalue = [0.0, 5.772, 10.304]"] ;
470 -> 488 ;
489 [label="fs1a5 <= 3.5\nentropy = 0.758\nsamples = 10\nvalue = [0.0, 2.886, 10.304]"] ;
488 -> 489 ;
490 [label="fs1a3a <= 1.5\nentropy = 0.579\nsamples = 7\nvalue = [0.0, 1.649, 10.304]"] ;
489 -> 490 ;
491 [label="entropy = 0.0\nsamples = 2\nvalue = [0.0, 0.825, 0.0]"] ;
490 -> 491 ;
492 [label="fs1a7 <= 3.5\nentropy = 0.381\nsamples = 5\nvalue = [0.0, 0.825, 10.304]"] ;
490 -> 492 ;
493 [label="entropy = 0.0\nsamples = 3\nvalue = [0.0, 0.0, 10.304]"] ;
492 -> 493 ;
494 [label="entropy = -0.0\nsamples = 2\nvalue = [0.0, 0.825, 0.0]"] ;
492 -> 494 ;
495 [label="entropy = -0.0\nsamples = 3\nvalue = [0.0, 1.237, 0.0]"] ;
489 -> 495 ;
496 [label="entropy = -0.0\nsamples = 7\nvalue = [0.0, 2.886, 0.0]"] ;
488 -> 496 ;
497 [label="fs1a3a <= 1.5\nentropy = 0.16\nsamples = 6\nvalue = [0.0, 0.412, 17.173]"] ;
467 -> 497 ;
498 [label="entropy = 0.0\nsamples = 1\nvalue = [0.0, 0.412, 0.0]"] ;
497 -> 498 ;
499 [label="entropy = 0.0\nsamples = 5\nvalue = [0.0, 0.0, 17.173]"] ;
497 -> 499 ;
500 [label="fs1d1y <= 2.5\nentropy = 0.0\nsamples = 3\nvalue = [0.0, 1.237, 0.0]"] ;
466 -> 500 ;
501 [label="entropy = 0.0\nsamples = 2\nvalue = [0.0, 0.825, 0.0]"] ;
500 -> 501 ;
502 [label="entropy = 0.0\nsamples = 1\nvalue = [0.0, 0.412, 0.0]"] ;
500 -> 502 ;
503 [label="fs1ct6z4 <= 4.5\nentropy = 0.0\nsamples = 5\nvalue = [0.0, 2.061, 0.0]"] ;
465 -> 503 ;
504 [label="entropy = 0.0\nsamples = 1\nvalue = [0.0, 0.412, 0.0]"] ;
503 -> 504 ;
505 [label="entropy = 0.0\nsamples = 4\nvalue = [0.0, 1.649, 0.0]"] ;
503 -> 505 ;
506 [label="fs1a1 <= 2.5\nentropy = 0.111\nsamples = 9\nvalue = [0.0, 0.412, 27.477]"] ;
464 -> 506 ;
507 [label="entropy = 0.0\nsamples = 1\nvalue = [0.0, 0.412, 0.0]"] ;
506 -> 507 ;
508 [label="entropy = 0.0\nsamples = 8\nvalue = [0.0, 0.0, 27.477]"] ;
506 -> 508 ;
509 [label="fs1e2 <= 2.5\nentropy = 1.365\nsamples = 82\nvalue = [7.06, 28.859, 34.347]"] ;
461 -> 509 ;
510 [label="fs1c2b <= 1.5\nentropy = 1.388\nsamples = 72\nvalue = [7.06, 27.21, 13.739]"] ;
509 -> 510 ;
511 [label="fs1a6b <= 2.5\nentropy = 0.887\nsamples = 41\nvalue = [7.06, 16.079, 0.0]"] ;
510 -> 511 ;
512 [label="fs1e5 <= 1.5\nentropy = 0.0\nsamples = 27\nvalue = [0.0, 11.131, 0.0]"] ;
511 -> 512 ;
513 [label="entropy = 0.0\nsamples = 18\nvalue = [0.0, 7.421, 0.0]"] ;
512 -> 513 ;
514 [label="entropy = 0.0\nsamples = 9\nvalue = [0.0, 3.71, 0.0]"] ;
512 -> 514 ;
515 [label="age <= 68.5\nentropy = 0.978\nsamples = 14\nvalue = [7.06, 4.947, 0.0]"] ;
511 -> 515 ;
516 [label="fs1a6b <= 3.5\nentropy = 0.7\nsamples = 6\nvalue = [7.06, 1.649, 0.0]"] ;
515 -> 516 ;
517 [label="fs1a3a <= 1.5\nentropy = 0.308\nsamples = 3\nvalue = [7.06, 0.412, 0.0]"] ;
516 -> 517 ;
518 [label="entropy = 0.0\nsamples = 1\nvalue = [0.0, 0.412, 0.0]"] ;
517 -> 518 ;
519 [label="entropy = 0.0\nsamples = 2\nvalue = [7.06, 0.0, 0.0]"] ;
517 -> 519 ;
520 [label="entropy = -0.0\nsamples = 3\nvalue = [0.0, 1.237, 0.0]"] ;
516 -> 520 ;
521 [label="entropy = -0.0\nsamples = 8\nvalue = [0.0, 3.298, 0.0]"] ;
515 -> 521 ;
522 [label="fs1ct7z1 <= 123.0\nentropy = 0.992\nsamples = 31\nvalue = [0.0, 11.131, 13.739]"] ;
510 -> 522 ;
523 [label="entropy = 0.0\nsamples = 15\nvalue = [0.0, 6.184, 0.0]"] ;
522 -> 523 ;
524 [label="fs1a7 <= 3.5\nentropy = 0.834\nsamples = 16\nvalue = [0.0, 4.947, 13.739]"] ;
522 -> 524 ;
525 [label="fs1c1y <= 1.5\nentropy = 0.491\nsamples = 8\nvalue = [0.0, 1.649, 13.739]"] ;
524 -> 525 ;
526 [label="entropy = 0.0\nsamples = 4\nvalue = [0.0, 0.0, 13.739]"] ;
525 -> 526 ;
527 [label="entropy = -0.0\nsamples = 4\nvalue = [0.0, 1.649, 0.0]"] ;
525 -> 527 ;
528 [label="entropy = 0.0\nsamples = 8\nvalue = [0.0, 3.298, 0.0]"] ;
524 -> 528 ;
529 [label="fs1c8 <= 2.0\nentropy = 0.381\nsamples = 10\nvalue = [0.0, 1.649, 20.608]"] ;
509 -> 529 ;
530 [label="entropy = 0.0\nsamples = 3\nvalue = [0.0, 1.237, 0.0]"] ;
529 -> 530 ;
531 [label="fs1a1 <= 2.5\nentropy = 0.139\nsamples = 7\nvalue = [0.0, 0.412, 20.608]"] ;
529 -> 531 ;
532 [label="entropy = 0.0\nsamples = 1\nvalue = [0.0, 0.412, 0.0]"] ;
531 -> 532 ;
533 [label="entropy = 0.0\nsamples = 6\nvalue = [0.0, 0.0, 20.608]"] ;
531 -> 533 ;
534 [label="fs1a2b <= 2.5\nentropy = 0.92\nsamples = 36\nvalue = [7.06, 14.017, 0.0]"] ;
460 -> 534 ;
535 [label="fs1a2b <= 1.5\nentropy = 0.0\nsamples = 34\nvalue = [0.0, 14.017, 0.0]"] ;
534 -> 535 ;
536 [label="entropy = 0.0\nsamples = 10\nvalue = [0.0, 4.123, 0.0]"] ;
535 -> 536 ;
537 [label="entropy = 0.0\nsamples = 24\nvalue = [0.0, 9.895, 0.0]"] ;
535 -> 537 ;
538 [label="entropy = -0.0\nsamples = 2\nvalue = [7.06, 0.0, 0.0]"] ;
534 -> 538 ;
539 [label="fs1a2b <= 1.5\nentropy = 0.628\nsamples = 166\nvalue = [0.0, 41.64, 223.255]"] ;
459 -> 539 ;
540 [label="fs1c2b <= 1.5\nentropy = 0.369\nsamples = 67\nvalue = [0.0, 10.719, 140.822]"] ;
539 -> 540 ;
541 [label="fs1d1y <= 1.5\nentropy = 0.284\nsamples = 53\nvalue = [0.0, 6.596, 127.083]"] ;
540 -> 541 ;
542 [label="entropy = 0.0\nsamples = 2\nvalue = [0.0, 0.825, 0.0]"] ;
541 -> 542 ;
543 [label="fs1a2a <= 1.5\nentropy = 0.258\nsamples = 51\nvalue = [0.0, 5.772, 127.083]"] ;
541 -> 543 ;
544 [label="age <= 66.5\nentropy = 0.097\nsamples = 21\nvalue = [0.0, 0.825, 65.259]"] ;
543 -> 544 ;
545 [label="fs1a4b <= 1.5\nentropy = 0.235\nsamples = 8\nvalue = [0.0, 0.825, 20.608]"] ;
544 -> 545 ;
546 [label="entropy = 0.0\nsamples = 1\nvalue = [0.0, 0.412, 0.0]"] ;
545 -> 546 ;
547 [label="fs1e5 <= 1.5\nentropy = 0.139\nsamples = 7\nvalue = [0.0, 0.412, 20.608]"] ;
545 -> 547 ;
548 [label="fs1c8 <= 1.5\nentropy = 0.491\nsamples = 2\nvalue = [0.0, 0.412, 3.435]"] ;
547 -> 548 ;
549 [label="entropy = 0.0\nsamples = 1\nvalue = [0.0, 0.0, 3.435]"] ;
548 -> 549 ;
550 [label="entropy = 0.0\nsamples = 1\nvalue = [0.0, 0.412, 0.0]"] ;
548 -> 550 ;
551 [label="entropy = 0.0\nsamples = 5\nvalue = [0.0, 0.0, 17.173]"] ;
547 -> 551 ;
552 [label="entropy = 0.0\nsamples = 13\nvalue = [0.0, 0.0, 44.651]"] ;
544 -> 552 ;
553 [label="fs1d1z <= 1.5\nentropy = 0.381\nsamples = 30\nvalue = [0.0, 4.947, 61.824]"] ;
543 -> 553 ;
554 [label="fs1a1 <= 1.5\nentropy = 0.954\nsamples = 6\nvalue = [0.0, 2.061, 3.435]"] ;
553 -> 554 ;
555 [label="entropy = 0.0\nsamples = 1\nvalue = [0.0, 0.0, 3.435]"] ;
554 -> 555 ;
556 [label="entropy = 0.0\nsamples = 5\nvalue = [0.0, 2.061, 0.0]"] ;
554 -> 556 ;
557 [label="fs1a6c <= 1.5\nentropy = 0.274\nsamples = 24\nvalue = [0.0, 2.886, 58.39]"] ;
553 -> 557 ;
558 [label="entropy = 0.0\nsamples = 1\nvalue = [0.0, 0.412, 0.0]"] ;
557 -> 558 ;
559 [label="age <= 67.0\nentropy = 0.245\nsamples = 23\nvalue = [0.0, 2.474, 58.39]"] ;
557 -> 559 ;
560 [label="entropy = 0.0\nsamples = 10\nvalue = [0.0, 0.0, 34.347]"] ;
559 -> 560 ;
561 [label="fs1ct6y2 <= 4.5\nentropy = 0.447\nsamples = 13\nvalue = [0.0, 2.474, 24.043]"] ;
559 -> 561 ;
562 [label="entropy = 0.0\nsamples = 3\nvalue = [0.0, 1.237, 0.0]"] ;
561 -> 562 ;
563 [label="fs1b8 <= 1.5\nentropy = 0.282\nsamples = 10\nvalue = [0.0, 1.237, 24.043]"] ;
561 -> 563 ;
564 [label="fs1ct7z1 <= 95.0\nentropy = 0.123\nsamples = 8\nvalue = [0.0, 0.412, 24.043]"] ;
563 -> 564 ;
565 [label="entropy = 0.0\nsamples = 1\nvalue = [0.0, 0.412, 0.0]"] ;
564 -> 565 ;
566 [label="entropy = 0.0\nsamples = 7\nvalue = [0.0, 0.0, 24.043]"] ;
564 -> 566 ;
567 [label="fs1e8 <= 1.5\nentropy = 0.0\nsamples = 2\nvalue = [0.0, 0.825, 0.0]"] ;
563 -> 567 ;
568 [label="entropy = 0.0\nsamples = 1\nvalue = [0.0, 0.412, 0.0]"] ;
567 -> 568 ;
569 [label="entropy = 0.0\nsamples = 1\nvalue = [0.0, 0.412, 0.0]"] ;
567 -> 569 ;
570 [label="fs1ct4b <= 1.5\nentropy = 0.779\nsamples = 14\nvalue = [0.0, 4.123, 13.739]"] ;
540 -> 570 ;
571 [label="entropy = 0.0\nsamples = 6\nvalue = [0.0, 2.474, 0.0]"] ;
570 -> 571 ;
572 [label="fs1a6a <= 1.5\nentropy = 0.491\nsamples = 8\nvalue = [0.0, 1.649, 13.739]"] ;
570 -> 572 ;
573 [label="entropy = 0.0\nsamples = 2\nvalue = [0.0, 0.825, 0.0]"] ;
572 -> 573 ;
574 [label="fs1c7 <= 3.5\nentropy = 0.314\nsamples = 6\nvalue = [0.0, 0.825, 13.739]"] ;
572 -> 574 ;
575 [label="fs1a4b <= 1.5\nentropy = 0.19\nsamples = 5\nvalue = [0.0, 0.412, 13.739]"] ;
574 -> 575 ;
576 [label="fs1c7 <= 1.5\nentropy = 0.491\nsamples = 2\nvalue = [0.0, 0.412, 3.435]"] ;
575 -> 576 ;
577 [label="entropy = 0.0\nsamples = 1\nvalue = [0.0, 0.412, 0.0]"] ;
576 -> 577 ;
578 [label="entropy = 0.0\nsamples = 1\nvalue = [0.0, 0.0, 3.435]"] ;
576 -> 578 ;
579 [label="entropy = -0.0\nsamples = 3\nvalue = [0.0, 0.0, 10.304]"] ;
575 -> 579 ;
580 [label="entropy = -0.0\nsamples = 1\nvalue = [0.0, 0.412, 0.0]"] ;
574 -> 580 ;
581 [label="fs1e1 <= 1.5\nentropy = 0.845\nsamples = 99\nvalue = [0.0, 30.921, 82.432]"] ;
539 -> 581 ;
582 [label="fs1d1a2 <= 1.5\nentropy = 0.992\nsamples = 45\nvalue = [0.0, 16.903, 13.739]"] ;
581 -> 582 ;
583 [label="entropy = 0.0\nsamples = 22\nvalue = [0.0, 9.07, 0.0]"] ;
582 -> 583 ;
584 [label="fs1a5 <= 3.5\nentropy = 0.945\nsamples = 23\nvalue = [0.0, 7.833, 13.739]"] ;
582 -> 584 ;
585 [label="fs1a7 <= 2.5\nentropy = 0.779\nsamples = 14\nvalue = [0.0, 4.123, 13.739]"] ;
584 -> 585 ;
586 [label="entropy = 0.0\nsamples = 4\nvalue = [0.0, 1.649, 0.0]"] ;
585 -> 586 ;
587 [label="fs1e9 <= 1.5\nentropy = 0.616\nsamples = 10\nvalue = [0.0, 2.474, 13.739]"] ;
585 -> 587 ;
588 [label="fs1d1z <= 1.5\nentropy = 0.981\nsamples = 7\nvalue = [0.0, 2.474, 3.435]"] ;
587 -> 588 ;
589 [label="fs1b9 <= 1.5\nentropy = 0.491\nsamples = 2\nvalue = [0.0, 0.412, 3.435]"] ;
588 -> 589 ;
590 [label="entropy = 0.0\nsamples = 1\nvalue = [0.0, 0.412, 0.0]"] ;
589 -> 590 ;
591 [label="entropy = 0.0\nsamples = 1\nvalue = [0.0, 0.0, 3.435]"] ;
589 -> 591 ;
592 [label="entropy = 0.0\nsamples = 5\nvalue = [0.0, 2.061, 0.0]"] ;
588 -> 592 ;
593 [label="entropy = 0.0\nsamples = 3\nvalue = [0.0, 0.0, 10.304]"] ;
587 -> 593 ;
594 [label="fs1e9 <= 1.5\nentropy = 0.0\nsamples = 9\nvalue = [0.0, 3.71, 0.0]"] ;
584 -> 594 ;
595 [label="entropy = 0.0\nsamples = 7\nvalue = [0.0, 2.886, 0.0]"] ;
594 -> 595 ;
596 [label="entropy = 0.0\nsamples = 2\nvalue = [0.0, 0.825, 0.0]"] ;
594 -> 596 ;
597 [label="fs1a6a <= 1.5\nentropy = 0.656\nsamples = 54\nvalue = [0.0, 14.017, 68.694]"] ;
581 -> 597 ;
598 [label="entropy = 0.0\nsamples = 9\nvalue = [0.0, 3.71, 0.0]"] ;
597 -> 598 ;
599 [label="fs1e2 <= 1.5\nentropy = 0.559\nsamples = 45\nvalue = [0.0, 10.307, 68.694]"] ;
597 -> 599 ;
600 [label="fs1d1z <= 1.5\nentropy = 0.788\nsamples = 25\nvalue = [0.0, 7.421, 24.043]"] ;
599 -> 600 ;
601 [label="entropy = 0.0\nsamples = 4\nvalue = [0.0, 1.649, 0.0]"] ;
600 -> 601 ;
602 [label="fs1b5 <= 2.5\nentropy = 0.709\nsamples = 21\nvalue = [0.0, 5.772, 24.043]"] ;
600 -> 602 ;
603 [label="fs1a6b <= 2.5\nentropy = 0.814\nsamples = 19\nvalue = [0.0, 5.772, 17.173]"] ;
602 -> 603 ;
604 [label="fs1ct4a <= 1.5\nentropy = 0.546\nsamples = 11\nvalue = [0.0, 2.474, 17.173]"] ;
603 -> 604 ;
605 [label="fs1ct7y1 <= 124.5\nentropy = 0.19\nsamples = 5\nvalue = [0.0, 0.412, 13.739]"] ;
604 -> 605 ;
606 [label="fs1c309 <= 1.5\nentropy = 0.491\nsamples = 2\nvalue = [0.0, 0.412, 3.435]"] ;
605 -> 606 ;
607 [label="entropy = 0.0\nsamples = 1\nvalue = [0.0, 0.412, 0.0]"] ;
606 -> 607 ;
608 [label="entropy = 0.0\nsamples = 1\nvalue = [0.0, 0.0, 3.435]"] ;
606 -> 608 ;
609 [label="entropy = -0.0\nsamples = 3\nvalue = [0.0, 0.0, 10.304]"] ;
605 -> 609 ;
610 [label="fs1c7 <= 1.5\nentropy = 0.954\nsamples = 6\nvalue = [0.0, 2.061, 3.435]"] ;
604 -> 610 ;
611 [label="fs1ct7y1 <= 132.5\nentropy = 0.491\nsamples = 2\nvalue = [0.0, 0.412, 3.435]"] ;
610 -> 611 ;
612 [label="entropy = 0.0\nsamples = 1\nvalue = [0.0, 0.412, 0.0]"] ;
611 -> 612 ;
613 [label="entropy = 0.0\nsamples = 1\nvalue = [0.0, 0.0, 3.435]"] ;
611 -> 613 ;
614 [label="fs1d1a2 <= 1.5\nentropy = 0.0\nsamples = 4\nvalue = [0.0, 1.649, 0.0]"] ;
610 -> 614 ;
615 [label="entropy = 0.0\nsamples = 3\nvalue = [0.0, 1.237, 0.0]"] ;
614 -> 615 ;
616 [label="entropy = 0.0\nsamples = 1\nvalue = [0.0, 0.412, 0.0]"] ;
614 -> 616 ;
617 [label="fs1e9 <= 1.5\nentropy = 0.0\nsamples = 8\nvalue = [0.0, 3.298, 0.0]"] ;
603 -> 617 ;
618 [label="entropy = 0.0\nsamples = 4\nvalue = [0.0, 1.649, 0.0]"] ;
617 -> 618 ;
619 [label="entropy = 0.0\nsamples = 4\nvalue = [0.0, 1.649, 0.0]"] ;
617 -> 619 ;
620 [label="entropy = 0.0\nsamples = 2\nvalue = [0.0, 0.0, 6.869]"] ;
602 -> 620 ;
621 [label="fs1ct6y1 <= 4.5\nentropy = 0.33\nsamples = 20\nvalue = [0.0, 2.886, 44.651]"] ;
599 -> 621 ;
622 [label="entropy = 0.0\nsamples = 4\nvalue = [0.0, 1.649, 0.0]"] ;
621 -> 622 ;
623 [label="fs1c1y <= 2.5\nentropy = 0.179\nsamples = 16\nvalue = [0.0, 1.237, 44.651]"] ;
621 -> 623 ;
624 [label="fs1ct7y1 <= 50.0\nentropy = 0.075\nsamples = 14\nvalue = [0.0, 0.412, 44.651]"] ;
623 -> 624 ;
625 [label="entropy = 0.0\nsamples = 1\nvalue = [0.0, 0.412, 0.0]"] ;
624 -> 625 ;
626 [label="entropy = 0.0\nsamples = 13\nvalue = [0.0, 0.0, 44.651]"] ;
624 -> 626 ;
627 [label="fs1ct7z1 <= 125.0\nentropy = 0.0\nsamples = 2\nvalue = [0.0, 0.825, 0.0]"] ;
623 -> 627 ;
628 [label="entropy = 0.0\nsamples = 1\nvalue = [0.0, 0.412, 0.0]"] ;
627 -> 628 ;
629 [label="entropy = 0.0\nsamples = 1\nvalue = [0.0, 0.412, 0.0]"] ;
627 -> 629 ;
630 [label="fs1d1a2 <= 1.5\nentropy = 1.141\nsamples = 127\nvalue = [3.53, 49.061, 24.043]"] ;
458 -> 630 ;
631 [label="fs1a6c <= 4.5\nentropy = 0.538\nsamples = 62\nvalue = [3.53, 25.149, 0.0]"] ;
630 -> 631 ;
632 [label="fs1c1z <= 1.5\nentropy = 0.0\nsamples = 51\nvalue = [0.0, 21.026, 0.0]"] ;
631 -> 632 ;
633 [label="entropy = 0.0\nsamples = 33\nvalue = [0.0, 13.605, 0.0]"] ;
632 -> 633 ;
634 [label="entropy = 0.0\nsamples = 18\nvalue = [0.0, 7.421, 0.0]"] ;
632 -> 634 ;
635 [label="fs1ct4a <= 1.5\nentropy = 0.996\nsamples = 11\nvalue = [3.53, 4.123, 0.0]"] ;
631 -> 635 ;
636 [label="entropy = 0.0\nsamples = 1\nvalue = [3.53, 0.0, 0.0]"] ;
635 -> 636 ;
637 [label="entropy = 0.0\nsamples = 10\nvalue = [0.0, 4.123, 0.0]"] ;
635 -> 637 ;
638 [label="fs1ct5b <= 1.5\nentropy = 1.0\nsamples = 65\nvalue = [0.0, 23.912, 24.043]"] ;
630 -> 638 ;
639 [label="fs1d2z <= 2.5\nentropy = 0.938\nsamples = 39\nvalue = [0.0, 13.193, 24.043]"] ;
638 -> 639 ;
640 [label="fs1a7 <= 3.5\nentropy = 1.0\nsamples = 36\nvalue = [0.0, 13.193, 13.739]"] ;
639 -> 640 ;
641 [label="fs1a3a <= 1.5\nentropy = 0.909\nsamples = 20\nvalue = [0.0, 6.596, 13.739]"] ;
640 -> 641 ;
642 [label="fs1ct4b <= 1.5\nentropy = 0.381\nsamples = 5\nvalue = [0.0, 0.825, 10.304]"] ;
641 -> 642 ;
643 [label="entropy = 0.0\nsamples = 2\nvalue = [0.0, 0.825, 0.0]"] ;
642 -> 643 ;
644 [label="entropy = -0.0\nsamples = 3\nvalue = [0.0, 0.0, 10.304]"] ;
642 -> 644 ;
645 [label="fs1a1 <= 2.0\nentropy = 0.953\nsamples = 15\nvalue = [0.0, 5.772, 3.435]"] ;
641 -> 645 ;
646 [label="entropy = 0.0\nsamples = 1\nvalue = [0.0, 0.0, 3.435]"] ;
645 -> 646 ;
647 [label="entropy = -0.0\nsamples = 14\nvalue = [0.0, 5.772, 0.0]"] ;
645 -> 647 ;
648 [label="fs1c2b <= 1.5\nentropy = 0.0\nsamples = 16\nvalue = [0.0, 6.596, 0.0]"] ;
640 -> 648 ;
649 [label="entropy = 0.0\nsamples = 11\nvalue = [0.0, 4.535, 0.0]"] ;
648 -> 649 ;
650 [label="entropy = 0.0\nsamples = 5\nvalue = [0.0, 2.061, 0.0]"] ;
648 -> 650 ;
651 [label="entropy = -0.0\nsamples = 3\nvalue = [0.0, 0.0, 10.304]"] ;
639 -> 651 ;
652 [label="fs1c309 <= 1.5\nentropy = 0.0\nsamples = 26\nvalue = [0.0, 10.719, 0.0]"] ;
638 -> 652 ;
653 [label="entropy = 0.0\nsamples = 22\nvalue = [0.0, 9.07, 0.0]"] ;
652 -> 653 ;
654 [label="entropy = 0.0\nsamples = 4\nvalue = [0.0, 1.649, 0.0]"] ;
652 -> 654 ;
}